tree
version=v4
num_class=1
num_tree_per_iteration=1
label_index=0
max_feature_idx=39
objective=regression
feature_names=return_1d return_5d return_10d return_20d return_60d price_to_ma_5 price_to_ma_20 price_to_ma_60 volatility_5d volatility_10d volatility_20d volume_ratio_5 volume_ratio_20 momentum_5 momentum_10 momentum_20 range_5d range_20d spy_return_1d spy_return_5d spy_return_20d spy_volatility spy_trend beta rsi_14 macd macd_signal macd_diff bb_width bb_position atr_14 atr_ratio stoch_k stoch_d obv_ma_20 gap dist_52w_high dist_52w_low intraday_range price_accel
feature_infos=[-0.48819138938993573:0.45692338293716295] [-0.94380185706270303:0.64145302016696371] [-1.1219489846260418:0.91129318979738472] [-1.5792760629373961:1.2667352319728127] [-1.7564232032023743:1.7871191210682387] [0:1.4277180319033542] [0:1.8584128907688322] [0:3.2424016042186623] [0:0.37285145536168424] [0:0.25645689144988704] [0:0.19727933319839014] [0:4.4698650833933353] [0:12.261173113699144] [-0.61085445631812074:0.89923850722407728] [-0.67435550038421099:1.4875373121484528] [-0.79387573479956863:2.5492461611604527] [0:375.3199462890625] [0:692.2900390625] [-0.11588671192475024:0.086730949129873086] [-0.19807646309376153:0.16006040724502127] [-0.37087144923930992:0.20760390795832609] [0.0020069081809021617:0.059166610108309571] [-0.096419247643743544:0.11711170439579588] [-0.68980996136432626:1.0000000000000511] [0:99.999999999441286] [-126.76223923113594:102.40900190237471] [-106.2211603700063:93.512484466036398] [-44.86529242522073:41.256558842076373] [0:2.0627304579456984] [-0.52525595442382056:1.5396334155531273] [0:34.821824849077871] [0:3.2720280574853544] [-1.6750200162284138e-13:99.999999999893333] [0:99.999999998580066] [-2591083125:79698953570] [-0.38957642538676907:0.47918573074808368] [-0.9273316871020274:-1.27675647831893e-13] [-1.8279489033545815e-11:28.781992072921799] [0:0.5720858813936649] [-0.72240590880426259:0.56767262713002864]
tree_sizes=5947 5375 5877 5704 5276 5728 5944 5541 6052 5449 4723 5579 6035 6053 5759 5641 6129 6041 5677 5774 6040 6039 6075 6066 5751 5374 6069 5720 6059 5808 6078 6077 6019 6085 6218 6102 6138 6092 6107 6097 6065 6074 6066 6110 6118 6145 6151 6100 5718 6083 6238 6131 6276 6128 6091 6090 6094 6162 6090 6162 6080 6219 5165 5939 6032 6056 6110 6084 6160 6275 6118 6120 6167 6087 6091 6200 6133 6199 6173 6282 6126 6200 6184 6272 6205 6095 6202 6139 6153 6223 6193 6201 6217 6178 6261 6125 6139 6243 6140 6165 6198 6246 6327 6114 6130 4484 6076 6190 6079 5798 6092 6171 6157 6078 6239 6253 6268 6297 6213 6257 6069 6121 6253 6221 6256 6302 6230 6272 6156 6252 6139 6179 6109 6197 6147 6264 6278 6181 6290 6274 5874 6232 5611 6209 5810 6254 6090 6283 6228 5476 6092 6219 5810 4891 5279 6122 6089 6159 6124 6037 6109 5624 5948 6150 5752 6263 6157 6271 6227 5521 4911 6060 4768 5554 6133 6297 6130 6255 6242 6197 6087 6167 6147 6162 6062 6208 6202 4591 6120 6166 6230 6263 6242 6135 6236 6142 6275 6223 6081 6227 6111 6266

Tree=0
num_leaves=63
num_cat=0
split_feature=18 19 19 9 19 19 19 18 3 9 35 2 6 19 37 18 19 23 28 10 6 1 18 3 19 19 18 18 7 19 39 36 19 36 25 30 9 2 30 6 31 28 5 39 8 17 16 31 17 36 35 27 1 5 23 19 18 10 5 10 39 11
split_gain=5.10383 4.10417 2.52315 1.64654 3.36461 2.93607 1.88188 1.61541 2.38773 1.44284 1.2275 1.62738 0.936491 0.888138 0.758494 0.690331 5.49178 0.642224 0.63272 0.561311 0.531577 0.460352 0.715118 0.476742 0.447908 0.692974 0.698258 0.554886 0.527508 0.436775 0.431292 0.421425 0.360904 0.303533 0.284374 0.257697 0.255458 0.251352 0.231381 0.21232 0.209136 0.242133 0.205219 0.212534 0.183012 0.182882 0.17343 0.156837 0.196641 0.156352 0.152101 0.149568 0.143058 0.142032 0.140839 0.120373 0.114831 0.113197 0.112022 0.194205 0.10429 0.0712774
threshold=0.029532371738166942 -0.03310112660981937 -0.11224875915863823 0.064978084790520599 -0.019794589690435804 -0.11224875915863823 -0.054992174785637483 -0.044253167950790366 -0.1902906496215028 0.032610386463024277 0.032171505769736618 -0.06580303883786659 0.89637011397936306 0.019090635323374346 0.055844881906654494 -0.029406476274915508 0.016484455368623366 0.74398400709650858 0.25123801039155619 0.056057813951199853 0.78550128322665169 0.048353138909878988 -0.019541577911092432 0.063747504130300711 -0.019794589690435804 -0.037411189934718175 0.0092127823369104449 -0.019541577911092432 0.87702054080346326 -0.019447326525872447 -0.05285932340055647 -0.35930293465171498 -0.014709810277005311 -0.38405541000526233 -1.5970174870838318 6.4755328812204231 0.094304531337638581 0.0050811694062839101 10.95105184834823 0.94545984611781697 0.076919065724807903 0.39975466832516404 0.94806286707834364 -0.030322529914872932 0.052617296491094506 7.5599446486392745 14.140007019042971 0.13167825726563834 33.33466179529163 -0.17494009288817716 0.0089678268937202696 0.10212496528742555 -0.023434849161543526 1.0303088114260164 0.48630971587396848 0.019090635323374346 0.004189647808708989 0.059003933008060207 1.0507523662677924 0.037277585332788264 0.025166937013308344 1.0061074742053269
decision_type=2 2 2 2 2 2 2 2 2 2 2 2 2 2 2 2 2 2 2 2 2 2 2 2 2 2 2 2 2 2 2 2 2 2 2 2 2 2 2 2 2 2 2 2 2 2 2 2 2 2 2 2 2 2 2 2 2 2 2 2 2 2
left_child=3 2 -2 5 7 9 18 14 17 49 11 35 -4 52 -5 16 19 46 34 33 -19 22 -6 36 25 26 -17 32 -27 -29 38 -13 -26 -8 -7 -3 60 53 -11 -14 50 54 -36 -44 61 -25 -9 48 -47 -1 56 -43 -12 55 -42 -33 -24 -10 59 -39 -23 -20
right_child=1 10 12 4 21 6 15 8 57 30 13 31 39 -15 -16 24 -18 20 44 -21 -22 23 40 45 27 28 -28 29 -30 -31 -32 37 -34 -35 42 -37 -38 58 -40 -41 41 51 43 -45 -46 47 -48 -49 -50 -51 -52 -53 -54 -55 -56 -57 -58 -59 -60 -61 -62 -63
leaf_value=0.0014815064318710592 0.0024347963947517594 0.00016378311517624509 -0.0040220170073614041 0.00043218423081972353 0.0051443542049233355 0.0033642326720643785 0.0014440736584552091 0.0057575617883018262 0.0021902887468230828 -0.0015986670005535826 0.0050495484526770643 0.00056341519050600794 -0.0020079279116975465 0.0013157357059678885 0.0036653435154921422 0.00224493750106349 -0.0028774861459171732 0.0085967084573700496 0.0041311773593085575 0.0043516836842355661 0.0061243132479856695 0.0022682245917649475 0.0022763926150289417 0.0038419469985470764 0.0023946326647059273 0.0031926526791699601 0.0030640672025659555 0.0019559171651458897 0.0026804451518950673 0.0025183471767674108 0.0009225595439210886 0.0025841655938239694 0.0031683164406242081 0.0024437281907630799 0.0021246729288053137 -0.0018024485970739089 0.00064803281398661335 0.0022405790414912578 0.00016872495785965995 -0.00029678992677162775 0.0017818652568038361 0.0029890356893327321 0.0035622237899516976 0.0027922824906774085 0.0051508471588434697 0.0032793011125542555 0.0040627709553999842 0.0014228877629730114 0.0020642301690069376 0.0028949222414686284 0.0015018597029371923 0.0041257701663008472 0.0036374632398288071 0.00069197715596662338 0.0032271323191060469 0.001317468017386384 0.0032548010916985757 0.0033688064508446084 0.0017976801324210679 0.0034044613944634841 0.0012201150508992084 0.0033962048491902601
leaf_weight=112 149 154 153 102 122 1285 314 120 117 199 101 187 133 152 181 5668 189 125 266 128 246 328 319 109 748 1996 1120 1249 19902 251853 181 122 1921 2186 331 113 189 373 117 162 151 232 389 2034 110 265 118 100 216 186 147 205 221 135 100 140 162 185 190 196 121 265
leaf_count=112 149 154 153 102 122 1285 314 120 117 199 101 187 133 152 181 5668 189 125 266 128 246 328 319 109 748 1996 1120 1249 19902 251853 181 122 1921 2186 331 113 189 373 117 162 151 232 389 2034 110 265 118 100 216 186 147 205 221 135 100 140 162 185 190 196 121 265
internal_value=0.00252847 0.00122624 -0.000967788 0.00254106 0.00314869 0.00253283 0.0025378 0.00447964 0.00509464 0.000712299 0.00185634 0.00146058 -0.00209248 0.0031942 0.0025103 0.00252809 0.00206076 0.00617662 0.00313453 0.00241725 0.00696683 0.00257303 0.0029459 0.00217152 0.00253271 0.00264512 0.00238054 0.00252011 0.00272727 0.00251556 -0.000277544 0.00188877 0.00295037 0.00231693 0.00299446 -0.000680909 0.00157969 0.00210591 -0.000954729 -0.00107969 0.00273963 0.00310197 0.00282082 0.00291717 0.00401223 0.00271446 0.00493088 0.00250791 0.00272744 0.0023736 0.00234743 0.00352939 0.00409034 0.00149354 0.00236967 0.00191855 0.00259977 0.00290234 0.00243026 0.00263631 0.00197886 0.00377026
internal_weight=0 2681 597 296709 3960 292749 291954 1194 911 795 2084 1610 448 474 283 287274 2817 609 4680 2628 371 2766 1438 1328 284457 28686 6788 255771 21898 253102 497 1343 2669 2500 4039 267 638 1156 316 295 1316 688 2754 2423 641 690 238 581 481 298 628 437 322 397 251 262 481 302 759 569 449 531
internal_count=299390 2681 597 296709 3960 292749 291954 1194 911 795 2084 1610 448 474 283 287274 2817 609 4680 2628 371 2766 1438 1328 284457 28686 6788 255771 21898 253102 497 1343 2669 2500 4039 267 638 1156 316 295 1316 688 2754 2423 641 690 238 581 481 298 628 437 322 397 251 262 481 302 759 569 449 531
is_linear=0
shrinkage=1


Tree=1
num_leaves=56
num_cat=0
split_feature=21 20 18 5 22 20 19 22 2 19 22 19 20 18 19 20 20 5 21 22 22 36 19 10 3 3 5 22 21 36 22 23 1 23 18 36 1 22 23 36 36 28 36 7 24 22 20 9 36 9 1 24 37 36 1
split_gain=7.04517 10.509 5.94459 5.3583 4.35967 2.88791 2.4854 2.18131 1.84436 1.83734 1.2115 1.16723 0.994035 0.962983 6.75205 0.944915 0.899416 0.879003 0.759753 3.25324 1.68078 0.729602 0.809685 0.711391 0.62524 0.574435 0.572078 0.421461 0.382369 0.348541 0.337555 0.285869 0.284149 0.283842 0.233565 0.29133 0.197052 0.19063 0.172842 0.171221 0.139582 0.132311 0.122126 0.108535 0.0982343 0.0914139 0.0897543 0.0820777 0.0784664 0.0687435 0.0618253 0.0591137 0.0366085 0.015639 0.0122084
threshold=0.051233526447020665 -0.14954144213423223 0.029532371738166942 0.95675517610160521 0.064638810348112932 -0.23974747571015007 0.032980305265670022 -0.086827012707161019 -0.11728437588033717 -0.054992174785637483 0.039614523683727428 0.019090635323374346 -0.029984629965794599 -0.029406476274915508 0.016484455368623366 0.065293699125216237 -0.019336703898963813 1.099618988097651 0.018142780641277587 0.070317135034148284 -0.0015613871463060478 -0.30374522775916712 0.019709107354888386 0.047809071828750015 -0.41253634897895164 -0.13434215685167405 0.92196878181274255 0.092815433443433251 0.012230690699378257 -0.67011732827982196 -0.05943714547387579 0.60136881457135416 0.11075824113819166 0.71091549927064512 0.053041248422807337 -0.37533330822163324 -0.008823266382703426 0.004957281564137773 0.83258079006148644 -0.31466963497962164 -0.5253606509851495 0.15467426449714491 -0.18142789209150603 0.99014319286681596 71.5162177918168 1.0000000180025095e-35 0.068004622992491062 0.029985893710360489 -0.31466963497962164 0.044879602733901493 0.064972035434304617 47.871494790877001 0.12079262108232526 -0.11537358614490477 0.031543857195305225
decision_type=2 2 2 2 2 2 2 2 2 2 2 2 2 2 2 2 2 2 2 2 2 2 2 2 2 2 2 2 2 2 2 2 2 2 2 2 2 2 2 2 2 2 2 2 2 2 2 2 2 2 2 2 2 2 2
left_child=1 5 7 24 11 38 10 16 -6 23 25 47 -13 14 15 -11 44 32 20 -20 -15 22 29 27 40 36 -7 30 -24 -18 -9 -25 42 43 35 -14 39 -34 -1 -5 -2 -10 45 -23 52 -8 -35 53 -26 -28 54 -38 -3 -4 -27
right_child=3 2 4 6 8 26 17 9 41 13 -12 12 34 18 -16 -17 21 -19 19 -21 -22 33 28 31 48 50 49 -29 -30 -31 -32 -33 37 46 -36 -37 51 -39 -40 -41 -42 -43 -44 -45 -46 -47 -48 -49 -50 -51 -52 -53 -54 -55 -56
leaf_value=-0.00030773201520869841 0.0063234558898015731 0.00013874646174008652 0.00026330197790168532 0.0038853374412682238 -0.0073798764406001489 -0.0071785319309013952 0.00084081534247303503 0.0012344615073982719 -0.0022010597533309311 -0.00041990427436572911 -0.000561242666939036 -0.00369985097835931 -0.0025818709204130448 -0.00022198937459645584 -0.0067373985561500907 0.0013654271232245543 0.0036954914758744132 -0.0028943516451226414 0.000308063752616525 -0.002876045505972456 9.0771190883680456e-06 0.00054536465941313922 0.0018477459382372095 0.0010156916682634513 0.0038547079747762499 0.0017286468622528615 -0.0038859286603051134 0.0020725334301020478 0.00015029078300374943 0.0017852329163181577 0.00035202536347332252 0.0031864309223353002 -2.7350254757204628e-05 0.00091513420974260855 -2.8731768634599841e-06 -0.00087976291792126664 0.0025692237625300732 -0.0015941244900846215 -0.0018520059867116437 0.0024725150058233307 0.0046959010049502613 -0.0035791067379135739 0.0013037000965341059 -5.2628398629991461e-05 -0.0011178593372460455 -0.0002087923120777207 0.00015994232009058359 0.00097483286484296116 0.0026162252700139008 -0.004950680184520777 0.00064752447064377614 0.0014797404776021599 -0.00054056096612378182 -0.0001884946829549019 0.0012133164566018554
leaf_weight=106 120 132 177 196 129 102 119 434 115 2312 167 156 128 32149 151 301 104 106 11482 296 238481 433 162 107 130 213 135 147 472 636 4209 124 171 1144 160 344 118 123 194 158 124 199 126 719 183 193 173 145 110 198 102 105 143 106 121
leaf_count=106 120 132 177 196 129 102 119 434 115 2312 167 156 128 32149 151 301 104 106 11482 296 238481 433 162 107 130 213 135 147 472 636 4209 124 171 1144 160 344 118 123 194 158 124 199 126 719 183 193 173 145 110 198 102 105 143 106 121
internal_value=0 -1.25746e-05 -3.67198e-06 0.00158601 -0.00179439 -0.00359512 0.000904125 6.40626e-06 -0.00434368 -3.52348e-06 0.00179171 -0.000862915 -0.00154862 -1.35503e-05 -0.000570801 -0.000213054 0.000677059 -0.000342187 -8.08552e-06 0.000227764 -1.8361e-05 0.000827145 0.00138255 0.000565349 0.00442213 0.00218259 -0.00515892 0.000486098 0.000588979 0.00205822 0.000435181 0.00219479 2.36355e-05 0.000516805 -0.00101238 -0.00134816 0.00280847 -0.000693357 -0.00131664 0.0032641 0.00551089 -0.00308482 0.000511801 0.000169562 -0.000575651 0.000182068 0.00081823 0.000392618 0.00330089 -0.00452933 0.00134698 0.00207058 -0.000203656 8.3474e-05 0.00155135
internal_weight=0 296888 296153 2502 1659 735 2018 294494 443 290193 1180 1216 788 285172 2764 2613 4301 838 282408 11778 270630 3843 1374 5021 484 1013 435 4790 634 740 4643 231 732 2469 632 472 577 294 300 354 244 314 438 1152 458 312 1317 428 240 333 436 223 275 283 334
internal_count=299390 296888 296153 2502 1659 735 2018 294494 443 290193 1180 1216 788 285172 2764 2613 4301 838 282408 11778 270630 3843 1374 5021 484 1013 435 4790 634 740 4643 231 732 2469 632 472 577 294 300 354 244 314 438 1152 458 312 1317 428 240 333 436 223 275 283 334
is_linear=0
shrinkage=0.03


Tree=2
num_leaves=61
num_cat=0
split_feature=18 20 18 14 20 14 18 14 20 1 20 39 27 6 10 35 20 10 20 20 15 38 35 35 20 20 20 10 12 14 18 17 10 18 30 18 20 18 20 18 33 27 33 35 20 39 38 27 12 35 20 0 5 1 10 10 28 15 35 8
split_gain=4.549 3.22685 3.49728 2.7946 3.03449 2.4283 1.05631 2.6205 1.86596 1.45638 1.14729 1.44378 1.1033 0.94559 0.903505 0.807096 0.737152 0.629853 0.614506 1.56339 0.557318 0.555796 0.486297 0.460269 0.449033 0.426997 0.543054 0.396433 0.38593 0.381612 0.37368 0.370011 0.375603 0.364092 0.360803 0.35356 0.322341 0.315298 0.285641 0.402019 0.28262 0.276503 0.246826 0.234332 0.272435 0.211181 0.197853 0.186108 0.176658 0.175281 0.139861 0.120745 0.11357 0.106235 0.113177 0.102145 0.0988759 0.0400387 0.03647 0.0123612
threshold=0.029532371738166942 -0.23974747571015007 -0.044253167950790366 0.0010088053644046436 -0.23974747571015007 -0.094209238067645251 -0.029406476274915508 -0.20252425943424027 -0.14954144213423223 0.029460551977235398 -0.074799430716701268 -0.05285932340055647 -0.21819448137546557 0.78550128322665169 0.04956512292069893 -0.01805090979200959 -0.040032906129404008 0.059003933008060207 -0.02003539925949677 0.065293699125216237 -0.18421051111821754 0.06923098854088898 -0.025536854939711424 0.0044814042707561263 -0.089013212941586664 -0.029017778926063161 -0.01480768796580228 0.075163685485109002 1.5059539252023979 0.0055374631300277666 -0.025962048445723699 39.280075073242195 0.043630672465531962 -0.030802146636274022 6.4755328812204231 0.024903652832058983 -0.034932352369283673 0.023569488116784571 -0.062118689058747269 0.0032980313201517153 29.166181351568117 1.0788487816510701 16.36241866967158 0.014982156338773702 -0.051146580916017849 -0.050494948921845029 0.030516142042540828 -0.30955880911110656 0.96385724243930238 -0.0088852281870818919 -0.029984629965794599 0.035070993972560117 1.0386263984264088 0.12022747676775251 0.035932274598247792 0.043630672465531962 0.19555317589084206 -0.2767040504162192 0.020925480364216171 0.021827969174078334
decision_type=2 2 2 2 2 2 2 2 2 2 2 2 2 2 2 2 2 2 2 2 2 2 2 2 2 2 2 2 2 2 2 2 2 2 2 2 2 2 2 2 2 2 2 2 2 2 2 2 2 2 2 2 2 2 2 2 2 2 2 2
left_child=1 2 17 4 42 20 7 28 9 27 11 12 15 -4 22 -9 23 57 33 49 -6 43 -13 38 46 34 -27 -8 -3 -14 56 35 -33 45 52 -32 -35 -26 39 -10 -15 -40 -2 44 -7 -12 -25 -45 -36 -20 -46 -22 -5 54 58 -21 59 -1 -28 -18
right_child=3 6 13 25 5 21 8 10 16 -11 18 14 29 40 -16 -17 30 -19 19 55 51 -23 -24 24 37 26 53 -29 -30 -31 31 32 -34 36 48 -37 -38 -39 41 -41 -42 -43 -44 47 50 -47 -48 -49 -50 -51 -52 -53 -54 -55 -56 -57 -58 -59 -60 -61
leaf_value=-0.00037252886498566313 0.0018132934386315906 -0.0024135981730717881 0.0055926076218664883 0.00025966633869287548 -0.0062925456121531859 -7.0612041559247366e-06 0.0022444712647988027 -0.0038548818124266729 5.5578136189057043e-05 -0.0004118431058775789 0.0019002880487952287 -0.0022556006610172721 -0.0012918250550077264 0.0033857474584299053 0.002121613251959956 -0.0010141098621601139 0.00035175347394914751 0.0014687078007207346 -0.0017483109897828881 0.00092879058590833582 -0.0045832119543108875 -0.0039157887367943841 -0.00015110927275673901 0.00035804111850660353 0.00031794805588227334 0.0018715286565247316 -0.00051249299839794258 0.0045587473803713578 -0.0050717063252535893 0.00075394736644458012 7.3181854173246411e-06 -7.4100056365877567e-05 -0.00044038529236116388 0.00028159536697933835 -0.00092515477946149163 -0.00065339706696394579 -0.0013192535841250962 -0.00029646534370293383 0.0002078956389205381 -0.00044025139180148249 0.0013672489114377078 -0.0004593228402915879 -1.1160308147624987e-05 -0.002993579564050605 -0.0022498817657959926 0.00065997616901080573 0.00114764760657063 -0.0012637818858883072 -0.0027049216449409625 -0.00079480965412918219 -0.00089698067972236836 -0.0029763409277188363 -0.00090780977395089413 -0.00096768572362826042 0.00081965753068412447 0.0021455906841621186 0.0018141852774089398 -0.001149003079673503 0.00011461708099501437 0.00087707679848117502
leaf_weight=109 104 108 157 194 151 138 172 274 6363 151 154 118 264 181 142 139 104 160 317 197 106 107 631 464 6613 153 184 119 102 117 236066 22549 2843 588 113 731 140 843 10738 1912 105 587 177 150 162 723 802 102 102 425 137 100 120 112 128 103 101 184 141 113
leaf_count=109 104 108 157 194 151 138 172 274 6363 151 154 118 264 181 142 139 104 160 317 197 106 107 631 464 6613 153 184 119 102 117 236066 22549 2843 588 113 731 140 843 10738 1912 105 587 177 150 162 723 802 102 102 425 137 100 120 112 128 103 101 184 141 113
internal_value=0 1.18796e-05 0.00180942 -0.00122942 -0.00213279 -0.00281452 6.42425e-06 -0.000447528 1.35135e-05 0.00196107 -0.000288079 -0.000900148 -0.00183046 0.00370448 -6.76358e-05 -0.00290653 1.05426e-05 -3.75949e-05 0.000100432 -0.000465395 -0.00487542 -0.00188595 -0.00048692 0.000155954 0.000337346 -0.000188084 0.0002853 0.00320241 -0.00372076 -0.000655691 -5.1345e-06 -6.39261e-06 -0.000115231 0.000469654 -0.000836202 5.26559e-06 -2.22788e-05 0.000248075 7.50802e-05 -5.86283e-05 0.00265591 0.000173044 0.000653815 -0.00156585 -0.00113168 0.000881385 0.000860671 -0.0023061 -0.00178432 -0.00120639 -0.00164053 -0.00381956 -0.000177099 -0.000139191 5.91936e-05 0.00135713 0.00102241 -0.000870605 -0.000231244 0.000639405
internal_weight=0 296709 896 2681 1434 1153 295813 4542 291271 442 4332 1685 794 443 891 413 290829 453 2647 1042 357 796 749 28322 8722 1247 718 291 210 381 262507 262189 25392 1605 529 236797 728 7456 19600 8275 286 11325 281 689 437 877 1266 252 215 742 299 206 314 565 453 300 318 293 325 217
internal_count=299390 296709 896 2681 1434 1153 295813 4542 291271 442 4332 1685 794 443 891 413 290829 453 2647 1042 357 796 749 28322 8722 1247 718 291 210 381 262507 262189 25392 1605 529 236797 728 7456 19600 8275 286 11325 281 689 437 877 1266 252 215 742 299 206 314 565 453 300 318 293 325 217
is_linear=0
shrinkage=0.03


Tree=3
num_leaves=60
num_cat=0
split_feature=21 20 18 19 22 20 7 22 19 7 18 22 19 4 20 20 1 18 19 20 21 22 22 22 4 22 9 28 32 20 8 3 23 19 19 8 20 28 23 22 33 7 22 4 8 9 23 20 6 1 27 4 32 7 18 1 3 26 34
split_gain=6.32767 9.5041 5.28304 4.67407 3.94684 2.57004 2.49208 2.06369 1.70703 1.68111 1.34422 1.17717 1.067 1.00092 0.899168 0.887337 0.869838 0.857814 6.21553 0.831577 0.712796 3.06608 1.5797 0.584441 0.547546 0.508288 0.473431 0.361554 0.334965 0.328773 0.327264 0.318728 0.303724 0.215153 0.214552 0.175929 0.17531 0.171275 0.164037 0.163671 0.139501 0.136566 0.133663 0.121646 0.0882152 0.0801819 0.0697456 0.0686084 0.0964254 0.0543936 0.0489814 0.0422291 0.0398577 0.0278957 0.0258208 0.0202912 0.0152785 0.00855095 0.00845809
threshold=0.051233526447020665 -0.14954144213423223 0.029532371738166942 0.02822665614444694 0.064638810348112932 -0.23974747571015007 0.75335079686321127 -0.086827012707161019 -0.054992174785637483 0.88149888106410701 0.0329819374179516 0.039614523683727428 0.019090635323374346 -0.19597041525900388 -0.029984629965794599 -0.019336703898963813 0.10286351481623908 -0.029406476274915508 0.016484455368623366 0.065293699125216237 0.018142780641277587 0.070317135034148284 -0.0015613871463060478 -0.061541339866231552 -0.27562748877170934 0.092815433443433251 0.094304531337638581 0.2605177293360581 9.0130424425164311 -0.019336703898963813 0.045701948659141796 -0.12062554666458648 0.70241929346189724 0.0288877856324442 0.058323951252777867 0.034695112829174847 0.061427150996602002 0.15467426449714491 0.83258079006148644 0.004957281564137773 41.489431725328153 0.85305990164787759 0.023322244545218033 0.068281700094197553 0.05509432429616147 0.029985893710360489 0.65006848426636687 -0.23974747571015007 0.89637011397936306 0.04454868290253091 0.43289949541804223 -0.12447873882003566 40.139854810563207 0.82588035653200398 0.014758596807647465 0.041969481429576558 -0.032848081695406706 -1.0302797578304028 94518605.000000015
decision_type=2 2 2 2 2 2 2 2 2 2 2 2 2 2 2 2 2 2 2 2 2 2 2 2 2 2 2 2 2 2 2 2 2 2 2 2 2 2 2 2 2 2 2 2 2 2 2 2 2 2 2 2 2 2 2 2 2 2 2
left_child=1 5 7 6 12 38 10 13 23 -6 28 31 45 15 -14 -3 39 18 19 -10 22 -22 -19 35 -7 27 41 -25 -2 54 33 47 43 -17 40 57 -34 -11 -1 51 -16 -18 -30 -31 -26 58 -36 48 -8 -41 -33 55 -39 -49 56 -5 -15 -9 -4
right_child=3 2 4 16 9 24 11 8 17 37 -12 -13 14 29 34 30 26 20 -20 -21 21 -23 -24 25 44 -27 -28 -29 42 32 -32 50 36 -35 46 -37 -38 52 -40 49 -42 -43 -44 -45 -46 -47 -48 53 -50 -51 -52 -53 -54 -55 -56 -57 -58 -59 -60
leaf_value=-0.00028512826508772846 0.0063252333276075856 -0.0007143136459607035 0.00028634155279186698 0.0010935228571861101 -0.0074944277928833177 -0.0068197776749378998 0.002733351412009298 0.0015402795009845981 -0.00039005075843915162 -0.0020748028411401711 0.0014439502302903767 -0.00070259634100870532 -0.0035071292592541515 0 -0.0022332600739400897 0.0019067678706303495 -0.0012113056100679866 -0.00021548446218997471 -0.0064557525996226028 0.0012847340696360656 0.00029828602695858221 -0.0027928550453470181 8.5260789585033651e-06 0.00030047017642381783 -0.0037279986077292096 0.0021588033658260751 -0.0025430189482128426 0.0011180746941034546 0.0053021353116036 0.00033169948216892054 0.0031402831711880466 0.00076208286237083357 0.001066495007035263 0.00055934114691832927 0.00021678248764712271 0.0028607895094054669 0.00044711242886326787 -0.0040774447172978985 -0.0017900833411255946 0.0005492655188888729 -0.00091794487433926849 0.00010221627710370563 0.0038603487207395102 -0.00034509206636390382 -0.0048707595295309752 0.00097069873070173619 -0.00070707499905849492 0.0034580186461542184 0.0014276405499999967 -0.00037762132978887229 0.0016258094348790761 0.0015443732659068076 -0.0030570968176092017 0.0025728720416697453 -0.00088511433452367774 0.00044303940983561005 -0.00051568414213963684 0.0010051880410728523 -3.3557299482732048e-05
leaf_weight=106 124 133 118 119 103 106 139 109 2312 115 131 162 156 104 139 481 114 32149 151 301 11482 296 238481 3991 178 154 138 559 111 1044 162 112 916 146 107 100 788 113 194 107 177 180 200 306 151 145 209 108 102 120 185 132 112 117 105 101 116 108 165
leaf_count=106 124 133 118 119 103 106 139 109 2312 115 131 162 156 104 139 481 114 32149 151 301 11482 296 238481 3991 178 154 138 559 111 1044 162 112 916 146 107 100 788 113 194 107 177 180 200 306 151 145 209 108 102 120 185 132 112 117 105 101 116 108 165
internal_value=0 -1.1923e-05 -3.45624e-06 0.00150308 -0.0016916 -0.00341887 0.00257081 6.0441e-06 -3.61394e-06 -0.00411723 0.004142 0.00160582 -0.000805184 0.000658365 -0.00146087 0.00153566 -6.87134e-05 -1.3279e-05 -0.000539223 -0.000195937 -8.12065e-06 0.000220323 -1.80738e-05 0.000544714 -0.00489429 0.00045981 -0.00109001 0.0004016 0.0049471 0.000418059 0.00191878 0.0020999 0.000515072 0.00159794 -0.000950556 0.00179461 0.00078187 -0.00308341 -0.0012686 0.000688164 -0.00150653 -0.000397147 0.00438612 0.000176057 -0.00426292 0.00039506 -0.00038479 0.00259615 0.00219399 4.61207e-05 0.00131056 0.00109356 -0.00358445 0.00301242 -0.000484212 0.000808859 -0.000278927 0.00128837 8.92852e-05
internal_weight=0 296888 296153 2502 1659 735 1491 294494 290193 443 566 925 1216 4301 788 922 1011 285172 2764 2613 282408 11778 270630 5021 435 4704 432 4550 435 3379 789 763 3054 627 632 317 1704 340 300 579 316 294 311 1350 329 428 316 466 241 227 297 352 225 225 325 220 220 217 283
internal_count=299390 296888 296153 2502 1659 735 1491 294494 290193 443 566 925 1216 4301 788 922 1011 285172 2764 2613 282408 11778 270630 5021 435 4704 432 4550 435 3379 789 763 3054 627 632 317 1704 340 300 579 316 294 311 1350 329 428 316 466 241 227 297 352 225 225 325 220 220 217 283
is_linear=0
shrinkage=0.03


Tree=4
num_leaves=55
num_cat=0
split_feature=21 18 5 19 21 21 19 19 19 18 19 36 18 19 21 21 5 36 10 19 2 21 36 19 21 29 33 10 21 21 21 18 23 1 36 18 19 3 37 3 3 29 36 36 19 36 9 26 5 39 5 34 27 36
split_gain=5.95691 7.4584 4.62142 3.67096 2.52782 2.18622 2.08218 1.62859 1.30669 1.22834 1.54888 0.891723 0.847054 5.84841 0.791844 1.1254 0.778451 0.693977 0.654884 0.650639 0.649761 0.646557 0.563385 0.540375 0.511813 0.433488 0.421232 0.366427 0.333472 0.539336 0.392182 0.296241 0.245188 0.238929 0.238803 0.216679 0.203598 0.201047 0.197621 0.192213 0.170543 0.166922 0.163383 0.116477 0.115601 0.11057 0.0959237 0.0909728 0.0634456 0.0435862 0.0407844 0.0347924 0.0262932 0.0118048
threshold=0.051233526447020665 0.0329819374179516 0.95675517610160521 -0.11224875915863823 0.021391952405587743 0.025986079928212152 0.032980305265670022 -0.054992174785637483 -0.029788347016000572 0.024903652832058983 0.019090635323374346 -0.50617618843642365 -0.029406476274915508 0.016484455368623366 0.014609209435959164 0.015746616785072453 1.099618988097651 -0.24631220125657896 0.047809071828750015 -0.080571416487316694 -0.13759166794009983 0.031642803064694996 -0.5253606509851495 0.008331322913571226 0.019648996150016671 -0.034267608550717289 13.313507970592463 0.068291866463232834 0.01325106273402474 0.019204893186078507 0.012917140984101108 -0.02147568473508989 0.60371108017155739 0.11075824113819166 -0.17704255622694751 0.0329819374179516 -0.080571416487316694 -0.1902906496215028 0.13902880535906184 -0.20359893661257145 -0.32393680573159356 0.30008214616927692 -0.30374522775916712 -0.31466963497962164 -0.023677584783999256 -0.18142789209150603 0.025323714185945916 0.30619192785859528 1.0303088114260164 0.00022010993843231931 1.001133485697574 113959202.50000001 0.44544967208197844 -0.27572768901498607
decision_type=2 2 2 2 2 2 2 2 2 2 2 2 2 2 2 2 2 2 2 2 2 2 2 2 2 2 2 2 2 2 2 2 2 2 2 2 2 2 2 2 2 2 2 2 2 2 2 2 2 2 2 2 2 2
left_child=1 3 22 5 8 38 17 18 -3 12 23 -12 13 24 27 -16 33 35 28 -19 -6 -7 -2 44 -9 -23 -27 -14 30 31 39 -30 -20 45 -13 37 -24 43 -1 -5 -38 -22 -35 49 -11 48 -25 -31 -8 -4 -21 -37 -52 -10
right_child=2 4 6 7 20 21 16 9 53 10 11 34 14 -15 15 -17 -18 19 32 50 41 25 36 46 -26 26 -28 -29 29 47 -32 -33 -34 42 -36 51 40 -39 -40 -41 -42 -43 -44 -45 -46 -47 -48 -49 -50 -51 52 -53 -54 -55
leaf_value=-0.00084521746037554898 0.0058729501564797138 -0.0034327196681695664 0.0029282112337197796 0.0014193701903325935 -0.0062769271233906162 -0.0047722991060247123 0.0005301236298569682 -0.00039009990409100446 0.0002235876985956552 0.00027986406595929987 -0.0037711473714658497 -0.0015201473167073178 -1.1074819763121093e-05 -0.0062622082107074801 0.00045709225215661881 4.5002788285272093e-05 -0.0027173460264181986 -0.0012894790878790728 0.0010097103916300789 0.0019095730036757283 -0.0042944112519558691 -0.0013070210726760132 0.0025462052958538884 0.00036452298806855372 0.00069271389912751286 -0.004781138482108177 -0.002201558233181829 -0.00057271682503608678 0.0016416503684684243 7.5411814818080453e-05 -0.0013502767972465668 0.00073739248723083068 0.0030514169460677735 -0.0015714583750883395 -0.00067157087490119535 0.00103326729607888 0.0049663226626212448 0.0015988159230992357 0.0007089077591154253 0.00020680522982565366 0.0031346287624245879 -0.0028247524932504433 -8.0369162532735618e-05 0.0021464129779437094 -0.00064033935986725901 0.001229900333612735 0.0011364251504812589 -0.00084454452264674763 -0.00032970178519700622 0.0039678314428304379 0.00069444437490275078 0.001892075462089563 0.0013757420563267138 -0.00016448005189381712
leaf_weight=119 124 152 118 128 120 144 182 2133 108 148 126 631 250853 151 7827 25152 106 107 103 101 175 189 146 322 480 100 150 1050 421 433 140 1591 123 106 601 119 109 136 191 1649 105 148 188 110 622 126 289 123 130 108 105 100 176 196
leaf_count=119 124 152 118 128 120 144 182 2133 108 148 126 631 250853 151 7827 25152 106 107 103 101 175 189 146 322 480 100 150 1050 421 433 140 1591 123 106 601 119 109 136 191 1649 105 148 188 110 622 126 289 123 130 108 105 100 176 196
internal_value=0 -1.15667e-05 0.00145838 -3.26923e-06 -0.0027398 -0.00192373 0.000824985 2.53283e-06 -0.00116247 -6.43371e-06 -0.000638729 -0.00135821 -4.02269e-07 -0.000523053 4.65827e-06 0.000142897 -0.000315509 0.00163743 0.000555854 0.000763052 -0.00435603 -0.00300616 0.00409235 6.6647e-05 -0.000190023 -0.00241905 -0.00324688 -1.3428e-05 0.000475564 0.000699452 0.00017406 0.000928167 0.00213503 2.85242e-05 -0.00110871 0.00225166 0.00346925 0.00262161 0.00010257 0.000295911 0.00408349 -0.00363137 -0.000628525 0.00302608 -0.00045956 0.000476448 0.000734664 -0.000122824 0.00016226 0.00343982 0.00134601 0.00143979 0.00113217 -1.67205e-05
internal_weight=0 296888 2502 295989 899 893 2018 295096 456 290385 2739 1358 287646 2764 284882 32979 838 1180 4711 489 443 583 484 1381 2613 439 250 251903 4485 2568 1917 2012 226 732 1232 691 360 472 310 1777 214 323 294 336 770 438 611 556 312 226 382 219 281 304
internal_count=299390 296888 2502 295989 899 893 2018 295096 456 290385 2739 1358 287646 2764 284882 32979 838 1180 4711 489 443 583 484 1381 2613 439 250 251903 4485 2568 1917 2012 226 732 1232 691 360 472 310 1777 214 323 294 336 770 438 611 556 312 226 382 219 281 304
is_linear=0
shrinkage=0.03


Tree=5
num_leaves=60
num_cat=0
split_feature=21 20 18 5 22 19 22 20 19 7 22 19 20 4 20 18 19 20 38 5 22 22 20 15 4 10 15 22 20 8 21 23 28 28 19 8 22 20 5 36 5 4 26 25 18 36 4 19 8 5 36 29 36 36 22 28 35 18 37
split_gain=5.69998 8.80881 4.98001 4.89398 3.73994 2.02261 2.01189 1.76121 1.47031 1.33507 1.03985 0.957711 0.891617 0.879285 0.88598 0.872781 5.94149 0.770637 0.704849 0.701787 0.689275 5.20267 1.26689 0.608193 0.588983 0.532443 0.369391 0.360791 0.329539 0.288528 0.284036 0.264855 0.256821 0.2213 0.209375 0.198174 0.192002 0.160025 0.158201 0.224671 0.154629 0.115502 0.11291 0.104867 0.100559 0.105631 0.0964838 0.0644199 0.05696 0.0551929 0.0530698 0.040477 0.037147 0.0348157 0.0344834 0.0231654 0.022681 0.0221574 0.0116994
threshold=0.051233526447020665 -0.14954144213423223 0.029532371738166942 0.96085042307551738 0.064638810348112932 0.032980305265670022 -0.086827012707161019 -0.23974747571015007 -0.054992174785637483 0.88149888106410701 0.039614523683727428 0.019090635323374346 -0.01480768796580228 -0.18922161631149159 -0.019336703898963813 -0.030802146636274022 0.016484455368623366 0.065293699125216237 0.042970431869364098 1.099618988097651 -0.042420721711599323 -0.047615685855994953 -0.036805104604749193 -0.3380308656424092 -0.27562748877170934 0.047809071828750015 -0.12140250325083714 0.092815433443433251 -0.019336703898963813 0.045701948659141796 0.014171304428004005 0.71663279108430344 0.52225034299948792 0.15467426449714491 0.025232351050877854 0.052617296491094506 0.029472030186492474 0.061427150996602002 1.0386263984264088 -0.320401403157136 0.92196878181274255 0.037901005584693538 -3.3423655683577782 -0.89940474951067262 0.053041248422807337 -0.320401403157136 -0.0041391328883146885 0.017167156434098784 0.05509432429616147 1.0551176666929483 -0.12688126452059142 0.73094056968554078 -0.2133018218405047 -0.21065406197780825 0.004957281564137773 0.3190469924868683 0.0076751012064651212 0.014758596807647465 0.14360460728428373
decision_type=2 2 2 2 2 2 2 2 2 2 2 2 2 2 2 2 2 2 2 2 2 2 2 2 2 2 2 2 2 2 2 2 2 2 2 2 2 2 2 2 2 2 2 2 2 2 2 2 2 2 2 2 2 2 2 2 2 2 2
left_child=1 7 6 23 11 10 13 42 25 -6 26 47 18 14 -3 16 17 -10 53 32 21 -17 -22 40 -9 27 38 30 57 34 -8 41 43 -11 -16 -27 -25 -33 39 -5 -2 -30 -1 49 45 -14 48 52 -26 54 -35 56 -4 -13 -7 -41 -28 58 -15
right_child=3 2 4 5 9 19 8 24 15 33 -12 12 44 28 29 20 -18 -19 -20 -21 22 -23 -24 36 46 35 51 -29 31 -31 -32 37 -34 50 -36 -37 -38 -39 -40 55 -42 -43 -44 -45 -46 -47 -48 -49 -50 -51 -52 -53 -54 -55 -56 -57 -58 -59 -60
leaf_value=-0.0021596940930591574 0.005747261298351904 -0.00069948006732684044 0.00051946028653515131 0.0035877096588655621 -0.0068465378337299147 0.00064393466430820326 0.00018675026742790804 -0.0063932003717693765 -0.0004144093136346846 -0.0018674351987520352 -0.00066478020820279378 -0.0020719073959405174 -0.0016759399952291799 -4.5942534196597495e-05 0.0018618524124428099 7.0737570887956995e-05 -0.0062119678595232326 0.0012469317074097971 -0.0047215411249128137 -0.0023838542806838242 0.00022100295234375581 -0.0011628236689116449 -1.4771498649247024e-05 0.0036211080941125932 -0.0036186188493735057 0.0009159704307608931 0.001889231853853619 0.001903425635008901 0.00040820648000935923 0.002970380201798661 0.00066566026290155924 0.0010755966661145538 -0.00091020003832334396 -0.0040743800566854366 0.00059580218858902221 0.0027712165509337443 0.0018973455163916694 0.00046092243933938188 0.0015775256122212741 0.0016652791496735164 0.0040667512070339728 -0.00016188466958626981 -0.00089659553525514905 0.0011615677602084165 2.6222732482099874e-05 -0.00047965035789319525 -0.002900644765713581 0.00088421035168469901 -0.0047335447187088009 -0.00033631595224046455 -0.0029635055176131116 0.00085106130645197194 -0.00017014162958877069 -0.0011805241131282436 0 0.0024340029203778978 0.001163190849496624 -0.00086581535234490372 -0.00053289189490235661
leaf_weight=114 149 144 114 180 111 173 2622 108 1709 112 157 101 104 107 481 14971 158 294 101 128 22410 3872 241976 172 137 101 107 148 958 167 1970 829 198 122 166 122 103 750 153 100 103 471 175 114 159 215 101 143 115 146 107 173 175 107 125 135 119 107 100
leaf_count=114 149 144 114 180 111 173 2622 108 1709 112 157 101 104 107 481 14971 158 294 101 128 22410 3872 241976 172 137 101 107 148 958 167 1970 829 198 122 166 122 103 750 153 100 103 471 175 114 159 215 101 143 115 146 107 173 175 107 125 135 119 107 100
internal_value=0 -1.09359e-05 -2.70617e-06 0.00141765 -0.00163579 0.000740436 6.54618e-06 -0.00325786 -2.96155e-06 -0.00396785 0.00158522 -0.000768361 -0.00139209 0.000652232 0.00145419 -1.18745e-05 -0.000612492 -0.00016901 -0.00265044 -0.000330369 -7.28104e-06 -0.000182589 5.20205e-06 0.00399167 -0.00441185 0.000508949 0.00195366 0.000440706 0.000420024 0.0018389 0.000392869 0.000517055 1.36128e-05 -0.00302027 0.0015418 0.00194518 0.00298731 0.000785584 0.00245061 0.00276482 0.00507417 0.000218206 -0.00140579 0.000346897 -0.000571985 -0.000879468 -0.00379552 0.000361049 -0.00414099 0.000130755 -0.00356994 0.00123826 9.15898e-05 -0.00162856 0.000369689 0.00212049 0.00152089 -0.000499815 -0.000295813
internal_weight=0 297054 296304 2535 1671 2008 294633 750 290353 452 1124 1219 787 4280 958 285390 2161 2003 309 884 283229 18843 264386 527 461 4963 967 4740 3322 814 4592 3008 756 341 647 223 275 1579 568 415 252 1429 289 558 478 319 353 432 252 444 229 399 289 208 298 235 226 314 207
internal_count=299589 297054 296304 2535 1671 2008 294633 750 290353 452 1124 1219 787 4280 958 285390 2161 2003 309 884 283229 18843 264386 527 461 4963 967 4740 3322 814 4592 3008 756 341 647 223 275 1579 568 415 252 1429 289 558 478 319 353 432 252 444 229 399 289 208 298 235 226 314 207
is_linear=0
shrinkage=0.03


Tree=6
num_leaves=62
num_cat=0
split_feature=21 20 18 5 22 1 22 20 19 2 19 20 4 20 18 19 20 22 19 38 22 22 20 15 4 10 28 22 36 20 8 21 23 28 19 8 22 22 20 5 18 4 37 8 18 38 4 23 19 19 9 28 8 36 20 15 9 36 18 4 37
split_gain=5.36545 8.29179 4.68786 4.60571 3.5198 1.91691 1.893 1.6569 1.38383 1.25925 0.901672 0.839194 0.827462 0.834073 0.821219 5.59054 0.725137 0.685803 0.840303 0.662522 0.648505 4.96275 1.19202 0.571523 0.553116 0.501162 0.417202 0.339391 0.334682 0.31053 0.271079 0.267174 0.249214 0.226401 0.196702 0.186093 0.180076 0.176471 0.150416 0.144504 0.140008 0.108719 0.105033 0.0987997 0.0947909 0.100987 0.0901141 0.0703663 0.0605973 0.058891 0.0706914 0.05848 0.0527962 0.0479142 0.0422088 0.0452973 0.0400233 0.0349711 0.0207126 0.0153299 0.0109513
threshold=0.051233526447020665 -0.14954144213423223 0.029532371738166942 0.96085042307551738 0.064638810348112932 0.10286351481623908 -0.086827012707161019 -0.23974747571015007 -0.054992174785637483 -0.13759166794009983 0.019090635323374346 -0.01480768796580228 -0.18922161631149159 -0.019336703898963813 -0.030802146636274022 0.016484455368623366 0.065293699125216237 0.039614523683727428 0.02822665614444694 0.042970431869364098 -0.042420721711599323 -0.05220981036423205 -0.036805104604749193 -0.3380308656424092 -0.27562748877170934 0.047809071828750015 0.58918715576228198 0.092815433443433251 -0.28005228619823164 -0.019336703898963813 0.045701948659141796 0.014171304428004005 0.71663279108430344 0.15467426449714491 0.025232351050877854 0.052617296491094506 0.029472030186492474 1.0000000180025095e-35 0.061427150996602002 0.92196878181274255 0.053041248422807337 0.037901005584693538 0.21057806148377947 0.082842522058768048 0.053041248422807337 0.040708480091650727 -0.0041391328883146885 0.79329093991491895 0.017167156434098784 0.079783429034624487 0.070894390751568406 0.33986808606003271 0.05509432429616147 -0.3923147281076021 -0.23974747571015007 -0.065709820715837128 0.022643971074493566 -0.2133018218405047 0.014758596807647465 -0.17102301601976619 0.14360460728428373
decision_type=2 2 2 2 2 2 2 2 2 2 2 2 2 2 2 2 2 2 2 2 2 2 2 2 2 2 2 2 2 2 2 2 2 2 2 2 2 2 2 2 2 2 2 2 2 2 2 2 2 2 2 2 2 2 2 2 2 2 2 2 2
left_child=1 7 6 23 10 17 12 43 25 -6 48 19 13 -3 15 16 -10 18 28 56 21 -16 -22 39 -9 27 49 31 40 58 34 -8 41 -11 -15 -27 -25 47 -34 -2 53 -31 -35 -1 45 -13 52 -20 57 -7 -51 -39 -26 -5 -30 -56 -12 -4 60 -49 -14
right_child=3 2 4 5 9 26 8 24 14 33 11 44 29 30 20 -17 -18 -19 37 -21 22 -23 -24 36 46 35 -28 -29 54 32 -32 -33 38 42 -36 -37 -38 51 -40 -41 -42 -43 -44 -45 -46 -47 -48 59 -50 50 -52 -53 -54 -55 55 -57 -58 -59 -60 -61 -62
leaf_value=-0.00083237243005421268 0.0055749590638125507 -0.00067851022078470173 0.00050389013248663083 0.0038427578474428729 -0.0068240107409103332 0.00035403887521301972 0.0001811479747758869 -0.0062015818200908965 -0.0004019777612429243 -0.0018114621080638344 -0.001078126063782277 -0.00043735863916395272 -4.4565545081967062e-05 0.0018060084458955538 0.00014473334926201094 -0.00602572669234459 0.001209536478788908 -0.00060168318370675054 0.0017796097549546575 -0.004580035044884901 0.00021437289132724747 -0.00091322316915852335 -1.4328350099331252e-05 0.0035125379692270641 -0.0035101394427540819 0.00088851849358005154 -0.0020231339845371995 0.0018463614371117547 0.0010148005621709638 0.00039596156357772687 0.0028813221028887227 0.00064569146623839934 0.001043332650417895 -0.0043079650456008568 0.00057793888369516821 0.0026881481022219328 0.0018404803572856722 0.00056601110269004521 0.0004470966139551864 0.00394486703815085 0.001902342461992912 -0.00015702915772629813 -0.0028966999286546219 -0.0019989067628203459 2.5436541684309053e-05 -0.0015842250195289877 -0.0028137114796046867 0.00045568442101937934 0.00085770258059073782 -1.8027486806083276e-05 -0.001045774401416608 -0.00035013832533993029 -0.0045916617979707402 0.0028091813013359289 0.0021570747268662804 0.0012753092071739768 -0.0020158759751473447 -0.00016504029563398366 -0.00083986513902294959 0.0010472788221252444 -0.00051692112128587104
leaf_weight=160 149 144 114 102 101 106 2622 108 1709 112 100 206 107 481 13108 158 294 154 100 101 22410 5735 241976 172 137 101 174 148 124 958 167 1970 829 103 166 122 103 108 750 103 116 471 136 129 159 113 101 106 143 145 111 148 115 143 144 123 108 175 107 104 100
leaf_count=160 149 144 114 102 101 106 2622 108 1709 112 100 206 107 481 13108 158 294 154 100 101 22410 5735 241976 172 137 101 174 148 124 958 167 1970 829 103 166 122 103 108 750 103 116 471 136 129 159 113 101 106 143 145 111 148 115 143 144 123 108 175 107 104 100
internal_value=0 -1.06104e-05 -2.62548e-06 0.00137542 -0.00158709 0.000718399 6.35108e-06 -0.0031608 -2.87115e-06 -0.00384951 -0.00074548 -0.00135071 0.000632668 0.00141067 -1.15183e-05 -0.000594125 -0.000163894 0.0012785 0.00150049 -0.00257159 -7.06229e-06 -0.000177107 5.04565e-06 0.00387252 -0.00428019 0.000493757 -0.000814149 0.000427525 0.00215924 0.00040737 0.00178398 0.000381103 0.000501575 -0.00298336 0.0014957 0.00188728 0.00289808 0.000619748 0.000762076 0.00492242 0.00282803 0.000211598 -0.003519 -0.00136396 -0.000554839 -0.000853386 -0.00368226 0.00110129 0.000350226 -0.000224352 -0.000475601 2.47181e-05 -0.00401722 0.00325312 0.00153353 0.00176273 -0.00158019 8.85344e-05 -0.000485407 0.000763302 -0.000287382
internal_weight=0 297054 296304 2535 1671 2008 294633 750 290353 452 1219 787 4280 958 285390 2161 2003 1472 1318 309 283229 18843 264386 527 461 4963 536 4740 752 3322 814 4592 3008 351 647 223 275 566 1579 252 361 1429 239 289 478 319 353 310 432 362 256 256 252 245 391 267 208 289 314 210 207
internal_count=299589 297054 296304 2535 1671 2008 294633 750 290353 452 1219 787 4280 958 285390 2161 2003 1472 1318 309 283229 18843 264386 527 461 4963 536 4740 752 3322 814 4592 3008 351 647 223 275 566 1579 252 361 1429 239 289 478 319 353 310 432 362 256 256 252 245 391 267 208 289 314 210 207
is_linear=0
shrinkage=0.03


Tree=7
num_leaves=58
num_cat=0
split_feature=21 18 19 19 22 36 21 22 18 22 19 18 7 22 19 36 18 19 1 21 36 19 21 36 6 10 22 36 22 21 21 21 7 22 28 23 8 7 33 23 36 26 0 7 1 24 22 38 3 23 3 6 36 1 1 0 36
split_gain=5.05102 6.42437 4.1383 3.54807 3.16542 2.19108 1.83632 1.78696 1.4272 1.40359 1.33311 1.16886 1.02096 0.987958 0.970939 0.830871 0.780347 5.26032 0.771685 0.739763 0.735906 0.678192 0.611046 0.559581 0.558629 0.462032 0.404534 0.318204 0.310414 0.308824 0.249552 0.2424 0.23474 0.228287 0.203353 0.20192 0.183438 0.17481 0.154373 0.15269 0.115443 0.1052 0.101198 0.0898507 0.0857843 0.0746969 0.0701685 0.0690653 0.0638192 0.0627897 0.0426501 0.0330775 0.0279302 0.0239245 0.0168376 0.0162596 0.0149623
threshold=0.051233526447020665 0.0329819374179516 0.02822665614444694 -0.11224875915863823 0.053421633460953417 -0.29849360432378763 0.025986079928212152 -0.086827012707161019 0.024903652832058983 0.061611611792862793 -0.054992174785637483 0.0329819374179516 0.88149888106410701 0.039614523683727428 0.019090635323374346 -0.41212638616352248 -0.030802146636274022 0.016484455368623366 0.13390361770735457 0.018142780641277587 -0.29362793169957063 0.019709107354888386 0.021391952405587743 -0.54653453266951468 0.85312741708948014 0.047809071828750015 0.004957281564137773 -0.67011732827982196 0.092815433443433251 0.016156225567115001 0.012230690699378257 0.017707256610033081 0.91051765439649512 0.004957281564137773 0.14878933490538312 0.71968821203295508 0.052617296491094506 0.7155560327652285 21.528171964892472 0.81792100515217159 -0.24305959617300002 -3.3423655683577782 0.012275006011344068 0.98856588172258286 0.041969481429576558 64.899934521196769 0.029472030186492474 0.032419027292590656 -0.045588298675518134 0.78557961431785539 -0.067968204547357733 1.0317550914477926 -0.1979927141381653 -0.035944370095986174 -0.02231128781447466 -0.0068598734868694439 -0.28005228619823164
decision_type=2 2 2 2 2 2 2 2 2 2 2 2 2 2 2 2 2 2 2 2 2 2 2 2 2 2 2 2 2 2 2 2 2 2 2 2 2 2 2 2 2 2 2 2 2 2 2 2 2 2 2 2 2 2 2 2 2
left_child=1 3 5 6 56 11 32 19 10 41 25 23 39 40 29 -16 17 -12 33 20 21 27 -18 -2 -11 28 -20 -5 -9 47 -23 -17 -1 49 -14 43 -27 46 -31 -6 54 -8 51 -22 -35 -37 -25 -10 -36 -4 -42 55 -51 -39 -7 -21 -3
right_child=2 4 18 7 12 13 9 8 14 24 16 -13 34 -15 15 31 22 -19 26 42 35 30 -24 37 -26 36 -28 -29 -30 38 -32 -33 -34 44 48 45 -38 53 -40 -41 50 -43 -44 -45 -46 -47 -48 -49 -50 52 -52 -53 -54 -55 -56 -57 -58
leaf_value=-0.00094330669140828022 0.005917861559774449 0.00029281675801800838 0.0014844571470773171 0.0033911024027130981 -0.006463766555105532 0.0024733924494007046 -0.0020509945002537937 0.00038762806339981447 -0.00049868255287657836 -0.0058830714913908639 -0.00015893077322450246 0.0013970977336880287 -0.0017145466812982823 -0.0012552943539999827 -0.0031589474822601533 -0.0017654715392588019 -8.3914227814302497e-06 -0.0058450693032391495 -0.00024014385987275032 0.00018682314460161239 0.00049427015952907224 0.001534178466787893 0.00044524645654260217 0.0049054584198785257 -0.0031995257794018412 0.0008618893131493861 -0.0023377334887808338 0.0016080856815606579 0.0017910079958981971 -0.00038792280645160273 0.00019299409791315907 -0.00070808299238242717 0.00081719791885321853 0.00049525532273775839 -0.0036917907281064292 0.00089606656819198472 0.0026583666488141475 0.0033392657873527153 0.00052425991446263692 -0.0046099478334697451 0.0016169571604705507 -0.00083136528850730402 -0.0013721201828139845 -5.4311154349592307e-05 -0.0005502481173171943 0.00043115676522238137 0.0036171505533487388 -0.0014696818703290131 -0.002616803374687433 0.00040170949635823239 0.00085739396861602281 -0.00074579537188475557 0.0010612620502342645 0.0025264185329821201 0.0017668977413756238 -0.00029372631879404743 -0.00015740336812639091
leaf_weight=115 125 100 128 108 100 133 114 4314 174 120 2003 196 107 128 190 272 279019 158 172 102 404 171 2698 107 190 101 166 702 148 242 488 762 166 109 188 683 119 154 521 102 167 175 103 779 193 638 111 122 106 186 153 102 104 102 101 151 197
leaf_count=115 125 100 128 108 100 133 114 4314 174 120 2003 196 107 128 190 272 279019 158 172 102 404 171 2698 107 190 101 166 702 148 242 488 762 166 109 188 683 119 154 521 102 167 175 103 779 193 638 111 122 106 186 153 102 104 102 101 151 197
internal_value=0 -1.02946e-05 0.00133451 -2.59305e-06 -0.00254095 0.00236041 -0.00190457 3.06587e-06 -6.03338e-06 -0.00284323 -1.11743e-07 0.00343235 -0.00378941 0.00110614 -0.000753153 -0.00132876 -8.40328e-06 -0.000576308 -9.49366e-05 0.000600988 0.000732918 0.00126698 -4.03613e-06 0.00409296 -0.00424955 0.000501968 -0.00127958 0.00184991 0.000434888 -8.49713e-05 0.000545742 -0.00098928 8.59551e-05 0.000457123 -0.00289628 0.000418372 0.00184802 0.00360424 0.000231 -0.00554527 0.00165729 -0.00132338 -0.000536823 0.000130522 -0.000162928 0.000673851 0.0042652 -0.000909385 -0.00331543 0.000912209 0.00126354 -0.000285703 0.000648864 0.00302822 0.00218215 -8.81367e-05 0
internal_weight=0 297054 2535 296154 900 1477 880 295274 290843 599 288560 795 603 682 2283 1224 283878 2161 1058 4431 3973 1469 281717 599 310 4682 338 810 4462 1059 659 1034 281 720 401 2504 220 474 763 202 554 289 458 1183 302 1321 218 296 294 418 320 355 290 256 234 253 297
internal_count=299589 297054 2535 296154 900 1477 880 295274 290843 599 288560 795 603 682 2283 1224 283878 2161 1058 4431 3973 1469 281717 599 310 4682 338 810 4462 1059 659 1034 281 720 401 2504 220 474 763 202 554 289 458 1183 302 1321 218 296 294 418 320 355 290 256 234 253 297
is_linear=0
shrinkage=0.03


Tree=8
num_leaves=63
num_cat=0
split_feature=21 20 18 1 22 3 22 20 19 14 22 19 20 4 20 18 19 20 1 22 22 21 10 4 22 35 22 19 20 7 36 20 8 23 22 21 32 23 36 20 4 26 32 18 36 4 0 7 19 4 22 8 10 16 36 36 7 3 18 36 29 37
split_gain=4.75509 7.33073 4.17421 3.90438 3.1227 1.91096 1.67869 1.46056 1.22575 1.1409 0.993239 0.80235 0.767144 0.752495 0.749193 0.727181 4.94952 0.682292 0.676773 0.611504 4.64863 1.14808 0.559137 0.49928 0.467879 0.420055 0.397165 0.388671 0.355458 0.298988 0.296994 0.272996 0.250361 0.223162 0.219789 0.177781 0.168314 0.159155 0.154839 0.138715 0.100469 0.0987326 0.0863681 0.0819625 0.0887399 0.0807596 0.056563 0.0606596 0.0563632 0.0502652 0.0586312 0.0454054 0.0429018 0.0339829 0.0324859 0.0313756 0.0283763 0.0265091 0.018247 0.0106518 0.0102129 0.00989757
threshold=0.051233526447020665 -0.14954144213423223 0.029532371738166942 0.028444215162458649 0.064638810348112932 -0.41253634897895164 -0.086827012707161019 -0.23974747571015007 -0.054992174785637483 -0.12854553808202232 0.039614523683727428 0.019090635323374346 -0.01480768796580228 -0.18922161631149159 -0.019336703898963813 -0.030802146636274022 0.016484455368623366 0.065293699125216237 0.13390361770735457 -0.042420721711599323 -0.05220981036423205 0.014909028097345714 0.027479106415789524 -0.27562748877170934 -0.061541339866231552 0.0059399259257769642 0.092815433443433251 0.02822665614444694 -0.074799430716701268 0.82588035653200398 -0.28005228619823164 -0.019336703898963813 0.045701948659141796 0.71663279108430344 1.0000000180025095e-35 0.014609209435959164 39.662009039591673 0.84302019735742151 -0.36709275838588706 0.061427150996602002 0.041314049228242222 -3.3423655683577782 48.98293371884855 0.053041248422807337 -0.320401403157136 -0.0041391328883146885 0.035070993972560117 0.75335079686321127 0.017167156434098784 -0.10582126151713796 -0.021174325329684159 0.05509432429616147 0.075163685485109002 16.7898953403372 -0.23044086292733421 -0.2133018218405047 0.86621813732023711 -0.023416228390927583 0.014758596807647465 -0.086450142663246229 0.096972944629433039 0.14360460728428373
decision_type=2 2 2 2 2 2 2 2 2 2 2 2 2 2 2 2 2 2 2 2 2 2 2 2 2 2 2 2 2 2 2 2 2 2 2 2 2 2 2 2 2 2 2 2 2 2 2 2 2 2 2 2 2 2 2 2 2 2 2 2 2 2
left_child=1 7 6 5 11 25 13 41 24 -6 27 48 22 14 -3 16 17 -10 34 20 -17 -21 57 -9 38 37 28 30 -26 -20 46 58 35 40 49 -16 -11 -2 -8 -35 -33 -1 -36 44 -14 51 47 -7 55 50 -5 -25 -31 -44 -32 -4 -29 -13 61 -38 -40 -15
right_child=3 2 4 18 9 10 8 23 15 36 -12 12 43 31 32 19 -18 -19 29 21 -22 -23 -24 45 26 -27 -28 56 -30 52 54 33 -34 39 42 -37 59 -39 60 -41 -42 -43 53 -45 -46 -47 -48 -49 -50 -51 -52 -53 -54 -55 -56 -57 -58 -59 -60 -61 -62 -63
leaf_value=-0.0019895186001152509 0.0060937299186849484 -0.00064148520050576186 0.00046998879714117204 0.00016492408692764631 -0.006460772265876347 0.0038678125082191525 0.002564120719305969 -0.0058501233804818488 -0.00038515149013524053 -0.0035973625211262305 -0.00036011013540720158 -0.0019180854335558554 -0.0015227104454926654 -3.6617994157001322e-05 0.00069581355695035279 0.00013972051486222254 -0.0056698281269527591 0.0011780290177873791 -0.001997543434045141 -1.1224511016299383e-05 -0.00088420264647984584 0.00024409319272443021 -0.0042767302941938683 -0.0032943247746333839 0.00064040869360600626 0.0029379624800493684 0.0018849239989651757 0.00053035097316132926 0.00010047834968863803 0.00011642129439809354 0.0020815247090211651 0.00036650672370131746 0.0027466091960923551 0.00098587641664272651 0.00055907184734312347 0.0017746313014004075 -0.0025200263482679456 0.0042495811460552622 0.00081724129024573784 0.00041313423483803287 -0.000171176189187465 -0.00080643856886847178 -2.8402382162153834e-05 2.3874961090944987e-05 -0.00042420221376679305 -0.0026276469724225184 0.0022985086200462911 0.0028215471316109259 0.00081780253225923816 0.0014679274371719518 0.0011558507889196635 -0.0043125947989801757 -0.0007209671345092117 -0.00080411732585686973 0.001368768993947139 -0.00016382679106952328 0.0013116319198091585 -0.0011174861591267177 -0.00078950529833534918 -0.0018410808999141132 0.0013654024578789643 -0.00048673321745455164
leaf_weight=114 100 144 114 109 101 115 103 108 1709 150 173 101 104 107 219 13108 158 294 171 247451 5735 16935 102 137 1953 137 155 104 2541 105 156 978 167 829 134 428 100 108 109 750 451 175 117 159 215 101 104 170 143 142 124 115 105 103 158 175 100 106 107 101 102 100
leaf_count=114 100 144 114 109 101 115 103 108 1709 150 173 101 104 107 219 13108 158 294 171 247451 5735 16935 102 137 1953 137 155 104 2541 105 156 978 167 829 134 428 100 108 109 750 451 175 117 159 215 101 104 170 143 142 124 115 105 103 158 175 100 106 107 101 102 100
internal_value=0 -9.9882e-06 -2.47968e-06 0.00129482 -0.00149762 0.00233391 5.99026e-06 -0.002972 -2.69365e-06 -0.0036287 0.00170808 -0.000704727 -0.00127569 0.000595789 0.00133774 -1.08325e-05 -0.000559069 -0.000154163 -3.65278e-05 -6.63878e-06 -0.000171762 5.11837e-06 -0.00244302 -0.00402317 0.000464707 0.00428327 0.000388131 0.00210587 0.000335798 -0.00106355 0.00244309 0.000380887 0.0016916 0.000469248 0.000496184 0.00141427 -0.00280362 0.00515311 0.00158844 0.000715776 0.000194712 -0.00128402 -3.17958e-05 -0.000514456 -0.000792103 -0.00345422 0.00300798 0.00325546 0.000328552 0.00100247 0.000705424 -0.00377244 -0.000288138 -0.000405409 0.00173298 7.58895e-05 0.000928486 -0.00152334 -0.000455905 -0.00219487 0.00109696 -0.000268681
internal_weight=0 297054 296304 2535 1671 1425 294633 750 290353 452 1080 1219 787 4280 958 285390 2161 2003 1110 283229 18843 264386 309 461 4963 345 4649 907 4494 381 703 3322 814 3008 729 647 351 208 314 1579 1429 289 354 478 319 353 389 285 432 375 233 252 210 220 314 289 204 207 314 201 211 207
internal_count=299589 297054 296304 2535 1671 1425 294633 750 290353 452 1080 1219 787 4280 958 285390 2161 2003 1110 283229 18843 264386 309 461 4963 345 4649 907 4494 381 703 3322 814 3008 729 647 351 208 314 1579 1429 289 354 478 319 353 389 285 432 375 233 252 210 220 314 289 204 207 314 201 211 207
is_linear=0
shrinkage=0.03


Tree=9
num_leaves=57
num_cat=0
split_feature=21 18 5 22 18 21 22 1 18 22 7 15 21 36 36 22 29 6 21 21 22 21 1 22 36 7 22 1 37 22 36 22 21 23 22 15 23 5 36 21 22 0 26 1 7 32 29 7 22 6 21 5 6 36 26 36
split_gain=4.47657 5.68189 3.91461 2.79465 2.55314 2.23902 1.58394 1.48444 1.27359 1.24922 0.910635 0.674394 0.65644 0.666815 0.542707 0.54179 0.506575 0.503799 0.499744 1.64773 6.13782 1.16975 0.468907 0.412883 0.410417 0.331918 0.263887 0.227723 0.220699 0.219931 0.200077 0.195111 0.187554 0.178775 0.165062 0.152557 0.142763 0.139667 0.12942 0.122208 0.103557 0.0938516 0.0926549 0.0870977 0.0817731 0.0670424 0.0647363 0.0592385 0.0588486 0.0308355 0.0286803 0.0262282 0.0195926 0.0157213 0.0156325 0.0137535
threshold=0.051233526447020665 0.0329819374179516 0.96801904650555426 0.053421633460953417 -0.044253167950790366 0.025986079928212152 -0.086827012707161019 0.10286351481623908 0.024903652832058983 0.061611611792862793 0.88149888106410701 -0.3380308656424092 0.018142780641277587 -0.29362793169957063 -0.63248767828813379 0.039614523683727428 0.74379361722157156 0.85312741708948014 0.025986079928212152 0.022358956719250003 0.070317135034148284 0.021391952405587743 -0.0084587978422776215 -0.05943714547387579 -0.67011732827982196 0.77972827775115539 -0.05024735946882785 0.055358960391210549 0.22202062258278724 0.029472030186492474 -0.17494009288817716 -0.0033742008818127829 0.018142780641277587 0.71968821203295508 0.004957281564137773 -0.04456476481850509 0.81792100515217159 0.90172043393770884 -0.320401403157136 0.012230690699378257 0.018569493962610432 0.012275006011344068 -3.3423655683577782 -0.053518898496735641 0.98856588172258286 80.928113352647856 0.71375859782830831 0.9713104319833793 0.004957281564137773 1.0317550914477926 0.018142780641277587 0.99322524570335013 0.9348253966235337 -0.29362793169957063 -2.2965306543437598 -0.28005228619823164
decision_type=2 2 2 2 2 2 2 2 2 2 2 2 2 2 2 2 2 2 2 2 2 2 2 2 2 2 2 2 2 2 2 2 2 2 2 2 2 2 2 2 2 2 2 2 2 2 2 2 2 2 2 2 2 2 2 2
left_child=1 4 11 55 5 28 12 15 18 42 36 37 13 16 -10 22 24 -11 19 21 -21 -8 38 47 -6 -9 -25 32 -1 43 -29 46 -16 44 -27 52 -5 -2 -4 -18 48 49 -7 -13 -15 -35 -24 -20 -33 53 -30 -40 -12 -14 -48 -3
right_child=2 3 7 10 6 9 8 25 14 17 35 29 41 33 27 -17 39 -19 23 20 -22 -23 31 26 -26 34 -28 30 50 -31 -32 40 -34 45 -36 -37 -38 -39 51 -41 -42 -43 -44 -45 -46 -47 54 -49 -50 -51 -52 -53 -54 -55 -56 -57
leaf_value=-0.00067232972511797851 0.005439277309310305 0.00027864598786748193 0.0027129603515511991 -0.0061096776623560762 0.003297029433040713 -0.0019298853556203963 -2.2005981792961727e-06 -0.0019500506084496835 -0.0026397465619010674 -0.0055599748772521699 -0.0037199715177241078 0.0036196846831251556 0.00017825052238230424 0.00046660193296375549 -0.00067625715137664417 -0.00063976927190156549 0.0012138107992838009 -0.0030087964334732458 0.00011741367413737504 0.00046731611621438155 -0.0047635936971584985 0.0011508095258380953 0.0017852479019356343 0.0013794321779383974 0.0013864654331528681 0.00033835318302802173 0.00044491540548882176 -0.0016402412304771356 0.00032932633482287159 0.0014143646973825751 -0.00042162429009504564 0.00062357930811832391 -1.177650175769021e-05 0.00082900682185108726 -0.00090146513158363977 -0.0020566551587650329 -0.004316745844152441 0.0038666050831553476 0.0019922490688646091 0.00021916604157161271 0.0011619159282896599 -0.0013102823472559222 -0.00078225922639589963 0.0023266931531999019 -5.6721936397303862e-05 0.00038629821078522595 0.00065515774800194995 -0.00075874508591248222 -0.00025065249083934424 -0.00070757007228704053 0.0010076362810409502 0.0012442873336593119 -0.0028662455590677885 -0.00029011375641893578 0.0012593275591001199 -0.0001528686676861908
leaf_weight=178 100 100 191 100 120 114 285233 152 125 120 103 121 111 404 1005 142 157 190 100 602 303 794 179 448 774 189 729 308 125 130 213 112 632 723 193 190 102 166 113 418 113 103 175 112 779 598 112 193 177 102 136 127 108 142 106 197
leaf_count=178 100 100 191 100 120 114 285233 152 125 120 103 121 111 404 1005 142 157 190 100 602 303 794 179 448 774 189 729 308 125 130 213 112 632 723 193 190 102 166 113 418 113 103 175 112 779 598 112 193 177 102 136 127 108 142 106 197
internal_value=0 -9.69073e-06 0.00125633 -0.00238962 -2.44729e-06 -0.00148762 2.7668e-06 0.000577113 -5.804e-06 -0.00268052 -0.00356269 0.00330931 0.000565698 0.000689995 -0.000711571 0.00110031 0.00119839 -0.0040075 -2.06479e-07 -3.04358e-06 -0.00128105 9.90026e-07 0.00130367 0.000551494 0.00164661 -0.000761455 0.000803255 -0.000598377 0.000133446 0.00244884 -0.00114797 0.000866877 -0.000421569 0.000390504 -0.000280268 -0.00271838 -0.00522176 0.00447093 0.00210605 0.000496128 0.000390265 -0.000505904 -0.00124584 0.0030123 0.000119484 0.000630913 0.00134172 -0.000449541 7.78716e-05 -0.000263769 0.000694516 0.00160963 -0.00329877 -7.27836e-05 0.000963126 0
internal_weight=0 297054 2535 900 296154 1038 295116 1906 290685 599 603 629 4431 3973 2283 1372 1469 310 288402 286932 905 286027 1230 1470 894 534 1177 2158 439 363 521 799 1637 2504 382 401 202 266 431 575 402 458 289 233 1183 1321 397 293 289 355 261 240 211 253 218 297
internal_count=299589 297054 2535 900 296154 1038 295116 1906 290685 599 603 629 4431 3973 2283 1372 1469 310 288402 286932 905 286027 1230 1470 894 534 1177 2158 439 363 521 799 1637 2504 382 401 202 266 431 575 402 458 289 233 1183 1321 397 293 289 355 261 240 211 253 218 297
is_linear=0
shrinkage=0.03


Tree=10
num_leaves=49
num_cat=0
split_feature=20 22 19 20 6 22 19 20 20 19 22 22 19 22 20 20 8 4 20 6 28 6 32 9 22 4 3 25 10 23 37 23 23 20 20 10 32 4 24 23 10 20 29 3 37 39 5 32
split_gain=1.7352 3.40058 2.90536 3.0155 1.5733 1.46507 0.734303 2.5978 1.38594 2.31271 0.707919 4.44843 1.48648 0.699088 1.89854 0.830059 0.677169 0.665762 0.678398 0.549796 0.480209 0.466194 0.459614 0.367803 0.344166 0.264113 0.256697 0.249362 0.236632 0.233959 0.176697 0.162597 0.15117 0.134781 0.129955 0.104684 0.101039 0.0900001 0.0871976 0.0728841 0.0643829 0.0637394 0.0670743 0.0614275 0.0499395 0.0448615 0.0154132 0.0139484
threshold=-0.23974747571015007 0.044702998266728418 -0.11224875915863823 -0.10135715668506695 0.83029590929566066 -0.086827012707161019 -0.054992174785637483 -0.11986763434310876 -0.14954144213423223 0.032980305265670022 -0.042420721711599323 -0.047615685855994953 -0.038955252136579528 -0.022577742160609034 -0.085599345268204355 -0.046091186628539525 0.03600187931633466 -0.17685662148915274 -0.040032906129404008 0.95103206476718694 0.24725189472026904 0.85312741708948014 9.4613263879573797 0.094304531337638581 0.092815433443433251 -0.46850531201050538 -0.1902906496215028 -0.53683921845741611 0.053623786351190257 0.707997387534676 0.14813571391917649 0.80455065214608945 0.60136881457135416 -0.019336703898963813 0.046357038844340816 0.034207043681524968 74.717958554108961 0.068281700094197553 1.0000000180025095e-35 0.45929972524792956 0.025433760720900398 -0.019336703898963813 0.91866175369642955 -0.097589439320439328 0.48050272692737767 -0.059015002424797298 0.97219090094445759 25.523434587004804
decision_type=2 2 2 2 2 2 2 2 2 2 2 2 2 2 2 2 2 2 2 2 2 2 2 2 2 2 2 2 2 2 2 2 2 2 2 2 2 2 2 2 2 2 2 2 2 2 2 2
left_child=1 4 3 21 22 17 7 -7 9 19 11 12 -10 15 -15 -12 -13 18 -4 -8 24 -2 -1 45 27 -20 47 -9 39 37 -5 -3 -27 -31 40 -36 -34 41 -33 -22 -35 -19 -43 -21 -39 -11 -24 -6
right_child=2 31 5 30 26 6 8 20 10 23 13 16 -14 14 -16 -17 -18 29 25 43 28 -23 46 -25 -26 32 -28 -29 -30 33 -32 38 36 34 35 -37 -38 44 -40 -41 -42 42 -44 -45 -46 -47 -48 -49
leaf_value=0.005086191557140957 -0.0056055830691313499 5.7653291943025973e-05 -0.0010317658238439015 -0.00079065266922859309 0.0019037087120804467 -0.0034577535910259864 0.0042177365240430274 0.00052372207573063564 -0.0012578837130194222 -0.00023710669771029574 0.00057568750334143078 -0.00093185129518285584 9.814133706381289e-05 -0.00094867887122907326 -9.4537452389291602e-06 5.6155124260055987e-05 -0.0020799463036553435 -0.00038820592289111328 0.002450123516270681 0.0022710151165866335 0.00020361800568954823 -0.0031552522491962772 0.0031823223874364306 -0.0016533541807034549 0.0017853249718199191 0.00011219490589027651 -1.8176839981532216e-05 3.3735901546525206e-05 0.0023440218647214415 -0.00030361886506993899 0.00067096608791658964 -0.0017477517623774065 0.0015451400212629495 0.00079825841905886089 0.00032588408869973123 0.0012920639989897609 0.00064646883181289773 0 -0.00072970120033903141 0.001099746873758595 0.001552296094512061 0.00037407737336735082 -0.00029666516420709431 0.0012602071607086276 -0.00067398530860028226 0.00051306255733482293 0.0024425050049717381 0.0012789576939850329
leaf_weight=144 125 103 111 129 107 155 148 2068 764 112 3870 3432 15165 1952 251835 9773 541 147 189 192 110 183 136 138 147 109 142 1731 137 146 175 177 538 458 972 116 159 192 157 457 149 886 153 100 196 182 102 122
leaf_count=144 125 103 111 129 107 155 148 2068 764 112 3870 3432 15165 1952 251835 9773 541 147 189 192 110 183 136 138 147 109 142 1731 137 146 175 177 538 458 972 116 159 192 157 457 149 886 153 100 196 182 102 122
internal_value=0 0.00114332 -4.49194e-06 -0.00206922 0.00236606 -2.34137e-07 -8.51348e-06 0.000359267 -1.46557e-05 0.00117942 -1.82904e-05 -0.000190909 3.29067e-05 -5.43291e-06 -1.669e-05 0.00020375 -0.00108899 0.00053568 0.00117641 0.00271087 0.000487217 -0.00416094 0.00372001 -0.000373708 0.000357348 0.00142584 0.000963258 0.000301258 0.00121073 0.000327265 4.08185e-05 -0.000956804 0.00118166 0.000557043 0.00063296 0.000431762 0.00134456 5.65846e-05 -0.00127855 0.000931251 0.000988518 0.000187965 0.0002724 0.00193567 -0.000337221 0.0002171 0.00287902 0.00158467
internal_weight=0 1190 298142 612 753 297530 293009 4805 288204 872 287332 19902 15929 267430 253787 13643 3973 4521 1106 440 4650 308 382 432 3946 995 371 3799 704 3415 304 437 806 1841 1695 1088 697 1574 334 567 607 1186 1039 292 388 294 238 229
internal_count=299332 1190 298142 612 753 297530 293009 4805 288204 872 287332 19902 15929 267430 253787 13643 3973 4521 1106 440 4650 308 382 432 3946 995 371 3799 704 3415 304 437 806 1841 1695 1088 697 1574 334 567 607 1186 1039 292 388 294 238 229
is_linear=0
shrinkage=0.03


Tree=11
num_leaves=58
num_cat=0
split_feature=21 18 1 19 21 21 36 19 18 19 19 36 19 9 18 19 21 21 18 19 19 28 5 2 21 21 39 21 21 21 10 18 21 10 36 7 21 36 3 9 5 26 12 18 23 36 12 5 24 16 30 5 10 26 39 36 1
split_gain=4.11077 5.00689 3.33004 3.17896 1.76674 1.71002 1.49421 1.16282 0.872061 1.22382 0.745609 0.710097 0.68802 0.594299 0.580706 3.67773 0.673876 1.01507 0.566963 0.540983 0.463213 0.452852 0.442508 0.411239 0.411089 0.379373 0.527044 0.36184 0.357318 0.445776 0.346879 0.28676 0.268205 0.230677 0.177162 0.170722 0.14431 0.114411 0.096737 0.0942948 0.0871438 0.0808097 0.080736 0.0799696 0.0628001 0.0608824 0.058973 0.0522753 0.0482197 0.0430538 0.041262 0.0380552 0.0329846 0.0262447 0.015476 0.00885353 0.00174491
threshold=0.051233526447020665 0.0329819374179516 0.0094549396594148898 -0.11224875915863823 0.021391952405587743 0.025986079928212152 -0.320401403157136 -0.054992174785637483 0.024903652832058983 0.019090635323374346 -0.029788347016000572 -0.47262830289684588 0.032980305265670022 0.094304531337638581 -0.029406476274915508 0.016484455368623366 0.014609209435959164 0.015558088412662095 0.0329819374179516 -0.080571416487316694 0.008331322913571226 0.2605177293360581 0.90172043393770884 -0.11210733744623923 0.019648996150016671 0.038013538459389005 -0.088610544412585465 0.031642803064694996 0.01325106273402474 0.019204893186078507 0.068291866463232834 0.00019552738799509702 0.012917140984101108 0.053623786351190257 -0.16524544200811495 0.88950276840176079 0.016156225567115001 -0.34567913401713107 -0.092229112445269976 0.026091014017967224 0.94806286707834364 0.30619192785859528 0.85035780525695215 -0.0067151202988577656 0.80455065214608945 -0.17704255622694751 0.83434189484171661 0.99056570480711781 47.871494790877001 13.424592415275344 4.372620286178118 1.0447432742366274 0.059003933008060207 0.6476232159043237 0.0090059550465045931 -0.28005228619823164 0.00096606126109381762
decision_type=2 2 2 2 2 2 2 2 2 2 2 2 2 2 2 2 2 2 2 2 2 2 2 2 2 2 2 2 2 2 2 2 2 2 2 2 2 2 2 2 2 2 2 2 2 2 2 2 2 2 2 2 2 2 2 2 2
left_child=1 3 6 5 10 35 18 21 14 20 -3 -11 38 37 15 24 30 -18 22 -8 36 28 -2 -6 -9 26 -7 -28 32 31 -16 -30 43 46 -13 -1 -10 -14 48 -22 -24 -31 -40 -5 -25 51 -23 52 -4 -15 -48 -39 -21 -37 -42 -12 -57
right_child=2 4 12 7 23 25 19 8 9 11 55 34 13 49 16 -17 17 -19 -20 47 39 33 40 44 -26 -27 27 -29 29 41 -32 -33 -34 -35 -36 53 -38 45 42 -41 54 -43 -44 -45 -46 -47 50 -49 -50 -51 -52 -53 -54 -55 -56 56 -58
leaf_value=-0.00095730175630784331 0.0054833195854992519 -0.0026355075995649828 0.0018870473263851557 -3.8860439061164274e-05 -0.0047588368909452956 -0.004607061973373283 -0.00016554468036863274 -0.00034711259644698783 -0.00089915388262593022 -0.0029913548553845808 0.00016817148536957718 -0.0012422785277515632 -0.00083106232826424308 -0.0013139054058897641 -1.0579473278424167e-05 -0.0051005056893645593 0.00045969848626266281 4.6748832240888706e-05 0.0014820889014704375 0.0016474091109629023 0.00035553342725306284 0.0015924918047602924 0.003849652981726329 -0.0023500678470035974 0.00065279765491552946 -0.0013665680313352645 -0.0037158080036402983 -0.0015170149780586409 0.00096803490421553859 5.2413907723840493e-06 -0.00056017189270908595 -0.00011340306948244115 -0.0012334775460104094 0.0023740296643611214 -0.00050005091694972496 0.00017655831990198066 -5.4768304555954432e-05 0.00033925452717434594 0.0010201054021342936 0.0011201458042969471 0.0025451078160064517 -0.00091057327078042014 -4.2940467105504801e-05 0.00039087307276659225 -0.003391924480163901 0.0007793266310276506 0.00022239682628666225 0.0013973336096521839 0.00092497825219722807 -0.0023054859226292281 0.00094595038318284557 -0.00029337384859917274 0.0025319856860353883 0.00090439764248392363 0.0032783570941807435 -0.00026620783379008821 -4.157864657929858e-05
leaf_weight=101 109 151 127 915 172 153 177 2158 308 170 102 663 105 103 250904 144 6745 26147 130 101 336 101 171 151 445 149 116 179 1573 392 1038 251 139 130 546 103 466 180 157 279 145 109 100 665 125 143 114 199 102 100 261 161 120 100 100 100 101
leaf_count=101 109 151 127 915 172 153 177 2158 308 170 102 663 105 103 250904 144 6745 26147 130 101 336 101 171 151 445 149 116 179 1573 392 1038 251 139 130 546 103 466 180 157 279 145 109 100 665 125 143 114 199 102 100 261 161 120 100 100 100 101
internal_value=0 -1.01919e-05 0.0012042 -3.37833e-06 -0.0022418 -0.00178254 0.00230391 2.04611e-06 -5.48136e-06 -0.000535418 -0.000913688 -0.00116863 0.000124416 -0.000418165 -3.70036e-07 -0.000434468 3.80611e-06 0.000131523 0.00329596 0.00121007 9.1117e-05 0.000472701 0.00373903 -0.0035805 -0.000175 -0.00271512 -0.00315654 -0.00239276 0.000357035 0.000599566 -1.28559e-05 0.000817576 2.7242e-05 0.00123944 -0.000909629 3.92968e-05 -0.000394725 5.94368e-05 0.0010147 0.000707409 0.00327357 -0.000188163 0.000594944 0.000140123 -0.00283385 0.000258952 0.00092284 0.00179684 0.00147221 -0.00181803 0.000734106 3.17714e-05 0.00214222 0.00055014 0.00285785 -4.51359e-05 -0.000168329
internal_weight=0 296802 2530 295900 902 901 1252 294999 290349 2768 454 1379 1278 792 287581 2747 284834 32892 655 597 1389 4650 525 448 2603 597 448 295 4044 2325 251942 1824 1719 606 1209 304 774 589 486 615 416 501 257 1580 276 484 476 420 229 203 375 341 221 203 245 303 201
internal_count=299332 296802 2530 295900 902 901 1252 294999 290349 2768 454 1379 1278 792 287581 2747 284834 32892 655 597 1389 4650 525 448 2603 597 448 295 4044 2325 251942 1824 1719 606 1209 304 774 589 486 615 416 501 257 1580 276 484 476 420 229 203 375 341 221 203 245 303 201
is_linear=0
shrinkage=0.03


Tree=12
num_leaves=63
num_cat=0
split_feature=22 3 22 19 19 22 23 22 22 22 19 39 10 22 22 19 19 22 22 22 19 4 36 22 27 19 37 5 19 36 5 19 22 25 30 37 23 35 37 3 19 19 4 34 23 10 36 9 34 5 37 36 36 24 22 22 36 34 22 34 1 31
split_gain=1.36249 0.816245 2.63296 1.78026 1.22151 0.97952 0.919293 0.878684 1.13918 1.02553 0.853989 1.33887 0.690966 0.686642 4.12978 1.38964 1.33516 0.662147 1.06073 2.09064 1.65328 0.624298 0.623126 0.61295 0.595102 0.573937 0.512269 0.484762 0.459934 0.324296 0.295845 0.289318 0.287109 0.290122 0.229324 0.223087 0.21881 0.18437 0.154136 0.129312 0.128964 0.114075 0.0848648 0.0775077 0.073972 0.0728721 0.0743681 0.0695455 0.0634898 0.0579519 0.0474647 0.0331092 0.0329764 0.0243662 0.0531092 0.0369145 0.0242652 0.0200629 0.0180766 0.0137929 0.0194559 0.0128363
threshold=-0.086827012707161019 -0.41253634897895164 0.047938921105839645 -0.0023191649259194443 -0.11224875915863823 -0.017761688408581885 0.5391123097333993 0.044702998266728418 0.077204908334582281 0.061611611792862793 -0.054992174785637483 0.1361103292473955 0.053623786351190257 -0.042420721711599323 -0.047615685855994953 -0.038955252136579528 0.037613686151150974 0.035061306348357364 0.083669348533763857 0.075603951285375684 -0.021823066797345404 -0.17685662148915274 -0.40195056167244669 -0.05220981036423205 0.031053761788464838 0.02243581203066938 1.4537443326972008 0.95148302418225306 0.026874327892845763 -0.44638901536846098 0.99322524570335013 0.032042617662064059 0.092815433443433251 -2.1880726457602786 2.4941818395457509 2.7245997682901435 0.707997387534676 -0.0079349110501125263 0.14813571391917649 -0.1902906496215028 -0.00926797775446646 0.0034756125586382059 0.068281700094197553 326054470.00000006 0.73497720306908565 0.025433760720900398 -0.14912590204826318 0.031226183253070344 227100612.50000003 0.98957776920120677 0.48050272692737767 -0.31466963497962164 -0.20045435277318505 76.964156900951295 -0.094577784105206328 -0.088748784053910831 -0.26756695900455091 672368725.00000012 -0.094577784105206328 203583455.00000003 0.038930704660727219 0.088923174745893382
decision_type=2 2 2 2 2 2 2 2 2 2 2 2 2 2 2 2 2 2 2 2 2 2 2 2 2 2 2 2 2 2 2 2 2 2 2 2 2 2 2 2 2 2 2 2 2 2 2 2 2 2 2 2 2 2 2 2 2 2 2 2 2 2
left_child=21 2 3 5 7 -2 -4 -3 9 43 11 12 32 14 15 23 -17 26 19 -19 -20 25 24 -12 -16 29 28 37 -15 40 -5 -27 33 -6 -24 -28 42 -7 -10 -11 -1 45 49 -9 -31 46 -38 53 -49 52 -44 -51 -23 54 -43 -56 -46 58 -53 -55 -61 -42
right_child=1 4 6 30 10 27 -8 8 38 39 13 -13 -14 17 22 16 -18 18 20 -21 -22 36 34 -25 -26 31 35 -29 -30 44 -32 -33 -34 -35 -36 -37 41 -39 -40 -41 61 47 50 -45 56 -47 -48 48 -50 51 -52 57 -54 59 55 -57 -58 -59 -60 60 -62 -63
leaf_value=0.0032468894174186042 0.00030992099090655401 0.00086754075630435072 0.00023892610635681432 0.00040419859714472097 0.00075144592172847848 0.004668107493822354 -0.0029505202195285762 -0.0013603106838014011 -0.00072759519377232592 -0.0043921952040776287 -0.00051072158462657166 -0.0026094343400092151 0.0024657578915871932 7.101993887689354e-05 -0.0010269797279172646 0.00022503592041022425 -0.00051907422891426646 -4.0677836495099205e-05 0.00067783428852361536 -0.00042154884837718463 2.3350655056313295e-05 0.00099369352430960563 -0.00013777027200963709 -0.0022553268482141571 -0.002568735261531235 -0.00073816168906513729 0.00051122975070500639 0.0019658042867398513 -0.00015053057463575902 0.00045478310569874956 -0.0016869155694659689 0.00094742936310319374 0.001683401432615881 0.00020567837199887489 -0.00093888293423617392 0.0017539598135234522 0.0010332071808794305 0.0029876070939380706 0.0006400757266783227 -0.0029407381497262874 0.0015256739486241831 0.00094015025701187375 0 -0.00031700444864540556 0.0015777491626534055 0.001652554957324055 8.8726978123437718e-05 0.0014211630438188236 0.00032634113330165342 0.00054360484077039834 -0.00065743737510101066 0.00030787547868228862 0.00024758769317540142 0.00030254195209000544 0 0.00051982518898720665 0.00091928213391464445 -0.00030416876150685405 -2.3142614197820028e-05 0.00022743876967253995 -0.0002761736575397388 0.0022057113612906172
leaf_weight=108 139 180 146 141 1229 167 179 189 128 112 457 130 152 92656 503 12467 2626 92930 3718 15080 53061 109 376 307 423 170 1084 182 9270 134 105 197 154 3147 2663 151 239 114 175 160 100 146 192 110 187 108 120 108 101 117 196 209 132 256 231 254 110 154 465 151 127 100
leaf_count=108 139 180 146 141 1229 167 179 189 128 112 457 130 152 92656 503 12467 2626 92930 3718 15080 53061 109 376 307 423 170 1084 182 9270 134 105 197 154 3147 2663 151 239 114 175 160 100 146 192 110 187 108 120 108 101 117 196 209 132 256 231 254 110 154 465 151 127 100
internal_value=0 -7.85629e-06 0.000781874 0.00166342 -1.10215e-05 0.00254278 -0.00150886 -0.00103045 -0.00142483 -0.00221382 -7.33854e-06 0.00038899 0.000472939 -1.39763e-05 -0.000184356 3.19947e-05 9.53684e-05 -1.36101e-06 -3.86854e-05 -9.38819e-05 6.62615e-05 0.000516916 -0.00105033 -0.00121589 -0.0017347 0.0011374 5.82317e-05 0.00320643 5.08407e-05 0.0016194 -0.000476483 0.000158477 0.000405356 0.000359656 -0.00084076 0.000665734 0.000315059 0.00399832 5.23666e-05 -0.00355082 0.00237098 0.000537275 5.32246e-05 -0.00098675 0.00107492 0.000946986 0.00072597 0.000395778 0.000906843 0.000180858 -0.000329127 7.13119e-05 0.000597753 0.000301449 0.000430158 0.000270289 0.00134436 8.94489e-07 7.50825e-05 0.000143691 0 0.00188162
internal_weight=0 294811 1173 848 293638 602 325 1054 874 571 292584 4812 4682 287772 19822 15857 15093 267950 164789 108010 56779 4521 3965 764 926 1106 103161 463 101926 739 246 367 4530 4376 3039 1235 3415 281 303 272 308 1841 1574 299 431 467 359 1374 209 1186 388 945 241 1165 631 485 297 828 674 534 278 200
internal_count=299332 294811 1173 848 293638 602 325 1054 874 571 292584 4812 4682 287772 19822 15857 15093 267950 164789 108010 56779 4521 3965 764 926 1106 103161 463 101926 739 246 367 4530 4376 3039 1235 3415 281 303 272 308 1841 1574 299 431 467 359 1374 209 1186 388 945 241 1165 631 485 297 828 674 534 278 200
is_linear=0
shrinkage=0.03


Tree=13
num_leaves=63
num_cat=0
split_feature=21 20 1 22 15 20 19 22 20 21 22 2 21 22 4 20 19 19 22 21 19 20 20 22 35 19 28 4 22 22 23 24 4 20 23 21 1 20 23 12 26 20 10 31 32 39 2 4 22 5 21 27 19 4 10 26 33 4 15 16 37 23
split_gain=3.76936 6.01361 3.04283 1.29919 1.23393 1.13485 1.04477 0.766335 0.689593 7.43647 1.90578 1.41605 0.822615 0.664094 0.587618 0.604609 0.532259 0.485223 1.8542 1.22221 0.827307 1.1854 0.830589 0.449047 0.41625 0.398689 0.450572 0.376568 0.323045 0.340143 0.245731 0.237615 0.236689 0.215405 0.189494 0.176126 0.156671 0.147473 0.13765 0.126853 0.116798 0.111329 0.103968 0.0945778 0.0905225 0.090152 0.0886239 0.0732138 0.0695445 0.071195 0.0671884 0.0577416 0.0567166 0.0588198 0.0566987 0.0537934 0.0508471 0.04039 0.0328943 0.0205997 0.018372 0.00912964
threshold=0.051233526447020665 -0.14954144213423223 0.0094549396594148898 -0.086827012707161019 -0.2767040504162192 -0.23974747571015007 -0.054992174785637483 0.039614523683727428 -0.0781361750649959 0.022358956719250003 -0.043050299721581246 -0.15797921449782795 0.015278644340253873 0.004957281564137773 -0.17685662148915274 -0.040032906129404008 -0.041607975301547043 -0.038955252136579528 0.08425331145261418 0.018522201514887218 -0.027996515154842246 -0.070141159873711875 -0.070141159873711875 -0.061541339866231552 0.0049237091420356394 0.032980305265670022 0.58918715576228198 -0.27562748877170934 0.088266955900003788 0.080955979960266614 0.84302019735742151 56.168690767086026 -0.46850531201050538 -0.019336703898963813 0.69415744486641351 0.014171304428004005 0.12022747676775251 -0.025268213762543484 0.60136881457135416 1.2253049012677104 -3.3423655683577782 0.046357038844340816 0.035317582400131463 0.17683070426073991 77.900179855258145 -0.0062327414617583182 -0.043965166637356473 0.063788356942148405 -0.0033742008818127829 0.98365028264103727 0.012776479240885983 -0.79278501693131453 0.02822665614444694 -0.10582126151713796 0.025433760720900398 -7.2070294873767056 69.210195439385231 -0.19597041525900388 -0.04456476481850509 8.186123309058198 0.18183400954041376 0.86640205507247436
decision_type=2 2 2 2 2 2 2 2 2 2 2 2 2 2 2 2 2 2 2 2 2 2 2 2 2 2 2 2 2 2 2 2 2 2 2 2 2 2 2 2 2 2 2 2 2 2 2 2 2 2 2 2 2 2 2 2 2 2 2 2 2 2
left_child=1 5 4 14 24 40 23 48 9 10 16 -11 -12 36 15 -3 -8 18 19 -10 22 -22 -19 39 30 -15 55 -7 29 35 -2 -26 -17 59 47 -25 52 -20 -34 -5 -1 54 -43 60 -40 -13 -30 56 49 -6 -49 -50 58 61 -36 -27 -35 -38 -4 -16 -29 -54
right_child=2 3 13 6 7 27 8 -9 17 11 12 45 -14 25 33 32 -18 20 37 -21 21 -23 -24 28 31 26 -28 43 46 -31 -32 -33 38 34 41 -37 57 -39 44 -41 -42 42 -44 -45 -46 -47 -48 50 51 -51 -52 -53 53 -55 -56 -57 -58 -59 -60 -61 -62 -63
leaf_value=-0.0019481512289181431 0.0049504365756462441 -0.00098011698450863396 0.001828325036989914 0.0023499367094568773 0.0026514096284095323 -0.0051790716925137785 -0.0020158079783707391 -0.00077321436479776365 -0.00033188757108565555 -0.0070337960432065756 0.0011199497989798409 -0.00379435962016835 8.3096690886084879e-05 0.00054759531224819735 -0.00019400855971286074 0.0023095590961797054 -0.00062979472942584159 -0.00079921774512388161 0.00077006028887325034 -0.0019504278932265145 0.00086165382343725825 -2.0139458607363587e-05 0.00034614121640359259 0.00015641227515803325 0.0032132463538599265 -0.00098630244140472971 -0.0026671131485545558 -0.0030799753742263322 0.0017306349102989952 -0.0011395718568115586 0.0031940864081482167 0.0011735626940779949 8.6353252819840873e-05 0.00043082241930833445 0.00073304622293408146 0.00055130857606925071 -0.00039166446186807694 0.0017184632249709578 0.0014428314723269114 0.0010327209048073332 -0.00067627479458568526 0.00030636206484187348 0.0013097084116998822 -0.0039530557508960767 0.00056399521597917332 -0.0026375434278620518 0.00067702250364246974 0.00010860089328888588 0.0018445887089054173 0.0016798026861272845 -0.0007122726160267652 0.00086894162302146105 0.00063286707994549116 0.0013440719403309766 0.0014260495183165266 -7.4035885633198402e-05 -3.1172662201133674e-06 0.00043688622745048888 0.00095472596510621415 -0.00070949386439846552 -0.0023434413562441968 0.00019015614931156642
leaf_weight=116 143 111 100 115 150 111 307 122 4442 113 891 121 3066 166 183 189 1409 608 312 465 1379 264200 8752 2365 113 104 127 134 177 146 181 106 109 557 488 1822 105 312 551 187 173 1028 105 102 146 198 142 191 141 180 161 116 113 100 155 150 407 106 100 140 116 107
leaf_count=116 143 111 100 115 150 111 307 122 4442 113 891 121 3066 166 183 189 1409 608 312 465 1379 264200 8752 2365 113 104 127 134 177 146 181 106 109 557 488 1822 105 312 551 187 173 1028 105 102 146 198 142 191 141 180 161 116 113 100 155 150 407 106 100 140 116 107
internal_value=0 -9.75669e-06 0.00115311 -2.94026e-06 0.00220433 -0.00268893 -1.07766e-05 0.00137252 -1.82538e-05 -0.000333696 -4.4196e-05 -0.00412756 0.000317346 0.000120833 0.000501701 0.00110371 -0.00087961 -1.13767e-05 -0.00028959 -0.000485913 -5.76885e-06 -1.55492e-05 0.000271414 0.000421142 0.00328446 -0.000666828 -0.00120382 -0.00361283 0.000347516 0.000278779 0.00397981 0.00224068 0.00133927 0.000305826 0.000383348 0.000328979 0.000714345 0.00124927 0.00110776 0.00154485 -0.00119766 0.000585891 0.000402101 -0.00310907 0.00126315 -0.00308679 0.00127139 0.000107704 0.00182365 0.0021312 -0.000258431 0.0014164 0.00099417 0.000726287 0.000904961 -0.00045961 0.00024452 1.03728e-05 0.00140721 -0.000426874 -0.00275129 0.000431363
internal_weight=0 296802 2530 296050 1252 752 291529 709 286575 6105 5673 432 3957 1278 4521 1106 1716 280470 5531 4907 274939 265579 9360 4954 543 547 381 463 4652 4333 324 219 995 3415 3092 4187 731 624 806 302 289 1776 1133 352 697 319 319 1316 587 330 352 257 520 320 643 254 964 211 200 323 250 220
internal_count=299332 296802 2530 296050 1252 752 291529 709 286575 6105 5673 432 3957 1278 4521 1106 1716 280470 5531 4907 274939 265579 9360 4954 543 547 381 463 4652 4333 324 219 995 3415 3092 4187 731 624 806 302 289 1776 1133 352 697 319 319 1316 587 330 352 257 520 320 643 254 964 211 200 323 250 220
is_linear=0
shrinkage=0.03


Tree=14
num_leaves=60
num_cat=0
split_feature=21 20 18 5 22 22 20 19 7 2 19 19 20 28 20 4 22 22 21 21 19 21 21 22 4 22 22 36 5 36 20 22 9 23 35 22 18 36 36 36 26 20 12 31 37 21 1 28 4 9 9 5 5 18 25 7 37 9 11
split_gain=3.54876 5.66111 3.26636 2.87596 2.30525 1.18775 1.06757 0.947676 0.85847 0.840196 0.803146 0.679267 0.695125 0.568024 0.557306 0.756764 0.508567 3.6954 2.4218 1.2578 4.65581 1.19537 0.664163 0.423224 0.353438 0.318063 0.30991 0.299956 0.29634 0.284123 0.399891 0.283811 0.225339 0.197328 0.157801 0.143467 0.138511 0.154548 0.124632 0.120249 0.10967 0.109011 0.0904041 0.0883246 0.0871913 0.0744054 0.0882431 0.0713075 0.0684047 0.0674648 0.0662747 0.0495277 0.0400886 0.0340855 0.0335823 0.0242998 0.0167528 0.0103528 0.00963291
threshold=0.051233526447020665 -0.14954144213423223 0.029532371738166942 0.99381835463139268 0.064638810348112932 -0.086827012707161019 -0.23974747571015007 -0.054992174785637483 0.7155560327652285 -0.11210733744623923 0.032980305265670022 0.019090635323374346 -0.029984629965794599 0.58918715576228198 -0.019336703898963813 -0.19597041525900388 -0.042420721711599323 -0.047615685855994953 0.011628344624051689 0.022358956719250003 0.018309119254987943 0.014909028097345714 0.015558088412662095 -0.05943714547387579 -0.27562748877170934 0.088266955900003788 0.080955979960266614 -0.44638901536846098 0.90172043393770884 -0.24305959617300002 -0.23974747571015007 0.039614523683727428 0.049692077206357606 0.69415744486641351 -0.0027820592988560271 0.029472030186492474 0.053041248422807337 -0.37533330822163324 -0.17704255622694751 -0.26024888676299496 -3.3423655683577782 0.061427150996602002 1.2453568363700336 0.17683070426073991 0.54535804914911123 0.056287099978834805 0.031543857195305225 0.23608108576571071 0.041314049228242222 0.060616571514333077 0.029985893710360489 1.0370373275013243 0.96915140852072601 0.014758596807647465 -1.9442319661876792 0.95669671151918734 0.18183400954041376 0.04786458559327611 0.87640426395384363
decision_type=2 2 2 2 2 2 2 2 2 2 2 2 2 2 2 2 2 2 2 2 2 2 2 2 2 2 2 2 2 2 2 2 2 2 2 2 2 2 2 2 2 2 2 2 2 2 2 2 2 2 2 2 2 2 2 2 2 2 2
left_child=1 6 5 8 11 14 40 23 28 -6 29 50 -13 38 47 32 17 18 -9 21 -21 -18 -19 27 -8 26 -25 -7 -2 45 -31 39 34 48 -16 -30 37 -14 49 52 -1 -35 -11 56 -27 -5 -47 53 -17 -12 58 -51 -10 55 -29 -3 -26 -32 -4
right_child=3 2 4 10 9 7 24 16 31 42 13 12 36 -15 15 33 19 22 -20 20 -22 -23 -24 25 43 44 -28 54 35 30 57 -33 -34 41 -36 -37 -38 -39 -40 -41 -42 -43 -44 -45 -46 46 -48 -49 -50 51 -52 -53 -54 -55 -56 -57 -58 -59 -60
leaf_value=-0.0018897570418485729 0.0048390884450794647 0.00023926634458382225 -0.00020592626606189863 0.0022806353327168242 -0.0049785985070464464 0.0026692607233974527 -0.0050238393901651983 -0.0012963300096449331 0.0026467945906308039 -0.0028195784166582171 0.00026051503763851563 -0.0030423382711049691 -0.00185546757270812 -0.001937557786502163 0.0016813239929296378 0.0002726660386955321 -1.1620254423346839e-05 -0.00039455108573290909 0.00015259531373167548 -0.0042916649015953172 0.0001924693103809878 0.00024987925799839343 -0.00125780372026425 0.00029741832391769305 -0.0029876450319634858 0.00082867318501717653 -0.0011054081163783625 0.0012603673061280013 0.0036671860199904444 -0.0010473177002173339 0.00084643486876983208 0.00021717236371372839 0.0027202048433140258 0.00083350164820200493 0.00074378660093476362 0.0021892587347791675 1.5232499179518575e-05 -0.0006365698364262962 0.00077417498525581994 0.0013221054092796736 -0.00065599827113520172 0.00035291823285968528 -0.0016686986932888694 -0.0038345802259842623 0.0019056507332498418 0.0016967419356922555 0.00056694169796185482 -0.0011751304818034029 -0.00018556629290552789 1.7282787771853973e-05 0.00079711685852265103 -0.00077447974540920778 0.001838534646558373 -0.00065227192266052475 0.00060177736941305804 -0.00034334346873730664 -0.0022731986855612759 0.0013686121409736784 0.00014939879804768552
leaf_weight=116 112 125 107 105 155 108 111 1119 191 132 171 148 138 164 351 900 247942 1167 14339 287 756 16798 2650 4023 134 202 146 125 133 117 133 105 111 941 330 137 155 334 158 188 173 829 157 102 117 183 109 101 427 103 149 187 130 133 233 129 116 104 186
leaf_count=116 112 125 107 105 155 108 111 1119 191 132 171 148 138 164 351 900 247942 1167 14339 287 756 16798 2650 4023 134 202 146 125 133 117 133 105 111 941 330 137 155 334 158 188 173 829 157 102 117 183 109 101 427 103 149 187 130 133 233 129 116 104 186
internal_value=0 -9.46359e-06 -2.84965e-06 0.00111886 -0.00132944 4.62547e-06 -0.00260893 -2.76723e-06 0.00237448 -0.00318126 0.00030155 -0.00065116 -0.00118711 -0.000367904 0.000495127 0.00061537 -9.92673e-06 -0.000158724 4.75063e-05 8.53085e-07 -0.00103884 4.96089e-06 -0.000994678 0.000408583 -0.00350512 0.000318324 0.000247546 0.00127117 0.00349833 0.00100348 0.000374166 0.00166994 0.00144433 0.000402371 0.00123159 0.00292947 -0.000743989 -0.000999615 4.3366e-05 0.00196363 -0.00116207 0.000610142 -0.00220553 -0.00301639 0.00123355 0.00155684 0.00128561 -0.000456907 0.000122953 -0.000200714 0.000281833 -0.000483017 0.00232948 -0.000261459 0.000840397 -4.48383e-05 -0.00266918 0.00108871 9.37705e-06
internal_weight=0 296802 296050 2530 1661 294389 752 290012 996 444 1534 1217 775 783 4377 3889 285058 19275 15458 265783 1043 264740 3817 4954 463 4488 4169 466 382 751 354 614 792 3097 681 270 627 472 619 509 289 1770 289 352 319 397 292 488 1327 461 442 290 321 387 358 254 250 237 293
internal_count=299332 296802 296050 2530 1661 294389 752 290012 996 444 1534 1217 775 783 4377 3889 285058 19275 15458 265783 1043 264740 3817 4954 463 4488 4169 466 382 751 354 614 792 3097 681 270 627 472 619 509 289 1770 289 352 319 397 292 488 1327 461 442 290 321 387 358 254 250 237 293
is_linear=0
shrinkage=0.03


Tree=15
num_leaves=59
num_cat=0
split_feature=21 18 5 19 22 21 22 22 18 19 5 19 19 36 36 19 21 4 18 6 36 22 22 22 21 36 12 1 36 22 36 36 36 36 5 19 36 23 33 7 18 26 32 38 21 1 12 24 23 1 37 10 24 5 36 7 31 0
split_gain=3.13806 4.47208 2.57192 2.45426 2.16565 1.26194 1.17671 1.0215 1.00379 0.895978 0.799257 0.764935 0.743261 0.695487 0.610703 0.596996 0.573762 0.780192 0.55512 0.49989 0.476402 0.418335 0.338676 0.291243 0.284681 0.282776 0.371873 0.27993 0.215275 0.215033 0.309496 0.208405 0.187607 0.177832 0.172579 0.161721 0.153997 0.150038 0.132617 0.117402 0.104267 0.102797 0.102136 0.0829227 0.0771069 0.0779505 0.0705152 0.065985 0.0571806 0.0452602 0.0343701 0.0305033 0.0161159 0.0147109 0.0100003 0.00848792 0.00738034 0.000502632
threshold=0.051233526447020665 0.0329819374179516 0.99381835463139268 -0.11224875915863823 0.053421633460953417 0.025986079928212152 -0.086827012707161019 0.061611611792862793 0.024903652832058983 -0.054992174785637483 0.92196878181274255 0.019090635323374346 0.032980305265670022 -0.26024888676299496 -0.41212638616352248 0.06455733723266989 0.018142780641277587 -0.19597041525900388 -0.029406476274915508 0.85312741708948014 -0.320401403157136 -0.061541339866231552 0.039614523683727428 0.092815433443433251 0.016156225567115001 -0.24305959617300002 1.0530219309046751 -0.0084587978422776215 -0.31466963497962164 -0.094577784105206328 -0.48859949634421579 -0.15784263285221409 -0.15784263285221409 -0.17494009288817716 1.0551176666929483 0.019709107354888386 -0.37533330822163324 0.80891272419373006 17.903940242237748 0.88553296856889596 0.053041248422807337 -3.0320321356994442 9.0130424425164311 0.032419027292590656 0.056287099978834805 0.034398103815812202 1.2453568363700336 71.5162177918168 0.86640205507247436 0.087264168899070307 0.12079262108232526 0.059003933008060207 86.905271841913901 0.97902960127207217 -0.1880842543278117 0.7155560327652285 0.12563693571652065 0.050317075771966993
decision_type=2 2 2 2 2 2 2 2 2 2 2 2 2 2 2 2 2 2 2 2 2 2 2 2 2 2 2 2 2 2 2 2 2 2 2 2 2 2 2 2 2 2 2 2 2 2 2 2 2 2 2 2 2 2 2 2 2 2
left_child=1 3 10 5 56 33 16 41 9 21 42 24 25 -6 -13 18 17 29 -11 -9 34 36 27 -23 43 44 54 28 55 -5 -31 35 -16 -1 -14 -19 -8 46 -26 -17 49 -7 -2 -10 -4 -46 -15 50 -33 -22 -18 -30 -51 -29 -27 -12 57 -3
right_child=2 4 12 6 13 7 8 19 11 15 22 14 20 37 32 39 47 31 -20 -21 40 23 -24 -25 38 26 -28 53 51 30 -32 48 -34 -35 -36 -37 -38 -39 -40 -41 -42 -43 -44 -45 45 -47 -48 -49 -50 52 -52 -53 -54 -55 -56 -57 -58 -59
leaf_value=-0.0008473187834163651 0.0046516871932488057 -7.2262706807801381e-05 0.0022244807895526017 0.00054128899380227313 -0.004891987496834037 -0.0018183346993482839 0.0024635328665218188 -0.005219015697094989 -0.00039095039235266792 -0.00043790698725021773 0.0033742519269465057 -0.0027296038481627507 -0.00058015311196212482 -0.0025934393398698526 -0.0012647013840595741 -0.0001226815083965553 0.0001040414774479028 0.00088918624356167672 -6.3669919216282325e-06 -0.0026148182121919282 0.00068297829203211647 0.00028713158572667727 0.00034898612916033214 0.0016284868543135478 -0.00041900954646516048 0.00064710006389985173 -0.0011955651238318497 0.0014056292980272347 0.0012957102788572815 0.0026374646836058685 0.0012016313527764299 3.2831468336618037e-06 -0.00043146156964232014 0.00063225836120627281 -0.0022717949741627701 0.00032725870220610693 0.0009879315130784023 -0.0032437476017318791 0.00047349563616236936 0.00089237126536605778 -0.00074290884171561563 -0.00063301395268458571 0.0031564770032558678 -0.0014390356087002685 0.0016084081092747973 0.0005261000121075689 -0.0015289166489499538 -0.00093235342312603076 0.00055704242237429949 -0.00022168502247441009 -0.00053086099311918484 0.0021328345584912863 0.00025358613311154428 0.00078208773253319154 0.0011283165603029118 0.0027145242313696616 0.00013467809374261298 -0.00023732844673450142
leaf_weight=127 100 106 107 193 157 119 101 115 171 2709 135 189 105 130 511 112 151 883 279928 177 176 4216 129 152 198 110 102 101 105 217 396 1083 492 172 127 1015 206 177 585 789 104 174 109 126 179 105 139 188 201 107 144 113 152 104 149 115 102 102
leaf_count=127 100 106 107 193 157 119 101 115 171 2709 135 189 105 130 511 112 151 883 279928 177 176 4216 129 152 198 110 102 101 105 217 396 1083 492 172 127 1015 206 177 585 789 104 174 109 126 179 105 139 188 201 107 144 113 152 104 149 115 102 102
internal_value=0 -9.98201e-06 0.00105021 -3.50178e-06 -0.00210626 -0.00158177 1.21876e-06 -0.00239201 -6.20503e-06 -1.24308e-06 0.00222361 -0.000634302 0.000269224 -0.00315383 -0.00115836 -8.04554e-06 0.000484209 0.000602819 -1.0514e-05 -0.00365215 -0.000382513 0.000410674 0.00178567 0.000334532 -5.30668e-05 0.000941379 0.000325147 0.0020565 0.00246679 0.00143789 0.00171515 0.000390314 -0.000859048 0 -0.00151969 0.000590296 0.0014838 -0.00253429 0.000243949 0.000762865 0.000101583 -0.00112512 0.00388812 -0.000846025 0.00150243 0.00121914 -0.00205529 -0.000488826 9.23427e-05 0.000310504 -0.000195786 0.00174417 4.56503e-05 0.00110446 0.000935846 0.00308398 -5.8522e-05 -0.0001677
internal_weight=0 296753 2534 295840 913 884 294956 585 290485 288213 1011 2272 1523 603 1192 283538 4471 3988 282637 292 771 4675 802 4368 1080 752 361 673 468 806 613 3182 1003 299 232 1898 307 446 783 901 539 293 209 297 391 284 269 483 1284 435 295 218 259 205 259 250 310 208
internal_count=299287 296753 2534 295840 913 884 294956 585 290485 288213 1011 2272 1523 603 1192 283538 4471 3988 282637 292 771 4675 802 4368 1080 752 361 673 468 806 613 3182 1003 299 232 1898 307 446 783 901 539 293 209 297 391 284 269 483 1284 435 295 218 259 205 259 250 310 208
is_linear=0
shrinkage=0.03


Tree=16
num_leaves=63
num_cat=0
split_feature=21 20 5 20 5 1 2 24 21 21 30 37 20 21 21 21 20 2 20 21 29 37 27 20 36 7 35 21 20 10 21 29 21 21 3 12 20 33 8 21 21 20 1 25 20 32 1 20 12 1 8 38 4 10 2 21 4 21 21 11 5 8
split_gain=2.9548 4.8504 2.42153 0.93742 0.751452 0.677088 0.434062 0.401158 0.87406 0.294574 0.611915 0.322193 0.51109 0.609227 0.498277 0.483196 5.15393 1.00999 0.510038 0.437835 0.375252 0.370972 0.337397 0.314428 0.277377 0.266971 0.249761 0.245852 0.49365 0.385973 0.236762 0.211157 0.187815 0.184662 0.175578 0.283639 0.172958 0.145082 0.116667 0.113427 0.177141 0.160121 0.103757 0.100831 0.0969339 0.0953538 0.0859914 0.0849028 0.0765523 0.0910539 0.0648346 0.0630519 0.0561529 0.0561449 0.0459399 0.0421565 0.0389644 0.035294 0.0321474 0.0275139 0.026307 0.0258132
threshold=0.051233526447020665 -0.14954144213423223 0.99381835463139268 -0.23974747571015007 0.92196878181274255 0.12022747676775251 -0.22630386423892038 99.999999997080764 0.021391952405587743 0.0062063393727274331 1.9519963003062017 0.53998904125972869 -0.02003539925949677 0.018449452881000111 0.018693724650146876 0.022358956719250003 0.029005082678408071 -0.14686194974202402 -0.097135262723496332 0.0083730333751603752 0.23278136062066887 1.5406448123129344 -0.012813348479889434 0.06041936047658758 -0.28432729453444633 0.81340888207905493 0.0049237091420356394 0.0058291113617624972 0.071747066278463542 0.027479106415789524 0.0062390714852460063 0.65067270232729457 0.016751821739910234 0.019034823426775638 -0.24334592613463663 1.149065264409286 -0.0076514716538982844 41.489431725328153 0.061640878594160113 0.0037574323299490271 0.0049309657437670365 0.035631692919614454 -0.0029789700897485199 -5.1232793002229888 0.040225098916140532 9.0130424425164311 0.076987559283570386 0.028797196939382982 1.1767544338245213 -0.019078291302308203 0.052617296491094506 0.037804878503305543 0.12742748760101341 0.068291866463232834 0.03761533944848644 0.014744635275904064 0.1130799749371602 0.013451747709444075 0.0089885470325424075 0.90164777937444385 1.0402948127359568 0.04308113095620969
decision_type=2 2 2 2 2 2 2 2 2 2 2 2 2 2 2 2 2 2 2 2 2 2 2 2 2 2 2 2 2 2 2 2 2 2 2 2 2 2 2 2 2 2 2 2 2 2 2 2 2 2 2 2 2 2 2 2 2 2 2 2 2 2
left_child=1 3 4 43 45 34 -5 9 32 10 23 15 13 20 30 18 17 -17 26 -20 -13 -16 -15 36 48 -7 -11 39 29 -29 -14 -18 47 37 42 46 52 51 -26 41 -41 -12 -4 -1 -38 -2 54 55 49 53 -8 -34 -3 -6 -36 57 -25 -9 -49 -27 -35 -56
right_child=2 7 5 6 24 25 50 8 -10 11 27 12 14 22 21 16 31 -19 19 -21 -22 -23 -24 56 38 59 -28 28 -30 -31 -32 -33 33 60 35 -37 44 -39 -40 40 -42 -43 -44 -45 -46 -47 -48 58 -50 -51 -52 -53 -54 -55 61 -57 -58 -59 -60 -61 -62 -63
leaf_value=-0.001797987607317442 0.0045122760531123166 0.00024591256660084511 0.0019749457647683715 -0.0050158635529996979 0.0020941377105113818 -0.0017459682808363605 -0.0022771845275299358 0.00018750616078340999 -0.0027061709484697966 0.0002410760289507618 -3.6696193335534298e-05 0.00070588602148882469 0.000633244934204967 -0.0014426470650957051 0.00047918820866126841 -0.0062595781021199341 0.00064941596139927364 -0.0027006559466526154 7.8721751482709726e-05 -3.9030513281469733e-05 0.00023715337450262993 0.0023707728820556422 5.7991823291455362e-05 -0.00059845860879077068 0.0014687055897380839 -0.00042923996713003826 0.00090171123613274728 -0.00015559221685137656 -0.0020182248793417183 -0.00071869077689377156 1.9382422822813557e-05 -3.5726686590877817e-05 -0.0010504175855747268 3.5669557519257113e-06 0.00045511731834944593 -0.00092532707090011357 4.0874006082158054e-05 -0.00036801600455961601 0.00025476804155622547 -0.00017979608623369154 -4.0357758788300496e-05 0.00040667661025762657 0.00062816083110956388 -0.00061778343098048806 -0.00011598677175884871 0.003061869492745057 8.4162861439415689e-05 2.1706798621120716e-06 0.0014215128036487138 0.0015753333370334337 -0.0032119296061218485 -0.0021369189360569518 0.00081930495172897978 0.0031252039576044046 0.00076698031440567262 0.00065155088476530831 -0.0013939574150258378 -0.00041891544585596631 -0.00059128467593374168 0.00018642659334945871 -0.00052199728804543013 0.0013290140710782018
leaf_weight=115 100 2244 128 105 105 157 172 468 141 2229 2983 2134 573 264 1118 106 606 241 39932 98547 5626 103 268 131 213 151 679 10095 139 1234 45080 1197 122 286 204 115 39425 166 117 14060 19848 968 100 178 3888 109 186 114 106 100 174 104 171 161 193 146 129 104 224 107 116 182
leaf_count=115 100 2244 128 105 105 157 172 468 141 2229 2983 2134 573 264 1118 106 606 241 39932 98547 5626 103 268 131 213 151 679 10095 139 1234 45080 1197 122 286 204 115 39425 166 117 14060 19848 968 100 178 3888 109 186 114 106 100 174 104 171 161 193 146 129 104 224 107 116 182
internal_value=0 -9.68426e-06 0.00101909 -0.00242876 0.00215767 0.000261211 -0.00329033 -3.5931e-06 -0.000427987 -7.08885e-07 -4.40751e-05 2.00782e-05 8.17006e-05 0.000298866 4.32196e-05 -3.58452e-06 -0.000449945 -0.00379795 3.18215e-06 -5.05361e-06 0.000366449 0.000641395 -0.000681179 3.45983e-05 0.00173282 -0.000768932 0.000396388 -0.000117484 -0.000239306 -0.000217198 2.71542e-05 0.000192914 -0.000252595 -0.000601209 0.000649791 0.000452408 4.05774e-05 -0.00106564 0.00104761 -8.05022e-05 -9.82649e-05 7.1179e-05 0.00139794 -0.00109169 2.67239e-05 0.00377202 0.000663534 6.71802e-06 0.00220521 0.00242353 -0.00275672 -0.00156439 0.000287787 0.00273042 0.000844425 0.000194059 -0.00100507 7.19499e-05 -0.000382311 -0.000162309 -0.00014072 0.00104803
internal_weight=0 296753 2534 744 1011 1523 451 296009 1991 294018 95315 198703 55166 8292 46874 143537 2150 347 141387 138479 7760 1221 532 45988 802 415 2908 49327 11468 11329 45653 1803 1850 794 1108 880 45728 392 330 37859 33908 3951 228 293 43313 209 765 1056 472 366 346 226 2415 266 579 718 260 572 338 258 402 375
internal_count=299287 296753 2534 744 1011 1523 451 296009 1991 294018 95315 198703 55166 8292 46874 143537 2150 347 141387 138479 7760 1221 532 45988 802 415 2908 49327 11468 11329 45653 1803 1850 794 1108 880 45728 392 330 37859 33908 3951 228 293 43313 209 765 1056 472 366 346 226 2415 266 579 718 260 572 338 258 402 375
is_linear=0
shrinkage=0.03


Tree=17
num_leaves=63
num_cat=0
