{"learner":{"attributes":{"best_iteration":"244","best_score":"0.05037344162382403","scikit_learn":"{\"_estimator_type\": \"regressor\"}"},"feature_names":["return_1d","return_5d","return_10d","return_20d","return_60d","price_to_ma_5","price_to_ma_20","price_to_ma_60","volatility_5d","volatility_10d","volatility_20d","volume_ratio_5","volume_ratio_20","momentum_5","momentum_10","momentum_20","range_5d","range_20d","spy_return_1d","spy_return_5d","spy_return_20d","spy_volatility","spy_trend","beta","rsi_14","macd","macd_signal","macd_diff","bb_width","bb_position","atr_14","atr_ratio","stoch_k","stoch_d","obv_ma_20","gap","dist_52w_high","dist_52w_low","intraday_range","price_accel"],"feature_types":["float","float","float","float","float","float","float","float","float","float","float","float","float","float","float","float","float","float","float","float","float","float","float","float","float","float","float","float","float","float","float","float","float","float","float","float","float","float","float","float"],"gradient_booster":{"model":{"gbtree_model_param":{"num_parallel_tree":"1","num_trees":"295"},"iteration_indptr":[0,1,2,3,4,5,6,7,8,9,10,11,12,13,14,15,16,17,18,19,20,21,22,23,24,25,26,27,28,29,30,31,32,33,34,35,36,37,38,39,40,41,42,43,44,45,46,47,48,49,50,51,52,53,54,55,56,57,58,59,60,61,62,63,64,65,66,67,68,69,70,71,72,73,74,75,76,77,78,79,80,81,82,83,84,85,86,87,88,89,90,91,92,93,94,95,96,97,98,99,100,101,102,103,104,105,106,107,108,109,110,111,112,113,114,115,116,117,118,119,120,121,122,123,124,125,126,127,128,129,130,131,132,133,134,135,136,137,138,139,140,141,142,143,144,145,146,147,148,149,150,151,152,153,154,155,156,157,158,159,160,161,162,163,164,165,166,167,168,169,170,171,172,173,174,175,176,177,178,179,180,181,182,183,184,185,186,187,188,189,190,191,192,193,194,195,196,197,198,199,200,201,202,203,204,205,206,207,208,209,210,211,212,213,214,215,216,217,218,219,220,221,222,223,224,225,226,227,228,229,230,231,232,233,234,235,236,237,238,239,240,241,242,243,244,245,246,247,248,249,250,251,252,253,254,255,256,257,258,259,260,261,262,263,264,265,266,267,268,269,270,271,272,273,274,275,276,277,278,279,280,281,282,283,284,285,286,287,288,289,290,291,292,293,294,295],"tree_info":[0,0,0,0,0,0,0,0,0,0,0,0,0,0,0,0,0,0,0,0,0,0,0,0,0,0,0,0,0,0,0,0,0,0,0,0,0,0,0,0,0,0,0,0,0,0,0,0,0,0,0,0,0,0,0,0,0,0,0,0,0,0,0,0,0,0,0,0,0,0,0,0,0,0,0,0,0,0,0,0,0,0,0,0,0,0,0,0,0,0,0,0,0,0,0,0,0,0,0,0,0,0,0,0,0,0,0,0,0,0,0,0,0,0,0,0,0,0,0,0,0,0,0,0,0,0,0,0,0,0,0,0,0,0,0,0,0,0,0,0,0,0,0,0,0,0,0,0,0,0,0,0,0,0,0,0,0,0,0,0,0,0,0,0,0,0,0,0,0,0,0,0,0,0,0,0,0,0,0,0,0,0,0,0,0,0,0,0,0,0,0,0,0,0,0,0,0,0,0,0,0,0,0,0,0,0,0,0,0,0,0,0,0,0,0,0,0,0,0,0,0,0,0,0,0,0,0,0,0,0,0,0,0,0,0,0,0,0,0,0,0,0,0,0,0,0,0,0,0,0,0,0,0,0,0,0,0,0,0,0,0,0,0,0,0,0,0,0,0,0,0,0,0,0,0,0,0,0,0,0,0,0,0,0,0,0,0,0,0,0,0,0,0,0,0],"trees":[{"base_weights":[7.038909E-6,-4.4563413E-4,5.314249E-2,-7.5043805E-5,-6.6024646E-2,1.3353775E-1,2.3828624E-2,-8.8491075E-2,1.4601469E-4,-2.9737316E-2,-1.6323732E-1,1.8387003E-1,9.800324E-2,5.613205E-2,-1.4415877E-2,3.2297E-4,-1.14235565E-1,1.8403491E-2,-1.3139517E-4,-3.7966494E-3,-1.5983623E-2,-6.8253716E-3,-1.3606296E-1,6.5881074E-3,4.337669E-3,1.71392E-3,1.1388809E-1,7.943211E-2,2.6588727E-2,-4.3339827E-4,-2.7037335E-3,-1.7288505E-1,-5.3988975E-2,1.5363538E-2,7.8107536E-2,-3.0659946E-2,6.526225E-5,1.2037449E-2,-3.559577E-2,-4.701546E-3,-3.1308774E-3,4.3749656E-3,2.7914096E-3,9.115887E-2,1.4325591E-3,-1.199068E-3,4.7897093E-2,7.954192E-3,-1.3980031E-3,-6.8911472E-3,-4.06816E-3,-1.1206061E-3,-2.5081295E-3,6.188068E-3,2.2132674E-2,3.1900073E-3,1.5435509E-3,-1.2653864E-2,-6.8767946E-3,1.8446248E-4,-2.7787747E-2,1.8826255E-3,9.101928E-4,-4.6916746E-2,-0E0,3.6466697E-3,7.880767E-2,5.610068E-2,8.3460315E-4,-4.2397925E-4,1.0488152E-3,1.090631E-2,-1.3182736E-3,3.421174E-2,5.0286627E-3,1.5275221E-3,-1.9214107E-2,5.7642097E-5,3.0213773E-2,-1.0122348E-2,-5.7519842E-2,-2.4121259E-4,2.9918368E-4,-2.6492972E-3,-3.0481076E-2,2.7228573E-3,1.7923893E-3,1.9685184E-3,1.3972982E-3,6.52248E-4,-1.2281544E-2,1.5035201E-3,2.3956524E-4,1.2778015E-3,-0E0,4.4994982E-4,-7.076603E-4,1.1298258E-3,-7.564427E-4,-1.2096388E-5,1.09373505E-4,1.6078699E-3,5.192138E-4,3.05234E-4,-4.6328548E-4,-4.848679E-3,-8.337758E-4,-1.1741534E-3,-3.41683E-4,1.867849E-4,-8.11193E-4],"categories":[],"categories_nodes":[],"categories_segments":[],"categories_sizes":[],"default_left":[0,0,0,0,0,0,0,0,0,0,0,0,0,0,0,0,0,0,0,0,0,0,0,0,0,0,0,0,0,0,0,0,0,0,0,0,0,0,0,0,0,0,0,0,0,0,0,0,0,0,0,0,0,0,0,0,0,0,0,0,0,0,0,0,0,0,0,0,0,0,0,0,0,0,0,0,0,0,0,0,0,0,0,0,0,0,0,0,0,0,0,0,0,0,0,0,0,0,0,0,0,0,0,0,0,0,0,0,0,0,0],"id":0,"left_children":[1,3,5,7,9,11,13,15,17,19,21,23,25,27,29,-1,31,33,35,-1,37,-1,39,-1,-1,-1,41,43,45,47,-1,49,51,53,55,57,59,61,63,-1,-1,-1,-1,65,-1,-1,67,69,-1,-1,-1,-1,-1,71,73,-1,-1,75,-1,77,79,81,-1,83,-1,-1,85,87,-1,89,-1,91,-1,93,95,-1,97,99,101,103,105,-1,-1,-1,107,-1,-1,-1,-1,-1,109,-1,-1,-1,-1,-1,-1,-1,-1,-1,-1,-1,-1,-1,-1,-1,-1,-1,-1,-1,-1],"loss_changes":[7.204237E0,7.2056804E0,5.946624E0,5.776602E0,5.857532E0,1.1774492E0,2.2960954E0,1.8939915E0,1.4927188E0,1.60224E0,7.501993E-1,3.5076046E-1,2.4006629E-1,6.824355E-1,8.8873345E-1,0E0,2.0473218E0,7.911365E-1,1.7438351E0,0E0,5.871786E-1,0E0,1.8119621E-1,0E0,0E0,0E0,1.6389489E-1,1.9412494E-1,6.336588E-1,2.8158242E-1,0E0,5.875616E-1,1.3051385E-1,2.5796032E-1,1.4325619E-1,6.6225576E0,9.5373374E-1,7.782416E-2,2.5654477E-1,0E0,0E0,0E0,0E0,1.3184619E-1,0E0,0E0,4.7302783E-2,1.4036721E-1,0E0,0E0,0E0,0E0,0E0,4.199164E-1,4.9398673E-1,0E0,0E0,7.080276E-1,0E0,1.0894644E0,6.361106E-1,2.3008538E-2,0E0,3.1311488E-1,0E0,0E0,5.0966024E-2,9.965003E-3,0E0,1.1974584E-1,0E0,1.8164288E-1,0E0,4.009515E-1,2.847955E-1,0E0,5.2685523E-1,4.727056E-1,3.558905E-1,8.370506E-2,1.3859113E0,0E0,0E0,0E0,5.1776648E-2,0E0,0E0,0E0,0E0,0E0,8.461405E-2,0E0,0E0,0E0,0E0,0E0,0E0,0E0,0E0,0E0,0E0,0E0,0E0,0E0,0E0,0E0,0E0,0E0,0E0,0E0,0E0],"parents":[2147483647,0,0,1,1,2,2,3,3,4,4,5,5,6,6,7,7,8,8,9,9,10,10,11,11,12,12,13,13,14,14,16,16,17,17,18,18,20,20,22,22,26,26,27,27,28,28,29,29,31,31,32,32,33,33,34,34,35,35,36,36,37,37,38,38,43,43,46,46,47,47,53,53,54,54,57,57,59,59,60,60,61,61,63,63,66,66,67,67,69,69,71,71,73,73,74,74,76,76,77,77,78,78,79,79,80,80,84,84,90,90],"right_children":[2,4,6,8,10,12,14,16,18,20,22,24,26,28,30,-1,32,34,36,-1,38,-1,40,-1,-1,-1,42,44,46,48,-1,50,52,54,56,58,60,62,64,-1,-1,-1,-1,66,-1,-1,68,70,-1,-1,-1,-1,-1,72,74,-1,-1,76,-1,78,80,82,-1,84,-1,-1,86,88,-1,90,-1,92,-1,94,96,-1,98,100,102,104,106,-1,-1,-1,108,-1,-1,-1,-1,-1,110,-1,-1,-1,-1,-1,-1,-1,-1,-1,-1,-1,-1,-1,-1,-1,-1,-1,-1,-1,-1],"split_conditions":[5.166403E-2,3.0005129E-2,9.720871E-1,-1.18345544E-1,2.1453792E-2,-4.1268972E-1,2.8290609E-2,1.6129306E-2,-5.5427708E-2,-4.068506E-2,-1.3705142E-1,9.217663E-1,-1.18345544E-1,-2.4468252E-1,1.098789E0,3.2297E-4,3.5992775E-2,4.790332E-2,-3.2175586E-2,-3.7966494E-3,1.7376333E-2,-6.8253716E-3,3.4231945E1,6.5881074E-3,4.337669E-3,1.71392E-3,9.442746E-1,2.8280223E-2,-5.885293E-2,9.415822E-2,-2.7037335E-3,8.534972E-1,7.0654914E-2,1.3010026E-2,-6.3058746E-1,6.8699657E-3,2.6048822E-2,3.0099817E-2,4.2395066E-2,-4.701546E-3,-3.1308774E-3,4.3749656E-3,2.7914096E-3,-4.139495E-1,1.4325591E-3,-1.199068E-3,5.2674938E-2,-1.742081E-1,-1.3980031E-3,-6.8911472E-3,-4.06816E-3,-1.1206061E-3,-2.5081295E-3,1.2889847E-2,-1.0367415E-2,3.1900073E-3,1.5435509E-3,-4.6006534E-2,-6.8767946E-3,2.8110875E-2,1.704042E-2,9.104657E-1,9.101928E-4,-3.695185E-1,-0E0,3.6466697E-3,1.0090042E0,1.6924515E-2,8.3460315E-4,5.958659E-2,1.0488152E-3,-2.043146E-1,-1.3182736E-3,1.8535433E-2,7.825512E-3,1.5275221E-3,-4.4456244E-2,1.4612688E-2,7.462509E1,-2.3889579E-2,-1.1356466E-2,-2.4121259E-4,2.9918368E-4,-2.6492972E-3,3.9543364E-2,2.7228573E-3,1.7923893E-3,1.9685184E-3,1.3972982E-3,6.52248E-4,6.0469627E-2,1.5035201E-3,2.3956524E-4,1.2778015E-3,-0E0,4.4994982E-4,-7.076603E-4,1.1298258E-3,-7.564427E-4,-1.2096388E-5,1.09373505E-4,1.6078699E-3,5.192138E-4,3.05234E-4,-4.6328548E-4,-4.848679E-3,-8.337758E-4,-1.1741534E-3,-3.41683E-4,1.867849E-4,-8.11193E-4],"split_indices":[21,18,5,19,21,3,19,21,19,19,2,5,19,36,5,0,21,10,18,0,19,0,33,0,0,0,5,1,19,9,0,6,9,21,36,19,18,9,18,0,0,0,0,36,0,0,1,36,0,0,0,0,0,21,18,0,0,19,0,21,21,11,0,36,0,0,5,35,0,19,0,3,0,21,35,0,18,21,33,19,3,0,0,0,19,0,0,0,0,0,9,0,0,0,0,0,0,0,0,0,0,0,0,0,0,0,0,0,0,0,0],"split_type":[0,0,0,0,0,0,0,0,0,0,0,0,0,0,0,0,0,0,0,0,0,0,0,0,0,0,0,0,0,0,0,0,0,0,0,0,0,0,0,0,0,0,0,0,0,0,0,0,0,0,0,0,0,0,0,0,0,0,0,0,0,0,0,0,0,0,0,0,0,0,0,0,0,0,0,0,0,0,0,0,0,0,0,0,0,0,0,0,0,0,0,0,0,0,0,0,0,0,0,0,0,0,0,0,0,0,0,0,0,0,0],"sum_hessian":[2.99296E5,2.96766E5,2.53E3,2.951E5,1.666E3,6.75E2,1.855E3,7.37E2,2.94363E5,1.214E3,4.52E2,2.78E2,3.97E2,1.007E3,8.48E2,1.51E2,5.86E2,4.411E3,2.89952E5,1.5E2,1.064E3,1.33E2,3.19E2,1.44E2,1.34E2,1.13E2,2.84E2,5.61E2,4.46E2,7.17E2,1.31E2,2.96E2,2.9E2,4.199E3,2.12E2,1.859E3,2.88093E5,4.36E2,6.28E2,1.91E2,1.28E2,1.1E2,1.74E2,4.07E2,1.54E2,1.07E2,3.39E2,6.05E2,1.12E2,1.16E2,1.8E2,1.88E2,1.02E2,1.789E3,2.41E3,1.01E2,1.11E2,1.705E3,1.54E2,2.86869E5,1.224E3,2.84E2,1.52E2,4.78E2,1.5E2,1.15E2,2.92E2,2.37E2,1.02E2,4.59E2,1.46E2,1.637E3,1.52E2,1.409E3,1.001E3,1.58E2,1.547E3,2.85666E5,1.203E3,7.7E2,4.54E2,1.22E2,1.62E2,1.34E2,3.44E2,1.76E2,1.16E2,1.13E2,1.24E2,1.57E2,3.02E2,1.11E2,1.526E3,1.13E3,2.79E2,7.45E2,2.56E2,1.46E2,1.401E3,2.53127E5,3.2539E4,4.25E2,7.78E2,1.56E2,6.14E2,1E2,3.54E2,2.33E2,1.11E2,1.31E2,1.71E2],"tree_param":{"num_deleted":"0","num_feature":"40","num_nodes":"111","size_leaf_vector":"1"}},{"base_weights":[2.8946037E-5,-4.15955E-4,5.2428786E-2,-1.1737109E-1,-1.1768922E-4,1.4738326E-1,2.8751997E-2,-5.3360194E-2,-1.5887167E-1,2.8793933E-4,-4.3661404E-2,1.7760348E-1,1.06040865E-1,5.811139E-2,-1.1860794E-2,-2.3576457E-3,-9.881081E-4,-6.6689043E-3,-1.3593113E-1,2.2170842E-2,-4.9782833E-5,-2.19778E-2,-1.194448E-1,6.422325E-3,4.615541E-3,3.7222428E-3,2.6493E-3,7.2067834E-2,-7.656899E-4,5.7731387E-3,-6.790781E-2,-3.451244E-3,-4.7182282E-3,-1.7488442E-2,2.8659081E-2,1.7140992E-2,-3.2527844E-4,3.8659207E-3,-4.107752E-2,-8.433902E-2,-7.177739E-3,9.551962E-2,4.7835834E-2,1.4352335E-2,-1.0067553E-3,-3.1094253E-3,-9.7546645E-4,-1.0547164E-2,-1.2660525E-3,6.397475E-2,1.9219227E-2,1.39446035E-2,7.019379E-2,-2.9189648E-2,-1.3887262E-4,-1.5597336E-3,9.799151E-4,-9.726181E-2,-2.2698084E-2,-5.7156815E-4,-1.1248319E-1,1.1015388E-1,2.0565186E-3,3.0027768E-2,6.035359E-2,5.3703473E-3,1.062622E-3,-4.4831383E-4,-2.1890847E-2,3.495945E-3,5.6224518E-2,7.48048E-3,2.8407818E-2,1.1908226E-2,2.0202969E-3,9.15804E-4,2.9470574E-3,-1.22369435E-2,-6.7804153E-3,-2.6497437E-4,2.8719136E-2,-8.803562E-3,9.261459E-3,-1.851729E-3,-4.934417E-3,-2.0421036E-3,-1.6514802E-2,-2.1339394E-3,-1.317366E-1,4.026361E-3,2.5445162E-3,5.184957E-4,1.250131E-3,2.1516737E-3,1.1544422E-3,6.930846E-4,-7.0849326E-3,2.6312078E-4,-1.9929637E-4,-3.171278E-4,-1.0025201E-3,1.0471055E-3,1.9911972E-3,5.290332E-4,-2.0292593E-5,1.0188387E-3,3.6933663E-4,1.2757044E-4,6.592442E-4,1.544873E-3,-5.6086207E-4,-2.0673905E-4,5.5054256E-6,1.665356E-3,6.4746966E-4,-4.542414E-4,-0E0,-1.652159E-4,5.3077895E-4,-1.1192024E-3,-3.4705238E-4,-4.7047175E-3,-3.2599485E-3,-5.123264E-4,1.0838419E-4],"categories":[],"categories_nodes":[],"categories_segments":[],"categories_sizes":[],"default_left":[0,0,0,0,0,0,0,0,0,0,0,0,0,0,0,0,0,0,0,0,0,0,0,0,0,0,0,0,0,0,0,0,0,0,0,0,0,0,0,0,0,0,0,0,0,0,0,0,0,0,0,0,0,0,0,0,0,0,0,0,0,0,0,0,0,0,0,0,0,0,0,0,0,0,0,0,0,0,0,0,0,0,0,0,0,0,0,0,0,0,0,0,0,0,0,0,0,0,0,0,0,0,0,0,0,0,0,0,0,0,0,0,0,0,0,0,0,0,0,0,0,0,0,0,0],"id":1,"left_children":[1,3,5,7,9,11,13,15,17,19,21,23,25,27,29,-1,-1,-1,31,33,35,37,39,-1,-1,-1,-1,41,-1,43,45,-1,-1,47,49,51,53,55,57,59,-1,61,63,65,-1,-1,-1,67,-1,69,71,73,75,77,79,81,-1,83,85,-1,87,89,-1,91,93,95,-1,97,99,-1,101,103,105,107,-1,-1,-1,109,-1,111,113,115,117,-1,-1,-1,119,-1,121,-1,-1,-1,-1,-1,-1,-1,123,-1,-1,-1,-1,-1,-1,-1,-1,-1,-1,-1,-1,-1,-1,-1,-1,-1,-1,-1,-1,-1,-1,-1,-1,-1,-1,-1,-1],"loss_changes":[6.9921045E0,1.0354925E1,5.658935E0,1.9838438E0,5.239934E0,5.983143E-1,2.415779E0,1.4218104E-1,6.262388E-1,2.172645E0,4.4849977E0,2.1037006E-1,4.612565E-2,1.376461E0,8.4346646E-1,0E0,0E0,0E0,1.212554E-1,1.1508939E0,1.368046E0,1.0551713E0,2.5233717E0,0E0,0E0,0E0,0E0,5.58094E-1,0E0,2.151313E-1,2.4421465E-1,0E0,0E0,1.02083E-1,1.2724171E0,7.6409936E-1,1.5286819E0,1.4422268E-1,1.2549303E0,8.522508E-1,0E0,1.8269634E-1,1.0181558E-1,9.621591E-2,0E0,0E0,0E0,5.413917E-2,0E0,3.1123018E-1,3.2365572E-1,4.594779E-1,2.728014E-1,6.0590405E0,1.0264161E0,5.9309058E-2,0E0,6.956279E-1,2.512447E-1,0E0,2.3999786E-1,1.7695308E-1,0E0,2.5060609E-2,6.0591698E-2,8.446385E-2,0E0,1.4933154E-2,2.5197625E-2,0E0,1.424272E-1,1.1244209E-1,1.4703822E-1,3.166706E-1,0E0,0E0,0E0,6.879592E-1,0E0,8.3757186E-1,2.2681022E-1,2.6342008E-2,3.8346834E-2,0E0,0E0,0E0,7.910401E-2,0E0,1.00299835E-1,0E0,0E0,0E0,0E0,0E0,0E0,0E0,2.4560284E-2,0E0,0E0,0E0,0E0,0E0,0E0,0E0,0E0,0E0,0E0,0E0,0E0,0E0,0E0,0E0,0E0,0E0,0E0,0E0,0E0,0E0,0E0,0E0,0E0,0E0,0E0,0E0,0E0],"parents":[2147483647,0,0,1,1,2,2,3,3,4,4,5,5,6,6,7,7,8,8,9,9,10,10,11,11,12,12,13,13,14,14,18,18,19,19,20,20,21,21,22,22,27,27,29,29,30,30,33,33,34,34,35,35,36,36,37,37,38,38,39,39,41,41,42,42,43,43,47,47,49,49,50,50,51,51,52,52,53,53,54,54,55,55,57,57,58,58,60,60,61,61,63,63,64,64,65,65,67,67,68,68,70,70,71,71,72,72,73,73,77,77,79,79,80,80,81,81,82,82,86,86,88,88,96,96],"right_children":[2,4,6,8,10,12,14,16,18,20,22,24,26,28,30,-1,-1,-1,32,34,36,38,40,-1,-1,-1,-1,42,-1,44,46,-1,-1,48,50,52,54,56,58,60,-1,62,64,66,-1,-1,-1,68,-1,70,72,74,76,78,80,82,-1,84,86,-1,88,90,-1,92,94,96,-1,98,100,-1,102,104,106,108,-1,-1,-1,110,-1,112,114,116,118,-1,-1,-1,120,-1,122,-1,-1,-1,-1,-1,-1,-1,124,-1,-1,-1,-1,-1,-1,-1,-1,-1,-1,-1,-1,-1,-1,-1,-1,-1,-1,-1,-1,-1,-1,-1,-1,-1,-1,-1,-1],"split_conditions":[5.166403E-2,-1.5032598E-1,9.567978E-1,-2.339519E-1,2.6048822E-2,7.15021E-1,2.8290609E-2,-3.081666E0,7.788765E-1,-8.5733704E-2,1.2449059E-2,9.016457E-1,1.0433408E0,3.510246E-2,1.0782744E0,-2.3576457E-3,-9.881081E-4,-6.6689043E-3,5.2722227E-2,-3.859324E-2,-5.5427708E-2,1.7376333E-2,2.7623388E-1,6.422325E-3,4.615541E-3,3.7222428E-3,2.6493E-3,-1.598585E-1,-7.656899E-4,7.298189E-2,-3.004114E-1,-3.451244E-3,-4.7182282E-3,1.1992336E-2,-1.9374062E-1,4.8814695E-2,-3.2175586E-2,8.635072E-3,-2.8540762E-2,3.0005129E-2,-7.177739E-3,-4.4164634E-3,5.7610776E-2,-1.8058722E-1,-1.0067553E-3,-3.1094253E-3,-9.7546645E-4,9.648513E-1,-1.2660525E-3,-6.675917E-1,7.04524E-1,8.848937E-2,1.6129306E-2,6.8699657E-3,2.8110875E-2,-5.8497474E-2,9.799151E-4,4.0147465E-2,-3.3785486E-1,-5.7156815E-4,1.5421498E-1,-3.3468983E-1,2.0565186E-3,-1.2984213E-1,7.2775435E-1,5.958659E-2,1.062622E-3,2.0925436E1,1.6984921E-2,3.495945E-3,7.1608555E-1,1.0118854E0,3.516765E-2,1.408644E-2,2.0202969E-3,9.15804E-4,2.9470574E-3,-4.6006534E-2,-6.7804153E-3,-4.2316206E-2,1.6081586E-2,2.1724771E1,1.740497E-2,-1.851729E-3,-4.934417E-3,-2.0421036E-3,1.950067E-2,-2.1339394E-3,-1.3408531E-1,4.026361E-3,2.5445162E-3,5.184957E-4,1.250131E-3,2.1516737E-3,1.1544422E-3,6.930846E-4,-3.5852091E0,2.6312078E-4,-1.9929637E-4,-3.171278E-4,-1.0025201E-3,1.0471055E-3,1.9911972E-3,5.290332E-4,-2.0292593E-5,1.0188387E-3,3.6933663E-4,1.2757044E-4,6.592442E-4,1.544873E-3,-5.6086207E-4,-2.0673905E-4,5.5054256E-6,1.665356E-3,6.4746966E-4,-4.542414E-4,-0E0,-1.652159E-4,5.3077895E-4,-1.1192024E-3,-3.4705238E-4,-4.7047175E-3,-3.2599485E-3,-5.123264E-4,1.0838419E-4],"split_indices":[21,20,5,20,18,7,19,26,7,22,22,5,12,22,5,0,0,0,8,20,19,19,28,0,0,0,0,3,0,8,36,0,0,0,4,8,18,19,20,18,0,1,21,36,0,0,0,7,0,36,23,22,21,19,21,20,0,38,4,0,28,36,0,4,29,19,0,24,9,0,23,7,19,21,0,0,0,19,0,22,2,33,39,0,0,0,19,0,36,0,0,0,0,0,0,0,26,0,0,0,0,0,0,0,0,0,0,0,0,0,0,0,0,0,0,0,0,0,0,0,0,0,0,0,0],"split_type":[0,0,0,0,0,0,0,0,0,0,0,0,0,0,0,0,0,0,0,0,0,0,0,0,0,0,0,0,0,0,0,0,0,0,0,0,0,0,0,0,0,0,0,0,0,0,0,0,0,0,0,0,0,0,0,0,0,0,0,0,0,0,0,0,0,0,0,0,0,0,0,0,0,0,0,0,0,0,0,0,0,0,0,0,0,0,0,0,0,0,0,0,0,0,0,0,0,0,0,0,0,0,0,0,0,0,0,0,0,0,0,0,0,0,0,0,0,0,0,0,0,0,0,0,0],"sum_hessian":[2.99703E5,2.97178E5,2.525E3,7.55E2,2.96423E5,5.03E2,2.022E3,2.98E2,4.57E2,2.93685E5,2.738E3,2.89E2,2.14E2,1.175E3,8.47E2,1.31E2,1.67E2,1.2E2,3.37E2,4.468E3,2.89217E5,2.13E3,6.08E2,1.12E2,1.77E2,1.03E2,1.11E2,1.008E3,1.67E2,6.43E2,2.04E2,1.73E2,1.64E2,6.26E2,3.842E3,4.556E3,2.84661E5,9.03E2,1.227E3,4.71E2,1.37E2,5.1E2,4.98E2,5.3E2,1.13E2,1E2,1.04E2,4.92E2,1.34E2,8.08E2,3.034E3,4.299E3,2.57E2,1.823E3,2.82838E5,7.57E2,1.46E2,3.01E2,9.26E2,1.43E2,3.28E2,3.28E2,1.82E2,2.09E2,2.89E2,3.75E2,1.55E2,2.65E2,2.27E2,1.02E2,7.06E2,1.337E3,1.697E3,4.143E3,1.56E2,1.08E2,1.49E2,1.679E3,1.44E2,2.81611E5,1.227E3,4.59E2,2.98E2,1.98E2,1.03E2,1.09E2,8.17E2,1.06E2,2.22E2,1.66E2,1.62E2,1.04E2,1.05E2,1.87E2,1.02E2,1.58E2,2.17E2,1E2,1.65E2,1.19E2,1.08E2,2.31E2,4.75E2,6.01E2,7.36E2,1.257E3,4.4E2,2.359E3,1.784E3,1.53E2,1.526E3,1.7866E4,2.63745E5,2.55E2,9.72E2,2.7E2,1.89E2,1.04E2,1.94E2,1.53E2,6.64E2,1.04E2,1.18E2,1.17E2,1E2],"tree_param":{"num_deleted":"0","num_feature":"40","num_nodes":"125","size_leaf_vector":"1"}},{"base_weights":[5.3983622E-5,-3.892777E-4,5.162052E-2,-1.1499966E-1,-1.0054651E-4,8.8233374E-2,-1.5195794E-3,-4.6074055E-2,-1.6111729E-1,2.9175216E-4,-4.2351145E-2,1.254754E-1,4.160366E-2,1.2710882E-2,-6.0803816E-2,-2.1766985E-3,-8.3499844E-4,-1.993754E-1,-1.2719193E-1,2.1902088E-2,-4.127384E-5,-2.259594E-2,-1.1335875E-1,1.4902449E-1,5.3749334E-2,6.404052E-2,-1.5448319E-3,3.1680323E-2,-4.8480215E-3,-1.0864804E-3,-2.552063E-3,-5.017453E-3,-6.9475896E-3,-4.291549E-3,-3.1915018E-3,-1.7995577E-2,2.8425587E-2,1.6588002E-2,-3.078697E-4,2.1172706E-3,-4.0621452E-2,-6.4436225E-3,-7.688117E-2,6.649417E-3,1.3365832E-1,1.1790321E-3,2.019724E-3,7.713331E-2,4.1527703E-2,1.4858695E-3,2.0360822E-2,4.847242E-3,-1.0261096E-3,-8.653021E-3,-1.1847651E-3,6.484839E-2,1.8555796E-2,1.3933786E-2,7.390102E-2,-2.81573E-2,-1.28561E-4,-6.2932936E-3,1.984989E-2,-9.27626E-2,-2.1787703E-2,-9.990627E-4,-1.1028334E-1,1.544105E-1,1.1271186E-1,1.7661441E-3,8.631758E-2,1.6174281E-3,8.318826E-4,9.699415E-4,3.502833E-4,-3.400545E-3,6.125056E-4,8.510591E-4,-2.0189447E-2,5.4748937E-2,3.103275E-3,6.951428E-3,2.7222058E-2,1.1977429E-2,2.032406E-3,2.863457E-3,1.5384193E-3,-1.2650673E-2,-6.438039E-3,-2.4993313E-4,2.7631102E-2,-0E0,-7.328106E-4,9.753971E-4,-1.0798294E-4,-5.968866E-2,-4.9077836E-3,-1.7188004E-3,-1.6474681E-2,-3.7012843E-3,-2.7758975E-3,5.3557246E-3,3.915496E-3,2.89927E-3,3.7334824E-3,3.0236784E-3,2.203355E-3,1.6462826E-4,-4.1717556E-4,-2.4193738E-4,2.7063937E-4,-3.131172E-4,-8.600511E-4,2.148006E-3,1.1933545E-3,3.7314405E-4,-2.495757E-4,1.2083766E-3,6.365055E-4,1.3537561E-4,6.4979366E-4,1.4915485E-3,-5.6781934E-4,1.5271497E-4,-2.2764381E-5,1.4359977E-3,4.6883622E-4,-1.270261E-4,2.2455386E-4,-1.2275304E-3,-2.2438357E-3,-1.0839893E-3,-3.5115628E-4],"categories":[],"categories_nodes":[],"categories_segments":[],"categories_sizes":[],"default_left":[0,0,0,0,0,0,0,0,0,0,0,0,0,0,0,0,0,0,0,0,0,0,0,0,0,0,0,0,0,0,0,0,0,0,0,0,0,0,0,0,0,0,0,0,0,0,0,0,0,0,0,0,0,0,0,0,0,0,0,0,0,0,0,0,0,0,0,0,0,0,0,0,0,0,0,0,0,0,0,0,0,0,0,0,0,0,0,0,0,0,0,0,0,0,0,0,0,0,0,0,0,0,0,0,0,0,0,0,0,0,0,0,0,0,0,0,0,0,0,0,0,0,0,0,0,0,0,0,0,0,0,0,0],"id":2,"left_children":[1,3,5,7,9,11,13,15,17,19,21,23,25,27,29,-1,-1,31,33,35,37,39,41,43,45,47,-1,49,51,-1,-1,-1,-1,-1,-1,53,55,57,59,61,63,-1,65,-1,67,-1,-1,69,71,-1,73,75,-1,77,-1,79,81,83,85,87,89,91,93,95,97,-1,99,101,103,-1,105,-1,-1,-1,-1,107,-1,109,111,113,-1,115,117,119,-1,-1,-1,121,-1,123,125,127,-1,-1,-1,129,-1,-1,131,-1,-1,-1,-1,-1,-1,-1,-1,-1,-1,-1,-1,-1,-1,-1,-1,-1,-1,-1,-1,-1,-1,-1,-1,-1,-1,-1,-1,-1,-1,-1,-1,-1,-1],"loss_changes":[6.8580203E0,9.8250675E0,4.983805E0,2.3501549E0,4.918769E0,2.6138716E0,8.8404596E-1,1.347261E-1,5.438099E-1,2.1164422E0,3.8158512E0,1.3996086E0,1.4096636E0,2.8218818E-1,1.0873735E-1,0E0,0E0,1.7159367E-1,5.2111864E-2,1.1627157E0,1.2809876E0,9.558693E-1,2.1635761E0,6.668892E-1,3.0084193E-2,1.4819002E-1,0E0,7.495779E-2,1.2621707E-1,0E0,0E0,0E0,0E0,0E0,0E0,1.20692074E-1,1.3712811E0,6.846489E-1,1.4191369E0,1.3546114E-1,1.2041736E0,0E0,6.215327E-1,0E0,1.9892979E-1,0E0,0E0,4.2182922E-2,2.6398629E-2,0E0,2.1770038E-2,4.3199413E-2,0E0,5.007985E-2,0E0,3.0171394E-1,3.0048585E-1,4.508621E-1,8.236909E-2,5.2333436E0,9.505482E-1,6.7943364E-2,8.993822E-2,7.429707E-1,1.6440073E-1,0E0,3.447175E-2,1.1662769E-1,2.6313305E-2,0E0,2.339673E-2,0E0,0E0,0E0,0E0,2.018696E-2,0E0,1.7301185E-2,1.2853496E-2,1.5232623E-1,0E0,1.091003E-1,1.2903166E-1,3.0152583E-1,0E0,0E0,0E0,6.5432775E-1,0E0,7.6515037E-1,2.9187042E-1,1.4168757E-2,0E0,0E0,0E0,5.1666737E-2,0E0,0E0,6.9722205E-2,0E0,0E0,0E0,0E0,0E0,0E0,0E0,0E0,0E0,0E0,0E0,0E0,0E0,0E0,0E0,0E0,0E0,0E0,0E0,0E0,0E0,0E0,0E0,0E0,0E0,0E0,0E0,0E0,0E0,0E0,0E0,0E0,0E0,0E0],"parents":[2147483647,0,0,1,1,2,2,3,3,4,4,5,5,6,6,7,7,8,8,9,9,10,10,11,11,12,12,13,13,14,14,17,17,18,18,19,19,20,20,21,21,22,22,23,23,24,24,25,25,27,27,28,28,35,35,36,36,37,37,38,38,39,39,40,40,42,42,44,44,47,47,48,48,50,50,51,51,53,53,55,55,56,56,57,57,58,58,59,59,60,60,61,61,62,62,63,63,64,64,66,66,67,67,68,68,70,70,75,75,77,77,78,78,79,79,81,81,82,82,83,83,87,87,89,89,90,90,91,91,95,95,98,98],"right_children":[2,4,6,8,10,12,14,16,18,20,22,24,26,28,30,-1,-1,32,34,36,38,40,42,44,46,48,-1,50,52,-1,-1,-1,-1,-1,-1,54,56,58,60,62,64,-1,66,-1,68,-1,-1,70,72,-1,74,76,-1,78,-1,80,82,84,86,88,90,92,94,96,98,-1,100,102,104,-1,106,-1,-1,-1,-1,108,-1,110,112,114,-1,116,118,120,-1,-1,-1,122,-1,124,126,128,-1,-1,-1,130,-1,-1,132,-1,-1,-1,-1,-1,-1,-1,-1,-1,-1,-1,-1,-1,-1,-1,-1,-1,-1,-1,-1,-1,-1,-1,-1,-1,-1,-1,-1,-1,-1,-1,-1,-1,-1],"split_conditions":[5.166403E-2,-1.5032598E-1,1.2200977E-2,-2.339519E-1,2.6048822E-2,-2.9553244E-1,9.415822E-2,-5.182743E0,8.6909705E-1,-8.5733704E-2,1.2449059E-2,2.4561442E-2,3.510246E-2,7.6623E-2,1.2872971E1,-2.1766985E-3,-8.3499844E-4,4.2603314E-2,2.1757883E-1,-3.859324E-2,-5.5427708E-2,1.7376333E-2,-1.1680959E-1,9.016457E-1,7.230751E7,-8.8127345E-2,-1.5448319E-3,8.0199903E-1,1.0782744E0,-1.0864804E-3,-2.552063E-3,-5.017453E-3,-6.9475896E-3,-4.291549E-3,-3.1915018E-3,7.785785E1,-1.9374062E-1,4.790332E-2,-3.2175586E-2,6.314945E-3,-2.8540762E-2,-6.4436225E-3,1.3612095E-1,6.649417E-3,7.15021E-1,1.1790321E-3,2.019724E-3,5.6057174E-2,3.478082E-2,1.4858695E-3,2.338331E-2,-1.22707255E-1,-1.0261096E-3,9.6167654E-1,-1.1847651E-3,4.5732472E-2,6.987774E-1,8.848937E-2,-2.807808E-2,6.8699657E-3,2.8110875E-2,-1.9242475E-2,-1.1648522E-1,2.782114E-2,-3.3785486E-1,-9.990627E-4,3.1324005E-1,2.3734601E-2,1.0781762E8,1.7661441E-3,9.764998E-1,1.6174281E-3,8.318826E-4,9.699415E-4,3.502833E-4,8.6676633E-1,6.125056E-4,7.251252E-1,1.628285E-2,-9.036729E-3,3.103275E-3,6.506279E-2,-9.029705E-2,1.408644E-2,2.032406E-3,2.863457E-3,1.5384193E-3,-4.6006534E-2,-6.438039E-3,-4.0080313E-2,5.0592427E-3,-5.8497474E-2,-7.328106E-4,9.753971E-4,-1.0798294E-4,2.1395706E-2,-4.9077836E-3,-1.7188004E-3,1.950067E-2,-3.7012843E-3,-2.7758975E-3,5.3557246E-3,3.915496E-3,2.89927E-3,3.7334824E-3,3.0236784E-3,2.203355E-3,1.6462826E-4,-4.1717556E-4,-2.4193738E-4,2.7063937E-4,-3.131172E-4,-8.600511E-4,2.148006E-3,1.1933545E-3,3.7314405E-4,-2.495757E-4,1.2083766E-3,6.365055E-4,1.3537561E-4,6.4979366E-4,1.4915485E-3,-5.6781934E-4,1.5271497E-4,-2.2764381E-5,1.4359977E-3,4.6883622E-4,-1.270261E-4,2.2455386E-4,-1.2275304E-3,-2.2438357E-3,-1.0839893E-3,-3.5115628E-4],"split_indices":[21,20,19,20,18,36,9,25,6,22,22,18,22,1,16,0,0,10,37,20,19,19,2,5,34,15,0,23,5,0,0,0,0,0,0,24,4,10,18,19,20,0,28,0,7,0,0,10,1,0,1,4,0,7,0,8,23,22,0,19,21,19,36,10,4,0,29,22,34,0,5,0,0,0,0,27,0,23,9,19,0,4,4,21,0,0,0,19,0,20,19,20,0,0,0,9,0,0,19,0,0,0,0,0,0,0,0,0,0,0,0,0,0,0,0,0,0,0,0,0,0,0,0,0,0,0,0,0,0,0,0,0,0],"split_type":[0,0,0,0,0,0,0,0,0,0,0,0,0,0,0,0,0,0,0,0,0,0,0,0,0,0,0,0,0,0,0,0,0,0,0,0,0,0,0,0,0,0,0,0,0,0,0,0,0,0,0,0,0,0,0,0,0,0,0,0,0,0,0,0,0,0,0,0,0,0,0,0,0,0,0,0,0,0,0,0,0,0,0,0,0,0,0,0,0,0,0,0,0,0,0,0,0,0,0,0,0,0,0,0,0,0,0,0,0,0,0,0,0,0,0,0,0,0,0,0,0,0,0,0,0,0,0,0,0,0,0,0,0],"sum_hessian":[2.9981E5,2.97253E5,2.557E3,7.46E2,2.96507E5,1.515E3,1.042E3,3E2,4.46E2,2.93777E5,2.73E3,8.41E2,6.74E2,8.39E2,2.03E2,1.2E2,1.8E2,2.08E2,2.38E2,4.463E3,2.89314E5,2.137E3,5.93E2,6.32E2,2.09E2,5.44E2,1.3E2,4.06E2,4.33E2,1.03E2,1E2,1.06E2,1.02E2,1.32E2,1.06E2,6.25E2,3.838E3,4.559E3,2.84755E5,8.99E2,1.238E3,1.56E2,4.37E2,1.09E2,5.23E2,1.05E2,1.04E2,3.41E2,2.03E2,1.54E2,2.52E2,3.23E2,1.1E2,4.39E2,1.86E2,8.16E2,3.022E3,4.359E3,2E2,1.818E3,2.82937E5,6.06E2,2.93E2,3.27E2,9.11E2,1.91E2,2.46E2,2.6E2,2.63E2,1.18E2,2.23E2,1.03E2,1E2,1.01E2,1.51E2,2.07E2,1.16E2,2.36E2,2.03E2,6.49E2,1.67E2,1.297E3,1.725E3,4.208E3,1.51E2,1E2,1E2,1.679E3,1.39E2,2.81709E5,1.228E3,4.52E2,1.54E2,1.93E2,1E2,2.24E2,1.03E2,1.16E2,7.95E2,1.38E2,1.08E2,1.27E2,1.33E2,1.15E2,1.48E2,1.01E2,1.22E2,1.07E2,1E2,1.07E2,1.29E2,1E2,1.03E2,3.02E2,3.47E2,9.59E2,3.38E2,5.38E2,1.187E3,2.382E3,1.826E3,1.52E2,1.527E3,2.4491E4,2.57218E5,4.54E2,7.74E2,2.93E2,1.59E2,1.03E2,1.21E2,1.51E2,6.44E2],"tree_param":{"num_deleted":"0","num_feature":"40","num_nodes":"133","size_leaf_vector":"1"}},{"base_weights":[1.4385975E-5,-3.9728155E-4,4.8229836E-2,-1.13537356E-1,-1.2034308E-4,1.0049489E-1,1.3362256E-2,-4.8740234E-2,-1.5439296E-1,2.4660592E-4,-3.945431E-2,1.6541205E-1,8.329396E-2,3.1449027E-2,-3.7679926E-2,-2.1700219E-3,-8.319428E-4,-6.1416863E-3,-1.2524164E-1,2.1383902E-2,-8.098364E-5,-2.022272E-2,-1.0995904E-1,5.797439E-3,4.148818E-3,9.574413E-2,5.9396756E-4,4.523346E-2,7.4044317E-3,-2.50877E-3,-1.3062741E-2,-3.3344515E-3,-4.324526E-3,-1.858594E-2,2.771727E-2,1.591331E-2,-3.341322E-4,2.7133748E-3,-3.7144054E-2,-7.543646E-3,-7.953218E-2,1.10602476E-1,8.2402775E-4,5.649425E-2,-2.2355793E-4,8.394936E-4,-8.859731E-3,2.5977602E-4,-1.2135141E-3,-1.2691397E-2,-1.4299586E-3,6.408547E-2,1.9191165E-2,5.8562256E-2,1.2674862E-2,-2.6865339E-2,-1.6604719E-4,-5.93584E-3,2.1322919E-2,-8.568488E-2,-2.0534275E-2,-5.2779395E-4,-1.0326103E-1,1.472732E-1,8.0240354E-2,7.8353986E-2,4.3735474E-2,1.6983486E-4,-7.600784E-4,-6.757376E-3,-8.8941975E-4,8.223649E-2,4.0845748E-2,6.2688505E-3,2.664235E-2,2.8791905E-3,4.0660467E-2,1.0609656E-2,2.0353459E-3,-1.1752683E-2,-6.3274107E-3,-2.7965728E-4,2.7104752E-2,-7.091022E-4,-7.1928403E-6,1.55756E-4,1.1327072E-3,-5.10971E-2,-4.4214497E-3,-3.6751885E-2,-1.3955587E-2,-4.042131E-3,-8.862982E-2,4.9106753E-3,4.0358836E-3,1.6931887E-3,2.782562E-3,3.0052545E-3,1.6903332E-3,9.57998E-4,5.1056728E-2,3.2393942E-5,-5.053061E-4,3.384433E-3,1.6563567E-3,5.5596186E-4,1.5740502E-3,5.3340173E-4,-0E0,9.567655E-4,3.5287256E-4,8.791098E-4,1.4943383E-3,1.4011632E-4,5.7630846E-4,1.4701015E-3,-5.3936447E-4,-1.970347E-4,4.4590915E-6,1.3756098E-3,4.731129E-4,-1.2060164E-4,4.0723893E-4,-1.9486939E-3,-1.0986454E-3,-1.660118E-3,-3.4670485E-4,-1.1208764E-4,-6.4684777E-4,-3.1500645E-3,-1.985368E-3,1.9433668E-3,1.076834E-3],"categories":[],"categories_nodes":[],"categories_segments":[],"categories_sizes":[],"default_left":[0,0,0,0,0,0,0,0,0,0,0,0,0,0,0,0,0,0,0,0,0,0,0,0,0,0,0,0,0,0,0,0,0,0,0,0,0,0,0,0,0,0,0,0,0,0,0,0,0,0,0,0,0,0,0,0,0,0,0,0,0,0,0,0,0,0,0,0,0,0,0,0,0,0,0,0,0,0,0,0,0,0,0,0,0,0,0,0,0,0,0,0,0,0,0,0,0,0,0,0,0,0,0,0,0,0,0,0,0,0,0,0,0,0,0,0,0,0,0,0,0,0,0,0,0,0,0,0,0,0,0,0,0],"id":3,"left_children":[1,3,5,7,9,11,13,15,17,19,21,23,25,27,29,-1,-1,-1,31,33,35,37,39,-1,-1,41,-1,43,45,-1,47,-1,-1,49,51,53,55,57,59,-1,61,63,-1,65,-1,-1,67,-1,-1,69,-1,71,73,75,77,79,81,83,85,87,89,-1,91,93,95,97,99,-1,-1,101,-1,103,105,107,109,-1,111,113,-1,115,-1,117,119,-1,121,-1,-1,123,-1,125,127,-1,129,-1,-1,-1,-1,-1,-1,-1,131,-1,-1,-1,-1,-1,-1,-1,-1,-1,-1,-1,-1,-1,-1,-1,-1,-1,-1,-1,-1,-1,-1,-1,-1,-1,-1,-1,-1,-1,-1,-1,-1],"loss_changes":[5.9483914E0,9.291607E0,4.61198E0,1.8958616E0,4.2789125E0,1.1061316E0,1.4056035E0,1.2912798E-1,6.145487E-1,2.0340424E0,3.7021103E0,1.2352371E-1,6.231265E-1,3.6793852E-1,4.3936372E-1,0E0,0E0,0E0,4.8045635E-2,1.1358333E0,1.1684265E0,8.3947974E-1,2.4882221E0,0E0,0E0,6.6568995E-1,0E0,4.2801392E-1,1.4019968E-1,0E0,1.5795147E-1,0E0,0E0,9.8652154E-2,1.1922066E0,6.137872E-1,1.2658681E0,1.483611E-1,9.9064827E-1,0E0,6.977656E-1,5.8743525E-1,0E0,1.5175009E-1,0E0,0E0,5.65546E-2,0E0,0E0,4.7764763E-2,0E0,2.9659557E-1,2.989453E-1,1.9697511E-1,4.6846622E-1,4.9482307E0,8.7312233E-1,6.260542E-2,7.338561E-2,6.518085E-1,9.37908E-2,0E0,1.3678384E-1,1.9669533E-2,7.451916E-2,8.661044E-2,2.3949265E-2,0E0,0E0,3.1861097E-2,0E0,3.2063675E-1,7.685572E-2,8.4646136E-2,1.5074539E-1,0E0,1.4296591E-2,2.0356297E-1,0E0,6.219344E-1,0E0,7.5879717E-1,2.4220628E-1,0E0,2.456238E-2,0E0,0E0,3.0350745E-2,0E0,1.1644578E-1,4.908152E-2,0E0,7.0441365E-2,0E0,0E0,0E0,0E0,0E0,0E0,0E0,3.674227E-2,0E0,0E0,0E0,0E0,0E0,0E0,0E0,0E0,0E0,0E0,0E0,0E0,0E0,0E0,0E0,0E0,0E0,0E0,0E0,0E0,0E0,0E0,0E0,0E0,0E0,0E0,0E0,0E0,0E0,0E0,0E0,0E0],"parents":[2147483647,0,0,1,1,2,2,3,3,4,4,5,5,6,6,7,7,8,8,9,9,10,10,11,11,12,12,13,13,14,14,18,18,19,19,20,20,21,21,22,22,25,25,27,27,28,28,30,30,33,33,34,34,35,35,36,36,37,37,38,38,40,40,41,41,43,43,46,46,49,49,51,51,52,52,53,53,54,54,55,55,56,56,57,57,58,58,59,59,60,60,62,62,63,63,64,64,65,65,66,66,69,69,71,71,72,72,73,73,74,74,76,76,77,77,79,79,81,81,82,82,84,84,87,87,89,89,90,90,92,92,100,100],"right_children":[2,4,6,8,10,12,14,16,18,20,22,24,26,28,30,-1,-1,-1,32,34,36,38,40,-1,-1,42,-1,44,46,-1,48,-1,-1,50,52,54,56,58,60,-1,62,64,-1,66,-1,-1,68,-1,-1,70,-1,72,74,76,78,80,82,84,86,88,90,-1,92,94,96,98,100,-1,-1,102,-1,104,106,108,110,-1,112,114,-1,116,-1,118,120,-1,122,-1,-1,124,-1,126,128,-1,130,-1,-1,-1,-1,-1,-1,-1,132,-1,-1,-1,-1,-1,-1,-1,-1,-1,-1,-1,-1,-1,-1,-1,-1,-1,-1,-1,-1,-1,-1,-1,-1,-1,-1,-1,-1,-1,-1,-1,-1],"split_conditions":[5.166403E-2,-1.5032598E-1,9.926116E-1,-2.339519E-1,2.6048822E-2,9.217663E-1,1.2035588E-1,-2.9455025E0,-2.4420114E-1,-8.5733704E-2,1.2449059E-2,-4.745145E-1,3.510246E-2,2.8290609E-2,7.976151E-1,-2.1700219E-3,-8.319428E-4,-6.1416863E-3,5.2722227E-2,-3.859324E-2,-5.5427708E-2,1.7376333E-2,-1.3705142E-1,5.797439E-3,4.148818E-3,1.2200977E-2,5.9396756E-4,2.9854944E-2,1.939797E-3,-2.50877E-3,1.939797E-3,-3.3344515E-3,-4.324526E-3,3.9717242E-2,-2.0827863E-1,-6.0329176E-2,-3.2175586E-2,6.314945E-3,-2.8540762E-2,-7.543646E-3,3.0005129E-2,-3.2190943E-1,8.2402775E-4,-1.598585E-1,-2.2355793E-4,8.394936E-4,6.675935E-2,2.5977602E-4,-1.2135141E-3,3.3774297E-3,-1.4299586E-3,-4.0445468E-1,6.5895027E-1,-3.7796453E-1,8.848937E-2,6.8699657E-3,2.8110875E-2,2.6206036E1,2.6494876E-2,3.9665982E-2,-3.2782802E-1,-5.2779395E-4,9.434254E-1,9.516275E-1,5.6057174E-2,1.0403849E0,5.7610776E-2,1.6983486E-4,-7.600784E-4,9.606151E-1,-8.8941975E-4,-3.2816003E-3,7.4068654E-1,9.8879194E-1,3.516765E-2,2.8791905E-3,8.105658E0,1.408644E-2,2.0353459E-3,-4.6006534E-2,-6.3274107E-3,-4.2316206E-2,5.0592427E-3,-7.091022E-4,1.8646544E-2,1.55756E-4,1.1327072E-3,-2.0433837E-1,-4.4214497E-3,2.2296473E-2,7.4384737E-1,-4.042131E-3,1.2757275E0,4.9106753E-3,4.0358836E-3,1.6931887E-3,2.782562E-3,3.0052545E-3,1.6903332E-3,9.57998E-4,6.9979495E-1,3.2393942E-5,-5.053061E-4,3.384433E-3,1.6563567E-3,5.5596186E-4,1.5740502E-3,5.3340173E-4,-0E0,9.567655E-4,3.5287256E-4,8.791098E-4,1.4943383E-3,1.4011632E-4,5.7630846E-4,1.4701015E-3,-5.3936447E-4,-1.970347E-4,4.4590915E-6,1.3756098E-3,4.731129E-4,-1.2060164E-4,4.0723893E-4,-1.9486939E-3,-1.0986454E-3,-1.660118E-3,-3.4670485E-4,-1.1208764E-4,-6.4684777E-4,-3.1500645E-3,-1.985368E-3,1.9433668E-3,1.076834E-3],"split_indices":[21,20,5,20,18,5,1,26,3,22,22,36,22,19,7,0,0,0,8,20,19,19,2,0,0,19,0,22,22,0,22,0,0,10,4,22,18,19,20,0,18,36,0,3,0,0,1,0,0,18,0,36,23,36,22,19,21,32,9,38,36,0,6,5,10,5,21,0,0,7,0,35,23,7,19,0,32,21,0,19,0,22,19,0,35,0,0,36,0,35,23,0,12,0,0,0,0,0,0,0,29,0,0,0,0,0,0,0,0,0,0,0,0,0,0,0,0,0,0,0,0,0,0,0,0,0,0,0,0,0,0,0,0],"split_type":[0,0,0,0,0,0,0,0,0,0,0,0,0,0,0,0,0,0,0,0,0,0,0,0,0,0,0,0,0,0,0,0,0,0,0,0,0,0,0,0,0,0,0,0,0,0,0,0,0,0,0,0,0,0,0,0,0,0,0,0,0,0,0,0,0,0,0,0,0,0,0,0,0,0,0,0,0,0,0,0,0,0,0,0,0,0,0,0,0,0,0,0,0,0,0,0,0,0,0,0,0,0,0,0,0,0,0,0,0,0,0,0,0,0,0,0,0,0,0,0,0,0,0,0,0,0,0,0,0,0,0,0,0],"sum_hessian":[2.99445E5,2.96908E5,2.537E3,7.24E2,2.96184E5,1.014E3,1.523E3,2.81E2,4.43E2,2.93444E5,2.74E3,2.11E2,8.03E2,1.126E3,3.97E2,1.3E2,1.51E2,1.61E2,2.82E2,4.483E3,2.88961E5,2.154E3,5.86E2,1.02E2,1.09E2,6.7E2,1.33E2,7.13E2,4.13E2,1.37E2,2.6E2,1.65E2,1.17E2,6.11E2,3.872E3,4.496E3,2.84465E5,9.12E2,1.242E3,1.03E2,4.83E2,5.49E2,1.21E2,5.89E2,1.24E2,1.85E2,2.28E2,1.43E2,1.17E2,5.11E2,1E2,7.33E2,3.139E3,3.15E2,4.181E3,1.787E3,2.82678E5,6.19E2,2.93E2,3.15E2,9.27E2,1.35E2,3.48E2,2.47E2,3.02E2,2.14E2,3.75E2,1.18E2,1.1E2,3.83E2,1.28E2,4.09E2,3.24E2,1.153E3,1.986E3,1E2,2.15E2,4.032E3,1.49E2,1.652E3,1.35E2,2.81509E5,1.169E3,1.51E2,4.68E2,1.51E2,1.42E2,2.03E2,1.12E2,2.63E2,6.64E2,1.08E2,2.4E2,1.04E2,1.43E2,1.07E2,1.95E2,1.05E2,1.09E2,1.49E2,2.26E2,2.1E2,1.73E2,1.9E2,2.19E2,1.14E2,2.1E2,4.11E2,7.42E2,1.463E3,5.23E2,1.01E2,1.14E2,2.392E3,1.64E3,1.52E2,1.5E3,1.7966E4,2.63543E5,4.37E2,7.32E2,3.67E2,1.01E2,1E2,1.03E2,1.49E2,1.14E2,2.89E2,3.75E2,1.36E2,1.04E2,1.15E2,1.11E2],"tree_param":{"num_deleted":"0","num_feature":"40","num_nodes":"133","size_leaf_vector":"1"}},{"base_weights":[-3.211924E-5,-4.3843623E-4,4.731104E-2,-1.0790359E-1,-1.6540496E-4,8.203137E-2,-2.3722905E-3,-4.503941E-2,-1.5079069E-1,2.0284674E-4,-3.993061E-2,1.3112295E-1,5.0909407E-2,9.127134E-3,-2.4629163E-3,-5.5987225E-4,-5.7531904E-2,-5.7050628E-3,-1.2588096E-1,1.6212855E-2,-4.6125006E-5,-1.305935E-1,-2.6285904E-2,1.5483649E-1,1.416104E-3,-1.0097909E-3,6.776044E-2,2.5398951E-2,-1.8177006E-2,-2.235916E-3,-1.200218E-3,-3.339376E-3,-4.4956496E-3,1.3621168E-2,2.283718E-3,-2.5799751E-2,1.2152506E-4,-9.211214E-2,-6.1214617E-3,-2.587557E-3,-2.1152163E-2,6.0160323E-3,1.3796264E-1,9.6784526E-4,-1.1107958E-3,8.67463E-2,4.537799E-2,3.5925638E-2,7.69322E-3,-3.172076E-3,-1.3410877E-3,1.061279E-2,3.957127E-2,-1.1414247E-2,-5.8575673E-3,1.662629E-5,2.5276735E-2,-1.4865393E-3,-4.4119204E-3,2.7418877E-3,-3.2128602E-2,3.2265405E-3,1.5314165E-1,2.1156173E-3,9.97366E-2,1.6640172E-3,8.8432035E-4,2.5600268E-2,1.6487525E-3,-1.0016371E-4,6.510097E-4,1.34683E-4,-3.5008148E-4,1.2663921E-2,-1.3121397E-3,4.6227998E-4,5.1145453E-2,1.3914543E-3,-1.7135123E-2,4.0922137E-3,-3.744659E-4,4.247832E-2,1.5287933E-2,-4.3245396E-3,8.5652136E-4,-1.02278166E-1,-2.0224279E-2,5.4990673E-3,3.6662288E-3,3.3427966E-3,2.6018284E-3,1.1898883E-3,2.6070522E-4,4.7457663E-4,-1.4459598E-4,1.0931696E-3,2.3759927E-3,1.2530131E-3,-7.092624E-4,1.4589349E-4,-3.8298632E-3,-2.490326E-5,1.2566942E-4,2.5942118E-3,4.9683213E-4,-7.525748E-4,6.522154E-4,-2.5435153E-4,3.0782784E-4,-1.9850442E-3,-4.2465795E-3,-1.1753227E-3,-4.0394734E-4],"categories":[],"categories_nodes":[],"categories_segments":[],"categories_sizes":[],"default_left":[0,0,0,0,0,0,0,0,0,0,0,0,0,0,0,0,0,0,0,0,0,0,0,0,0,0,0,0,0,0,0,0,0,0,0,0,0,0,0,0,0,0,0,0,0,0,0,0,0,0,0,0,0,0,0,0,0,0,0,0,0,0,0,0,0,0,0,0,0,0,0,0,0,0,0,0,0,0,0,0,0,0,0,0,0,0,0,0,0,0,0,0,0,0,0,0,0,0,0,0,0,0,0,0,0,0,0,0,0,0,0,0,0],"id":4,"left_children":[1,3,5,7,9,11,13,15,17,19,21,23,25,27,-1,-1,29,-1,31,33,35,37,39,41,-1,43,45,47,49,-1,-1,-1,-1,51,-1,53,55,57,-1,-1,59,-1,61,-1,-1,63,65,67,69,71,-1,73,75,77,-1,79,81,-1,-1,83,85,-1,87,-1,89,-1,-1,91,-1,-1,-1,-1,-1,93,-1,-1,95,-1,97,99,101,103,105,107,-1,109,111,-1,-1,-1,-1,-1,-1,-1,-1,-1,-1,-1,-1,-1,-1,-1,-1,-1,-1,-1,-1,-1,-1,-1,-1,-1,-1],"loss_changes":[5.76031E0,8.707829E0,4.4035134E0,2.0074453E0,4.3442364E0,2.2745485E0,9.6734357E-1,9.313762E-2,4.035797E-1,1.1722014E0,3.3513932E0,1.1354713E0,8.1167006E-1,4.0689203E-1,0E0,0E0,4.9346328E-2,0E0,6.8297386E-2,6.901214E-1,1.2510796E0,9.7225046E-1,7.177886E-1,3.1199837E-1,0E0,2.6914024E-1,2.822013E-1,1.0279918E-1,1.3016675E-1,0E0,0E0,0E0,0E0,3.3204395E-1,0E0,4.5475283E0,7.555682E-1,5.271224E-1,0E0,0E0,5.7525045E-1,0E0,1.2558508E-1,0E0,0E0,6.1122656E-2,4.3015063E-2,6.1980903E-2,3.5545632E-2,1.4987124E-2,0E0,4.2872348E-1,1.17740035E-1,5.685408E-1,0E0,4.5640352E-1,1.9847345E-1,0E0,0E0,1.2719852E-1,1.238581E0,0E0,1.7162657E-1,0E0,1.0256767E-2,0E0,0E0,5.1037297E-2,0E0,0E0,0E0,0E0,0E0,2.0710516E-1,0E0,0E0,1.1113757E-1,0E0,6.015982E-1,2.5344512E0,5.42429E-1,4.8339117E-1,1.9669531E-1,3.2189302E-2,0E0,2.84765E-1,1.5893453E-1,0E0,0E0,0E0,0E0,0E0,0E0,0E0,0E0,0E0,0E0,0E0,0E0,0E0,0E0,0E0,0E0,0E0,0E0,0E0,0E0,0E0,0E0,0E0,0E0,0E0,0E0],"parents":[2147483647,0,0,1,1,2,2,3,3,4,4,5,5,6,6,7,7,8,8,9,9,10,10,11,11,12,12,13,13,16,16,18,18,19,19,20,20,21,21,22,22,23,23,25,25,26,26,27,27,28,28,33,33,35,35,36,36,37,37,40,40,42,42,45,45,46,46,47,47,48,48,49,49,51,51,52,52,53,53,55,55,56,56,59,59,60,60,62,62,64,64,67,67,73,73,76,76,78,78,79,79,80,80,81,81,82,82,83,83,85,85,86,86],"right_children":[2,4,6,8,10,12,14,16,18,20,22,24,26,28,-1,-1,30,-1,32,34,36,38,40,42,-1,44,46,48,50,-1,-1,-1,-1,52,-1,54,56,58,-1,-1,60,-1,62,-1,-1,64,66,68,70,72,-1,74,76,78,-1,80,82,-1,-1,84,86,-1,88,-1,90,-1,-1,92,-1,-1,-1,-1,-1,94,-1,-1,96,-1,98,100,102,104,106,108,-1,110,112,-1,-1,-1,-1,-1,-1,-1,-1,-1,-1,-1,-1,-1,-1,-1,-1,-1,-1,-1,-1,-1,-1,-1,-1,-1,-1],"split_conditions":[5.166403E-2,-1.5032598E-1,1.2200977E-2,-2.339519E-1,2.6048822E-2,7.520675E-1,1.098789E0,8.1971216E-1,8.534972E-1,-5.5427708E-2,-9.864501E-2,2.4561442E-2,-1.18345544E-1,1.0267659E-1,-2.4629163E-3,-5.5987225E-4,1.964207E8,-5.7050628E-3,8.4567523E-1,4.9629975E-2,-3.2175586E-2,2.1453792E-2,-3.9611705E-2,8.986644E0,1.416104E-3,2.8108221E1,-1.340498E-1,8.699587E-1,5.2246916E-1,-2.235916E-3,-1.200218E-3,-3.339376E-3,-4.4956496E-3,-3.3814047E-2,2.283718E-3,6.8699657E-3,2.8110875E-2,1.3564694E1,-6.1214617E-3,-2.587557E-3,-5.271112E-2,6.0160323E-3,-1.18345544E-1,9.6784526E-4,-1.1107958E-3,-2.339519E-1,3.538808E-2,-1.2214062E-1,6.593664E1,1.0505342E0,-1.3410877E-3,-3.529991E-2,-6.7203075E-2,-4.6006534E-2,-5.8575673E-3,-4.0080313E-2,5.0592427E-3,-1.4865393E-3,-4.4119204E-3,6.314945E-3,-4.9301293E-2,3.2265405E-3,-8.857992E-2,2.1156173E-3,8.253361E-1,1.6640172E-3,8.8432035E-4,3.478082E-2,1.6487525E-3,-1.0016371E-4,6.510097E-4,1.34683E-4,-3.5008148E-4,1.8809449E-2,-1.3121397E-3,4.6227998E-4,5.2798575E-1,1.3914543E-3,-4.4456244E-2,2.2477297E-2,1.408644E-2,9.28842E-1,1.2074352E-2,1.8646544E-2,8.5652136E-4,2.3471044E-2,-1.3180348E0,5.4990673E-3,3.6662288E-3,3.3427966E-3,2.6018284E-3,1.1898883E-3,2.6070522E-4,4.7457663E-4,-1.4459598E-4,1.0931696E-3,2.3759927E-3,1.2530131E-3,-7.092624E-4,1.4589349E-4,-3.8298632E-3,-2.490326E-5,1.2566942E-4,2.5942118E-3,4.9683213E-4,-7.525748E-4,6.522154E-4,-2.5435153E-4,3.0782784E-4,-1.9850442E-3,-4.2465795E-3,-1.1753227E-3,-4.0394734E-4],"split_indices":[21,20,19,20,18,7,5,23,6,19,2,18,19,1,0,0,34,0,23,10,18,21,19,32,0,32,3,23,28,0,0,0,0,20,0,19,21,33,0,0,20,0,19,0,0,20,1,20,33,5,0,20,19,19,0,20,19,0,0,19,20,0,1,0,7,0,0,1,0,0,0,0,0,21,0,0,37,0,18,21,21,7,3,35,0,10,25,0,0,0,0,0,0,0,0,0,0,0,0,0,0,0,0,0,0,0,0,0,0,0,0,0,0],"split_type":[0,0,0,0,0,0,0,0,0,0,0,0,0,0,0,0,0,0,0,0,0,0,0,0,0,0,0,0,0,0,0,0,0,0,0,0,0,0,0,0,0,0,0,0,0,0,0,0,0,0,0,0,0,0,0,0,0,0,0,0,0,0,0,0,0,0,0,0,0,0,0,0,0,0,0,0,0,0,0,0,0,0,0,0,0,0,0,0,0,0,0,0,0,0,0,0,0,0,0,0,0,0,0,0,0,0,0,0,0,0,0,0,0],"sum_hessian":[2.99693E5,2.97145E5,2.548E3,7.52E2,2.96393E5,1.501E3,1.047E3,3.06E2,4.46E2,2.93671E5,2.722E3,5.81E2,9.2E2,9.14E2,1.33E2,1.01E2,2.05E2,1.71E2,2.75E2,4.503E3,2.89168E5,3.55E2,2.367E3,4.52E2,1.29E2,2.24E2,6.96E2,5.75E2,3.39E2,1.01E2,1.04E2,1.74E2,1.01E2,4.318E3,1.85E2,1.874E3,2.87294E5,2.34E2,1.21E2,1.85E2,2.182E3,1.2E2,3.32E2,1.15E2,1.09E2,3.74E2,3.22E2,3.57E2,2.18E2,2.19E2,1.2E2,3.873E3,4.45E2,1.728E3,1.46E2,2.86105E5,1.189E3,1.33E2,1.01E2,6.84E2,1.498E3,1.13E2,2.19E2,1.7E2,2.04E2,1.93E2,1.29E2,2.35E2,1.22E2,1.18E2,1E2,1.09E2,1.1E2,3.734E3,1.39E2,1.47E2,2.98E2,1.54E2,1.574E3,2.5073E4,2.61032E5,4.33E2,7.56E2,5.34E2,1.5E2,2.16E2,1.282E3,1.09E2,1.1E2,1.03E2,1.01E2,1.25E2,1.1E2,3.168E3,5.66E2,1.98E2,1E2,1.55E2,1.419E3,2.4928E4,1.45E2,2.37355E5,2.3677E4,1.59E2,2.74E2,1.02E2,6.54E2,4.21E2,1.13E2,1.14E2,1.02E2,3.33E2,9.49E2],"tree_param":{"num_deleted":"0","num_feature":"40","num_nodes":"113","size_leaf_vector":"1"}},{"base_weights":[2.3249422E-5,-3.532537E-4,4.368984E-2,-1.0569852E-1,-8.796705E-5,7.839601E-2,-0E0,-4.382118E-2,-1.4693803E-1,2.5337527E-4,-3.7208144E-2,1.113465E-1,4.0057138E-2,1.7361863E-2,-3.5280425E-2,-1.9181576E-3,-8.9813914E-4,-6.2711313E-3,-1.2722772E-1,2.1337021E-2,-7.385013E-5,-1.9270869E-2,-1.0485994E-1,1.2771443E-1,1.3967218E-3,5.896423E-2,-1.1868894E-3,3.4855433E-2,-1.7534397E-3,-2.0103822E-3,-1.593025E-2,-3.3500355E-3,-4.3718787E-3,-1.6483584E-2,2.7477454E-2,-1.7667524E-4,2.5139932E-2,2.015546E-3,-3.1309064E-2,-6.0612904E-3,-7.0088185E-2,1.563104E-1,1.0083696E-1,7.078319E-2,4.4707824E-2,4.5858067E-2,5.7815405E-4,8.436881E-4,-1.3958797E-2,1.2324026E-4,-1.1308185E-3,-9.634897E-3,-1.108149E-3,6.0536176E-2,1.851575E-2,4.392534E-3,-6.925381E-4,4.2591907E-2,1.4207429E-2,-1.0250737E-2,1.0428125E-2,-8.582423E-2,-1.5301351E-2,-6.672964E-4,-9.337869E-2,5.470108E-3,4.153456E-3,1.15807205E-1,2.113251E-3,2.5199894E-3,1.6276478E-3,1.9448623E-3,6.6567777E-4,1.0552655E-3,1.6743375E-3,-9.643871E-4,-2.4336217E-5,-7.4369786E-4,-7.324428E-4,5.1110912E-2,2.9221943E-3,1.970396E-3,2.303637E-2,5.139688E-3,-3.9910083E-3,-4.589441E-3,-2.2863984E-4,2.8479188E-3,1.8870663E-2,-6.728081E-4,2.0388315E-2,-7.793898E-4,1.6033877E-5,-9.81656E-4,2.0891653E-2,-5.2476108E-2,-4.6017775E-3,-2.1354223E-2,4.613411E-3,-3.1964013E-3,-2.1457495E-3,3.1365848E-3,3.7989027E-3,2.88542E-4,-2.7256244E-4,1.974315E-3,1.1538994E-3,2.3018212E-4,-8.647664E-4,8.6951925E-4,3.596697E-4,7.452675E-5,6.819709E-4,-5.4498436E-5,-7.5457455E-4,-1.5288677E-5,3.7934424E-4,9.979217E-4,-1.3462636E-5,1.5254398E-3,4.2176983E-4,1.4161319E-4,-2.0878862E-4,3.7715412E-4,9.356376E-4,-1.981312E-3,-1.1449577E-3,-1.8434713E-3,-4.286949E-4,5.3767895E-4,-4.0255993E-4],"categories":[],"categories_nodes":[],"categories_segments":[],"categories_sizes":[],"default_left":[0,0,0,0,0,0,0,0,0,0,0,0,0,0,0,0,0,0,0,0,0,0,0,0,0,0,0,0,0,0,0,0,0,0,0,0,0,0,0,0,0,0,0,0,0,0,0,0,0,0,0,0,0,0,0,0,0,0,0,0,0,0,0,0,0,0,0,0,0,0,0,0,0,0,0,0,0,0,0,0,0,0,0,0,0,0,0,0,0,0,0,0,0,0,0,0,0,0,0,0,0,0,0,0,0,0,0,0,0,0,0,0,0,0,0,0,0,0,0,0,0,0,0,0,0,0,0,0,0,0,0],"id":5,"left_children":[1,3,5,7,9,11,13,15,17,19,21,23,25,27,29,-1,-1,-1,31,33,35,37,39,41,-1,43,-1,45,47,-1,49,-1,-1,51,53,55,57,59,61,-1,63,65,67,69,71,73,-1,-1,75,-1,-1,77,-1,79,81,83,85,87,89,91,93,95,97,-1,99,-1,-1,101,-1,-1,-1,-1,-1,-1,-1,-1,-1,103,-1,105,-1,107,109,111,-1,113,115,-1,117,-1,119,-1,-1,121,123,125,-1,127,129,-1,-1,-1,-1,-1,-1,-1,-1,-1,-1,-1,-1,-1,-1,-1,-1,-1,-1,-1,-1,-1,-1,-1,-1,-1,-1,-1,-1,-1,-1,-1,-1],"loss_changes":[4.929351E0,8.2896185E0,3.8907027E0,1.8816204E0,3.757465E0,1.789774E0,6.957089E-1,7.395786E-2,5.097418E-1,2.027387E0,3.2663536E0,7.9545975E-1,9.988886E-1,2.5715548E-1,2.2192007E-1,0E0,0E0,0E0,7.054138E-2,1.0441349E0,7.4693197E-1,5.505675E-1,1.880971E0,4.423914E-1,0E0,7.8464985E-2,0E0,6.1828703E-2,1.2993398E-1,0E0,1.0590277E-1,0E0,0E0,8.287606E-2,1.1373632E0,6.782189E-1,2.175073E-1,7.939268E-2,1.1836462E0,0E0,4.5301867E-1,1.0211897E-1,1.2484765E-1,4.887116E-2,1.0311395E-1,1.5170485E-2,0E0,0E0,5.841878E-2,0E0,0E0,5.9521332E-2,0E0,2.703402E-1,2.2517896E-1,2.9840636E0,4.6720016E-1,5.4353297E-1,1.6357543E-1,5.481186E-2,5.7042193E-2,6.750963E-1,1.2934946E-1,0E0,6.1747313E-2,0E0,0E0,1.1491776E-3,0E0,0E0,0E0,0E0,0E0,0E0,0E0,0E0,0E0,2.5808152E-2,0E0,1.1148393E-1,0E0,1.13475114E-1,1.5264773E-1,1.3536164E0,0E0,1.5651784E0,8.351205E-1,0E0,8.923505E-2,0E0,1.1317912E-1,0E0,0E0,7.593388E-3,1.6580924E-2,2.9732585E-2,0E0,2.2349498E-1,5.8816724E-2,0E0,0E0,0E0,0E0,0E0,0E0,0E0,0E0,0E0,0E0,0E0,0E0,0E0,0E0,0E0,0E0,0E0,0E0,0E0,0E0,0E0,0E0,0E0,0E0,0E0,0E0,0E0,0E0,0E0,0E0,0E0,0E0],"parents":[2147483647,0,0,1,1,2,2,3,3,4,4,5,5,6,6,7,7,8,8,9,9,10,10,11,11,12,12,13,13,14,14,18,18,19,19,20,20,21,21,22,22,23,23,25,25,27,27,28,28,30,30,33,33,34,34,35,35,36,36,37,37,38,38,40,40,41,41,42,42,43,43,44,44,45,45,48,48,51,51,53,53,54,54,55,55,56,56,57,57,58,58,59,59,60,60,61,61,62,62,64,64,67,67,77,77,79,79,81,81,82,82,83,83,85,85,86,86,88,88,90,90,93,93,94,94,95,95,97,97,98,98],"right_children":[2,4,6,8,10,12,14,16,18,20,22,24,26,28,30,-1,-1,-1,32,34,36,38,40,42,-1,44,-1,46,48,-1,50,-1,-1,52,54,56,58,60,62,-1,64,66,68,70,72,74,-1,-1,76,-1,-1,78,-1,80,82,84,86,88,90,92,94,96,98,-1,100,-1,-1,102,-1,-1,-1,-1,-1,-1,-1,-1,-1,104,-1,106,-1,108,110,112,-1,114,116,-1,118,-1,120,-1,-1,122,124,126,-1,128,130,-1,-1,-1,-1,-1,-1,-1,-1,-1,-1,-1,-1,-1,-1,-1,-1,-1,-1,-1,-1,-1,-1,-1,-1,-1,-1,-1,-1,-1,-1,-1,-1],"split_conditions":[5.166403E-2,-1.5032598E-1,2.8197639E-2,-2.339519E-1,2.6048822E-2,-3.004114E-1,1.4331806E-1,-5.182743E0,-2.915525E-1,-8.5733704E-2,1.2449059E-2,4.2395066E-2,3.510246E-2,-2.025117E-3,-3.1230444E-1,-1.9181576E-3,-8.9813914E-4,-6.2711313E-3,5.511145E-2,-3.859324E-2,2.8110875E-2,-5.271112E-2,-1.1680959E-1,-4.1268972E-1,1.3967218E-3,-7.1255793E-3,-1.1868894E-3,8.699587E-1,-2.339519E-1,-2.0103822E-3,-1.5032598E-1,-3.3500355E-3,-4.3718787E-3,3.3774297E-3,-1.9374062E-1,-4.0080313E-2,-5.0613202E-2,-4.3046914E-2,-2.8540762E-2,-6.0612904E-3,2.2934517E-2,-1.8509471E-1,-3.334739E-2,5.655044E-1,9.220188E-1,4.8045848E-2,5.7815405E-4,8.436881E-4,-5.559663E0,1.2324026E-4,-1.1308185E-3,6.7405385E-1,-1.108149E-3,4.5732472E-2,5.5416554E-1,2.2477297E-2,-1.13484245E-2,-2.3570623E-1,1.8781139E-2,1.8107147E1,1.216327E-2,4.2970408E-2,2.8832613E-2,-6.672964E-4,-9.0878226E-2,5.470108E-3,4.153456E-3,-2.5332939E-2,2.113251E-3,2.5199894E-3,1.6276478E-3,1.9448623E-3,6.6567777E-4,1.0552655E-3,1.6743375E-3,-9.643871E-4,-2.4336217E-5,-3.2782802E-1,-7.324428E-4,-4.0445468E-1,2.9221943E-3,9.219057E-2,-1.5379658E-1,7.605676E-2,-3.9910083E-3,-1.4741404E-2,1.4922225E-2,2.8479188E-3,-1.3258336E-1,-6.728081E-4,6.8607376E1,-7.793898E-4,1.6033877E-5,4.2970408E-2,1.0445307E0,-2.0433837E-1,-4.6017775E-3,-4.139495E-1,2.0580002E1,-3.1964013E-3,-2.1457495E-3,3.1365848E-3,3.7989027E-3,2.88542E-4,-2.7256244E-4,1.974315E-3,1.1538994E-3,2.3018212E-4,-8.647664E-4,8.6951925E-4,3.596697E-4,7.452675E-5,6.819709E-4,-5.4498436E-5,-7.5457455E-4,-1.5288677E-5,3.7934424E-4,9.979217E-4,-1.3462636E-5,1.5254398E-3,4.2176983E-4,1.4161319E-4,-2.0878862E-4,3.7715412E-4,9.356376E-4,-1.981312E-3,-1.1449577E-3,-1.8434713E-3,-4.286949E-4,5.3767895E-4,-4.0255993E-4],"split_indices":[21,20,13,20,18,36,13,25,4,22,22,18,22,22,4,0,0,0,8,20,21,20,2,3,0,22,0,23,20,0,20,0,0,18,4,20,22,22,20,0,9,13,13,29,6,9,0,0,25,0,0,29,0,8,23,21,22,4,3,33,35,38,35,0,36,0,0,39,0,0,0,0,0,0,0,0,0,36,0,36,0,4,36,22,0,22,21,0,36,0,33,0,0,38,11,36,0,36,17,0,0,0,0,0,0,0,0,0,0,0,0,0,0,0,0,0,0,0,0,0,0,0,0,0,0,0,0,0,0,0,0],"split_type":[0,0,0,0,0,0,0,0,0,0,0,0,0,0,0,0,0,0,0,0,0,0,0,0,0,0,0,0,0,0,0,0,0,0,0,0,0,0,0,0,0,0,0,0,0,0,0,0,0,0,0,0,0,0,0,0,0,0,0,0,0,0,0,0,0,0,0,0,0,0,0,0,0,0,0,0,0,0,0,0,0,0,0,0,0,0,0,0,0,0,0,0,0,0,0,0,0,0,0,0,0,0,0,0,0,0,0,0,0,0,0,0,0,0,0,0,0,0,0,0,0,0,0,0,0,0,0,0,0,0,0],"sum_hessian":[2.99564E5,2.97001E5,2.563E3,7.45E2,2.96256E5,1.429E3,1.134E3,2.99E2,4.46E2,2.93554E5,2.702E3,7.67E2,6.62E2,7.59E2,3.75E2,1.19E2,1.8E2,1.06E2,3.4E2,4.491E3,2.89063E5,2.137E3,5.65E2,6.11E2,1.56E2,5.36E2,1.26E2,3.99E2,3.6E2,1.4E2,2.35E2,1.88E2,1.52E2,6.25E2,3.866E3,2.87893E5,1.17E3,7.69E2,1.368E3,1.48E2,4.17E2,2.94E2,3.17E2,2.89E2,2.47E2,2.3E2,1.69E2,1.02E2,2.58E2,1.2E2,1.15E2,4.72E2,1.53E2,8.22E2,3.044E3,2.9186E4,2.58707E5,4.47E2,7.23E2,3.08E2,4.61E2,3.09E2,1.059E3,1.38E2,2.79E2,1.17E2,1.77E2,2.1E2,1.07E2,1.57E2,1.32E2,1.28E2,1.19E2,1.16E2,1.14E2,1.05E2,1.53E2,2.99E2,1.73E2,6.57E2,1.65E2,6.58E2,2.386E3,2.9029E4,1.57E2,2.7498E4,2.31209E5,1.38E2,3.09E2,1.02E2,6.21E2,1.29E2,1.79E2,2.16E2,2.45E2,2.08E2,1.01E2,8.16E2,2.43E2,1.71E2,1.08E2,1.08E2,1.02E2,1.28E2,1.71E2,3E2,3.57E2,5.58E2,1E2,1.545E3,8.41E2,2.5227E4,3.802E3,2.4235E4,3.263E3,2.26278E5,4.931E3,1.8E2,1.29E2,1.04E2,5.17E2,1.02E2,1.14E2,1.41E2,1.04E2,1.03E2,1.05E2,1.2E2,6.96E2,1.43E2,1E2],"tree_param":{"num_deleted":"0","num_feature":"40","num_nodes":"131","size_leaf_vector":"1"}},{"base_weights":[-4.260302E-5,3.4517993E-4,-3.0376865E-2,4.7902424E-2,2.0424134E-4,-1.1585466E-2,-1.0732289E-1,9.578096E-2,-4.5723878E-2,-9.558298E-2,3.5438957E-4,1.164182E-2,-3.0372579E-2,-2.93375E-2,-1.3962623E-1,1.2561871E-1,2.3383841E-4,-1.8319874E-3,-8.430587E-4,-1.437565E-1,1.5975864E-4,6.6813946E-2,2.2024517E-4,2.7030376E-3,4.4316843E-2,-6.538074E-2,-1.5655551E-2,-1.4713753E-4,-1.6395242E-3,-5.7343286E-3,-1.18399836E-1,4.9878694E-3,1.0275657E-1,-5.7432903E-3,-3.4125643E-3,9.367013E-2,-6.9486833E-4,2.1080907E-2,-1.0288256E-4,2.758439E-2,-3.6366112E-3,5.841507E-4,1.7904175E-3,-9.7595975E-2,-3.712344E-2,-4.4320107E-2,-8.732446E-3,-2.6765051E-3,-1.3533469E-1,3.6044938E-3,2.6444008E-3,4.918086E-3,7.2585024E-2,-1.522579E-2,2.6912339E-2,1.6391054E-2,-3.5625708E-4,2.232914E-4,1.3332057E-3,-1.4678661E-2,5.727043E-3,-3.7818498E-3,-1.8241926E-3,-3.2343096E-4,-1.7134988E-3,-7.080241E-4,-2.0534303E-3,-1.678886E-2,2.1359378E-3,-3.3964603E-3,-4.6671648E-3,8.7739676E-2,1.4745587E-3,-8.47365E-3,-1.0369098E-3,4.6448387E-2,1.639655E-2,1.369765E-2,2.3867092E-3,-1.8853638E-2,-1.2603411E-4,-7.641227E-5,-2.362228E-2,1.2734042E-2,-1.8162615E-4,-1.0898653E-2,-8.150868E-4,3.9657758E-4,-5.2075973E-3,2.246846E-3,2.9762718E-3,2.1329787E-4,-4.1061692E-4,1.8671274E-3,7.0389116E-4,1.7167543E-4,7.1955E-4,3.5471583E-4,1.9686066E-3,-3.128078E-4,-3.369159E-3,1.637421E-4,-1.9366915E-5,-1.0569927E-3,-3.813543E-4,1.2832564E-4,7.752941E-4,-6.055706E-4,2.5797499E-4,8.017557E-5,-3.6354558E-4],"categories":[],"categories_nodes":[],"categories_segments":[],"categories_sizes":[],"default_left":[0,0,0,0,0,0,0,0,0,0,0,0,0,0,0,0,0,0,0,0,0,0,0,0,0,0,0,0,0,0,0,0,0,0,0,0,0,0,0,0,0,0,0,0,0,0,0,0,0,0,0,0,0,0,0,0,0,0,0,0,0,0,0,0,0,0,0,0,0,0,0,0,0,0,0,0,0,0,0,0,0,0,0,0,0,0,0,0,0,0,0,0,0,0,0,0,0,0,0,0,0,0,0,0,0,0,0,0,0,0,0],"id":6,"left_children":[1,3,5,7,9,11,13,15,17,19,21,23,25,27,29,31,-1,-1,-1,33,-1,35,37,39,41,43,45,-1,-1,-1,47,-1,49,-1,-1,51,-1,53,55,57,59,-1,-1,61,63,65,67,-1,69,-1,-1,-1,71,73,75,77,79,-1,-1,81,83,-1,-1,-1,-1,-1,-1,85,87,-1,-1,89,-1,91,-1,93,95,97,-1,99,101,-1,103,105,-1,107,-1,-1,109,-1,-1,-1,-1,-1,-1,-1,-1,-1,-1,-1,-1,-1,-1,-1,-1,-1,-1,-1,-1,-1,-1],"loss_changes":[3.5236924E0,1.9759432E0,5.4551663E0,3.9103155E0,4.2281785E0,1.3285279E0,1.8496647E0,1.5016294E0,7.0424974E-2,2.250515E0,2.6160254E0,3.9166093E-1,8.589541E-1,1.2890774E-1,5.3881454E-1,3.7103844E-1,0E0,0E0,0E0,4.138565E-1,0E0,1.435612E0,1.981129E0,1.7088586E-1,1.0232216E-1,4.3777323E-1,2.3023334E-1,0E0,0E0,0E0,1.6023207E-1,0E0,4.852581E-2,0E0,0E0,6.5090084E-1,0E0,9.5037127E-1,1.2066422E0,6.9502234E-2,8.859196E-2,0E0,0E0,2.2151661E-1,1.3329515E-1,1.046623E-1,8.5447885E-2,0E0,7.570505E-2,0E0,0E0,0E0,1.1091733E-1,7.637352E-2,7.8767395E-1,7.33716E-1,1.2106951E0,0E0,0E0,4.0137008E-2,3.8162187E-2,0E0,0E0,0E0,0E0,0E0,0E0,3.0165985E-2,3.3616647E-2,0E0,0E0,1.2946248E-2,0E0,3.821135E-2,0E0,4.8089933E-1,2.0081818E-1,3.9993823E-1,0E0,2.7399666E0,8.1545603E-1,0E0,2.329623E-2,2.9136587E-2,0E0,6.65629E-2,0E0,0E0,1.385938E-2,0E0,0E0,0E0,0E0,0E0,0E0,0E0,0E0,0E0,0E0,0E0,0E0,0E0,0E0,0E0,0E0,0E0,0E0,0E0,0E0,0E0,0E0],"parents":[2147483647,0,0,1,1,2,2,3,3,4,4,5,5,6,6,7,7,8,8,9,9,10,10,11,11,12,12,13,13,14,14,15,15,19,19,21,21,22,22,23,23,24,24,25,25,26,26,30,30,32,32,35,35,37,37,38,38,39,39,40,40,43,43,44,44,45,45,46,46,48,48,52,52,53,53,54,54,55,55,56,56,59,59,60,60,67,67,68,68,71,71,73,73,75,75,76,76,77,77,79,79,80,80,82,82,83,83,85,85,88,88],"right_children":[2,4,6,8,10,12,14,16,18,20,22,24,26,28,30,32,-1,-1,-1,34,-1,36,38,40,42,44,46,-1,-1,-1,48,-1,50,-1,-1,52,-1,54,56,58,60,-1,-1,62,64,66,68,-1,70,-1,-1,-1,72,74,76,78,80,-1,-1,82,84,-1,-1,-1,-1,-1,-1,86,88,-1,-1,90,-1,92,-1,94,96,98,-1,100,102,-1,104,106,-1,108,-1,-1,110,-1,-1,-1,-1,-1,-1,-1,-1,-1,-1,-1,-1,-1,-1,-1,-1,-1,-1,-1,-1,-1,-1],"split_conditions":[2.6048822E-2,-2.339519E-1,4.4977773E-2,4.005147E-2,-1.18345544E-1,1.7376333E-2,1.4734611E-1,-2.69426E-1,1.7305094E8,-1.5032598E-1,-1.5032598E-1,8.635072E-3,-3.2782802E-1,2.9605715E-2,-2.6200607E-1,9.440871E0,2.3383841E-4,-1.8319874E-3,-8.430587E-4,8.534972E-1,1.5975864E-4,1.0285957E0,-8.5733704E-2,-1.3705142E-1,3.3200447E-2,4.667792E1,2.8290609E-2,-1.4713753E-4,-1.6395242E-3,-5.7343286E-3,7.538191E-1,4.9878694E-3,-4.0445468E-1,-5.7432903E-3,-3.4125643E-3,-3.951703E-1,-6.9486833E-4,-3.859324E-2,-5.5427708E-2,5.0249737E-2,-6.0760554E-2,5.841507E-4,1.7904175E-3,-2.8540762E-2,5.0847437E-2,2.0493427E-2,-1.742081E-1,-2.6765051E-3,6.781544E-2,3.6044938E-3,2.6444008E-3,4.918086E-3,9.91969E-1,3.3774297E-3,-3.0549005E-1,4.9629975E-2,-2.6830176E-2,2.232914E-4,1.3332057E-3,1.2561849E8,5.4931236E1,-3.7818498E-3,-1.8241926E-3,-3.2343096E-4,-1.7134988E-3,-7.080241E-4,-2.0534303E-3,4.329676E-2,4.8211394E-3,-3.3964603E-3,-4.6671648E-3,6.832262E-2,1.4745587E-3,-2.6841672E-2,-1.0369098E-3,1.8385304E-2,6.932534E-1,8.848937E-2,2.3867092E-3,1.5624556E-2,-4.0080313E-2,-7.641227E-5,3.2250893E8,4.0790625E-2,-1.8162615E-4,-3.467285E-2,-8.150868E-4,3.9657758E-4,7.641909E-1,2.246846E-3,2.9762718E-3,2.1329787E-4,-4.1061692E-4,1.8671274E-3,7.0389116E-4,1.7167543E-4,7.1955E-4,3.5471583E-4,1.9686066E-3,-3.128078E-4,-3.369159E-3,1.637421E-4,-1.9366915E-5,-1.0569927E-3,-3.813543E-4,1.2832564E-4,7.752941E-4,-6.055706E-4,2.5797499E-4,8.017557E-5,-3.6354558E-4],"split_indices":[18,20,22,22,19,19,28,36,34,20,20,19,36,38,36,32,0,0,0,6,0,5,22,2,9,33,19,0,0,0,23,0,36,0,0,36,0,20,19,0,20,0,0,20,38,9,36,0,31,0,0,0,5,18,36,10,18,0,0,34,33,0,0,0,0,0,0,0,20,0,0,10,0,2,0,19,23,22,0,19,20,0,34,0,0,22,0,0,23,0,0,0,0,0,0,0,0,0,0,0,0,0,0,0,0,0,0,0,0,0,0],"split_type":[0,0,0,0,0,0,0,0,0,0,0,0,0,0,0,0,0,0,0,0,0,0,0,0,0,0,0,0,0,0,0,0,0,0,0,0,0,0,0,0,0,0,0,0,0,0,0,0,0,0,0,0,0,0,0,0,0,0,0,0,0,0,0,0,0,0,0,0,0,0,0,0,0,0,0,0,0,0,0,0,0,0,0,0,0,0,0,0,0,0,0,0,0,0,0,0,0,0,0,0,0,0,0,0,0,0,0,0,0,0,0],"sum_hessian":[2.99299E5,2.95518E5,3.781E3,8.71E2,2.94647E5,3.04E3,7.41E2,5.77E2,2.94E2,4.6E2,2.94187E5,1.357E3,1.683E3,2.18E2,5.23E2,4.3E2,1.47E2,1.54E2,1.4E2,3.12E2,1.48E2,5.91E2,2.93596E5,1.068E3,2.89E2,4.96E2,1.187E3,1.13E2,1.05E2,1.51E2,3.72E2,1.53E2,2.77E2,1.19E2,1.93E2,4.56E2,1.35E2,4.483E3,2.89113E5,2.2E2,8.48E2,1.13E2,1.76E2,2.3E2,2.66E2,2.28E2,9.59E2,1.39E2,2.33E2,1.23E2,1.54E2,1.04E2,3.52E2,6.18E2,3.865E3,4.368E3,2.84745E5,1.03E2,1.17E2,3.94E2,4.54E2,1.28E2,1.02E2,1.17E2,1.49E2,1.25E2,1.03E2,5.56E2,4.03E2,1.14E2,1.19E2,2.11E2,1.41E2,4.62E2,1.56E2,1.349E3,2.516E3,4.191E3,1.77E2,3.495E3,2.8125E5,1.72E2,2.22E2,2.9E2,1.64E2,3.61E2,1.95E2,1.66E2,2.37E2,1.04E2,1.07E2,1.11E2,3.51E2,7.97E2,5.52E2,1.051E3,1.465E3,4.047E3,1.44E2,3.207E3,2.88E2,2.3923E4,2.57327E5,1.03E2,1.19E2,1.81E2,1.09E2,2.48E2,1.13E2,1.04E2,1.33E2],"tree_param":{"num_deleted":"0","num_feature":"40","num_nodes":"111","size_leaf_vector":"1"}},{"base_weights":[3.9410606E-5,-3.2856545E-4,4.3551117E-2,-9.980165E-2,-7.684491E-5,8.460816E-2,6.867133E-3,-4.2384896E-2,-1.4019188E-1,2.576253E-4,-3.597942E-2,1.2325608E-1,4.680995E-2,3.7735693E-2,-1.4693877E-2,-1.8990572E-3,-7.759405E-4,-6.271011E-3,-1.1730238E-1,1.9561285E-2,-3.7263766E-5,-1.2014774E-1,-2.3052005E-2,1.3876958E-1,1.7293158E-3,6.641595E-2,-5.61614E-4,5.3072464E-2,2.4804806E-2,9.3611534E-4,-1.8917059E-3,-2.8990256E-3,-4.036164E-3,-1.5674965E-2,2.5243014E-2,1.4778847E-2,-2.7509234E-4,-1.5003819E-3,-5.400078E-3,-1.6219119E-2,-5.7720464E-2,5.819965E-3,1.2018382E-1,2.713725E-3,5.9322942E-2,2.2404094E-3,1.074078E-3,-0E0,3.6876623E-2,8.212753E-3,-8.926396E-4,-9.448493E-3,-1.0092653E-3,5.579399E-2,1.6951043E-2,5.5422902E-2,1.1766789E-2,-1.8460257E-2,-5.9870166E-5,4.314032E-3,-3.092042E-2,-4.0495864E-4,-8.3107546E-2,4.3045455E-3,1.03286654E-1,2.1105588E-3,1.4477366E-3,7.3805935E-4,1.4401278E-3,-0E0,8.4296154E-4,-1.022525E-3,-7.674165E-4,4.6408318E-2,2.7631256E-3,2.8259028E-2,1.0664708E-2,2.6077263E-3,3.9385945E-2,8.878124E-3,4.735261E-2,-1.0148992E-2,-5.622306E-3,-4.199353E-4,9.294238E-3,-5.8353622E-3,1.5723653E-2,-7.150497E-2,-1.7379494E-2,-2.892332E-3,-1.9020281E-3,3.5126626E-3,2.6609234E-3,4.104019E-4,-6.383594E-3,3.1139984E-4,-2.2801956E-4,1.7709079E-3,8.9239556E-4,1.0059325E-3,3.977844E-4,4.5005724E-4,7.0349495E-5,1.4983263E-3,8.1877847E-4,3.274965E-4,-1.1830587E-3,9.872413E-4,2.1922735E-3,-4.5676943E-4,1.2355279E-3,-1.9190727E-4,1.1391657E-5,3.3977875E-4,-3.756533E-3,-5.4645465E-5,-3.8126792E-4,9.713963E-5,8.0730073E-4,-1.4005351E-3,-3.450809E-3,-1.1589525E-3,-3.9503362E-4,1.2041324E-4,-4.5240903E-4],"categories":[],"categories_nodes":[],"categories_segments":[],"categories_sizes":[],"default_left":[0,0,0,0,0,0,0,0,0,0,0,0,0,0,0,0,0,0,0,0,0,0,0,0,0,0,0,0,0,0,0,0,0,0,0,0,0,0,0,0,0,0,0,0,0,0,0,0,0,0,0,0,0,0,0,0,0,0,0,0,0,0,0,0,0,0,0,0,0,0,0,0,0,0,0,0,0,0,0,0,0,0,0,0,0,0,0,0,0,0,0,0,0,0,0,0,0,0,0,0,0,0,0,0,0,0,0,0,0,0,0,0,0,0,0,0,0,0,0,0,0,0,0,0,0],"id":7,"left_children":[1,3,5,7,9,11,13,15,17,19,21,23,25,27,29,-1,-1,-1,31,33,35,37,39,41,-1,43,-1,45,47,49,-1,-1,-1,51,53,55,57,-1,-1,59,61,-1,63,-1,65,-1,-1,-1,67,69,-1,71,-1,73,75,77,79,81,83,85,87,-1,89,-1,91,-1,-1,-1,-1,93,-1,95,-1,97,-1,99,101,-1,103,105,107,109,-1,111,113,115,117,119,121,-1,-1,-1,-1,-1,123,-1,-1,-1,-1,-1,-1,-1,-1,-1,-1,-1,-1,-1,-1,-1,-1,-1,-1,-1,-1,-1,-1,-1,-1,-1,-1,-1,-1,-1,-1],"loss_changes":[4.7962728E0,7.421063E0,3.7743583E0,1.7160482E0,3.5583558E0,1.7121763E0,8.862864E-1,9.807569E-2,6.5525246E-1,1.6714939E0,2.9614067E0,5.7409954E-1,7.7589583E-1,1.0077864E-1,5.959057E-1,0E0,0E0,0E0,9.3179226E-2,8.855128E-1,1.0164506E0,1.5003633E0,5.5442905E-1,4.4982433E-1,0E0,6.34563E-2,0E0,8.089328E-2,8.821261E-2,1.2920804E-1,0E0,0E0,0E0,6.402433E-2,9.5707536E-1,5.5110615E-1,1.1109186E0,0E0,0E0,6.016024E-1,4.2593288E-1,0E0,1.1325741E-1,0E0,3.1866908E-2,0E0,0E0,0E0,2.008909E-2,7.8366764E-2,0E0,5.9605774E-2,0E0,2.617998E-1,2.091288E-1,1.4469498E-1,4.3071204E-1,4.6420975E0,9.455326E-1,9.654519E-2,6.2797356E-1,0E0,4.766476E-2,0E0,2.0286322E-2,0E0,0E0,0E0,0E0,2.9460529E-2,0E0,2.2614658E-2,0E0,1.2682426E-1,0E0,7.950294E-2,6.7980304E-2,0E0,1.8838882E-2,3.841421E-1,1.0661137E-1,8.222958E-1,0E0,1.2939004E0,2.8323703E0,1.0466042E-2,5.1880486E-2,2.945081E-1,7.273981E-2,0E0,0E0,0E0,0E0,0E0,2.2009429E-2,0E0,0E0,0E0,0E0,0E0,0E0,0E0,0E0,0E0,0E0,0E0,0E0,0E0,0E0,0E0,0E0,0E0,0E0,0E0,0E0,0E0,0E0,0E0,0E0,0E0,0E0,0E0,0E0,0E0,0E0],"parents":[2147483647,0,0,1,1,2,2,3,3,4,4,5,5,6,6,7,7,8,8,9,9,10,10,11,11,12,12,13,13,14,14,18,18,19,19,20,20,21,21,22,22,23,23,25,25,27,27,28,28,29,29,33,33,34,34,35,35,36,36,39,39,40,40,42,42,44,44,48,48,49,49,51,51,53,53,54,54,55,55,56,56,57,57,58,58,59,59,60,60,62,62,64,64,69,69,71,71,73,73,75,75,76,76,78,78,79,79,80,80,81,81,83,83,84,84,85,85,86,86,87,87,88,88,94,94],"right_children":[2,4,6,8,10,12,14,16,18,20,22,24,26,28,30,-1,-1,-1,32,34,36,38,40,42,-1,44,-1,46,48,50,-1,-1,-1,52,54,56,58,-1,-1,60,62,-1,64,-1,66,-1,-1,-1,68,70,-1,72,-1,74,76,78,80,82,84,86,88,-1,90,-1,92,-1,-1,-1,-1,94,-1,96,-1,98,-1,100,102,-1,104,106,108,110,-1,112,114,116,118,120,122,-1,-1,-1,-1,-1,124,-1,-1,-1,-1,-1,-1,-1,-1,-1,-1,-1,-1,-1,-1,-1,-1,-1,-1,-1,-1,-1,-1,-1,-1,-1,-1,-1,-1,-1,-1],"split_conditions":[5.166403E-2,-1.5032598E-1,-1.5202018E-3,-2.339519E-1,2.6048822E-2,-3.3468983E-1,2.8290609E-2,-2.9455025E0,9.217663E-1,-8.5733704E-2,-9.864501E-2,4.2395066E-2,3.510246E-2,-1.03211224E-1,9.415822E-2,-1.8990572E-3,-7.759405E-4,-6.271011E-3,5.2722227E-2,-3.859324E-2,-5.5427708E-2,1.2449059E-2,1.2449059E-2,-5.466113E-1,1.7293158E-3,9.589595E-1,-5.61614E-4,-1.445627E-2,5.596889E-1,1.0782744E0,-1.8917059E-3,-2.8990256E-3,-4.036164E-3,3.3774297E-3,-1.9374062E-1,-6.0329176E-2,-2.6830176E-2,-1.5003819E-3,-5.400078E-3,1.7376333E-2,2.2934517E-2,5.819965E-3,7.8645325E-1,2.713725E-3,-7.1255793E-3,2.2404094E-3,1.074078E-3,-0E0,-1.9205564E-1,-1.8270598E-1,-8.926396E-4,-1.2521915E-1,-1.0092653E-3,4.5732472E-2,-6.1392043E-2,-3.6153486E-1,8.189628E-2,1.5624556E-2,1.8320775E-2,1.2556033E-2,-2.8540762E-2,-4.0495864E-4,1.22726485E-1,4.3045455E-3,5.7916332E-2,2.1105588E-3,1.4477366E-3,7.3805935E-4,1.4401278E-3,5.958659E-2,8.4296154E-4,-8.442661E-3,-7.674165E-4,0E0,2.7631256E-3,3.516765E-2,5.1340703E-2,2.6077263E-3,2.5793673E-2,8.068677E-2,5.332663E-1,3.269978E-2,-5.622306E-3,-2.025117E-3,8.846622E-3,-1.8594194E-2,2.8308883E-2,3.9665982E-2,-2.59617E-1,-2.892332E-3,-1.9020281E-3,3.5126626E-3,2.6609234E-3,4.104019E-4,6.8729115E-1,3.1139984E-4,-2.2801956E-4,1.7709079E-3,8.9239556E-4,1.0059325E-3,3.977844E-4,4.5005724E-4,7.0349495E-5,1.4983263E-3,8.1877847E-4,3.274965E-4,-1.1830587E-3,9.872413E-4,2.1922735E-3,-4.5676943E-4,1.2355279E-3,-1.9190727E-4,1.1391657E-5,3.3977875E-4,-3.756533E-3,-5.4645465E-5,-3.8126792E-4,9.713963E-5,8.0730073E-4,-1.4005351E-3,-3.450809E-3,-1.1589525E-3,-3.9503362E-4,1.2041324E-4,-4.5240903E-4],"split_indices":[21,20,1,20,18,36,19,26,5,22,2,18,22,3,9,0,0,0,8,20,19,22,22,36,0,5,0,18,27,5,0,0,0,18,4,22,18,0,0,19,9,0,6,0,22,0,0,0,36,36,0,25,0,8,4,36,22,19,21,35,20,0,26,0,8,0,0,0,0,19,0,35,0,35,0,19,4,0,38,22,37,20,0,22,22,3,9,38,4,0,0,0,0,0,27,0,0,0,0,0,0,0,0,0,0,0,0,0,0,0,0,0,0,0,0,0,0,0,0,0,0,0,0,0,0],"split_type":[0,0,0,0,0,0,0,0,0,0,0,0,0,0,0,0,0,0,0,0,0,0,0,0,0,0,0,0,0,0,0,0,0,0,0,0,0,0,0,0,0,0,0,0,0,0,0,0,0,0,0,0,0,0,0,0,0,0,0,0,0,0,0,0,0,0,0,0,0,0,0,0,0,0,0,0,0,0,0,0,0,0,0,0,0,0,0,0,0,0,0,0,0,0,0,0,0,0,0,0,0,0,0,0,0,0,0,0,0,0,0,0,0,0,0,0,0,0,0,0,0,0,0,0,0],"sum_hessian":[2.99286E5,2.96774E5,2.512E3,7.48E2,2.96026E5,1.184E3,1.328E3,3.1E2,4.38E2,2.93291E5,2.735E3,5.84E2,6E2,5.48E2,7.8E2,1.34E2,1.76E2,1.08E2,3.3E2,4.418E3,2.88873E5,3.63E2,2.372E3,4.71E2,1.13E2,4.63E2,1.37E2,2.47E2,3.01E2,5.88E2,1.92E2,1.53E2,1.77E2,6.11E2,3.807E3,4.557E3,2.84316E5,1.68E2,1.95E2,1.984E3,3.88E2,1.17E2,3.54E2,1.02E2,3.61E2,1.07E2,1.4E2,1E2,2.01E2,4.78E2,1.1E2,4.58E2,1.53E2,8.1E2,2.997E3,3.12E2,4.245E3,3.32E3,2.80996E5,8.25E2,1.159E3,1.43E2,2.45E2,1.46E2,2.08E2,1.76E2,1.85E2,1E2,1.01E2,3.38E2,1.4E2,3.05E2,1.53E2,6.46E2,1.64E2,1.065E3,1.932E3,1.03E2,2.09E2,3.929E3,3.16E2,3.165E3,1.55E2,2.70591E5,1.0405E4,4.32E2,3.93E2,2.88E2,8.71E2,1.43E2,1.02E2,1.03E2,1.05E2,1.07E2,2.31E2,1.06E2,1.99E2,3.64E2,2.82E2,7.83E2,2.82E2,1.262E3,6.7E2,1.07E2,1.02E2,3.772E3,1.57E2,2.05E2,1.11E2,2.882E3,2.83E2,3.1945E4,2.38646E5,1.0251E4,1.54E2,2.82E2,1.5E2,1.9E2,2.03E2,1.85E2,1.03E2,1.4E2,7.31E2,1E2,1.31E2],"tree_param":{"num_deleted":"0","num_feature":"40","num_nodes":"125","size_leaf_vector":"1"}},{"base_weights":[-2.804939E-5,3.2737525E-4,-2.773945E-2,4.9204946E-2,1.791549E-4,-9.555318E-3,-1.028113E-1,9.741679E-2,-4.3877974E-2,-9.5033355E-2,3.2554296E-4,1.1988742E-2,-2.7114758E-2,-1.6776118E-1,-6.781058E-2,1.2529781E-1,6.209375E-4,-2.2634787E-3,-2.7648296E-2,-1.4040072E-1,1.3056403E-4,6.311995E-2,1.9901339E-4,3.3545184E-5,4.25909E-2,-5.7338845E-2,-1.2349628E-2,-6.084572E-3,-4.1488805E-3,-4.0429388E-4,-8.997347E-2,1.5125999E-1,2.8675753E-3,-2.1894048E-4,-1.4155019E-3,-6.002433E-3,-1.09413594E-1,9.743372E-2,-0E0,1.979687E-2,-1.04303086E-4,-5.7203113E-3,7.931399E-4,3.2319296E-2,1.895885E-3,-2.9640792E-2,-8.218016E-2,-4.2924747E-2,-4.776556E-3,-2.0050486E-3,-1.0253356E-1,5.4859514E-3,3.7699323E-3,-2.9507966E-3,-3.6006467E-3,4.5458786E-3,7.078862E-2,1.0059059E-3,-9.7269355E-4,-1.3932279E-2,2.5229374E-2,1.4457067E-2,-3.2786536E-4,3.6252342E-4,-8.726055E-3,1.5305396E-3,5.4121256E-4,-1.6979055E-3,-2.5930486E-4,-3.8998378E-3,-1.5391116E-3,-1.844171E-3,-8.013894E-4,-1.2151938E-2,8.863726E-3,-3.5098756E-3,-2.619977E-3,2.390273E-3,1.6775909E-3,-7.0306617E-3,-1.0297943E-3,5.673115E-2,1.6601609E-2,1.1582798E-2,6.266147E-2,-1.8017635E-2,-1.06064166E-4,-1.853607E-2,5.5318314E-4,-4.3996265E-3,-2.7069379E-2,2.2823526E-2,-6.0849346E-4,-5.0986633E-5,-7.397446E-4,3.2722782E-3,1.4646348E-3,1.9399413E-4,7.306945E-4,3.0326712E-4,1.6322486E-3,2.6527394E-3,1.0808393E-3,-2.8637852E-4,-3.3344356E-3,1.6577126E-4,-1.8912238E-5,-8.174481E-4,-1.02476755E-4,-3.1684843E-4,2.2206604E-4,-0E0,-3.092235E-4,-1.3757478E-3,-2.1763351E-4,1.8617313E-4,1.0881049E-3],"categories":[],"categories_nodes":[],"categories_segments":[],"categories_sizes":[],"default_left":[0,0,0,0,0,0,0,0,0,0,0,0,0,0,0,0,0,0,0,0,0,0,0,0,0,0,0,0,0,0,0,0,0,0,0,0,0,0,0,0,0,0,0,0,0,0,0,0,0,0,0,0,0,0,0,0,0,0,0,0,0,0,0,0,0,0,0,0,0,0,0,0,0,0,0,0,0,0,0,0,0,0,0,0,0,0,0,0,0,0,0,0,0,0,0,0,0,0,0,0,0,0,0,0,0,0,0,0,0,0,0,0,0,0,0,0,0],"id":8,"left_children":[1,3,5,7,9,11,13,15,17,19,21,23,25,27,29,31,-1,-1,33,35,-1,37,39,41,43,45,47,-1,-1,-1,49,51,-1,-1,-1,-1,53,55,57,59,61,63,-1,65,-1,67,69,71,73,-1,75,-1,-1,-1,-1,-1,77,-1,-1,79,81,83,85,-1,87,-1,-1,-1,-1,-1,-1,-1,-1,89,91,-1,-1,-1,-1,93,-1,95,97,99,101,103,105,107,109,111,113,115,-1,-1,-1,-1,-1,-1,-1,-1,-1,-1,-1,-1,-1,-1,-1,-1,-1,-1,-1,-1,-1,-1,-1,-1,-1],"loss_changes":[2.9563556E0,2.1400506E0,5.177609E0,4.013745E0,4.1048293E0,1.1595643E0,1.6577687E0,1.2452264E0,1.4530015E-1,2.0521207E0,2.335432E0,4.977268E-1,7.467426E-1,2.2969723E-1,5.700791E-1,3.0641413E-1,0E0,0E0,7.525878E-2,5.4218626E-1,0E0,1.2818773E0,1.7504598E0,1.523583E-1,7.132703E-2,3.684498E-1,2.585021E-1,0E0,0E0,0E0,8.150911E-2,1.51371E-1,0E0,0E0,0E0,0E0,1.1482239E-3,5.2888894E-1,2.2632694E-1,8.2353616E-1,9.415229E-1,4.297416E-2,0E0,6.2180877E-2,0E0,1.4234279E-1,4.0801322E-1,5.8101118E-2,9.230015E-2,0E0,2.6492834E-2,0E0,0E0,0E0,0E0,0E0,2.0100832E-2,0E0,0E0,8.312106E-2,1.0438831E0,5.984065E-1,1.1175237E0,0E0,6.5255955E-2,0E0,0E0,0E0,0E0,0E0,0E0,0E0,0E0,6.600825E-2,1.2891637E-1,0E0,0E0,0E0,0E0,4.125532E-2,0E0,3.269639E-1,2.3576528E-1,2.541231E-1,1.5472865E-1,2.7705998E0,8.315294E-1,4.2252563E-2,2.6571773E-2,1.0684849E-2,6.915276E-2,4.4018082E-2,0E0,0E0,0E0,0E0,0E0,0E0,0E0,0E0,0E0,0E0,0E0,0E0,0E0,0E0,0E0,0E0,0E0,0E0,0E0,0E0,0E0,0E0,0E0,0E0,0E0],"parents":[2147483647,0,0,1,1,2,2,3,3,4,4,5,5,6,6,7,7,8,8,9,9,10,10,11,11,12,12,13,13,14,14,15,15,18,18,19,19,21,21,22,22,23,23,24,24,25,25,26,26,30,30,31,31,36,36,37,37,38,38,39,39,40,40,41,41,43,43,45,45,46,46,47,47,48,48,50,50,56,56,59,59,60,60,61,61,62,62,64,64,73,73,74,74,79,79,81,81,82,82,83,83,84,84,85,85,86,86,87,87,88,88,89,89,90,90,91,91],"right_children":[2,4,6,8,10,12,14,16,18,20,22,24,26,28,30,32,-1,-1,34,36,-1,38,40,42,44,46,48,-1,-1,-1,50,52,-1,-1,-1,-1,54,56,58,60,62,64,-1,66,-1,68,70,72,74,-1,76,-1,-1,-1,-1,-1,78,-1,-1,80,82,84,86,-1,88,-1,-1,-1,-1,-1,-1,-1,-1,90,92,-1,-1,-1,-1,94,-1,96,98,100,102,104,106,108,110,112,114,116,-1,-1,-1,-1,-1,-1,-1,-1,-1,-1,-1,-1,-1,-1,-1,-1,-1,-1,-1,-1,-1,-1,-1,-1,-1],"split_conditions":[2.6048822E-2,-2.339519E-1,4.4977773E-2,4.005147E-2,-1.18345544E-1,1.7376333E-2,9.189351E-1,-2.7742502E-1,-3.3785486E-1,-1.5032598E-1,-1.5032598E-1,3.2232117E-2,-3.0549005E-1,-1.5742137E-1,3.0005129E-2,7.8645325E-1,6.209375E-4,-2.2634787E-3,8.636834E-1,-2.4420114E-1,1.3056403E-4,1.0068297E0,-8.5733704E-2,8.635072E-3,8.635072E-3,-4.403884E-2,2.8290609E-2,-6.084572E-3,-4.1488805E-3,-4.0429388E-4,1.2978541E-2,8.986644E0,2.8675753E-3,-2.1894048E-4,-1.4155019E-3,-6.002433E-3,4.4384263E-2,7.788765E-1,1.0387181E0,-3.859324E-2,-5.5427708E-2,-1.2554163E-1,7.931399E-4,2.060845E-1,1.895885E-3,5.9320923E-2,3.9543364E-2,3.2184082E-1,-3.467285E-2,-2.0050486E-3,3.4674885E1,5.4859514E-3,3.7699323E-3,-2.9507966E-3,-3.6006467E-3,4.5458786E-3,-1.3985229E-1,1.0059059E-3,-9.7269355E-4,8.271255E1,-1.9374062E-1,4.8814695E-2,-2.6830176E-2,3.6252342E-4,-6.0760554E-2,1.5305396E-3,5.4121256E-4,-1.6979055E-3,-2.5930486E-4,-3.8998378E-3,-1.5391116E-3,-1.844171E-3,-8.013894E-4,-4.403884E-2,4.2395066E-2,-3.5098756E-3,-2.619977E-3,2.390273E-3,1.6775909E-3,6.3323146E-1,-1.0297943E-3,-6.675917E-1,7.04524E-1,8.848937E-2,-5.304491E-2,1.5624556E-2,-4.0080313E-2,-5.0966017E-2,-1.3213105E-2,7.8626704E-1,9.910776E-1,-2.0533972E0,-6.0849346E-4,-5.0986633E-5,-7.397446E-4,3.2722782E-3,1.4646348E-3,1.9399413E-4,7.306945E-4,3.0326712E-4,1.6322486E-3,2.6527394E-3,1.0808393E-3,-2.8637852E-4,-3.3344356E-3,1.6577126E-4,-1.8912238E-5,-8.174481E-4,-1.02476755E-4,-3.1684843E-4,2.2206604E-4,-0E0,-3.092235E-4,-1.3757478E-3,-2.1763351E-4,1.8617313E-4,1.0881049E-3],"split_indices":[18,20,22,22,19,19,6,36,4,20,20,35,36,2,18,6,0,0,23,3,0,5,22,19,19,22,19,0,0,0,35,32,0,0,0,0,8,7,5,20,19,1,0,37,0,20,19,25,22,0,33,0,0,0,0,0,3,0,0,24,4,8,18,0,20,0,0,0,0,0,0,0,0,22,18,0,0,0,0,25,0,36,23,22,22,19,20,3,35,23,7,25,0,0,0,0,0,0,0,0,0,0,0,0,0,0,0,0,0,0,0,0,0,0,0,0,0],"split_type":[0,0,0,0,0,0,0,0,0,0,0,0,0,0,0,0,0,0,0,0,0,0,0,0,0,0,0,0,0,0,0,0,0,0,0,0,0,0,0,0,0,0,0,0,0,0,0,0,0,0,0,0,0,0,0,0,0,0,0,0,0,0,0,0,0,0,0,0,0,0,0,0,0,0,0,0,0,0,0,0,0,0,0,0,0,0,0,0,0,0,0,0,0,0,0,0,0,0,0,0,0,0,0,0,0,0,0,0,0,0,0,0,0,0,0,0,0],"sum_hessian":[2.9988E5,2.96079E5,3.801E3,8.93E2,2.95186E5,3.061E3,7.4E2,5.89E2,3.04E2,4.52E2,2.94734E5,1.372E3,1.689E3,2.58E2,4.82E2,4.31E2,1.58E2,1.01E2,2.03E2,3.11E2,1.41E2,5.91E2,2.94143E5,9.89E2,3.83E2,5.52E2,1.137E3,1.16E2,1.42E2,1.41E2,3.41E2,2.28E2,2.03E2,1.02E2,1.01E2,1.05E2,2.06E2,3.83E2,2.08E2,4.488E3,2.89655E5,8.09E2,1.8E2,2.59E2,1.24E2,2.63E2,2.89E2,2.23E2,9.14E2,1.23E2,2.18E2,1E2,1.28E2,1.06E2,1E2,1.25E2,2.58E2,1.02E2,1.06E2,6.2E2,3.868E3,4.373E3,2.85282E5,1.12E2,6.97E2,1.09E2,1.5E2,1.13E2,1.5E2,1.12E2,1.77E2,1.01E2,1.22E2,5.98E2,3.16E2,1.08E2,1.1E2,1.57E2,1.01E2,4.67E2,1.53E2,8.29E2,3.039E3,4.129E3,2.44E2,3.527E3,2.81755E5,3.44E2,3.53E2,3.98E2,2E2,2.16E2,1E2,3.63E2,1.04E2,1.07E2,7.22E2,1.323E3,1.716E3,3.994E3,1.35E2,1.22E2,1.22E2,3.234E3,2.93E2,2.3982E4,2.57773E5,2.14E2,1.3E2,1.29E2,2.24E2,2.25E2,1.73E2,1E2,1E2,1E2,1.16E2],"tree_param":{"num_deleted":"0","num_feature":"40","num_nodes":"117","size_leaf_vector":"1"}},{"base_weights":[7.166628E-5,-2.9777287E-4,4.259438E-2,-9.547514E-2,-6.205112E-5,7.480356E-2,5.989254E-4,-4.4679057E-2,-1.2867394E-1,2.4813568E-4,-3.3691656E-2,1.1853163E-1,4.66263E-2,1.5206566E-2,-4.0621445E-2,-2.1047147E-3,-7.208353E-4,-5.1365322E-3,-1.0979049E-1,9.473146E-3,-3.5297163E-4,-1.1632345E-1,-2.1077996E-2,1.350495E-1,1.4020309E-3,5.995776E-2,-5.859388E-4,2.6901184E-2,-4.2652586E-4,-2.6552223E-3,-4.0700188E-4,-3.8841881E-3,-2.7883083E-3,-3.4041077E-2,1.2795306E-2,-2.6147043E-2,2.6350666E-4,-1.565891E-3,-5.010193E-3,-1.407885E-2,-5.6490872E-2,5.394885E-3,1.181448E-1,7.931873E-2,4.9292374E-2,1.8222036E-2,1.2456313E-3,8.1997097E-4,-1.3803157E-2,7.041871E-4,-4.2341113E-2,1.9298982E-2,3.2100813E-3,9.004595E-4,-3.2628853E-2,6.514398E-3,-3.9292776E-4,3.7689193E-3,-2.332636E-2,-4.926492E-4,-7.887222E-2,4.328698E-3,1.0468755E-1,2.7274282E-3,1.9595919E-3,5.8780577E-2,1.0437646E-3,-3.5887086E-5,9.676611E-4,-9.995085E-4,-0E0,-3.6707625E-2,-2.7531285E-3,5.1619086E-2,1.2509352E-2,-1.3783799E-3,2.408108E-2,-3.334608E-2,3.7592135E-2,-1.215271E-2,-4.339028E-2,7.3212935E-3,-3.863018E-3,1.651788E-3,-1.60189E-3,-4.9385256E-3,1.7053068E-2,-6.2335923E-2,-1.2318634E-2,-2.699535E-3,-1.8800157E-3,3.61097E-3,2.5258483E-3,1.3331856E-3,2.062357E-3,-1.2545252E-3,-1.7427838E-4,3.1529989E-3,1.2767664E-3,6.6959206E-4,2.3169543E-4,1.6661511E-3,-1.4460854E-4,4.661962E-5,1.0067248E-3,-1.2117323E-4,-1.3012381E-3,7.310598E-4,1.4191212E-3,3.366072E-5,-1.1699785E-3,-1.0285757E-3,-2.2397481E-3,1.0480962E-3,1.6357424E-4,4.646895E-5,1.8159276E-3,-9.9404366E-5,4.52131E-5,-2.619064E-4,9.429901E-5,2.7144738E-4,8.867899E-4,-2.8821747E-3,-1.2673774E-3,-5.6693796E-4,2.6652226E-4],"categories":[],"categories_nodes":[],"categories_segments":[],"categories_sizes":[],"default_left":[0,0,0,0,0,0,0,0,0,0,0,0,0,0,0,0,0,0,0,0,0,0,0,0,0,0,0,0,0,0,0,0,0,0,0,0,0,0,0,0,0,0,0,0,0,0,0,0,0,0,0,0,0,0,0,0,0,0,0,0,0,0,0,0,0,0,0,0,0,0,0,0,0,0,0,0,0,0,0,0,0,0,0,0,0,0,0,0,0,0,0,0,0,0,0,0,0,0,0,0,0,0,0,0,0,0,0,0,0,0,0,0,0,0,0,0,0,0,0,0,0,0,0,0,0,0,0],"id":9,"left_children":[1,3,5,7,9,11,13,15,17,19,21,23,25,27,29,-1,-1,-1,31,33,35,37,39,41,-1,43,-1,45,47,-1,-1,-1,-1,49,51,53,55,-1,-1,57,59,-1,61,63,65,67,-1,-1,69,-1,71,73,75,77,79,81,83,85,87,-1,89,-1,91,-1,-1,93,-1,-1,-1,-1,-1,95,-1,97,99,101,103,105,107,109,111,113,-1,115,117,119,121,123,125,-1,-1,-1,-1,-1,-1,-1,-1,-1,-1,-1,-1,-1,-1,-1,-1,-1,-1,-1,-1,-1,-1,-1,-1,-1,-1,-1,-1,-1,-1,-1,-1,-1,-1,-1,-1,-1,-1],"loss_changes":[4.713093E0,6.6573668E0,3.4878106E0,1.2183671E0,3.0955229E0,1.7832069E0,6.7377514E-1,1.4357626E-1,3.2519054E-1,1.6296331E0,2.8128073E0,6.584797E-1,7.892077E-1,1.5459283E-1,3.681001E-1,0E0,0E0,0E0,7.871699E-2,2.5968547E0,4.387234E0,1.1410875E0,5.7635045E-1,3.186407E-1,0E0,1.399858E-1,0E0,5.474204E-2,1.2942672E-1,0E0,0E0,0E0,0E0,6.0972345E-1,1.0391252E0,1.1322331E0,1.1056234E0,0E0,0E0,3.267944E-1,3.3659673E-1,0E0,9.2549324E-2,2.6003838E-2,5.6766033E-2,8.625048E-2,0E0,0E0,6.7587405E-2,0E0,2.9705036E-1,2.1761105E0,6.49564E-1,1.5613267E0,1.1398077E0,2.7831728E0,6.0239583E-1,7.849966E-2,5.507292E-1,0E0,2.8487444E-2,0E0,5.117345E-2,0E0,0E0,2.9403687E-2,0E0,0E0,0E0,0E0,0E0,1.5343142E-1,0E0,8.201952E-1,3.8304007E-1,1.0796843E0,2.5737262E-1,1.8366408E-1,6.9913685E-2,6.431756E-1,9.5791864E-1,1.3096776E0,0E0,5.4178464E-1,8.1526923E-1,1.2791359E-2,2.3052894E-2,1.7831624E-1,1.4276305E-1,0E0,0E0,0E0,0E0,0E0,0E0,0E0,0E0,0E0,0E0,0E0,0E0,0E0,0E0,0E0,0E0,0E0,0E0,0E0,0E0,0E0,0E0,0E0,0E0,0E0,0E0,0E0,0E0,0E0,0E0,0E0,0E0,0E0,0E0,0E0,0E0,0E0,0E0],"parents":[2147483647,0,0,1,1,2,2,3,3,4,4,5,5,6,6,7,7,8,8,9,9,10,10,11,11,12,12,13,13,14,14,18,18,19,19,20,20,21,21,22,22,23,23,25,25,27,27,28,28,33,33,34,34,35,35,36,36,39,39,40,40,42,42,43,43,44,44,45,45,48,48,50,50,51,51,52,52,53,53,54,54,55,55,56,56,57,57,58,58,60,60,62,62,65,65,71,71,73,73,74,74,75,75,76,76,77,77,78,78,79,79,80,80,81,81,83,83,84,84,85,85,86,86,87,87,88,88],"right_children":[2,4,6,8,10,12,14,16,18,20,22,24,26,28,30,-1,-1,-1,32,34,36,38,40,42,-1,44,-1,46,48,-1,-1,-1,-1,50,52,54,56,-1,-1,58,60,-1,62,64,66,68,-1,-1,70,-1,72,74,76,78,80,82,84,86,88,-1,90,-1,92,-1,-1,94,-1,-1,-1,-1,-1,96,-1,98,100,102,104,106,108,110,112,114,-1,116,118,120,122,124,126,-1,-1,-1,-1,-1,-1,-1,-1,-1,-1,-1,-1,-1,-1,-1,-1,-1,-1,-1,-1,-1,-1,-1,-1,-1,-1,-1,-1,-1,-1,-1,-1,-1,-1,-1,-1,-1,-1],"split_conditions":[5.166403E-2,-1.5032598E-1,2.8280223E-2,-2.339519E-1,2.6048822E-2,7.520675E-1,1.5480717E-1,-3.081666E0,-2.2574376E-1,-5.304491E-2,-9.864501E-2,4.2395066E-2,3.510246E-2,1.939797E-3,7.788765E-1,-2.1047147E-3,-7.208353E-4,-5.1365322E-3,2.1307213E1,1.1502249E-2,-4.2316206E-2,1.2449059E-2,1.2449059E-2,-5.466113E-1,1.4020309E-3,8.253361E-1,-5.859388E-4,-1.06955856E-1,-2.339519E-1,-2.6552223E-3,-4.0700188E-4,-3.8841881E-3,-2.7883083E-3,1.413447E-2,1.7489552E-2,-5.0613202E-2,-3.7233308E-2,-1.565891E-3,-5.010193E-3,-5.271112E-2,1.182734E-1,5.394885E-3,1.1178869E1,-3.004114E-1,-7.1255793E-3,5.7610776E-2,1.2456313E-3,8.1997097E-4,-6.020896E0,7.041871E-4,1.1516123E0,-1.8024744E-1,-5.8162935E-2,1.704042E-2,1.5499062E-2,2.2477297E-2,3.4494083E-2,1.2556033E-2,-2.8540762E-2,-4.926492E-4,-9.431984E-2,4.328698E-3,-1.0653846E-1,2.7274282E-3,1.9595919E-3,4.641685E-2,1.0437646E-3,-3.5887086E-5,9.676611E-4,-9.995085E-4,-0E0,4.3284526E-1,-2.7531285E-3,-5.401987E-1,-4.4714786E-2,-2.4765832E-2,1.379201E-2,-1.7903207E-2,-2.9789563E-2,8.821291E-3,-1.6870506E-3,-3.1436004E-2,-3.863018E-3,2.7306347E0,8.357144E-2,6.2551064E1,5.9503347E-2,-2.7342942E-1,2.8832613E-2,-2.699535E-3,-1.8800157E-3,3.61097E-3,2.5258483E-3,1.3331856E-3,2.062357E-3,-1.2545252E-3,-1.7427838E-4,3.1529989E-3,1.2767664E-3,6.6959206E-4,2.3169543E-4,1.6661511E-3,-1.4460854E-4,4.661962E-5,1.0067248E-3,-1.2117323E-4,-1.3012381E-3,7.310598E-4,1.4191212E-3,3.366072E-5,-1.1699785E-3,-1.0285757E-3,-2.2397481E-3,1.0480962E-3,1.6357424E-4,4.646895E-5,1.8159276E-3,-9.9404366E-5,4.52131E-5,-2.619064E-4,9.429901E-5,2.7144738E-4,8.867899E-4,-2.8821747E-3,-1.2673774E-3,-5.6693796E-4,2.6652226E-4],"split_indices":[21,20,1,20,18,7,1,26,4,22,2,18,22,22,7,0,0,0,33,21,22,22,22,36,0,7,0,4,20,0,0,0,0,20,21,22,20,0,0,20,28,0,32,36,22,21,0,0,25,0,7,4,22,21,21,21,22,35,20,0,36,0,1,0,0,9,0,0,0,0,0,37,0,4,4,18,27,18,15,18,18,22,0,37,22,32,39,36,35,0,0,0,0,0,0,0,0,0,0,0,0,0,0,0,0,0,0,0,0,0,0,0,0,0,0,0,0,0,0,0,0,0,0,0,0,0,0],"split_type":[0,0,0,0,0,0,0,0,0,0,0,0,0,0,0,0,0,0,0,0,0,0,0,0,0,0,0,0,0,0,0,0,0,0,0,0,0,0,0,0,0,0,0,0,0,0,0,0,0,0,0,0,0,0,0,0,0,0,0,0,0,0,0,0,0,0,0,0,0,0,0,0,0,0,0,0,0,0,0,0,0,0,0,0,0,0,0,0,0,0,0,0,0,0,0,0,0,0,0,0,0,0,0,0,0,0,0,0,0,0,0,0,0,0,0,0,0,0,0,0,0,0,0,0,0,0,0],"sum_hessian":[2.99745E5,2.97161E5,2.584E3,7.33E2,2.96428E5,1.461E3,1.123E3,2.91E2,4.42E2,2.93716E5,2.712E3,5.71E2,8.9E2,8.31E2,2.92E2,1.28E2,1.63E2,1.34E2,3.08E2,1.7978E4,2.75738E5,3.58E2,2.354E3,4.63E2,1.08E2,7.42E2,1.48E2,4.79E2,3.52E2,1.04E2,1.88E2,1.39E2,1.69E2,1.273E3,1.6705E4,6.44E3,2.69298E5,1.59E2,1.99E2,1.968E3,3.86E2,1.25E2,3.38E2,2.6E2,4.82E2,3.05E2,1.74E2,1.12E2,2.4E2,1.59E2,1.114E3,9.946E3,6.759E3,1.242E3,5.198E3,2.5607E4,2.43691E5,6.68E2,1.3E3,1.4E2,2.46E2,1.12E2,2.26E2,1.38E2,1.22E2,2.87E2,1.95E2,1.25E2,1.8E2,1.02E2,1.38E2,1.002E3,1.12E2,1.724E3,8.222E3,5.537E3,1.222E3,6.41E2,6.01E2,1.794E3,3.404E3,2.5456E4,1.51E2,9.0517E4,1.53174E5,3.99E2,2.69E2,2.84E2,1.016E3,1.42E2,1.04E2,1.25E2,1.01E2,1.22E2,1.65E2,8.57E2,1.45E2,2.48E2,1.476E3,2.689E3,5.533E3,3.14E2,5.223E3,3.65E2,8.57E2,1.66E2,4.75E2,2.59E2,3.42E2,1.198E3,5.96E2,2.639E3,7.65E2,1.61E3,2.3846E4,9.0361E4,1.56E2,9.8809E4,5.4365E4,2.8E2,1.19E2,1.69E2,1E2,1.04E2,1.8E2,7.79E2,2.37E2],"tree_param":{"num_deleted":"0","num_feature":"40","num_nodes":"127","size_leaf_vector":"1"}},{"base_weights":[1.7562963E-5,-3.3695094E-4,4.0925663E-2,2.4156585E-5,-3.7335217E-2,8.588613E-2,1.1173807E-2,-7.0391454E-2,2.0606203E-4,-1.6408805E-2,-9.6613474E-2,1.5108287E-1,6.7801714E-2,3.5676926E-2,-1.3679091E-2,1.7965616E-5,-8.75438E-2,9.249282E-3,-3.8079146E-4,2.1022465E-3,-3.0285835E-2,-4.4954684E-2,-1.3758011E-1,3.424526E-3,5.5799903E-3,7.9468556E-2,4.2452855E-4,5.5507217E-2,1.3033297E-2,1.2023295E-3,-2.151888E-3,-1.3489735E-1,-3.9206516E-2,-3.33237E-2,1.240874E-2,-2.4885748E-2,2.1250351E-4,-4.6746195E-3,1.6569048E-2,-2.1409865E-2,-2.8395858E-3,-4.04956E-4,-2.0549141E-3,-5.831233E-3,-1.1496436E-1,1.0007066E-1,5.6830373E-2,4.4801973E-2,2.5264204E-3,3.6270216E-2,-9.399838E-4,-6.9331736E-3,7.23488E-4,-5.714071E-3,-3.0162514E-3,-1.7364497E-3,-8.1188156E-4,6.3048245E-4,-4.0658846E-2,1.8385932E-2,3.5728335E-3,-0E0,-3.0751402E-2,7.946455E-3,-4.31956E-4,1.9348512E-4,-5.7220686E-4,8.272046E-4,-8.6227876E-5,-4.771216E-2,-1.448791E-2,-3.8786381E-3,-2.6114595E-3,1.16171055E-1,2.158721E-3,2.1230874E-3,1.2612297E-3,5.8331568E-2,4.8110218E-4,1.3982278E-3,7.9921697E-4,3.5958432E-3,-6.974652E-4,-3.4378707E-2,-3.0088285E-3,1.3600318E-2,4.47943E-2,1.5509601E-2,-7.289969E-3,-4.3442126E-2,2.6340282E-2,-1.0569661E-2,-4.132355E-2,4.429943E-3,2.5153838E-2,-4.8331648E-2,-3.1892757E-4,4.372386E-4,-4.021583E-3,-2.0902024E-3,-6.6638703E-4,-9.041965E-3,-2.7693301E-2,3.8652965E-3,3.1189336E-3,1.3241534E-3,2.156971E-3,-2.536619E-4,3.5917372E-4,-3.833294E-4,-1.221145E-3,-2.694E-4,4.8473332E-4,1.6535129E-3,5.965916E-4,3.279915E-4,1.2955389E-3,-3.819894E-4,8.434631E-4,-1.5882005E-3,-7.67895E-4,-8.604889E-5,1.0256047E-3,1.03641454E-4,-1.6197924E-3,-9.5570594E-4,-2.186649E-3,1.0739893E-4,1.479831E-3,4.5643095E-4,1.4048597E-3,-1.7242422E-4,-5.7368884E-3,-2.2554705E-5,2.0335021E-4,7.599472E-5,-3.4309947E-4,-7.3374005E-4,-1.4523223E-4,-1.2810961E-3,-3.357113E-4],"categories":[],"categories_nodes":[],"categories_segments":[],"categories_sizes":[],"default_left":[0,0,0,0,0,0,0,0,0,0,0,0,0,0,0,0,0,0,0,0,0,0,0,0,0,0,0,0,0,0,0,0,0,0,0,0,0,0,0,0,0,0,0,0,0,0,0,0,0,0,0,0,0,0,0,0,0,0,0,0,0,0,0,0,0,0,0,0,0,0,0,0,0,0,0,0,0,0,0,0,0,0,0,0,0,0,0,0,0,0,0,0,0,0,0,0,0,0,0,0,0,0,0,0,0,0,0,0,0,0,0,0,0,0,0,0,0,0,0,0,0,0,0,0,0,0,0,0,0,0,0,0,0,0,0,0,0,0,0,0,0],"id":10,"left_children":[1,3,5,7,9,11,13,15,17,19,21,23,25,27,29,-1,31,33,35,37,39,41,43,-1,-1,45,-1,47,49,51,-1,53,55,57,59,61,63,65,67,69,-1,-1,-1,-1,71,73,75,77,-1,79,-1,81,-1,-1,-1,-1,-1,-1,83,85,87,89,91,93,95,97,-1,-1,-1,99,101,-1,-1,103,-1,-1,-1,105,-1,-1,-1,107,-1,109,-1,111,113,115,117,119,121,123,125,127,129,131,133,-1,135,-1,-1,137,139,-1,-1,-1,-1,-1,-1,-1,-1,-1,-1,-1,-1,-1,-1,-1,-1,-1,-1,-1,-1,-1,-1,-1,-1,-1,-1,-1,-1,-1,-1,-1,-1,-1,-1,-1,-1,-1,-1],"loss_changes":[4.3466725E0,3.9699402E0,3.4347987E0,3.7587225E0,3.5513253E0,1.1845465E0,9.4682753E-1,9.293654E-1,1.5571045E0,5.484602E-1,1.5643225E0,2.529812E-1,4.932139E-1,3.4470874E-1,6.706031E-1,0E0,1.3785439E0,2.4029586E0,4.005779E0,9.0128876E-2,6.835444E-1,2.3764622E-1,5.012889E-1,0E0,0E0,2.9067516E-1,0E0,1.1428678E-1,3.8009316E-1,1.1546768E-1,0E0,5.5529976E-1,6.0088128E-2,4.9355125E-1,8.7699604E-1,9.5293427E-1,1.3407245E0,4.4863954E-2,6.540429E-2,1.8871883E-1,0E0,0E0,0E0,0E0,9.6837044E-2,1.351974E-1,5.3586125E-2,1.11209095E-1,0E0,1.6750515E-2,0E0,7.878004E-2,0E0,0E0,0E0,0E0,0E0,0E0,3.9370167E-1,1.2481837E0,8.7272537E-1,1.4179046E0,1.1198583E0,1.249048E0,1.3386353E0,2.852694E-2,0E0,0E0,0E0,1.1391169E-1,5.750899E-2,0E0,0E0,8.65221E-3,0E0,0E0,0E0,2.7574003E-2,0E0,0E0,0E0,2.7426148E-2,0E0,1.2935126E-1,0E0,4.8605418E-1,3.8298035E-1,4.0086675E-1,6.7609245E-1,7.118225E-2,1.8032563E-1,1.1110528E0,1.0223222E0,6.505114E-1,7.490659E-1,3.5223823E0,7.600268E-1,0E0,1.7666427E-2,0E0,0E0,3.6439467E-2,5.4780513E-2,0E0,0E0,0E0,0E0,0E0,0E0,0E0,0E0,0E0,0E0,0E0,0E0,0E0,0E0,0E0,0E0,0E0,0E0,0E0,0E0,0E0,0E0,0E0,0E0,0E0,0E0,0E0,0E0,0E0,0E0,0E0,0E0,0E0,0E0,0E0,0E0,0E0,0E0],"parents":[2147483647,0,0,1,1,2,2,3,3,4,4,5,5,6,6,7,7,8,8,9,9,10,10,11,11,12,12,13,13,14,14,16,16,17,17,18,18,19,19,20,20,21,21,22,22,25,25,27,27,28,28,29,29,31,31,32,32,33,33,34,34,35,35,36,36,37,37,38,38,39,39,44,44,45,45,46,46,47,47,49,49,51,51,58,58,59,59,60,60,61,61,62,62,63,63,64,64,65,65,69,69,70,70,73,73,77,77,81,81,83,83,85,85,86,86,87,87,88,88,89,89,90,90,91,91,92,92,93,93,94,94,95,95,96,96,98,98,101,101,102,102],"right_children":[2,4,6,8,10,12,14,16,18,20,22,24,26,28,30,-1,32,34,36,38,40,42,44,-1,-1,46,-1,48,50,52,-1,54,56,58,60,62,64,66,68,70,-1,-1,-1,-1,72,74,76,78,-1,80,-1,82,-1,-1,-1,-1,-1,-1,84,86,88,90,92,94,96,98,-1,-1,-1,100,102,-1,-1,104,-1,-1,-1,106,-1,-1,-1,108,-1,110,-1,112,114,116,118,120,122,124,126,128,130,132,134,-1,136,-1,-1,138,140,-1,-1,-1,-1,-1,-1,-1,-1,-1,-1,-1,-1,-1,-1,-1,-1,-1,-1,-1,-1,-1,-1,-1,-1,-1,-1,-1,-1,-1,-1,-1,-1,-1,-1,-1,-1,-1,-1],"split_conditions":[5.166403E-2,2.6048822E-2,9.938137E-1,-1.18345544E-1,1.2449059E-2,9.217663E-1,2.8290609E-2,1.6129306E-2,-5.304491E-2,1.7376333E-2,1.9002213E-1,5.86571E-1,3.510246E-2,-2.4468252E-1,5.86571E-1,1.7965616E-5,3.5992775E-2,1.1502249E-2,-4.2316206E-2,6.314945E-3,-3.467285E-2,2.0220516E-2,8.253361E-1,3.424526E-3,5.5799903E-3,-3.004114E-1,4.2452855E-4,1.9643575E-2,-7.1255793E-3,-1.8058722E-1,-2.151888E-3,8.534972E-1,-3.4078555E0,-9.392598E-2,1.7489552E-2,-5.0613202E-2,-2.525773E-2,-1.9242475E-2,-1.24991514E-1,-4.139495E-1,-2.8395858E-3,-4.04956E-4,-2.0549141E-3,-5.831233E-3,2.546555E-1,-4.3238696E-2,-7.1255793E-3,4.021022E-2,2.5264204E-3,7.3117906E-1,-9.399838E-4,1.0548586E0,7.23488E-4,-5.714071E-3,-3.0162514E-3,-1.7364497E-3,-8.1188156E-4,6.3048245E-4,3.480227E-2,3.602693E-2,5.8933925E-3,1.6430058E-2,1.5499062E-2,8.357144E-2,-3.2175586E-2,3.0827349E-2,-5.7220686E-4,8.272046E-4,-8.6227876E-5,-1.2710981E0,-4.403884E-2,-3.8786381E-3,-2.6114595E-3,-4.1268972E-1,2.158721E-3,2.1230874E-3,1.2612297E-3,5.7610776E-2,4.8110218E-4,1.3982278E-3,7.9921697E-4,-5.559663E0,-6.974652E-4,4.5826188E-1,-3.0088285E-3,-3.354003E-2,1.0064396E0,4.790332E-2,-5.8162935E-2,-1.087075E-1,1.704042E-2,3.0662676E-2,-1.6870506E-3,2.0262368E-2,1.24969715E-2,6.8699657E-3,1.4922225E-2,4.372386E-4,9.2315537E-1,-2.0902024E-3,-6.6638703E-4,1.950067E-2,9.78031E-1,3.8652965E-3,3.1189336E-3,1.3241534E-3,2.156971E-3,-2.536619E-4,3.5917372E-4,-3.833294E-4,-1.221145E-3,-2.694E-4,4.8473332E-4,1.6535129E-3,5.965916E-4,3.279915E-4,1.2955389E-3,-3.819894E-4,8.434631E-4,-1.5882005E-3,-7.67895E-4,-8.604889E-5,1.0256047E-3,1.03641454E-4,-1.6197924E-3,-9.5570594E-4,-2.186649E-3,1.0739893E-4,1.479831E-3,4.5643095E-4,1.4048597E-3,-1.7242422E-4,-5.7368884E-3,-2.2554705E-5,2.0335021E-4,7.599472E-5,-3.4309947E-4,-7.3374005E-4,-1.4523223E-4,-1.2810961E-3,-3.357113E-4],"split_indices":[21,18,5,19,22,5,19,21,22,19,28,28,22,36,28,0,21,21,22,19,22,10,7,0,0,36,0,22,22,36,0,6,26,22,21,22,19,19,36,36,0,0,0,0,29,1,22,1,0,29,0,5,0,0,0,0,0,0,8,9,19,21,21,22,18,38,0,0,0,25,22,0,0,3,0,0,0,21,0,0,0,25,0,23,0,19,26,10,22,36,21,19,18,21,21,19,21,0,7,0,0,19,7,0,0,0,0,0,0,0,0,0,0,0,0,0,0,0,0,0,0,0,0,0,0,0,0,0,0,0,0,0,0,0,0,0,0,0,0,0,0],"split_type":[0,0,0,0,0,0,0,0,0,0,0,0,0,0,0,0,0,0,0,0,0,0,0,0,0,0,0,0,0,0,0,0,0,0,0,0,0,0,0,0,0,0,0,0,0,0,0,0,0,0,0,0,0,0,0,0,0,0,0,0,0,0,0,0,0,0,0,0,0,0,0,0,0,0,0,0,0,0,0,0,0,0,0,0,0,0,0,0,0,0,0,0,0,0,0,0,0,0,0,0,0,0,0,0,0,0,0,0,0,0,0,0,0,0,0,0,0,0,0,0,0,0,0,0,0,0,0,0,0,0,0,0,0,0,0,0,0,0,0,0,0],"sum_hessian":[2.99439E5,2.96864E5,2.575E3,2.93992E5,2.872E3,1.024E3,1.551E3,7.56E2,2.93236E5,2.124E3,7.48E2,2.21E2,8.03E2,7.83E2,7.68E2,1.46E2,6.1E2,1.788E4,2.75356E5,9.07E2,1.217E3,3.32E2,4.16E2,1.09E2,1.12E2,6.58E2,1.45E2,4.15E2,3.68E2,6.1E2,1.58E2,3.07E2,3.03E2,1.233E3,1.6647E4,6.513E3,2.68843E5,6.13E2,2.94E2,1.071E3,1.46E2,1.44E2,1.88E2,1.17E2,2.99E2,3.42E2,3.16E2,3.05E2,1.1E2,2.43E2,1.25E2,4.47E2,1.63E2,1.16E2,1.91E2,1.16E2,1.87E2,1.45E2,1.088E3,9.923E3,6.724E3,1.24E3,5.273E3,2.0691E4,2.48152E5,4.53E2,1.6E2,1.91E2,1.03E2,2.2E2,8.51E2,1.95E2,1.04E2,2.15E2,1.27E2,1.59E2,1.57E2,2.05E2,1E2,1.12E2,1.31E2,2.68E2,1.79E2,9.86E2,1.02E2,8.404E3,1.519E3,3.208E3,3.516E3,4.67E2,7.73E2,1.816E3,3.457E3,1.7185E4,3.506E3,5.82E2,2.4757E5,1.08E2,3.45E2,1.16E2,1.04E2,6.08E2,2.43E2,1.01E2,1.14E2,1.04E2,1.01E2,1.05E2,1.63E2,2.27E2,7.59E2,8.51E2,7.553E3,1.071E3,4.48E2,2.756E3,4.52E2,3.05E3,4.66E2,3.01E2,1.66E2,1.61E2,6.12E2,1.371E3,4.45E2,2.662E3,7.95E2,1.6868E4,3.17E2,2.407E3,1.099E3,4.49E2,1.33E2,2.33351E5,1.4219E4,1.76E2,1.69E2,1.25E2,4.83E2,1.24E2,1.19E2],"tree_param":{"num_deleted":"0","num_feature":"40","num_nodes":"141","size_leaf_vector":"1"}},{"base_weights":[3.4070992E-5,-2.7882357E-4,3.7450004E-2,-8.665803E-2,-6.191534E-5,1.0921716E-1,2.025017E-2,-4.0688746E-2,-1.1849643E-1,2.2424596E-4,-3.1240292E-2,4.783168E-3,9.018314E-2,4.2140804E-2,-9.19799E-3,-2.070151E-3,-7.5229054E-4,-5.244099E-3,-1.0034015E-1,8.764153E-3,-3.315299E-4,-1.0316602E-1,-2.0599358E-2,1.0779561E-1,1.602428E-3,5.2623026E-2,-7.6915324E-4,4.018911E-3,-1.7331655E-3,-2.4278648E-3,-3.4955358E-3,-3.766615E-2,1.13445455E-2,-2.4238305E-2,2.4535222E-4,-1.5871344E-3,-4.374382E-3,-1.3865613E-2,-5.3745978E-2,3.810612E-3,2.4811518E-3,7.293012E-2,3.6900956E-2,1.0223158E-2,-7.7777007E-4,-3.123068E-2,-2.0005251E-3,1.5222091E-2,-5.080189E-3,-2.681869E-2,2.9811056E-2,7.886424E-3,-3.9764092E-4,4.480258E-3,-2.660475E-2,-3.455626E-4,-7.511197E-2,8.9376174E-2,5.4955788E-2,1.8745725E-3,3.0071175E-2,5.216973E-3,8.759803E-4,-3.5645545E-2,-9.218501E-5,5.40352E-2,1.3009497E-2,-1.3471651E-3,-4.0922344E-2,-2.159003E-2,-5.3667877E-2,1.586439E-3,4.8751605E-4,4.480642E-3,2.4278255E-2,-4.969527E-2,-2.8224668E-4,-5.7207015E-3,1.5737142E-2,-6.159638E-2,-1.4940851E-2,-1.6286167E-3,-2.6761687E-3,2.3206535E-3,3.0844996E-3,1.8985366E-3,1.3477348E-3,4.134956E-2,4.356392E-4,5.81619E-4,-3.516246E-3,-9.5335476E-4,-1.4828332E-3,3.1617587E-3,9.6593186E-4,1.0912795E-4,5.208784E-4,1.04083396E-4,-6.8875006E-4,-1.2405532E-4,-1.858714E-3,-1.186398E-3,-4.072521E-4,1.8117996E-4,-1.8955376E-3,7.725311E-4,4.140286E-5,4.4796208E-4,1.2617973E-3,-2.1289167E-4,-5.455526E-3,-2.1714197E-5,2.0751923E-4,-3.9423925E-5,-3.7736568E-4,1.9857186E-4,8.129474E-4,-1.1949522E-3,-3.0182889E-3,-1.2701509E-3,-3.3378764E-4,9.3816884E-4,1.4193559E-3,-5.117198E-4,1.2969719E-4],"categories":[],"categories_nodes":[],"categories_segments":[],"categories_sizes":[],"default_left":[0,0,0,0,0,0,0,0,0,0,0,0,0,0,0,0,0,0,0,0,0,0,0,0,0,0,0,0,0,0,0,0,0,0,0,0,0,0,0,0,0,0,0,0,0,0,0,0,0,0,0,0,0,0,0,0,0,0,0,0,0,0,0,0,0,0,0,0,0,0,0,0,0,0,0,0,0,0,0,0,0,0,0,0,0,0,0,0,0,0,0,0,0,0,0,0,0,0,0,0,0,0,0,0,0,0,0,0,0,0,0,0,0,0,0,0,0,0,0,0,0,0,0,0,0],"id":11,"left_children":[1,3,5,7,9,11,13,15,17,19,21,-1,23,25,27,-1,-1,-1,29,31,33,35,37,39,-1,41,-1,43,-1,-1,-1,45,47,49,51,-1,-1,53,55,-1,-1,57,59,61,-1,63,-1,65,67,69,71,73,75,77,79,-1,81,83,85,-1,87,89,-1,91,-1,93,95,97,99,101,103,-1,-1,105,107,109,111,113,115,117,119,-1,-1,-1,-1,-1,-1,121,-1,-1,123,-1,-1,-1,-1,-1,-1,-1,-1,-1,-1,-1,-1,-1,-1,-1,-1,-1,-1,-1,-1,-1,-1,-1,-1,-1,-1,-1,-1,-1,-1,-1,-1,-1,-1],"loss_changes":[3.506678E0,5.550952E0,3.0531638E0,1.0697279E0,2.6439123E0,4.3158245E-1,1.2958984E0,1.2529892E-1,4.175892E-1,1.3928885E0,2.0501244E0,0E0,2.0937705E-1,8.213742E-1,5.5308896E-1,0E0,0E0,0E0,8.360219E-2,2.1458263E0,3.799999E0,7.212186E-1,5.1748544E-1,9.08978E-2,0E0,3.0772972E-1,0E0,1.2276402E-1,0E0,0E0,0E0,1.659323E-1,1.0830817E0,9.052222E-1,1.3217402E0,0E0,0E0,4.5915192E-1,3.4681785E-1,0E0,0E0,1.1310291E-1,8.947587E-2,4.9466677E-2,0E0,9.234792E-2,0E0,1.1740518E0,4.292917E-1,8.6248064E-1,8.500847E-2,1.1628425E0,1.4057158E0,9.265728E-2,4.645117E-1,0E0,6.150496E-2,1.723361E-2,6.4483285E-3,0E0,7.329017E-2,5.6676183E-2,0E0,2.722311E-2,0E0,8.148036E-1,5.287075E-1,3.076873E-1,2.2790706E-1,7.4174356E-1,5.780034E-1,0E0,0E0,1.1378266E0,5.9038043E-1,3.2298646E0,7.8590643E-1,1.1123538E-2,3.6399797E-2,2.2933435E-1,8.554101E-2,0E0,0E0,0E0,0E0,0E0,0E0,7.441193E-3,0E0,0E0,3.0059436E-2,0E0,0E0,0E0,0E0,0E0,0E0,0E0,0E0,0E0,0E0,0E0,0E0,0E0,0E0,0E0,0E0,0E0,0E0,0E0,0E0,0E0,0E0,0E0,0E0,0E0,0E0,0E0,0E0,0E0,0E0,0E0,0E0,0E0,0E0],"parents":[2147483647,0,0,1,1,2,2,3,3,4,4,5,5,6,6,7,7,8,8,9,9,10,10,12,12,13,13,14,14,18,18,19,19,20,20,21,21,22,22,23,23,25,25,27,27,31,31,32,32,33,33,34,34,37,37,38,38,41,41,42,42,43,43,45,45,47,47,48,48,49,49,50,50,51,51,52,52,53,53,54,54,56,56,57,57,58,58,60,60,61,61,63,63,65,65,66,66,67,67,68,68,69,69,70,70,73,73,74,74,75,75,76,76,77,77,78,78,79,79,80,80,87,87,90,90],"right_children":[2,4,6,8,10,12,14,16,18,20,22,-1,24,26,28,-1,-1,-1,30,32,34,36,38,40,-1,42,-1,44,-1,-1,-1,46,48,50,52,-1,-1,54,56,-1,-1,58,60,62,-1,64,-1,66,68,70,72,74,76,78,80,-1,82,84,86,-1,88,90,-1,92,-1,94,96,98,100,102,104,-1,-1,106,108,110,112,114,116,118,120,-1,-1,-1,-1,-1,-1,122,-1,-1,124,-1,-1,-1,-1,-1,-1,-1,-1,-1,-1,-1,-1,-1,-1,-1,-1,-1,-1,-1,-1,-1,-1,-1,-1,-1,-1,-1,-1,-1,-1,-1,-1,-1,-1],"split_conditions":[5.166403E-2,-1.5032598E-1,9.567978E-1,-2.339519E-1,2.6048822E-2,9.016457E-1,2.8290609E-2,-3.5852091E0,7.788765E-1,-5.304491E-2,-9.864501E-2,4.783168E-3,2.9854944E-2,3.510246E-2,9.415822E-2,-2.070151E-3,-7.5229054E-4,-5.244099E-3,8.102714E-1,1.0986943E-2,-4.2316206E-2,1.2449059E-2,1.2449059E-2,3.8302567E1,1.602428E-3,-8.552612E-3,-7.6915324E-4,1.0782744E0,-1.7331655E-3,-2.4278648E-3,-3.4955358E-3,2.6105357E-2,3.516765E-2,1.0685951E-1,-2.525773E-2,-1.5871344E-3,-4.374382E-3,1.7376333E-2,3.0005129E-2,3.810612E-3,2.4811518E-3,-2.1666993E-1,-2.4765832E-2,9.678382E-1,-7.7777007E-4,4.4411355E-1,-2.0005251E-3,-4.6384373E-1,4.8814695E-2,6.1526E-2,-2.166786E-1,8.250632E-2,-3.2175586E-2,1.2556033E-2,-2.8540762E-2,-3.455626E-4,1.5421498E-1,7.5263E-2,-1.3590214E-1,1.8745725E-3,4.6258215E-2,5.958659E-2,8.759803E-4,1.7314209E-2,-9.218501E-5,1.7152108E-2,-1.5794344E-2,9.2322364E-2,-6.612382E-2,-7.385852E-3,1.1848576E-2,1.586439E-3,4.8751605E-4,-9.2647396E-2,1.24969715E-2,6.8699657E-3,1.4922225E-2,-2.3453778E-2,3.0099817E-2,3.917664E-2,-3.1230444E-1,-1.6286167E-3,-2.6761687E-3,2.3206535E-3,3.0844996E-3,1.8985366E-3,1.3477348E-3,4.641685E-2,4.356392E-4,5.81619E-4,8.527854E-1,-9.5335476E-4,-1.4828332E-3,3.1617587E-3,9.6593186E-4,1.0912795E-4,5.208784E-4,1.04083396E-4,-6.8875006E-4,-1.2405532E-4,-1.858714E-3,-1.186398E-3,-4.072521E-4,1.8117996E-4,-1.8955376E-3,7.725311E-4,4.140286E-5,4.4796208E-4,1.2617973E-3,-2.1289167E-4,-5.455526E-3,-2.1714197E-5,2.0751923E-4,-3.9423925E-5,-3.7736568E-4,1.9857186E-4,8.129474E-4,-1.1949522E-3,-3.0182889E-3,-1.2701509E-3,-3.3378764E-4,9.3816884E-4,1.4193559E-3,-5.117198E-4,1.2969719E-4],"split_indices":[21,20,5,20,18,5,19,26,7,22,2,0,22,22,9,0,0,0,23,21,22,22,22,33,0,13,0,5,0,0,0,8,19,20,19,0,0,19,18,0,0,15,18,7,0,37,0,4,8,2,4,22,18,35,20,0,28,10,15,0,13,19,0,8,0,21,20,20,22,35,21,0,0,20,21,19,21,15,9,38,4,0,0,0,0,0,0,9,0,0,7,0,0,0,0,0,0,0,0,0,0,0,0,0,0,0,0,0,0,0,0,0,0,0,0,0,0,0,0,0,0,0,0,0,0],"split_type":[0,0,0,0,0,0,0,0,0,0,0,0,0,0,0,0,0,0,0,0,0,0,0,0,0,0,0,0,0,0,0,0,0,0,0,0,0,0,0,0,0,0,0,0,0,0,0,0,0,0,0,0,0,0,0,0,0,0,0,0,0,0,0,0,0,0,0,0,0,0,0,0,0,0,0,0,0,0,0,0,0,0,0,0,0,0,0,0,0,0,0,0,0,0,0,0,0,0,0,0,0,0,0,0,0,0,0,0,0,0,0,0,0,0,0,0,0,0,0,0,0,0,0,0,0],"sum_hessian":[2.99213E5,2.96729E5,2.484E3,7.42E2,2.95987E5,4.79E2,2.005E3,3.05E2,4.37E2,2.93292E5,2.695E3,1.3E2,3.49E2,1.152E3,8.53E2,1.06E2,1.99E2,1.05E2,3.32E2,1.7932E4,2.7536E5,3.46E2,2.349E3,2.34E2,1.15E2,9.99E2,1.53E2,6.69E2,1.84E2,1.54E2,1.78E2,9.42E2,1.699E4,6.492E3,2.68868E5,1.6E2,1.86E2,1.955E3,3.94E2,1.3E2,1.04E2,4.33E2,5.66E2,5.57E2,1.12E2,7.74E2,1.68E2,1.375E4,3.24E3,6.198E3,2.94E2,2.0881E4,2.47987E5,7.98E2,1.157E3,1.34E2,2.6E2,2.23E2,2.1E2,1.16E2,4.5E2,4.45E2,1.12E2,6.66E2,1.08E2,7.39E2,1.3011E4,2.937E3,3.03E2,5.191E3,1.007E3,1.06E2,1.88E2,1.7294E4,3.587E3,5.77E2,2.4741E5,4.14E2,3.84E2,2.87E2,8.7E2,1.08E2,1.52E2,1.22E2,1.01E2,1.09E2,1.01E2,2.57E2,1.93E2,1.74E2,2.71E2,5.26E2,1.4E2,2.19E2,5.2E2,4.134E3,8.877E3,2.398E3,5.39E2,1.12E2,1.91E2,1.598E3,3.593E3,1.37E2,8.7E2,2.196E3,1.5098E4,2.355E3,1.232E3,4.37E2,1.4E2,2.33126E5,1.4284E4,2.61E2,1.53E2,2.18E2,1.66E2,1.86E2,1.01E2,1.03E2,7.67E2,1.02E2,1.55E2,1.04E2,1.67E2],"tree_param":{"num_deleted":"0","num_feature":"40","num_nodes":"125","size_leaf_vector":"1"}},{"base_weights":[-5.422209E-5,-3.717467E-4,3.7392534E-2,-8.59877E-2,-1.6141137E-4,1.1149962E-1,2.0766988E-2,-3.2384723E-2,-1.2172393E-1,1.3002449E-4,-3.1240875E-2,1.3874799E-1,8.0206335E-2,4.312421E-2,-1.0800535E-2,-5.637209E-4,-1.7005287E-3,-1.0295668E-1,-4.960582E-3,8.622759E-3,-4.2153883E-4,-1.5453615E-2,-8.745744E-2,3.3370715E-3,4.8484267E-3,2.8767164E-3,1.8683741E-3,5.4546755E-2,-7.2124036E-4,2.2178909E-4,-2.3616531E-3,-2.6416336E-3,-3.637778E-3,-3.1533018E-2,1.1626884E-2,-2.3671545E-2,1.410393E-4,3.039003E-3,-2.906071E-2,-6.208335E-3,-6.318162E-2,7.068668E-2,3.2066345E-2,1.5077877E-2,-1.5231313E-2,7.131856E-4,-3.880197E-2,1.7812546E-2,2.4953883E-3,-2.6355868E-2,3.0868772E-2,7.1055796E-3,-4.4207202E-4,-7.9647906E-4,9.545121E-4,-6.868493E-2,-1.5625795E-2,-3.387129E-4,-8.296521E-2,8.216909E-2,4.748065E-2,5.8658107E-4,4.0045656E-2,6.5882737E-3,1.115239E-3,4.13716E-3,-1.299031E-3,-3.3045277E-2,-2.861833E-3,5.1411312E-2,1.1768871E-2,1.4866849E-2,-8.636647E-3,-2.1712732E-2,-5.2897412E-2,1.3416305E-3,2.2614225E-4,3.8091422E-3,2.2935353E-2,-4.6445645E-2,-3.2934276E-4,-5.5062966E-3,6.2043755E-4,-4.3308157E-2,-3.5589382E-3,-1.4883074E-3,-1.0612723E-2,-1.6964251E-3,-9.678653E-2,9.7504474E-2,1.8981717E-3,1.8001292E-3,1.0135635E-3,8.790605E-4,1.4857075E-3,5.2463403E-4,-3.1926765E-4,3.3267683E-4,-5.5748045E-5,-4.6740109E-4,-1.1182062E-3,2.8813262E-3,1.2109777E-3,-2.6445522E-4,4.245957E-4,1.0479237E-3,2.5735004E-4,-3.9579323E-4,6.859776E-4,-1.1790456E-3,-4.0151036E-4,5.1852934E-5,-1.8241473E-3,6.186799E-4,1.9811489E-5,4.3353415E-4,1.1716511E-3,-2.1657418E-4,-5.0042653E-3,1.892435E-3,-1.1037591E-5,-8.263853E-6,-4.072539E-4,-1.6201638E-3,-9.182037E-4,-8.230308E-4,-1.8731106E-4,-3.336758E-3,-2.406872E-3,2.4084295E-3,3.491537E-3],"categories":[],"categories_nodes":[],"categories_segments":[],"categories_sizes":[],"default_left":[0,0,0,0,0,0,0,0,0,0,0,0,0,0,0,0,0,0,0,0,0,0,0,0,0,0,0,0,0,0,0,0,0,0,0,0,0,0,0,0,0,0,0,0,0,0,0,0,0,0,0,0,0,0,0,0,0,0,0,0,0,0,0,0,0,0,0,0,0,0,0,0,0,0,0,0,0,0,0,0,0,0,0,0,0,0,0,0,0,0,0,0,0,0,0,0,0,0,0,0,0,0,0,0,0,0,0,0,0,0,0,0,0,0,0,0,0,0,0,0,0,0,0,0,0,0,0,0,0,0,0],"id":12,"left_children":[1,3,5,7,9,11,13,15,17,19,21,23,25,27,29,-1,-1,31,-1,33,35,37,39,-1,-1,-1,-1,41,-1,43,-1,-1,-1,45,47,49,51,53,55,-1,57,59,61,63,65,-1,67,69,71,73,75,77,79,81,-1,83,85,-1,87,89,91,-1,93,95,-1,97,-1,99,-1,101,103,105,107,109,111,-1,-1,113,115,117,119,121,-1,123,-1,-1,125,-1,127,129,-1,-1,-1,-1,-1,-1,-1,-1,-1,-1,-1,-1,-1,-1,-1,-1,-1,-1,-1,-1,-1,-1,-1,-1,-1,-1,-1,-1,-1,-1,-1,-1,-1,-1,-1,-1,-1,-1,-1,-1,-1],"loss_changes":[3.5595987E0,5.34275E0,3.0877876E0,1.3770041E0,2.68815E0,3.693142E-1,1.4551022E0,8.883506E-2,3.2772398E-1,1.3765053E0,2.436515E0,1.244812E-1,4.4347525E-2,9.2850375E-1,6.450277E-1,0E0,0E0,6.1489344E-2,0E0,2.1599221E0,3.6092803E0,5.44649E-1,1.7210598E0,0E0,0E0,0E0,0E0,3.6397696E-1,0E0,1.6784818E-1,0E0,0E0,0E0,5.021452E-1,9.399035E-1,9.5405173E-1,1.0940825E0,1.0355939E-1,6.5375566E-1,0E0,5.059333E-1,1.4601517E-1,3.7306845E-2,6.615284E-2,1.9699067E-1,0E0,3.458891E-1,2.0110426E0,9.2901707E-1,7.5834846E-1,9.30202E-2,1.0834352E0,1.2836514E0,7.942897E-2,0E0,3.8013947E-1,1.5255329E-1,0E0,1.16332054E-1,9.838009E-2,2.4909794E-2,0E0,1.8457681E-2,5.236822E-2,0E0,9.598895E-3,0E0,6.8659306E-2,0E0,7.314184E-1,4.1394293E-1,3.9900488E-1,5.077837E-1,7.7010703E-1,4.0422297E-1,0E0,0E0,9.1016746E-1,4.8449123E-1,2.839413E0,5.999495E-1,2.6475228E-2,0E0,1.9784003E-2,0E0,0E0,5.6446604E-2,0E0,3.6167145E-2,4.9670935E-2,0E0,0E0,0E0,0E0,0E0,0E0,0E0,0E0,0E0,0E0,0E0,0E0,0E0,0E0,0E0,0E0,0E0,0E0,0E0,0E0,0E0,0E0,0E0,0E0,0E0,0E0,0E0,0E0,0E0,0E0,0E0,0E0,0E0,0E0,0E0,0E0,0E0,0E0,0E0,0E0,0E0],"parents":[2147483647,0,0,1,1,2,2,3,3,4,4,5,5,6,6,7,7,8,8,9,9,10,10,11,11,12,12,13,13,14,14,17,17,19,19,20,20,21,21,22,22,27,27,29,29,33,33,34,34,35,35,36,36,37,37,38,38,40,40,41,41,42,42,43,43,44,44,46,46,47,47,48,48,49,49,50,50,51,51,52,52,53,53,55,55,56,56,58,58,59,59,60,60,62,62,63,63,65,65,67,67,69,69,70,70,71,71,72,72,73,73,74,74,77,77,78,78,79,79,80,80,81,81,83,83,86,86,88,88,89,89],"right_children":[2,4,6,8,10,12,14,16,18,20,22,24,26,28,30,-1,-1,32,-1,34,36,38,40,-1,-1,-1,-1,42,-1,44,-1,-1,-1,46,48,50,52,54,56,-1,58,60,62,64,66,-1,68,70,72,74,76,78,80,82,-1,84,86,-1,88,90,92,-1,94,96,-1,98,-1,100,-1,102,104,106,108,110,112,-1,-1,114,116,118,120,122,-1,124,-1,-1,126,-1,128,130,-1,-1,-1,-1,-1,-1,-1,-1,-1,-1,-1,-1,-1,-1,-1,-1,-1,-1,-1,-1,-1,-1,-1,-1,-1,-1,-1,-1,-1,-1,-1,-1,-1,-1,-1,-1,-1,-1,-1,-1,-1],"split_conditions":[5.166403E-2,-1.5032598E-1,9.516275E-1,-2.339519E-1,2.6048822E-2,-4.1268972E-1,2.8290609E-2,7.0654914E-2,3.795533E-1,-5.304491E-2,1.2449059E-2,-1.18345544E-1,-3.1626174E-1,3.510246E-2,1.098789E0,-5.637209E-4,-1.7005287E-3,5.2722227E-2,-4.960582E-3,1.1502249E-2,-4.2316206E-2,1.7376333E-2,-2.6200607E-1,3.3370715E-3,4.8484267E-3,2.8767164E-3,1.8683741E-3,-1.340498E-1,-7.2124036E-4,1.01344824E-1,-2.3616531E-3,-2.6416336E-3,-3.637778E-3,1.413447E-2,1.7489552E-2,1.0685951E-1,-2.525773E-2,3.2232117E-2,-2.8540762E-2,-6.208335E-3,3.0005129E-2,-4.406725E-3,5.7610776E-2,-1.8499129E-1,1.939797E-3,7.131856E-4,3.480227E-2,-1.9374062E-1,5.8933925E-3,6.848391E-2,-1.702436E-1,8.250632E-2,-3.2175586E-2,8.635072E-3,9.545121E-4,4.2970408E-2,-3.3785486E-1,-3.387129E-4,1.6772097E-1,-3.2190943E-1,1.0730246E-3,5.8658107E-4,4.8045848E-2,1.0303264E0,1.115239E-3,7.2162403E-3,-1.299031E-3,1.0097835E0,-2.861833E-3,-4.6384373E-1,-3.354003E-2,-7.901932E-3,-5.8162935E-2,-7.000707E-3,1.1848576E-2,1.3416305E-3,2.2614225E-4,-9.01583E-2,1.24969715E-2,6.8699657E-3,-1.2214062E-1,-1.9242475E-2,6.2043755E-4,-1.9450702E-1,-3.5589382E-3,-1.4883074E-3,1.950067E-2,-1.6964251E-3,-1.4362378E-1,1.0781762E8,1.8981717E-3,1.8001292E-3,1.0135635E-3,8.790605E-4,1.4857075E-3,5.2463403E-4,-3.1926765E-4,3.3267683E-4,-5.5748045E-5,-4.6740109E-4,-1.1182062E-3,2.8813262E-3,1.2109777E-3,-2.6445522E-4,4.245957E-4,1.0479237E-3,2.5735004E-4,-3.9579323E-4,6.859776E-4,-1.1790456E-3,-4.0151036E-4,5.1852934E-5,-1.8241473E-3,6.186799E-4,1.9811489E-5,4.3353415E-4,1.1716511E-3,-2.1657418E-4,-5.0042653E-3,1.892435E-3,-1.1037591E-5,-8.263853E-6,-4.072539E-4,-1.6201638E-3,-9.182037E-4,-8.230308E-4,-1.8731106E-4,-3.336758E-3,-2.406872E-3,2.4084295E-3,3.491537E-3],"split_indices":[21,20,5,20,18,3,19,9,28,22,22,19,36,22,5,0,0,8,0,21,22,19,36,0,0,0,0,3,0,13,0,0,0,20,21,20,19,35,20,0,18,13,21,36,22,0,8,4,19,14,36,22,18,19,0,38,4,0,28,36,18,0,9,5,0,35,0,7,0,4,19,18,22,35,21,0,0,20,21,19,20,19,0,36,0,0,19,0,36,34,0,0,0,0,0,0,0,0,0,0,0,0,0,0,0,0,0,0,0,0,0,0,0,0,0,0,0,0,0,0,0,0,0,0,0,0,0,0,0,0,0],"split_type":[0,0,0,0,0,0,0,0,0,0,0,0,0,0,0,0,0,0,0,0,0,0,0,0,0,0,0,0,0,0,0,0,0,0,0,0,0,0,0,0,0,0,0,0,0,0,0,0,0,0,0,0,0,0,0,0,0,0,0,0,0,0,0,0,0,0,0,0,0,0,0,0,0,0,0,0,0,0,0,0,0,0,0,0,0,0,0,0,0,0,0,0,0,0,0,0,0,0,0,0,0,0,0,0,0,0,0,0,0,0,0,0,0,0,0,0,0,0,0,0,0,0,0,0,0,0,0,0,0,0,0],"sum_hessian":[2.99682E5,2.97165E5,2.517E3,7.27E2,2.96438E5,4.6E2,2.057E3,2.92E2,4.35E2,2.93681E5,2.757E3,2.44E2,2.16E2,1.206E3,8.51E2,1.9E2,1.02E2,3.06E2,1.29E2,1.7921E4,2.7576E5,2.154E3,6.03E2,1.13E2,1.31E2,1.12E2,1.04E2,1.032E3,1.74E2,7.31E2,1.2E2,1.72E2,1.34E2,1.245E3,1.6676E4,6.519E3,2.69241E5,9.1E2,1.244E3,1.01E2,5.02E2,5.98E2,4.34E2,3.76E2,3.55E2,1.43E2,1.102E3,9.935E3,6.741E3,6.215E3,3.04E2,2.0814E4,2.48427E5,8E2,1.1E2,3.13E2,9.31E2,1.4E2,3.62E2,3.97E2,2.01E2,1.74E2,2.6E2,2.75E2,1.01E2,2.08E2,1.47E2,1.002E3,1E2,1.512E3,8.423E3,3.197E3,3.544E3,5.293E3,9.22E2,1.88E2,1.16E2,1.7232E4,3.582E3,6.05E2,2.47822E5,6.6E2,1.4E2,2.09E2,1.04E2,1.17E2,8.14E2,1.27E2,2.35E2,2.16E2,1.81E2,1.01E2,1E2,1.27E2,1.33E2,1.72E2,1.03E2,1.04E2,1.04E2,2E2,8.02E2,2.98E2,1.214E3,8.7E2,7.553E3,7.59E2,2.438E3,3.099E3,4.45E2,1.697E3,3.596E3,1.15E2,8.07E2,2.713E3,1.4519E4,2.351E3,1.231E3,4.57E2,1.48E2,1.49E2,2.47673E5,4.08E2,2.52E2,1.09E2,1E2,1.63E2,6.51E2,1.22E2,1.13E2,1.16E2,1E2],"tree_param":{"num_deleted":"0","num_feature":"40","num_nodes":"131","size_leaf_vector":"1"}},{"base_weights":[-1.899049E-5,-3.2813457E-4,3.635433E-2,-8.185478E-2,-1.2559278E-4,