{"learner":{"attributes":{"best_iteration":"26","best_score":"0.02460077008273018","scikit_learn":"{\"_estimator_type\": \"regressor\"}"},"feature_names":["return_1d","return_5d","return_10d","return_20d","return_60d","price_to_ma_5","price_to_ma_20","price_to_ma_60","volatility_5d","volatility_10d","volatility_20d","volume_ratio_5","volume_ratio_20","momentum_5","momentum_10","momentum_20","range_5d","range_20d","spy_return_1d","spy_return_5d","spy_return_20d","spy_volatility","spy_trend","beta","rsi_14","macd","macd_signal","macd_diff","bb_width","bb_position","atr_14","atr_ratio","stoch_k","stoch_d","obv_ma_20","gap","dist_52w_high","dist_52w_low","intraday_range","price_accel"],"feature_types":["float","float","float","float","float","float","float","float","float","float","float","float","float","float","float","float","float","float","float","float","float","float","float","float","float","float","float","float","float","float","float","float","float","float","float","float","float","float","float","float"],"gradient_booster":{"model":{"gbtree_model_param":{"num_parallel_tree":"1","num_trees":"77"},"iteration_indptr":[0,1,2,3,4,5,6,7,8,9,10,11,12,13,14,15,16,17,18,19,20,21,22,23,24,25,26,27,28,29,30,31,32,33,34,35,36,37,38,39,40,41,42,43,44,45,46,47,48,49,50,51,52,53,54,55,56,57,58,59,60,61,62,63,64,65,66,67,68,69,70,71,72,73,74,75,76,77],"tree_info":[0,0,0,0,0,0,0,0,0,0,0,0,0,0,0,0,0,0,0,0,0,0,0,0,0,0,0,0,0,0,0,0,0,0,0,0,0,0,0,0,0,0,0,0,0,0,0,0,0,0,0,0,0,0,0,0,0,0,0,0,0,0,0,0,0,0,0,0,0,0,0,0,0,0,0,0,0],"trees":[{"base_weights":[4.7559256E-6,1.3868221E-4,-2.9700259E-2,-1.00695115E-5,1.4854585E-2,-1.0011386E-1,-9.5846215E-3,-2.2962146E-2,2.4379142E-5,5.6231827E-2,7.4913744E-3,-1.960065E-3,-3.9508734E-3,-4.096855E-2,3.1002287E-3,1.1171105E-3,-5.3096548E-2,7.176795E-3,-8.3854575E-5,6.87082E-2,5.2980444E-4,1.7912483E-2,-1.1259667E-2,-7.502974E-4,-1.6780364E-3,1.2901666E-2,-1.0963965E-3,-2.1054482E-4,-2.8568394E-3,8.658033E-3,-1.1181511E-3,-2.1233922E-3,1.8316669E-4,7.882633E-2,1.5185494E-3,5.9119486E-3,3.2996126E-2,-1.6743494E-2,-0E0,1.2018732E-3,2.3766758E-3,3.956609E-3,1.8319242E-2,-1.6208094E-3,-2.5087388E-2,4.5963894E-3,2.5393207E-5,2.6819075E-3,2.0384383E-3,1.650407E-2,-1.3993734E-3,-9.092413E-4,4.6037517E-2,-2.1333797E-2,-0E0,3.8441984E-4,-4.1983288E-4,-1.7606799E-4,7.7756606E-3,-1.2873667E-3,6.6243596E-3,2.8919313E-2,1.0521777E-2,-1.7564982E-2,-1.2297211E-3,1.4875102E-2,-5.2935768E-2,-8.8846585E-4,5.166422E-3,-2.0141584E-5,9.482669E-3,1.2148726E-2,1.2128502E-3,6.40229E-2,3.0078864E-2,-8.601569E-4,-1.7263042E-2,3.7227484E-4,6.378147E-5,-1.4312452E-4,3.7045951E-4,1.134157E-3,5.373085E-4,1.3858113E-4,9.859529E-4,-2.988469E-4,-1.3888358E-3,-6.727309E-6,-1.3615591E-4,7.825328E-5,6.703081E-4,-3.1836333E-3,-1.065927E-3,2.298851E-4,-3.787907E-5,9.996517E-7,-2.1614757E-4,5.753953E-4,-2.0171993E-4,5.25032E-4,-4.7832314E-4,2.358097E-3,1.5341853E-3,1.0505401E-3,7.1731326E-4,-3.5646782E-4,-6.77279E-4],"categories":[],"categories_nodes":[],"categories_segments":[],"categories_sizes":[],"default_left":[0,0,0,0,0,0,0,0,0,0,0,0,0,0,0,0,0,0,0,0,0,0,0,0,0,0,0,0,0,0,0,0,0,0,0,0,0,0,0,0,0,0,0,0,0,0,0,0,0,0,0,0,0,0,0,0,0,0,0,0,0,0,0,0,0,0,0,0,0,0,0,0,0,0,0,0,0,0,0,0,0,0,0,0,0,0,0,0,0,0,0,0,0,0,0,0,0,0,0,0,0,0,0,0,0,0,0],"id":0,"left_children":[1,3,5,7,9,11,13,15,17,19,21,-1,-1,23,25,-1,27,29,31,33,-1,35,37,-1,-1,39,-1,-1,-1,41,-1,43,45,47,-1,49,51,53,55,-1,57,59,61,63,65,67,69,-1,-1,71,-1,-1,73,75,-1,-1,-1,-1,77,-1,79,81,83,85,87,89,91,-1,93,95,97,99,-1,101,103,-1,105,-1,-1,-1,-1,-1,-1,-1,-1,-1,-1,-1,-1,-1,-1,-1,-1,-1,-1,-1,-1,-1,-1,-1,-1,-1,-1,-1,-1,-1,-1],"loss_changes":[1.1896063E0,6.547439E-1,1.8899041E0,2.3588337E-1,9.054914E-1,3.057611E-1,4.1985434E-1,8.1285256E-1,2.2906768E-1,2.0784545E-1,4.9762404E-1,0E0,0E0,6.415707E-2,2.8605932E-1,0E0,5.703659E-1,2.8759253E-1,1.5844123E-1,4.854083E-2,0E0,2.9260504E-1,5.6569934E-2,0E0,0E0,1.6643766E-1,0E0,0E0,0E0,1.9176474E-1,0E0,3.860607E-1,1.7840979E-1,8.162737E-3,0E0,5.070538E-1,5.978598E-1,4.810001E-2,5.2709088E-2,0E0,1.9475944E-2,3.5651115E-1,1.1100501E-1,2.0367491E-1,8.019385E-1,1.7006683E-1,1.0776449E-1,0E0,0E0,7.43112E-2,0E0,0E0,1.6263938E-1,9.758115E-3,0E0,0E0,0E0,0E0,5.588202E-3,0E0,1.7865053E-1,5.150047E-2,1.02676205E-1,1.6539076E-1,1.06591314E-1,2.4350896E-2,3.7804043E-1,0E0,1.4032222E-1,9.553734E-2,1.897077E-1,9.79342E-2,0E0,3.9051056E-2,3.806293E-3,0E0,5.649671E-3,0E0,0E0,0E0,0E0,0E0,0E0,0E0,0E0,0E0,0E0,0E0,0E0,0E0,0E0,0E0,0E0,0E0,0E0,0E0,0E0,0E0,0E0,0E0,0E0,0E0,0E0,0E0,0E0,0E0,0E0],"parents":[2147483647,0,0,1,1,2,2,3,3,4,4,5,5,6,6,7,7,8,8,9,9,10,10,13,13,14,14,16,16,17,17,18,18,19,19,21,21,22,22,25,25,29,29,31,31,32,32,33,33,35,35,36,36,37,37,38,38,40,40,41,41,42,42,43,43,44,44,45,45,46,46,49,49,52,52,53,53,58,58,60,60,61,61,62,62,63,63,64,64,65,65,66,66,68,68,69,69,70,70,71,71,73,73,74,74,76,76],"right_children":[2,4,6,8,10,12,14,16,18,20,22,-1,-1,24,26,-1,28,30,32,34,-1,36,38,-1,-1,40,-1,-1,-1,42,-1,44,46,48,-1,50,52,54,56,-1,58,60,62,64,66,68,70,-1,-1,72,-1,-1,74,76,-1,-1,-1,-1,78,-1,80,82,84,86,88,90,92,-1,94,96,98,100,-1,102,104,-1,106,-1,-1,-1,-1,-1,-1,-1,-1,-1,-1,-1,-1,-1,-1,-1,-1,-1,-1,-1,-1,-1,-1,-1,-1,-1,-1,-1,-1,-1,-1],"split_conditions":[4.2395066E-2,3.5992775E-2,-8.1064306E-2,-1.18345544E-1,1.2490928E1,-1.18345544E-1,-3.9611705E-2,-4.4077467E-2,-5.5427708E-2,-8.206799E-3,1.4937026E-2,-1.960065E-3,-3.9508734E-3,-4.068506E-2,6.903313E-2,1.1171105E-3,1.6129306E-2,3.1960695E-3,-8.707067E-3,5.9874206E0,5.2980444E-4,-1.4800336E-2,3.0005129E-2,-7.502974E-4,-1.6780364E-3,-3.410806E-1,-1.0963965E-3,-2.1054482E-4,-2.8568394E-3,1.4612688E-2,-1.1181511E-3,2.2477297E-2,-2.8948698E-2,2.1010292E-1,1.5185494E-3,-2.079382E-2,-3.10198E-2,-2.7830887E-1,5.7610776E-2,1.2018732E-3,6.318811E-2,-8.1064306E-2,1.5904482E-2,-4.839964E-2,-2.4765832E-2,5.513648E-3,2.2477297E-2,2.6819075E-3,2.0384383E-3,-3.7548793E-4,-1.3993734E-3,-9.092413E-4,5.9645534E-1,-3.0036727E-1,-0E0,3.8441984E-4,-4.1983288E-4,-1.7606799E-4,4.9643125E-2,-1.2873667E-3,-6.7203075E-2,-2.9126084E-3,4.0537793E-2,1.4265019E-2,-1.1129891E-2,1.3429238E-1,9.575466E-1,-8.8846585E-4,3.3229236E-3,2.6048822E-2,1.4018766E-2,-8.206799E-3,1.2128502E-3,-1.0454645E-2,-2.4966015E-3,-8.601569E-4,3.21776E-2,3.7227484E-4,6.378147E-5,-1.4312452E-4,3.7045951E-4,1.134157E-3,5.373085E-4,1.3858113E-4,9.859529E-4,-2.988469E-4,-1.3888358E-3,-6.727309E-6,-1.3615591E-4,7.825328E-5,6.703081E-4,-3.1836333E-3,-1.065927E-3,2.298851E-4,-3.787907E-5,9.996517E-7,-2.1614757E-4,5.753953E-4,-2.0171993E-4,5.25032E-4,-4.7832314E-4,2.358097E-3,1.5341853E-3,1.0505401E-3,7.1731326E-4,-3.5646782E-4,-6.77279E-4],"split_indices":[18,21,19,19,32,19,19,35,19,35,18,0,0,19,19,0,21,18,18,32,0,18,18,0,0,36,0,0,0,21,0,21,19,31,0,18,19,26,21,0,39,19,21,19,18,21,21,0,0,39,0,0,29,36,0,0,0,0,10,0,19,35,10,21,18,3,6,0,18,18,18,35,0,1,3,0,39,0,0,0,0,0,0,0,0,0,0,0,0,0,0,0,0,0,0,0,0,0,0,0,0,0,0,0,0,0,0],"split_type":[0,0,0,0,0,0,0,0,0,0,0,0,0,0,0,0,0,0,0,0,0,0,0,0,0,0,0,0,0,0,0,0,0,0,0,0,0,0,0,0,0,0,0,0,0,0,0,0,0,0,0,0,0,0,0,0,0,0,0,0,0,0,0,0,0,0,0,0,0,0,0,0,0,0,0,0,0,0,0,0,0,0,0,0,0,0,0,0,0,0,0,0,0,0,0,0,0,0,0,0,0,0,0,0,0,0,0],"sum_hessian":[2.99768E5,2.98426E5,1.342E3,2.95433E5,2.993E3,2.97E2,1.045E3,4.47E2,2.94986E5,4.5E2,2.543E3,1.43E2,1.54E2,3.03E2,7.42E2,1.48E2,2.99E2,4.411E3,2.90575E5,3.38E2,1.12E2,1.638E3,9.05E2,1.5E2,1.53E2,5.97E2,1.45E2,1.44E2,1.55E2,4.271E3,1.4E2,3.3682E4,2.56893E5,2.13E2,1.25E2,9.16E2,7.22E2,6.11E2,2.94E2,1.64E2,4.33E2,2.88E3,1.391E3,3.2965E4,7.17E2,8.845E3,2.48048E5,1.03E2,1.1E2,7.64E2,1.52E2,1.22E2,6E2,4.82E2,1.29E2,1.55E2,1.39E2,1.64E2,2.69E2,1.53E2,2.727E3,5.84E2,8.07E2,7.83E2,3.2182E4,2.93E2,4.24E2,1.42E2,8.703E3,2.46849E5,1.199E3,6.5E2,1.14E2,2.79E2,3.21E2,1.63E2,3.19E2,1.38E2,1.31E2,9.06E2,1.821E3,3.18E2,2.66E2,6.42E2,1.65E2,6.22E2,1.61E2,2.4705E4,7.477E3,1.16E2,1.77E2,1.03E2,3.21E2,6.28E3,2.423E3,2.45012E5,1.837E3,7.54E2,4.45E2,5.49E2,1.01E2,1.27E2,1.52E2,1.69E2,1.52E2,1.68E2,1.51E2],"tree_param":{"num_deleted":"0","num_feature":"40","num_nodes":"107","size_leaf_vector":"1"}},{"base_weights":[-1.0096908E-5,1.2458392E-4,-3.0276923E-2,3.126439E-2,2.8916036E-5,-9.8010845E-2,-1.05015095E-2,2.9722154E-3,1.701993E-2,-4.1384315E-5,1.5828313E-2,-2.0012716E-3,-3.7975956E-3,-3.9958626E-2,1.5920423E-3,4.806303E-2,-2.8204372E-2,-3.1169532E-2,-9.309885E-6,3.260846E-2,-5.782484E-3,-7.076984E-4,-1.6986544E-3,1.0657116E-2,-1.0470529E-3,6.68723E-2,6.4190576E-4,-3.7129567E-4,-3.5848405E-2,-3.1327584E-3,1.3020514E-3,5.863242E-5,-9.372936E-3,4.479831E-2,-4.6202613E-4,-1.3518014E-3,7.7884374E-3,1.1818497E-3,1.6790469E-3,1.6282969E-3,2.4040854E-3,-1.4664648E-3,-6.6166255E-4,6.181708E-3,-3.735155E-5,2.4059886E-2,-1.484329E-2,5.961311E-4,5.2677814E-2,-4.1730292E-4,1.9067148E-2,-4.2246192E-4,6.6482276E-3,7.764797E-3,-1.1341585E-3,-2.0871366E-5,-9.2836795E-4,1.0645763E-3,3.415655E-4,-2.0018406E-3,-2.1145785E-2,2.4406877E-3,4.3690857E-2,7.604663E-4,2.9678704E-4,4.072097E-4,2.493719E-3,6.492837E-4,1.4751956E-4,-2.018203E-6,3.6963582E-4,-2.4604585E-4,1.15580515E-4,-1.4732834E-3,-5.4277753E-4,1.5659712E-3,9.2028285E-4,3.0227905E-4,-1.8184308E-4],"categories":[],"categories_nodes":[],"categories_segments":[],"categories_sizes":[],"default_left":[0,0,0,0,0,0,0,0,0,0,0,0,0,0,0,0,0,0,0,0,0,0,0,0,0,0,0,0,0,0,0,0,0,0,0,0,0,0,0,0,0,0,0,0,0,0,0,0,0,0,0,0,0,0,0,0,0,0,0,0,0,0,0,0,0,0,0,0,0,0,0,0,0,0,0,0,0,0,0],"id":1,"left_children":[1,3,5,7,9,11,13,-1,15,17,19,-1,-1,21,23,25,27,29,31,33,35,-1,-1,37,-1,39,-1,-1,41,-1,-1,43,45,47,-1,-1,49,-1,51,-1,-1,-1,-1,53,55,57,59,-1,61,-1,63,-1,65,67,-1,69,-1,-1,-1,71,73,-1,75,-1,-1,-1,77,-1,-1,-1,-1,-1,-1,-1,-1,-1,-1,-1,-1],"loss_changes":[1.22665E0,8.8715374E-1,1.7746884E0,8.692277E-1,3.32494E-1,2.4825644E-1,3.718758E-1,0E0,1.0622083E0,2.9301983E-1,4.835883E-1,0E0,0E0,7.451707E-2,2.3914371E-1,2.1628559E-1,3.2167748E-2,1.6568592E0,1.8943675E-1,4.4140202E-1,3.1137544E-1,0E0,0E0,1.4736402E-1,0E0,2.974534E-2,0E0,0E0,2.9130846E-2,0E0,0E0,1.734974E-1,3.9143002E-1,1.1031234E-1,0E0,0E0,1.0506703E-1,0E0,3.4517724E-2,0E0,0E0,0E0,0E0,3.142908E-1,1.4441995E-1,3.8587287E-2,1.4709178E-1,0E0,1.03660345E-1,0E0,1.282347E-2,0E0,8.376554E-3,1.7121336E-1,0E0,1.6454375E-1,0E0,0E0,0E0,2.2691255E-2,9.8471284E-2,0E0,2.9987454E-2,0E0,0E0,0E0,1.5074062E-2,0E0,0E0,0E0,0E0,0E0,0E0,0E0,0E0,0E0,0E0,0E0,0E0],"parents":[2147483647,0,0,1,1,2,2,3,3,4,4,5,5,6,6,8,8,9,9,10,10,13,13,14,14,15,15,16,16,17,17,18,18,19,19,20,20,23,23,25,25,28,28,31,31,32,32,33,33,36,36,38,38,43,43,44,44,45,45,46,46,48,48,50,50,52,52,53,53,55,55,59,59,60,60,62,62,66,66],"right_children":[2,4,6,8,10,12,14,-1,16,18,20,-1,-1,22,24,26,28,30,32,34,36,-1,-1,38,-1,40,-1,-1,42,-1,-1,44,46,48,-1,-1,50,-1,52,-1,-1,-1,-1,54,56,58,60,-1,62,-1,64,-1,66,68,-1,70,-1,-1,-1,72,74,-1,76,-1,-1,-1,78,-1,-1,-1,-1,-1,-1,-1,-1,-1,-1,-1,-1],"split_conditions":[4.2395066E-2,-2.339519E-1,-8.1064306E-2,2.3865711E-2,5.166403E-2,-1.18345544E-1,-3.9611705E-2,2.9722154E-3,-4.4456244E-2,-1.5032598E-1,3.503801E-2,-2.0012716E-3,-3.7975956E-3,-4.068506E-2,6.903313E-2,8.064765E-3,-4.0445468E-1,6.2131345E-2,2.6048822E-2,1.4937026E-2,5.958659E-2,-7.076984E-4,-1.6986544E-3,-3.6153486E-1,-1.0470529E-3,4.9366232E-2,6.4190576E-4,-3.7129567E-4,9.6804976E-1,-3.1327584E-3,1.3020514E-3,-5.5427708E-2,-6.0760554E-2,-4.4456244E-2,-4.6202613E-4,-1.3518014E-3,-1.5032598E-1,1.1818497E-3,4.8985045E-2,1.6282969E-3,2.4040854E-3,-1.4664648E-3,-6.6166255E-4,3.1960695E-3,2.076039E-1,3.0005129E-2,-5.593322E-2,5.961311E-4,-3.153579E-2,-4.1730292E-4,-3.2215558E-2,-4.2246192E-4,-2.619826E-1,-9.740602E-2,-1.1341585E-3,2.8110875E-2,-9.2836795E-4,1.0645763E-3,3.415655E-4,4.654515E-2,-1.5272546E-1,2.4406877E-3,8.9253044E-1,7.604663E-4,2.9678704E-4,4.072097E-4,1.9567622E-2,6.492837E-4,1.4751956E-4,-2.018203E-6,3.6963582E-4,-2.4604585E-4,1.15580515E-4,-1.4732834E-3,-5.4277753E-4,1.5659712E-3,9.2028285E-4,3.0227905E-4,-1.8184308E-4],"split_indices":[18,20,19,22,21,19,19,0,18,20,19,0,0,19,19,29,36,22,18,18,19,0,0,36,0,22,0,0,5,0,0,19,20,18,0,0,20,0,39,0,0,0,0,18,20,18,22,0,1,0,3,0,36,20,0,21,0,0,0,20,3,0,7,0,0,0,21,0,0,0,0,0,0,0,0,0,0,0,0],"split_type":[0,0,0,0,0,0,0,0,0,0,0,0,0,0,0,0,0,0,0,0,0,0,0,0,0,0,0,0,0,0,0,0,0,0,0,0,0,0,0,0,0,0,0,0,0,0,0,0,0,0,0,0,0,0,0,0,0,0,0,0,0,0,0,0,0,0,0,0,0,0,0,0,0,0,0,0,0,0,0],"sum_hessian":[3.00178E5,2.98845E5,1.333E3,9.12E2,2.97933E5,3E2,1.033E3,1.57E2,7.55E2,2.96607E5,1.326E3,1.45E2,1.55E2,3.03E2,7.3E2,4.49E2,3.06E2,3.02E2,2.96305E5,7.49E2,5.77E2,1.56E2,1.47E2,5.87E2,1.43E2,2.61E2,1.88E2,1.04E2,2.02E2,1.53E2,1.49E2,2.9416E5,2.145E3,5.99E2,1.5E2,1.5E2,4.27E2,1.37E2,4.5E2,1.38E2,1.23E2,1E2,1.02E2,4.556E3,2.89604E5,2.99E2,1.846E3,1.47E2,4.52E2,1.43E2,2.84E2,1.03E2,3.47E2,4.4E3,1.56E2,2.89453E5,1.51E2,1.53E2,1.46E2,6.13E2,1.233E3,1.05E2,3.47E2,1.62E2,1.22E2,1.21E2,2.26E2,7.43E2,3.657E3,2.88377E5,1.076E3,3.06E2,3.07E2,1.18E2,1.115E3,2.05E2,1.42E2,1.26E2,1E2],"tree_param":{"num_deleted":"0","num_feature":"40","num_nodes":"79","size_leaf_vector":"1"}},{"base_weights":[3.5199915E-5,1.5729848E-4,-2.7581168E-2,3.12169E-2,6.180455E-5,-9.2954874E-2,-8.789059E-3,2.8654928E-3,1.7306816E-2,-9.10411E-6,1.5671622E-2,-3.8076867E-3,-2.0107708E-3,-3.797802E-2,2.9853112E-3,4.9459178E-2,-2.8973702E-2,-2.9941563E-2,2.1169817E-5,3.3752006E-2,-6.482318E-3,-6.914558E-4,-1.5633365E-3,1.1773188E-2,-9.767755E-4,6.256924E-2,1.8110801E-4,-1.138395E-3,-4.9872126E-4,-2.9596044E-3,1.2408914E-3,8.7536806E-5,-9.035455E-3,4.5606185E-2,-3.7357575E-4,-1.2928648E-3,5.8860085E-3,1.1372886E-3,1.3724137E-3,5.0711606E-2,2.3623996E-3,6.106878E-3,-6.854747E-6,2.3415618E-2,-1.4204121E-2,5.997048E-4,5.3448275E-2,-4.4619522E-4,1.7203934E-2,2.586327E-4,-3.2638088E-3,1.2098872E-3,1.8013191E-3,8.309277E-3,-2.3241933E-2,1.0402726E-5,-9.6724834E-4,1.0333162E-3,3.1105746E-4,-1.0983481E-3,-2.072841E-2,6.548238E-2,9.701996E-4,7.189045E-4,1.1454157E-4,8.965528E-5,-2.6787556E-4,8.0215206E-5,4.354997E-4,-3.0437126E-4,-1.1036312E-3,-1.0145794E-6,3.6071785E-4,3.1094791E-4,-1.5682657E-4,-1.3615661E-3,-5.148504E-4,2.421761E-3,1.6381682E-3],"categories":[],"categories_nodes":[],"categories_segments":[],"categories_sizes":[],"default_left":[0,0,0,0,0,0,0,0,0,0,0,0,0,0,0,0,0,0,0,0,0,0,0,0,0,0,0,0,0,0,0,0,0,0,0,0,0,0,0,0,0,0,0,0,0,0,0,0,0,0,0,0,0,0,0,0,0,0,0,0,0,0,0,0,0,0,0,0,0,0,0,0,0,0,0,0,0,0,0],"id":2,"left_children":[1,3,5,7,9,11,13,-1,15,17,19,-1,-1,21,23,25,27,29,31,33,35,-1,-1,37,-1,39,-1,-1,-1,-1,-1,41,43,45,-1,-1,47,-1,49,51,-1,53,55,57,59,-1,61,-1,63,-1,65,-1,-1,67,69,71,-1,-1,-1,73,75,77,-1,-1,-1,-1,-1,-1,-1,-1,-1,-1,-1,-1,-1,-1,-1,-1,-1],"loss_changes":[1.0097308E0,8.8355297E-1,1.6090426E0,8.0523974E-1,3.3145273E-1,2.3790598E-1,3.5581863E-1,0E0,1.1213377E0,2.7183655E-1,5.451361E-1,0E0,0E0,5.505243E-2,2.2538951E-1,2.4648285E-1,2.8509915E-2,1.4911685E0,1.7724657E-1,4.1311902E-1,2.782149E-1,0E0,0E0,1.5539151E-1,0E0,5.1894665E-2,0E0,0E0,0E0,0E0,0E0,1.6778588E-1,3.589071E-1,1.12496614E-1,0E0,0E0,1.06245E-1,0E0,1.4723835E-2,9.108007E-3,0E0,2.9321614E-1,1.6436611E-1,3.7512153E-2,1.5626591E-1,0E0,1.0535622E-1,0E0,2.3914091E-2,0E0,9.420291E-3,0E0,0E0,1.4674121E-1,5.1167607E-2,1.5500812E-1,0E0,0E0,0E0,2.8890967E-2,1.02024734E-1,3.3459783E-2,0E0,0E0,0E0,0E0,0E0,0E0,0E0,0E0,0E0,0E0,0E0,0E0,0E0,0E0,0E0,0E0,0E0],"parents":[2147483647,0,0,1,1,2,2,3,3,4,4,5,5,6,6,8,8,9,9,10,10,13,13,14,14,15,15,16,16,17,17,18,18,19,19,20,20,23,23,25,25,31,31,32,32,33,33,36,36,38,38,39,39,41,41,42,42,43,43,44,44,46,46,48,48,50,50,53,53,54,54,55,55,59,59,60,60,61,61],"right_children":[2,4,6,8,10,12,14,-1,16,18,20,-1,-1,22,24,26,28,30,32,34,36,-1,-1,38,-1,40,-1,-1,-1,-1,-1,42,44,46,-1,-1,48,-1,50,52,-1,54,56,58,60,-1,62,-1,64,-1,66,-1,-1,68,70,72,-1,-1,-1,74,76,78,-1,-1,-1,-1,-1,-1,-1,-1,-1,-1,-1,-1,-1,-1,-1,-1,-1],"split_conditions":[4.2395066E-2,-2.339519E-1,-8.1064306E-2,2.3865711E-2,5.166403E-2,1.6589079E1,-3.9611705E-2,2.8654928E-3,-4.4456244E-2,-1.5032598E-1,3.503801E-2,-3.8076867E-3,-2.0107708E-3,-4.068506E-2,6.903313E-2,-6.2449854E-2,1.5151517E-1,6.2131345E-2,2.6048822E-2,1.4937026E-2,5.958659E-2,-6.914558E-4,-1.5633365E-3,-3.410806E-1,-9.767755E-4,4.9366232E-2,1.8110801E-4,-1.138395E-3,-4.9872126E-4,-2.9596044E-3,1.2408914E-3,-5.5427708E-2,-6.0760554E-2,-4.4456244E-2,-3.7357575E-4,-1.2928648E-3,-1.5032598E-1,1.1372886E-3,2.8015896E1,-3.5879385E0,2.3623996E-3,2.8300656E-3,2.076039E-1,3.0005129E-2,-5.593322E-2,5.997048E-4,5.9645534E-1,-4.4619522E-4,3.875887E-1,2.586327E-4,1.9567622E-2,1.2098872E-3,1.8013191E-3,-6.7203075E-2,3.1960695E-3,2.8110875E-2,-9.6724834E-4,1.0333162E-3,3.1105746E-4,3.0005129E-2,-1.2552051E-1,2.6637346E1,9.701996E-4,7.189045E-4,1.1454157E-4,8.965528E-5,-2.6787556E-4,8.0215206E-5,4.354997E-4,-3.0437126E-4,-1.1036312E-3,-1.0145794E-6,3.6071785E-4,3.1094791E-4,-1.5682657E-4,-1.3615661E-3,-5.148504E-4,2.421761E-3,1.6381682E-3],"split_indices":[18,20,19,22,21,33,19,0,18,20,19,0,0,19,19,0,37,22,18,18,19,0,0,36,0,22,0,0,0,0,0,19,20,18,0,0,20,0,33,26,0,18,20,18,22,0,29,0,37,0,21,0,0,19,18,21,0,0,0,18,15,24,0,0,0,0,0,0,0,0,0,0,0,0,0,0,0,0,0],"split_type":[0,0,0,0,0,0,0,0,0,0,0,0,0,0,0,0,0,0,0,0,0,0,0,0,0,0,0,0,0,0,0,0,0,0,0,0,0,0,0,0,0,0,0,0,0,0,0,0,0,0,0,0,0,0,0,0,0,0,0,0,0,0,0,0,0,0,0,0,0,0,0,0,0,0,0,0,0,0,0],"sum_hessian":[3.00266E5,2.98948E5,1.318E3,9.13E2,2.98035E5,2.93E2,1.025E3,1.61E2,7.52E2,2.96681E5,1.354E3,1.25E2,1.68E2,2.97E2,7.28E2,4.45E2,3.07E2,3.03E2,2.96378E5,7.48E2,6.06E2,1.48E2,1.49E2,5.86E2,1.42E2,3.4E2,1.05E2,1.73E2,1.34E2,1.55E2,1.48E2,2.94233E5,2.145E3,5.97E2,1.51E2,1.55E2,4.51E2,1.64E2,4.22E2,2E2,1.4E2,4.559E3,2.89674E5,2.92E2,1.853E3,1.43E2,4.54E2,1.56E2,2.95E2,1.73E2,2.49E2,1E2,1E2,4.244E3,3.15E2,2.89516E5,1.58E2,1.54E2,1.38E2,6.21E2,1.232E3,2.86E2,1.68E2,1.91E2,1.04E2,1.1E2,1.39E2,2.233E3,2.011E3,1.64E2,1.51E2,2.88446E5,1.07E3,1.58E2,4.63E2,1.52E2,1.08E3,1.15E2,1.71E2],"tree_param":{"num_deleted":"0","num_feature":"40","num_nodes":"79","size_leaf_vector":"1"}},{"base_weights":[-2.7623769E-6,1.14424874E-4,-2.5820553E-2,2.8093893E-2,3.1276144E-5,-8.802816E-2,-8.021393E-3,2.7762144E-3,1.4721929E-2,-3.3412136E-5,1.454169E-2,-1.7668168E-3,-3.5710717E-3,-3.658034E-2,2.9964312E-3,6.1035145E-2,-1.39830625E-2,-2.7518675E-2,-5.307352E-6,3.1263024E-2,-6.984216E-3,-6.4722926E-4,-1.5478773E-3,1.1755311E-2,-9.867477E-4,1.4237227E-3,2.2019097E-3,4.9366296E-4,-2.5611049E-2,-2.8590746E-3,1.2020259E-3,7.4137338E-3,-7.9781676E-5,4.2646203E-2,-4.0804662E-4,-1.2745141E-3,5.454615E-3,1.1178869E-3,1.4348243E-3,-3.2050326E-2,-3.4080056E-4,1.2128182E-2,-2.451412E-3,-5.770164E-3,1.3780214E-5,5.822452E-4,4.9826108E-2,-4.127957E-4,1.5518358E-2,2.4988773E-4,-2.9553752E-3,-7.1221625E-4,-1.1892791E-3,1.793394E-3,2.2882769E-2,-4.1865082E-3,-2.9644765E-2,7.424896E-5,-8.0499295E-3,6.0824838E-2,9.439401E-4,6.5908895E-4,1.8133022E-4,1.0523508E-4,-2.6308303E-4,-1.8278827E-4,5.238137E-4,8.667863E-4,5.8786336E-5,-3.104622E-4,8.5500535E-5,-3.4607307E-4,-1.2611496E-3,-5.116272E-6,6.3460095E-5,6.8026665E-4,-3.9160412E-4,2.2600698E-3,1.5345021E-3],"categories":[],"categories_nodes":[],"categories_segments":[],"categories_sizes":[],"default_left":[0,0,0,0,0,0,0,0,0,0,0,0,0,0,0,0,0,0,0,0,0,0,0,0,0,0,0,0,0,0,0,0,0,0,0,0,0,0,0,0,0,0,0,0,0,0,0,0,0,0,0,0,0,0,0,0,0,0,0,0,0,0,0,0,0,0,0,0,0,0,0,0,0,0,0,0,0,0,0],"id":3,"left_children":[1,3,5,7,9,11,13,-1,15,17,19,-1,-1,21,23,25,27,29,31,33,35,-1,-1,37,-1,-1,-1,-1,39,-1,-1,41,43,45,-1,-1,47,-1,49,51,-1,53,-1,55,57,-1,59,-1,61,-1,63,-1,-1,65,67,69,71,73,75,77,-1,-1,-1,-1,-1,-1,-1,-1,-1,-1,-1,-1,-1,-1,-1,-1,-1,-1,-1],"loss_changes":[9.1002035E-1,6.91805E-1,1.4951787E0,7.4844956E-1,2.808807E-1,2.5351453E-1,3.3630842E-1,0E0,9.7672987E-1,2.2617918E-1,4.804885E-1,0E0,0E0,5.9515417E-2,2.3716834E-1,3.47476E-2,1.6026539E-1,1.3761575E0,1.6285095E-1,3.8603985E-1,2.5899965E-1,0E0,0E0,1.5778714E-1,0E0,0E0,0E0,0E0,2.5731072E-2,0E0,0E0,1.2239096E0,1.5664215E-1,9.31046E-2,0E0,0E0,8.259195E-2,0E0,1.3861445E-2,7.5168908E-3,0E0,3.0685976E-1,0E0,1.7654197E-1,1.3981584E-1,0E0,8.248818E-2,0E0,1.448825E-2,0E0,1.0303143E-2,0E0,0E0,1.771031E-1,1.67817E-1,1.9444941E-1,6.0151517E-2,1.432132E-1,3.2715595E-1,2.6429415E-2,0E0,0E0,0E0,0E0,0E0,0E0,0E0,0E0,0E0,0E0,0E0,0E0,0E0,0E0,0E0,0E0,0E0,0E0,0E0],"parents":[2147483647,0,0,1,1,2,2,3,3,4,4,5,5,6,6,8,8,9,9,10,10,13,13,14,14,15,15,16,16,17,17,18,18,19,19,20,20,23,23,28,28,31,31,32,32,33,33,36,36,38,38,39,39,41,41,43,43,44,44,46,46,48,48,50,50,53,53,54,54,55,55,56,56,57,57,58,58,59,59],"right_children":[2,4,6,8,10,12,14,-1,16,18,20,-1,-1,22,24,26,28,30,32,34,36,-1,-1,38,-1,-1,-1,-1,40,-1,-1,42,44,46,-1,-1,48,-1,50,52,-1,54,-1,56,58,-1,60,-1,62,-1,64,-1,-1,66,68,70,72,74,76,78,-1,-1,-1,-1,-1,-1,-1,-1,-1,-1,-1,-1,-1,-1,-1,-1,-1,-1,-1],"split_conditions":[4.2395066E-2,-2.339519E-1,-8.1064306E-2,2.3865711E-2,5.166403E-2,-1.18345544E-1,-3.9611705E-2,2.7762144E-3,5.166403E-2,-1.5032598E-1,3.503801E-2,-1.7668168E-3,-3.5710717E-3,-4.068506E-2,6.903313E-2,4.9366232E-2,-4.4077467E-2,6.2131345E-2,-9.740602E-2,1.4937026E-2,5.958659E-2,-6.4722926E-4,-1.5478773E-3,-3.410806E-1,-9.867477E-4,1.4237227E-3,2.2019097E-3,4.9366296E-4,1.3897365E-2,-2.8590746E-3,1.2020259E-3,2.2477297E-2,-7.90426E-2,-4.4456244E-2,-4.0804662E-4,-1.2745141E-3,-1.5032598E-1,1.1178869E-3,2.890833E1,2.0927107E1,-3.4080056E-4,-2.9928423E-2,-2.451412E-3,2.08551E-2,2.6048822E-2,5.822452E-4,5.9645534E-1,-4.127957E-4,-2.3712445E-2,2.4988773E-4,1.9567622E-2,-7.1221625E-4,-1.1892791E-3,-1.01857565E-1,1.9567622E-2,-5.8222925E-3,4.7617313E-4,1.4612688E-2,-6.0760554E-2,-1.4368937E-2,9.439401E-4,6.5908895E-4,1.8133022E-4,1.0523508E-4,-2.6308303E-4,-1.8278827E-4,5.238137E-4,8.667863E-4,5.8786336E-5,-3.104622E-4,8.5500535E-5,-3.4607307E-4,-1.2611496E-3,-5.116272E-6,6.3460095E-5,6.8026665E-4,-3.9160412E-4,2.2600698E-3,1.5345021E-3],"split_indices":[18,20,19,22,21,19,19,0,21,20,19,0,0,19,19,22,35,22,20,18,19,0,0,36,0,0,0,0,35,0,0,21,20,18,0,0,20,0,33,33,0,22,0,35,18,0,29,0,3,0,21,0,0,20,21,18,18,21,20,18,0,0,0,0,0,0,0,0,0,0,0,0,0,0,0,0,0,0,0],"split_type":[0,0,0,0,0,0,0,0,0,0,0,0,0,0,0,0,0,0,0,0,0,0,0,0,0,0,0,0,0,0,0,0,0,0,0,0,0,0,0,0,0,0,0,0,0,0,0,0,0,0,0,0,0,0,0,0,0,0,0,0,0,0,0,0,0,0,0,0,0,0,0,0,0,0,0,0,0,0,0],"sum_hessian":[2.99932E5,2.98573E5,1.359E3,8.81E2,2.97692E5,3.01E2,1.058E3,1.5E2,7.31E2,2.96364E5,1.328E3,1.57E2,1.44E2,2.97E2,7.61E2,2.81E2,4.5E2,2.99E2,2.96065E5,7.5E2,5.78E2,1.52E2,1.45E2,6.14E2,1.47E2,1.38E2,1.43E2,1.22E2,3.28E2,1.5E2,1.49E2,2.929E3,2.93136E5,6E2,1.5E2,1.52E2,4.26E2,1.74E2,4.4E2,2.21E2,1.07E2,2.783E3,1.46E2,4.759E3,2.88377E5,1.45E2,4.55E2,1.43E2,2.83E2,1.8E2,2.6E2,1.12E2,1.09E2,1.424E3,1.359E3,4.467E3,2.92E2,2.86243E5,2.134E3,2.81E2,1.74E2,1.62E2,1.21E2,1.15E2,1.45E2,9.43E2,4.81E2,1.052E3,3.07E2,2.389E3,2.078E3,1.22E2,1.7E2,2.55546E5,3.0697E4,2.96E2,1.838E3,1.08E2,1.73E2],"tree_param":{"num_deleted":"0","num_feature":"40","num_nodes":"79","size_leaf_vector":"1"}},{"base_weights":[-2.1228607E-5,9.8149416E-5,-2.6224295E-2,2.8123109E-2,1.18147955E-5,-8.786478E-2,-8.236945E-3,3.936305E-2,-8.266761E-4,-5.1923475E-5,1.4158902E-2,-3.6435833E-3,-1.7715868E-3,-3.50673E-2,2.4512075E-3,2.679468E-2,2.697713E-3,-2.9599313E-2,-2.3051258E-5,3.0601956E-2,-6.533202E-3,-1.5936265E-3,-2.5434561E-2,1.1084342E-2,-9.4040594E-4,5.7042528E-2,-3.135231E-3,1.0575183E-3,-2.6467347E-3,3.9028884E-5,-8.707719E-3,4.151313E-2,-3.842912E-4,-1.2367809E-3,5.549871E-3,-9.668806E-4,-5.2438787E-4,1.1707416E-3,4.0736906E-3,2.0304814E-3,1.3881396E-3,5.8777933E-4,-6.4991124E-4,5.8332174E-3,-5.071036E-5,2.1068942E-2,-1.3707378E-2,5.012715E-4,4.9158987E-2,-3.88272E-4,1.51725635E-2,1.1341133E-2,-1.8937503E-4,7.996969E-3,-2.2132328E-2,-1.9426362E-3,2.0163454E-4,9.6429803E-4,2.7721722E-4,-2.4386678E-2,-5.814903E-3,6.074559E-2,9.420347E-4,6.731689E-4,1.9145428E-4,3.5738638E-6,5.721041E-4,7.99719E-5,4.2063228E-4,-3.9229912E-4,-1.2223936E-3,-4.9474667E-4,-4.812736E-5,1.2419521E-4,1.7714246E-6,-1.5867944E-3,-5.9826986E-4,-2.8739094E-5,-5.3265586E-4,2.2152667E-3,1.4535694E-3],"categories":[],"categories_nodes":[],"categories_segments":[],"categories_sizes":[],"default_left":[0,0,0,0,0,0,0,0,0,0,0,0,0,0,0,0,0,0,0,0,0,0,0,0,0,0,0,0,0,0,0,0,0,0,0,0,0,0,0,0,0,0,0,0,0,0,0,0,0,0,0,0,0,0,0,0,0,0,0,0,0,0,0,0,0,0,0,0,0,0,0,0,0,0,0,0,0,0,0,0,0],"id":4,"left_children":[1,3,5,7,9,11,13,15,-1,17,19,-1,-1,21,23,25,-1,27,29,31,33,-1,35,37,-1,39,41,-1,-1,43,45,47,-1,-1,49,-1,-1,-1,51,-1,-1,-1,-1,53,55,57,59,-1,61,-1,63,65,-1,67,69,71,73,-1,-1,75,77,79,-1,-1,-1,-1,-1,-1,-1,-1,-1,-1,-1,-1,-1,-1,-1,-1,-1,-1,-1],"loss_changes":[9.415411E-1,7.2013324E-1,1.5038705E0,5.733591E-1,2.700152E-1,2.7842307E-1,3.066983E-1,4.723755E-1,0E0,2.5001568E-1,4.5940506E-1,0E0,0E0,4.489401E-2,2.180423E-1,5.595521E-1,0E0,1.0933144E0,1.6059093E-1,3.586988E-1,2.5179642E-1,0E0,5.896747E-3,1.1380965E-1,0E0,2.3372889E-2,1.2915222E-1,0E0,0E0,1.5352117E-1,3.1402546E-1,1.07518196E-1,0E0,0E0,7.802259E-2,0E0,0E0,0E0,3.7125878E-2,0E0,0E0,0E0,0E0,2.710889E-1,1.3845204E-1,3.527336E-2,1.497848E-1,0E0,8.46442E-2,0E0,1.569824E-2,2.332938E-2,0E0,1.3267186E-1,4.8521668E-2,1.6622767E-1,1.4305569E-1,0E0,0E0,8.954358E-2,5.8909662E-2,3.1381965E-2,0E0,0E0,0E0,0E0,0E0,0E0,0E0,0E0,0E0,0E0,0E0,0E0,0E0,0E0,0E0,0E0,0E0,0E0,0E0],"parents":[2147483647,0,0,1,1,2,2,3,3,4,4,5,5,6,6,7,7,9,9,10,10,13,13,14,14,15,15,17,17,18,18,19,19,20,20,22,22,23,23,25,25,26,26,29,29,30,30,31,31,34,34,38,38,43,43,44,44,45,45,46,46,48,48,50,50,51,51,53,53,54,54,55,55,56,56,59,59,60,60,61,61],"right_children":[2,4,6,8,10,12,14,16,-1,18,20,-1,-1,22,24,26,-1,28,30,32,34,-1,36,38,-1,40,42,-1,-1,44,46,48,-1,-1,50,-1,-1,-1,52,-1,-1,-1,-1,54,56,58,60,-1,62,-1,64,66,-1,68,70,72,74,-1,-1,76,78,80,-1,-1,-1,-1,-1,-1,-1,-1,-1,-1,-1,-1,-1,-1,-1,-1,-1,-1,-1],"split_conditions":[4.2395066E-2,-2.339519E-1,-8.1064306E-2,-2.4765832E-2,5.166403E-2,1.6968784E1,-3.9611705E-2,-3.502057E-2,-8.266761E-4,-1.5032598E-1,3.503801E-2,-3.6435833E-3,-1.7715868E-3,-1.0959429E-1,6.903313E-2,5.166403E-2,2.697713E-3,-4.4077467E-2,2.6048822E-2,1.4937026E-2,5.958659E-2,-1.5936265E-3,-2.6314154E-1,7.977806E-1,-9.4040594E-4,4.269349E0,-4.4077467E-2,1.0575183E-3,-2.6467347E-3,-5.5427708E-2,-6.0760554E-2,-4.4456244E-2,-3.842912E-4,-1.2367809E-3,-1.5032598E-1,-9.668806E-4,-5.2438787E-4,1.1707416E-3,1.9567622E-2,2.0304814E-3,1.3881396E-3,5.8777933E-4,-6.4991124E-4,2.8300656E-3,-8.707067E-3,3.0005129E-2,-4.1238517E-2,5.012715E-4,8.66006E-1,-3.88272E-4,5.019572E-2,6.782257E-2,-1.8937503E-4,-6.7203075E-2,2.7006995E-2,-4.839964E-2,-2.8948698E-2,9.6429803E-4,2.7721722E-4,-1.598585E-1,7.109781E-2,-2.1339406E-4,9.420347E-4,6.731689E-4,1.9145428E-4,3.5738638E-6,5.721041E-4,7.99719E-5,4.2063228E-4,-3.9229912E-4,-1.2223936E-3,-4.9474667E-4,-4.812736E-5,1.2419521E-4,1.7714246E-6,-1.5867944E-3,-5.9826986E-4,-2.8739094E-5,-5.3265586E-4,2.2152667E-3,1.4535694E-3],"split_indices":[18,20,19,18,21,33,19,18,0,20,19,0,0,3,19,21,0,35,18,18,19,0,26,7,0,32,35,0,0,19,20,18,0,0,20,0,0,0,21,0,0,0,0,18,18,18,20,0,7,0,2,39,0,19,10,19,19,0,0,3,20,1,0,0,0,0,0,0,0,0,0,0,0,0,0,0,0,0,0,0,0],"split_type":[0,0,0,0,0,0,0,0,0,0,0,0,0,0,0,0,0,0,0,0,0,0,0,0,0,0,0,0,0,0,0,0,0,0,0,0,0,0,0,0,0,0,0,0,0,0,0,0,0,0,0,0,0,0,0,0,0,0,0,0,0,0,0,0,0,0,0,0,0,0,0,0,0,0,0,0,0,0,0,0,0],"sum_hessian":[3.00162E5,2.98797E5,1.365E3,9.14E2,2.97883E5,3.07E2,1.058E3,7.62E2,1.52E2,2.9654E5,1.343E3,1.4E2,1.67E2,3.04E2,7.54E2,6.12E2,1.5E2,2.86E2,2.96254E5,7.51E2,5.92E2,1.02E2,2.02E2,6.03E2,1.51E2,3.06E2,3.06E2,1.35E2,1.51E2,2.9414E5,2.114E3,6.02E2,1.49E2,1.55E2,4.37E2,1.02E2,1E2,1.18E2,4.85E2,1.49E2,1.57E2,1.35E2,1.71E2,4.503E3,2.89637E5,3.01E2,1.813E3,1.45E2,4.57E2,1.46E2,2.91E2,2.91E2,1.94E2,4.183E3,3.2E2,3.4132E4,2.55505E5,1.51E2,1.5E2,7.65E2,1.048E3,2.73E2,1.84E2,1.53E2,1.38E2,1.24E2,1.67E2,2.228E3,1.955E3,2.19E2,1.01E2,7.69E2,3.3363E4,8.903E3,2.46602E5,1E2,6.65E2,7.51E2,2.97E2,1.28E2,1.45E2],"tree_param":{"num_deleted":"0","num_feature":"40","num_nodes":"81","size_leaf_vector":"1"}},{"base_weights":[-4.0070195E-6,1.1375096E-4,-2.5955496E-2,2.6906544E-2,3.3057262E-5,1.7636503E-3,-6.181701E-2,2.6197308E-3,1.4564458E-2,-2.7410408E-5,1.3265174E-2,1.3000739E-2,-1.50388405E-2,-8.890299E-2,-3.2864697E-2,4.233145E-2,-2.6564503E-2,-2.971639E-2,1.7383456E-6,3.582364E-2,1.9849078E-3,1.1253678E-3,2.8847968E-3,-8.9223956E-4,-0E0,-3.6605308E-3,-1.8693854E-3,-1.3709852E-3,-5.598343E-4,5.4478854E-2,1.1862073E-4,-1.1301092E-3,-4.24167E-4,-2.7516526E-3,1.0523202E-3,6.1801E-5,-8.351579E-3,2.1230418E-3,2.3407556E-2,-1.407844E-2,3.4702506E-2,-1.8616213E-4,8.079698E-3,4.4538856E-2,2.0824485E-3,7.777598E-5,-9.2884956E-4,2.0033842E-2,-1.2986984E-2,9.874441E-4,2.4047135E-4,5.116622E-4,-2.3936491E-2,6.100618E-4,1.4142878E-3,3.152111E-4,1.425184E-4,1.0474761E-3,1.578995E-3,6.47277E-3,1.2472201E-5,9.4144215E-4,2.2990262E-4,-1.2750645E-3,-1.8668205E-2,-1.2573383E-3,-1.40774585E-2,3.5649218E-4,-2.6777228E-3,-1.6415665E-4,3.0952665E-6,-2.531272E-4,1.576474E-4,-3.0502974E-4,-8.071275E-4,-2.129449E-4,-5.613126E-4],"categories":[],"categories_nodes":[],"categories_segments":[],"categories_sizes":[],"default_left":[0,0,0,0,0,0,0,0,0,0,0,0,0,0,0,0,0,0,0,0,0,0,0,0,0,0,0,0,0,0,0,0,0,0,0,0,0,0,0,0,0,0,0,0,0,0,0,0,0,0,0,0,0,0,0,0,0,0,0,0,0,0,0,0,0,0,0,0,0,0,0,0,0,0,0,0,0],"id":5,"left_children":[1,3,5,7,9,11,13,-1,15,17,19,21,23,25,27,29,31,33,35,37,39,-1,41,-1,-1,-1,-1,-1,-1,43,-1,-1,-1,-1,-1,45,47,-1,49,51,53,-1,55,57,-1,59,-1,61,63,-1,-1,-1,65,-1,-1,-1,-1,-1,-1,67,69,-1,-1,71,73,-1,75,-1,-1,-1,-1,-1,-1,-1,-1,-1,-1],"loss_changes":[9.1946894E-1,6.430314E-1,1.3570304E0,6.5565234E-1,2.39579E-1,1.4427508E-1,4.5342493E-1,0E0,8.503297E-1,2.5948724E-1,3.4281945E-1,1.1053046E-1,6.864195E-2,2.4945474E-1,4.618156E-2,2.0163465E-1,3.59025E-2,1.1875503E0,1.4774117E-1,1.8613684E-1,4.8094365E-1,0E0,1.5780658E-2,0E0,0E0,0E0,0E0,0E0,0E0,3.8194418E-2,0E0,0E0,0E0,0E0,0E0,1.426269E-1,2.7591127E-1,0E0,4.491712E-2,1.876733E-1,4.7151536E-2,0E0,2.2358913E-4,7.114768E-3,0E0,1.2207668E-1,0E0,3.707476E-2,1.1844373E-1,0E0,0E0,0E0,7.6764375E-2,0E0,0E0,0E0,0E0,0E0,0E0,1.5229014E0,1.4417888E-1,0E0,0E0,2.824968E-2,8.119568E-2,0E0,7.238876E-3,0E0,0E0,0E0,0E0,0E0,0E0,0E0,0E0,0E0,0E0],"parents":[2147483647,0,0,1,1,2,2,3,3,4,4,5,5,6,6,8,8,9,9,10,10,11,11,12,12,13,13,14,14,15,15,16,16,17,17,18,18,19,19,20,20,22,22,29,29,35,35,36,36,38,38,39,39,40,40,42,42,43,43,45,45,47,47,48,48,52,52,59,59,60,60,63,63,64,64,66,66],"right_children":[2,4,6,8,10,12,14,-1,16,18,20,22,24,26,28,30,32,34,36,38,40,-1,42,-1,-1,-1,-1,-1,-1,44,-1,-1,-1,-1,-1,46,48,-1,50,52,54,-1,56,58,-1,60,-1,62,64,-1,-1,-1,66,-1,-1,-1,-1,-1,-1,68,70,-1,-1,72,74,-1,76,-1,-1,-1,-1,-1,-1,-1,-1,-1,-1],"split_conditions":[4.2395066E-2,-2.339519E-1,1.9736152E-2,2.3865711E-2,5.166403E-2,5.7610776E-2,-1.5032598E-1,2.6197308E-3,-4.4456244E-2,-1.5032598E-1,-1.4741404E-2,-3.3463758E-1,-1.2214062E-1,1.6968784E1,-1.2214062E-1,-6.2449854E-2,2.9785314E-3,6.2131345E-2,2.6048822E-2,5.420986E-1,2.242423E-3,1.1253678E-3,5.94828E-2,-8.9223956E-4,-0E0,-3.6605308E-3,-1.8693854E-3,-1.3709852E-3,-5.598343E-4,4.9366232E-2,1.1862073E-4,-1.1301092E-3,-4.24167E-4,-2.7516526E-3,1.0523202E-3,2.076039E-1,-6.0760554E-2,2.1230418E-3,-6.172696E-3,-4.4456244E-2,2.80847E1,-1.8616213E-4,1.8113787E1,5.7624396E-2,2.0824485E-3,-9.740602E-2,-9.2884956E-4,3.0005129E-2,-5.593322E-2,9.874441E-4,2.4047135E-4,5.116622E-4,-1.4800336E-2,6.100618E-4,1.4142878E-3,3.152111E-4,1.425184E-4,1.0474761E-3,1.578995E-3,2.2477297E-2,-7.90426E-2,9.4144215E-4,2.2990262E-4,4.654515E-2,3.507403E-2,-1.2573383E-3,8.246229E-1,3.5649218E-4,-2.6777228E-3,-1.6415665E-4,3.0952665E-6,-2.531272E-4,1.576474E-4,-3.0502974E-4,-8.071275E-4,-2.129449E-4,-5.613126E-4],"split_indices":[18,20,22,22,21,21,20,0,18,20,22,36,20,33,20,0,35,22,18,29,22,0,39,0,0,0,0,0,0,22,0,0,0,0,0,20,20,0,3,18,24,0,33,37,0,20,0,18,22,0,0,0,18,0,0,0,0,0,0,21,20,0,0,20,38,0,23,0,0,0,0,0,0,0,0,0,0],"split_type":[0,0,0,0,0,0,0,0,0,0,0,0,0,0,0,0,0,0,0,0,0,0,0,0,0,0,0,0,0,0,0,0,0,0,0,0,0,0,0,0,0,0,0,0,0,0,0,0,0,0,0,0,0,0,0,0,0,0,0,0,0,0,0,0,0,0,0,0,0,0,0,0,0,0,0,0,0],"sum_hessian":[3.00028E5,2.98669E5,1.359E3,8.93E2,2.97776E5,7.65E2,5.94E2,1.5E2,7.43E2,2.96414E5,1.362E3,4.62E2,3.03E2,3.05E2,2.89E2,4.45E2,2.98E2,2.94E2,2.9612E5,4.51E2,9.11E2,1.32E2,3.3E2,1.55E2,1.48E2,1.34E2,1.71E2,1.48E2,1.41E2,3.36E2,1.09E2,1.53E2,1.45E2,1.51E2,1.43E2,2.94018E5,2.102E3,1.16E2,3.35E2,6.09E2,3.02E2,1.13E2,2.17E2,2.06E2,1.3E2,2.9387E5,1.48E2,2.92E2,1.81E3,2.03E2,1.32E2,1.44E2,4.65E2,1.44E2,1.58E2,1.08E2,1.09E2,1E2,1.06E2,2.955E3,2.90915E5,1.48E2,1.44E2,5.97E2,1.213E3,1.61E2,3.04E2,2.798E3,1.57E2,4.715E3,2.862E5,2.92E2,3.05E2,6.03E2,6.1E2,1.3E2,1.74E2],"tree_param":{"num_deleted":"0","num_feature":"40","num_nodes":"77","size_leaf_vector":"1"}},{"base_weights":[-7.687606E-7,1.1271246E-4,-2.5141282E-2,2.4810867E-2,4.0075305E-5,-8.4761485E-2,-7.060558E-3,3.62454E-2,-9.381502E-4,-1.9906163E-2,7.1300405E-5,-1.609478E-3,-3.4150751E-3,-3.2938052E-2,2.5098622E-3,2.5504928E-2,2.4844687E-3,-2.6042224E-3,1.4781288E-2,1.8831933E-2,2.3605759E-5,-6.114404E-4,-1.383871E-3,1.0644477E-2,-9.048747E-4,-1.9654578E-3,5.3586878E-2,1.0719554E-3,-1.905843E-4,4.053411E-2,-1.236478E-2,6.275252E-3,-6.957391E-5,1.0278799E-3,1.2221056E-3,7.661021E-4,-5.192613E-4,1.1331801E-3,1.8470231E-3,4.7762325E-4,5.20444E-2,-9.7318014E-5,-5.119155E-4,8.481204E-3,-2.2572733E-2,-1.9059367E-3,1.7375595E-4,2.7867645E-4,-3.736488E-3,1.994875E-3,1.2044394E-3,1.8847533E-2,5.4339147E-3,-2.818103E-4,-1.0402374E-3,-2.1090384E-3,2.0942936E-2,1.20146135E-2,1.236835E-4,2.252434E-5,-3.395916E-4,2.1159655E-4,9.179787E-4,-8.6407716E-5,4.331656E-4,-5.096755E-4,-4.8776E-5,1.6609395E-4,8.5801183E-4,-6.705677E-5,6.8397506E-4,6.5100644E-6,-1.3092901E-4],"categories":[],"categories_nodes":[],"categories_segments":[],"categories_sizes":[],"default_left":[0,0,0,0,0,0,0,0,0,0,0,0,0,0,0,0,0,0,0,0,0,0,0,0,0,0,0,0,0,0,0,0,0,0,0,0,0,0,0,0,0,0,0,0,0,0,0,0,0,0,0,0,0,0,0,0,0,0,0,0,0,0,0,0,0,0,0,0,0,0,0,0,0],"id":6,"left_children":[1,3,5,7,9,11,13,15,-1,17,19,-1,-1,21,23,25,-1,-1,27,29,31,-1,-1,33,-1,35,37,-1,-1,39,41,43,45,-1,47,-1,-1,-1,-1,-1,49,-1,-1,51,53,55,57,-1,59,-1,-1,61,63,-1,-1,65,67,69,71,-1,-1,-1,-1,-1,-1,-1,-1,-1,-1,-1,-1,-1,-1],"loss_changes":[8.5780007E-1,5.3291756E-1,1.447212E0,5.5922747E-1,1.833496E-1,2.6586056E-1,2.601454E-1,3.516417E-1,0E0,1.0750546E0,2.6396218E-1,0E0,0E0,4.014626E-2,1.987685E-1,4.6116012E-1,0E0,0E0,1.3672179E-1,5.093581E-1,1.7325875E-1,0E0,0E0,1.3155095E-1,0E0,1.2458961E-1,2.6950717E-2,0E0,0E0,1.18653774E-1,1.1040114E-2,2.7658388E-1,1.30648E-1,0E0,1.8043406E-2,0E0,0E0,0E0,0E0,0E0,4.048997E-2,0E0,0E0,1.258485E-1,4.454027E-2,1.5688711E-1,1.5162466E-1,0E0,1.0010571E-2,0E0,0E0,1.2304962E-1,2.3670419E-1,0E0,0E0,2.4197385E-1,3.162068E-2,1.6758831E-1,1.07096285E-1,0E0,0E0,0E0,0E0,0E0,0E0,0E0,0E0,0E0,0E0,0E0,0E0,0E0,0E0],"parents":[2147483647,0,0,1,1,2,2,3,3,4,4,5,5,6,6,7,7,9,9,10,10,13,13,14,14,15,15,18,18,19,19,20,20,23,23,25,25,26,26,29,29,30,30,31,31,32,32,34,34,40,40,43,43,44,44,45,45,46,46,48,48,51,51,52,52,55,55,56,56,57,57,58,58],"right_children":[2,4,6,8,10,12,14,16,-1,18,20,-1,-1,22,24,26,-1,-1,28,30,32,-1,-1,34,-1,36,38,-1,-1,40,42,44,46,-1,48,-1,-1,-1,-1,-1,50,-1,-1,52,54,56,58,-1,60,-1,-1,62,64,-1,-1,66,68,70,72,-1,-1,-1,-1,-1,-1,-1,-1,-1,-1,-1,-1,-1,-1],"split_conditions":[4.2395066E-2,-2.339519E-1,-8.1064306E-2,-2.4765832E-2,-1.18345544E-1,-1.18345544E-1,-3.9611705E-2,-3.502057E-2,-9.381502E-4,6.2131345E-2,-1.5032598E-1,-1.609478E-3,-3.4150751E-3,-4.068506E-2,6.903313E-2,4.0206887E-2,2.4844687E-3,-2.6042224E-3,-1.5032598E-1,1.4937026E-2,-5.5427708E-2,-6.114404E-4,-1.383871E-3,-3.410806E-1,-9.048747E-4,9.390574E-1,8.246229E-1,1.0719554E-3,-1.905843E-4,-4.4456244E-2,8.0593103E-1,2.8300656E-3,-8.707067E-3,1.0278799E-3,2.8015896E1,7.661021E-4,-5.192613E-4,1.1331801E-3,1.8470231E-3,4.7762325E-4,1.4163484E-3,-9.7318014E-5,-5.119155E-4,-9.2647396E-2,3.1960695E-3,5.958659E-2,-9.740602E-2,2.7867645E-4,-1.6634658E-1,1.994875E-3,1.2044394E-3,-2.4906754E-2,-6.7203075E-2,-2.818103E-4,-1.0402374E-3,-1.01857565E-1,-2.9055598E-1,-6.1151776E-3,4.69904E-2,2.252434E-5,-3.395916E-4,2.1159655E-4,9.179787E-4,-8.6407716E-5,4.331656E-4,-5.096755E-4,-4.8776E-5,1.6609395E-4,8.5801183E-4,-6.705677E-5,6.8397506E-4,6.5100644E-6,-1.3092901E-4],"split_indices":[18,20,19,18,19,19,19,18,0,22,20,0,0,19,19,22,0,0,20,18,19,0,0,36,0,5,23,0,0,18,23,18,18,0,33,0,0,0,0,0,1,0,0,20,18,19,20,0,36,0,0,22,19,0,0,20,36,18,19,0,0,0,0,0,0,0,0,0,0,0,0,0,0],"split_type":[0,0,0,0,0,0,0,0,0,0,0,0,0,0,0,0,0,0,0,0,0,0,0,0,0,0,0,0,0,0,0,0,0,0,0,0,0,0,0,0,0,0,0,0,0,0,0,0,0,0,0,0,0,0,0,0,0,0,0,0,0,0,0,0,0,0,0,0,0,0,0,0,0],"sum_hessian":[2.99791E5,2.9844E5,1.351E3,8.71E2,2.97569E5,3.13E2,1.038E3,7.25E2,1.46E2,4.6E2,2.97109E5,1.53E2,1.6E2,2.83E2,7.55E2,5.91E2,1.34E2,1.58E2,3.02E2,7.48E2,2.96361E5,1.49E2,1.34E2,6.07E2,1.48E2,2.97E2,2.94E2,1.54E2,1.48E2,4.43E2,3.05E2,4.368E3,2.91993E5,1.7E2,4.37E2,1.04E2,1.93E2,1.03E2,1.91E2,1.44E2,2.99E2,1.11E2,1.94E2,4.061E3,3.07E2,3.4212E4,2.57781E5,1.74E2,2.63E2,1.31E2,1.68E2,9.15E2,3.146E3,1.51E2,1.56E2,3.3915E4,2.97E2,1.077E3,2.56704E5,1.57E2,1.06E2,4.61E2,4.54E2,1.63E3,1.516E3,1.06E3,3.2855E4,1.03E2,1.94E2,4.6E2,6.17E2,2.51497E5,5.207E3],"tree_param":{"num_deleted":"0","num_feature":"40","num_nodes":"73","size_leaf_vector":"1"}},{"base_weights":[1.0988406E-5,1.1507124E-4,-2.3197146E-2,2.4780586E-2,3.98678E-5,-7.955817E-2,-6.882562E-3,2.460909E-3,1.3867662E-2,-1.7568746E-5,1.288628E-2,-3.4960255E-3,-1.6717431E-3,-3.2222643E-2,2.79018E-3,4.123244E-2,-2.5533415E-2,-2.5600461E-2,6.914287E-6,2.8382774E-2,-6.6124876E-3,-1.2709256E-3,-4.930886E-4,-2.9360456E-3,1.0836466E-3,5.875157E-2,5.584435E-4,-1.0791122E-3,-3.6895464E-4,-2.6556572E-3,1.0862441E-3,6.3887375E-5,-7.7707577E-3,3.8365237E-2,-2.8766514E-4,-1.1782179E-3,4.476266E-3,3.4796332E-3,-7.587975E-4,1.367835E-3,2.073018E-3,6.608337E-3,-1.1098296E-6,1.9701976E-2,-1.2100139E-2,4.9138034E-4,4.5463353E-2,-4.2968168E-4,1.4091078E-2,3.9430417E-4,-2.2585928E-3,1.1639728E-2,-2.4761474E-3,-3.47687E-3,1.2522198E-4,9.0480497E-4,2.2296242E-4,-5.6833046E-4,-1.8024968E-2,5.638341E-2,7.856093E-4,6.163845E-4,6.478938E-5,9.796529E-5,-3.4257607E-4,4.846689E-5,6.561056E-4,-2.1389536E-4,1.746976E-4,-3.775183E-6,7.439088E-5,3.1647616E-4,-1.3695974E-4,-2.389868E-4,-7.441191E-4,2.0155997E-3,1.3495382E-3],"categories":[],"categories_nodes":[],"categories_segments":[],"categories_sizes":[],"default_left":[0,0,0,0,0,0,0,0,0,0,0,0,0,0,0,0,0,0,0,0,0,0,0,0,0,0,0,0,0,0,0,0,0,0,0,0,0,0,0,0,0,0,0,0,0,0,0,0,0,0,0,0,0,0,0,0,0,0,0,0,0,0,0,0,0,0,0,0,0,0,0,0,0,0,0,0,0],"id":7,"left_children":[1,3,5,7,9,11,13,-1,15,17,19,-1,-1,21,23,25,27,29,31,33,35,-1,-1,37,-1,39,-1,-1,-1,-1,-1,41,43,45,-1,-1,47,49,-1,-1,-1,51,53,55,57,-1,59,-1,61,-1,63,65,-1,67,69,-1,-1,71,73,75,-1,-1,-1,-1,-1,-1,-1,-1,-1,-1,-1,-1,-1,-1,-1,-1,-1],"loss_changes":[7.218048E-1,5.510946E-1,1.2180148E0,5.5451876E-1,2.2082202E-1,2.4482977E-1,2.569087E-1,0E0,8.212164E-1,1.8808337E-1,4.0470654E-1,0E0,0E0,4.0334642E-2,1.4592287E-1,1.705023E-1,3.7963852E-2,1.1221086E0,1.3035378E-1,2.8534472E-1,2.161301E-1,0E0,0E0,9.328678E-2,0E0,2.2405922E-2,0E0,0E0,0E0,0E0,0E0,1.2562369E-1,2.536881E-1,8.6143434E-2,0E0,0E0,7.882155E-2,2.8269116E-2,0E0,0E0,0E0,1.295586E0,1.28056E-1,3.3187605E-2,1.2461421E-1,0E0,8.507794E-2,0E0,2.0222016E-2,0E0,1.6056007E-2,2.7967563E-1,0E0,3.4764925E-1,1.6612732E-1,0E0,0E0,2.7583757E-2,7.9695135E-2,2.2973299E-2,0E0,0E0,0E0,0E0,0E0,0E0,0E0,0E0,0E0,0E0,0E0,0E0,0E0,0E0,0E0,0E0,0E0],"parents":[2147483647,0,0,1,1,2,2,3,3,4,4,5,5,6,6,8,8,9,9,10,10,13,13,14,14,15,15,16,16,17,17,18,18,19,19,20,20,23,23,25,25,31,31,32,32,33,33,36,36,37,37,41,41,42,42,43,43,44,44,46,46,48,48,50,50,51,51,53,53,54,54,57,57,58,58,59,59],"right_children":[2,4,6,8,10,12,14,-1,16,18,20,-1,-1,22,24,26,28,30,32,34,36,-1,-1,38,-1,40,-1,-1,-1,-1,-1,42,44,46,-1,-1,48,50,-1,-1,-1,52,54,56,58,-1,60,-1,62,-1,64,66,-1,68,70,-1,-1,72,74,76,-1,-1,-1,-1,-1,-1,-1,-1,-1,-1,-1,-1,-1,-1,-1,-1,-1],"split_conditions":[4.2395066E-2,-2.339519E-1,-8.1064306E-2,2.3865711E-2,5.166403E-2,1.5076955E1,-3.9611705E-2,2.460909E-3,-4.4456244E-2,-1.5032598E-1,3.503801E-2,-3.4960255E-3,-1.6717431E-3,-4.8509923E-1,6.2134895E-2,0E0,5.5114115E-3,6.2131345E-2,2.6048822E-2,1.4937026E-2,5.958659E-2,-1.2709256E-3,-4.930886E-4,6.903313E-2,1.0836466E-3,4.9366232E-2,5.584435E-4,-1.0791122E-3,-3.6895464E-4,-2.6556572E-3,1.0862441E-3,-9.740602E-2,-6.0760554E-2,-4.4456244E-2,-2.8766514E-4,-1.1782179E-3,-1.5032598E-1,-2.619826E-1,-7.587975E-4,1.367835E-3,2.073018E-3,2.2477297E-2,-6.34759E-2,3.0005129E-2,-5.593322E-2,4.9138034E-4,6.145003E-1,-4.2968168E-4,3.875887E-1,3.9430417E-4,1.9567622E-2,-2.9928423E-2,-2.4761474E-3,9.493696E-3,1.4612688E-2,9.0480497E-4,2.2296242E-4,3.0005129E-2,3.13557E-2,-1.1618215E-2,7.856093E-4,6.163845E-4,6.478938E-5,9.796529E-5,-3.4257607E-4,4.846689E-5,6.561056E-4,-2.1389536E-4,1.746976E-4,-3.775183E-6,7.439088E-5,3.1647616E-4,-1.3695974E-4,-2.389868E-4,-7.441191E-4,2.0155997E-3,1.3495382E-3],"split_indices":[18,20,19,22,21,33,19,0,18,20,19,0,0,26,35,29,35,22,18,18,19,0,0,19,0,22,0,0,0,0,0,20,20,18,0,0,20,36,0,0,0,21,20,18,22,0,29,0,37,0,21,22,0,22,21,0,0,18,38,1,0,0,0,0,0,0,0,0,0,0,0,0,0,0,0,0,0],"split_type":[0,0,0,0,0,0,0,0,0,0,0,0,0,0,0,0,0,0,0,0,0,0,0,0,0,0,0,0,0,0,0,0,0,0,0,0,0,0,0,0,0,0,0,0,0,0,0,0,0,0,0,0,0,0,0,0,0,0,0,0,0,0,0,0,0,0,0,0,0,0,0,0,0,0,0,0,0],"sum_hessian":[2.99769E5,2.98435E5,1.334E3,9.03E2,2.97532E5,2.98E2,1.036E3,1.43E2,7.6E2,2.962E5,1.332E3,1.15E2,1.83E2,2.89E2,7.47E2,4.5E2,3.1E2,2.87E2,2.95913E5,7.45E2,5.87E2,1.72E2,1.17E2,6.35E2,1.12E2,2.51E2,1.99E2,1.69E2,1.41E2,1.43E2,1.44E2,2.93774E5,2.139E3,5.92E2,1.53E2,1.51E2,4.36E2,4.9E2,1.45E2,1.15E2,1.36E2,2.904E3,2.9087E5,2.88E2,1.851E3,1.48E2,4.44E2,1.44E2,2.92E2,1.89E2,3.01E2,2.75E3,1.54E2,1.0229E4,2.80641E5,1.51E2,1.37E2,6.34E2,1.217E3,2.8E2,1.64E2,1.84E2,1.08E2,1.81E2,1.2E2,1.394E3,1.356E3,7.352E3,2.877E3,2.53561E5,2.708E4,1.61E2,4.73E2,4.96E2,7.21E2,1.39E2,1.41E2],"tree_param":{"num_deleted":"0","num_feature":"40","num_nodes":"77","size_leaf_vector":"1"}},{"base_weights":[-2.3759696E-5,8.30038E-5,-2.376075E-2,2.5821356E-2,5.561828E-6,-8.0990836E-2,-7.0808767E-3,3.667014E-2,-8.300196E-4,-1.695735E-2,3.1661228E-5,-1.580946E-3,-3.1984306E-3,-3.1821776E-2,2.69119E-3,2.6079219E-2,2.3165178E-3,-2.5532222E-3,1.5909204E-2,1.809022E-2,-1.3135459E-5,-6.934359E-4,-1.4358767E-3,1.0230194E-2,-7.9903944E-4,4.3891463E-2,-4.4367468E-4,9.937511E-4,-3.227258E-4,3.8505398E-2,-1.1161228E-2,5.6336033E-3,-9.788533E-5,9.691057E-4,1.2752219E-3,5.77618E-2,7.949358E-4,4.7014037E-4,4.9417913E-2,-3.940034E-5,-4.6761832E-4,7.147383E-3,-1.0074321E-3,-2.0010003E-3,1.5493472E-4,2.3093315E-4,-2.7322297E-3,1.3899499E-3,2.094328E-3,1.8457422E-3,9.448159E-4,1.8287757E-2,4.0430827E-3,-1.657597E-2,-1.6629073E-3,4.2212415E-3,1.0090757E-5,2.3112774E-5,-2.568406E-4,1.8636475E-4,9.065667E-4,-9.764575E-5,3.4525932E-4,-1.2016678E-4,-1.0065291E-3,-1.3759215E-5,-1.8285238E-4,2.3031658E-4,-7.20591E-5,2.6535852E-6,-1.4368384E-4],"categories":[],"categories_nodes":[],"categories_segments":[],"categories_sizes":[],"default_left":[0,0,0,0,0,0,0,0,0,0,0,0,0,0,0,0,0,0,0,0,0,0,0,0,0,0,0,0,0,0,0,0,0,0,0,0,0,0,0,0,0,0,0,0,0,0,0,0,0,0,0,0,0,0,0,0,0,0,0,0,0,0,0,0,0,0,0,0,0,0,0],"id":8,"left_children":[1,3,5,7,9,11,13,15,-1,17,19,-1,-1,21,23,25,-1,-1,27,29,31,-1,-1,33,-1,35,-1,-1,-1,37,39,41,43,-1,45,47,-1,-1,49,-1,-1,51,-1,53,55,-1,57,-1,-1,-1,-1,59,61,63,65,67,69,-1,-1,-1,-1,-1,-1,-1,-1,-1,-1,-1,-1,-1,-1],"loss_changes":[7.635563E-1,5.9341687E-1,1.2789736E0,5.192561E-1,1.3029131E-1,2.0324135E-1,2.5583693E-1,3.0900872E-1,0E0,1.0196948E0,2.426096E-1,0E0,0E0,3.4567267E-2,1.6356134E-1,4.3399876E-1,0E0,0E0,1.4188167E-1,4.459398E-1,1.4154306E-1,0E0,0E0,1.1466439E-1,0E0,9.132475E-2,0E0,0E0,0E0,1.0282725E-1,1.1519179E-2,2.5697827E-1,1.4094478E-1,0E0,1.15171205E-2,1.9339204E-2,0E0,0E0,5.4325104E-2,0E0,0E0,1.4346147E-1,0E0,1.6745496E-1,1.5165098E-1,0E0,5.9678177E-3,0E0,0E0,0E0,0E0,1.2760538E-1,1.8073821E-1,1.6098374E-1,1.785841E-1,2.0326552E-1,9.3308225E-2,0E0,0E0,0E0,0E0,0E0,0E0,0E0,0E0,0E0,0E0,0E0,0E0,0E0,0E0],"parents":[2147483647,0,0,1,1,2,2,3,3,4,4,5,5,6,6,7,7,9,9,10,10,13,13,14,14,15,15,18,18,19,19,20,20,23,23,25,25,29,29,30,30,31,31,32,32,34,34,35,35,38,38,41,41,43,43,44,44,46,46,51,51,52,52,53,53,54,54,55,55,56,56],"right_children":[2,4,6,8,10,12,14,16,-1,18,20,-1,-1,22,24,26,-1,-1,28,30,32,-1,-1,34,-1,36,-1,-1,-1,38,40,42,44,-1,46,48,-1,-1,50,-1,-1,52,-1,54,56,-1,58,-1,-1,-1,-1,60,62,64,66,68,70,-1,-1,-1,-1,-1,-1,-1,-1,-1,-1,-1,-1,-1,-1],"split_conditions":[4.2395066E-2,-2.339519E-1,-8.1064306E-2,-2.4765832E-2,-1.18345544E-1,-1.18345544E-1,-3.9611705E-2,-3.502057E-2,-8.300196E-4,6.2131345E-2,-1.5032598E-1,-1.580946E-3,-3.1984306E-3,2.8880838E-2,6.903313E-2,-4.4077467E-2,2.3165178E-3,-2.5532222E-3,-3.138965E-2,1.4937026E-2,-5.5427708E-2,-6.934359E-4,-1.4358767E-3,-3.410806E-1,-7.9903944E-4,9.444184E0,-4.4367468E-4,9.937511E-4,-3.227258E-4,-4.4456244E-2,7.9398894E-1,3.1960695E-3,-8.707067E-3,9.691057E-4,2.890833E1,4.9366232E-2,7.949358E-4,4.7014037E-4,3.3649992E-2,-3.940034E-5,-4.6761832E-4,-9.2647396E-2,-1.0074321E-3,-4.839964E-2,-2.8948698E-2,2.3093315E-4,-1.7022154E-1,1.3899499E-3,2.094328E-3,1.8457422E-3,9.448159E-4,-2.4906754E-2,-6.7203075E-2,-6.847557E-2,1.3830769E-3,5.0768584E-2,5.038352E-2,2.3112774E-5,-2.568406E-4,1.8636475E-4,9.065667E-4,-9.764575E-5,3.4525932E-4,-1.2016678E-4,-1.0065291E-3,-1.3759215E-5,-1.8285238E-4,2.3031658E-4,-7.20591E-5,2.6535852E-6,-1.4368384E-4],"split_indices":[18,20,19,18,19,19,19,18,0,22,20,0,0,35,19,35,0,0,35,18,19,0,0,36,0,32,0,0,0,18,23,18,18,0,33,22,0,0,1,0,0,20,0,19,19,0,36,0,0,0,0,22,19,20,19,22,19,0,0,0,0,0,0,0,0,0,0,0,0,0,0],"split_type":[0,0,0,0,0,0,0,0,0,0,0,0,0,0,0,0,0,0,0,0,0,0,0,0,0,0,0,0,0,0,0,0,0,0,0,0,0,0,0,0,0,0,0,0,0,0,0,0,0,0,0,0,0,0,0,0,0,0,0,0,0,0,0,0,0,0,0,0,0,0,0],"sum_hessian":[3.00361E5,2.99012E5,1.349E3,8.93E2,2.98119E5,3.03E2,1.046E3,7.44E2,1.49E2,4.52E2,2.97667E5,1.46E2,1.57E2,2.99E2,7.47E2,5.92E2,1.52E2,1.48E2,3.04E2,7.42E2,2.96925E5,1.98E2,1.01E2,5.97E2,1.5E2,4.14E2,1.78E2,1.87E2,1.17E2,4.39E2,3.03E2,4.373E3,2.92552E5,1.69E2,4.28E2,2.27E2,1.87E2,1.45E2,2.94E2,1.01E2,2.02E2,4.213E3,1.6E2,3.4353E4,2.58199E5,1.74E2,2.54E2,1.21E2,1.06E2,1.72E2,1.22E2,9.11E2,3.302E3,7.72E2,3.3581E4,8.857E3,2.49342E5,1.48E2,1.06E2,4.57E2,4.54E2,1.663E3,1.639E3,4.47E2,3.25E2,2.6424E4,7.157E3,5.83E3,3.027E3,2.45357E5,3.985E3],"tree_param":{"num_deleted":"0","num_feature":"40","num_nodes":"71","size_leaf_vector":"1"}},{"base_weights":[-3.7231662E-6,9.88337E-5,-2.3036666E-2,2.3777068E-2,2.6174648E-5,2.4408444E-3,-5.5865888E-2,2.3142952E-3,1.2850202E-2,-2.8171238E-5,1.1968709E-2,1.0788132E-3,-2.7455483E-3,-8.57309E-2,-3.294617E-2,4.0866256E-2,-1.979172E-2,-2.2360912E-2,-5.6675017E-6,3.2645278E-2,1.5060529E-3,-2.0336153E-2,5.962877E-3,-3.0122604E-3,-1.9035382E-3,-2.2368517E-2,-1.656986E-3,5.598852E-2,5.2935997E-4,-4.141327E-5,-2.6911918E-2,-2.417596E-3,1.0094087E-3,5.0916402E-5,-7.85975E-3,1.8746095E-3,2.169822E-2,-1.2229802E-2,2.9814966E-2,-1.8826801E-4,-9.416919E-4,6.448562E-4,8.7017746E-4,-9.3026203E-4,-3.92129E-4,1.325944E-3,1.999289E-3,-9.796736E-4,-5.5712723E-4,2.3724819E-3,-1.1100241E-4,2.0479215E-2,-1.2430118E-2,9.199966E-4,2.7473905E-4,-3.7620296E-3,-1.1408164E-3,5.3122616E-4,1.2822867E-3,-2.2399992E-4,5.132467E-3,-1.2524904E-2,3.2885403E-3,-1.0139317E-2,3.7313606E-5,1.0107524E-3,3.095244E-4,-2.189226E-2,-5.4581086E-3,3.558862E-4,-1.1421075E-2,2.813321E-4,-0E0,2.0542828E-5,-5.41389E-4,1.6416221E-4,3.3949357E-6,-1.6142587E-4,-7.807285E-4,-5.4356224E-6,8.8300185E-5,-2.6150065E-4,-9.0731203E-4,-3.2395557E-5,-5.010542E-4,-4.6999307E-4,-5.766186E-5],"categories":[],"categories_nodes":[],"categories_segments":[],"categories_sizes":[],"default_left":[0,0,0,0,0,0,0,0,0,0,0,0,0,0,0,0,0,0,0,0,0,0,0,0,0,0,0,0,0,0,0,0,0,0,0,0,0,0,0,0,0,0,0,0,0,0,0,0,0,0,0,0,0,0,0,0,0,0,0,0,0,0,0,0,0,0,0,0,0,0,0,0,0,0,0,0,0,0,0,0,0,0,0,0,0,0,0],"id":9,"left_children":[1,3,5,7,9,11,13,-1,15,17,19,-1,21,23,25,27,29,31,33,35,37,39,41,-1,-1,43,-1,45,-1,-1,47,-1,-1,49,51,-1,53,55,57,-1,-1,-1,59,-1,-1,-1,-1,-1,-1,61,63,65,67,-1,-1,69,-1,-1,-1,-1,71,73,75,77,79,-1,-1,81,83,-1,85,-1,-1,-1,-1,-1,-1,-1,-1,-1,-1,-1,-1,-1,-1,-1,-1],"loss_changes":[7.1143675E-1,5.118088E-1,1.1220429E0,5.2160305E-1,1.9457908E-1,1.3373311E-1,3.883493E-1,0E0,6.945546E-1,1.4682719E-1,2.9038018E-1,0E0,1.0057641E-1,6.541741E-2,7.064167E-2,1.3619447E-1,4.280016E-2,9.640526E-1,1.32465E-1,1.3946405E-1,3.5374048E-1,3.011074E-2,3.170404E-2,0E0,0E0,1.3955757E-2,0E0,1.9410908E-2,0E0,0E0,6.6551566E-3,0E0,0E0,1.1080886E-1,2.7536905E-1,0E0,3.3564076E-2,1.2842569E-1,4.0539086E-2,0E0,0E0,0E0,1.1429128E-2,0E0,0E0,0E0,0E0,0E0,0E0,2.6137477E-1,4.0997034E-1,3.4916587E-2,1.1857873E-1,0E0,0E0,5.5030383E-2,0E0,0E0,0E0,0E0,4.5442525E-3,8.248465E-2,1.2502933E-1,3.0048963E-1,1.72315E-1,0E0,0E0,8.125606E-2,5.065256E-2,0E0,1.086444E-2,0E0,0E0,0E0,0E0,0E0,0E0,0E0,0E0,0E0,0E0,0E0,0E0,0E0,0E0,0E0,0E0],"parents":[2147483647,0,0,1,1,2,2,3,3,4,4,5,5,6,6,8,8,9,9,10,10,12,12,13,13,14,14,15,15,16,16,17,17,18,18,19,19,20,20,21,21,22,22,25,25,27,27,30,30,33,33,34,34,36,36,37,37,38,38,42,42,49,49,50,50,51,51,52,52,55,55,60,60,61,61,62,62,63,63,64,64,67,67,68,68,70,70],"right_children":[2,4,6,8,10,12,14,-1,16,18,20,-1,22,24,26,28,30,32,34,36,38,40,42,-1,-1,44,-1,46,-1,-1,48,-1,-1,50,52,-1,54,56,58,-1,-1,-1,60,-1,-1,-1,-1,-1,-1,62,64,66,68,-1,-1,70,-1,-1,-1,-1,72,74,76,78,80,-1,-1,82,84,-1,86,-1,-1,-1,-1,-1,-1,-1,-1,-1,-1,-1,-1,-1,-1,-1,-1],"split_conditions":[4.2395066E-2,-2.339519E-1,1.9736152E-2,2.3865711E-2,5.166403E-2,-1.461649E-1,-1.7329855E-1,2.3142952E-3,-4.4077467E-2,-1.5032598E-1,-1.4741404E-2,1.0788132E-3,-1.2214062E-1,1.4698664E1,3.2232117E-2,8.064765E-3,7.822881E-1,6.2131345E-2,2.6048822E-2,5.513238E-1,2.242423E-3,1.4996493E-3,-3.410806E-1,-3.0122604E-3,-1.9035382E-3,9.50055E-1,-1.656986E-3,4.9366232E-2,5.2935997E-4,-4.141327E-5,1.7164081E-1,-2.417596E-3,1.0094087E-3,-5.0613202E-2,-6.0760554E-2,1.8746095E-3,8.6079155E1,-1.5032598E-1,-2.9556153E-2,-1.8826801E-4,-9.416919E-4,6.448562E-4,5.3637188E-2,-9.3026203E-4,-3.92129E-4,1.325944E-3,1.999289E-3,-9.796736E-4,-5.5712723E-4,1.1395493E-2,-4.3046914E-2,-2.69426E-1,-4.1238517E-2,9.199966E-4,2.7473905E-4,-4.4456244E-2,-1.1408164E-3,5.3122616E-4,1.2822867E-3,-2.2399992E-4,2.1787979E-1,1.0488133E-2,5.4319557E-2,1.7230922E-2,1.4910041E-2,1.0107524E-3,3.095244E-4,1.6406005E-2,7.109781E-2,3.558862E-4,1.3243875E-1,2.813321E-4,-0E0,2.0542828E-5,-5.41389E-4,1.6416221E-4,3.3949357E-6,-1.6142587E-4,-7.807285E-4,-5.4356224E-6,8.8300185E-5,-2.6150065E-4,-9.0731203E-4,-3.2395557E-5,-5.010542E-4,-4.6999307E-4,-5.766186E-5],"split_indices":[18,20,22,22,21,2,15,0,35,20,22,0,20,33,35,29,23,22,18,29,22,27,36,0,0,7,0,22,0,0,31,0,0,22,20,0,32,20,18,0,0,0,39,0,0,0,0,0,0,21,22,36,20,0,0,18,0,0,0,0,28,21,20,21,21,0,0,21,20,0,31,0,0,0,0,0,0,0,0,0,0,0,0,0,0,0,0],"split_type":[0,0,0,0,0,0,0,0,0,0,0,0,0,0,0,0,0,0,0,0,0,0,0,0,0,0,0,0,0,0,0,0,0,0,0,0,0,0,0,0,0,0,0,0,0,0,0,0,0,0,0,0,0,0,0,0,0,0,0,0,0,0,0,0,0,0,0,0,0,0,0,0,0,0,0,0,0,0,0,0,0,0,0,0,0,0,0],"sum_hessian":[3.00206E5,2.98871E5,1.335E3,9.1E2,2.97961E5,7.5E2,5.85E2,1.53E2,7.57E2,2.96603E5,1.358E3,1.03E2,6.47E2,2.52E2,3.33E2,4.09E2,3.48E2,2.94E2,2.96309E5,4.53E2,9.05E2,2.18E2,4.29E2,1.49E2,1.03E2,2.29E2,1.04E2,2.45E2,1.64E2,1.01E2,2.47E2,1.45E2,1.49E2,2.94177E5,2.132E3,1.19E2,3.34E2,6.07E2,2.98E2,1E2,1.18E2,1.01E2,3.28E2,1.13E2,1.16E2,1.21E2,1.24E2,1.39E2,1.08E2,1.922E4,2.74957E5,2.93E2,1.839E3,1.9E2,1.44E2,4.6E2,1.47E2,1.58E2,1.4E2,1.03E2,2.25E2,1.107E3,1.8113E4,4.017E3,2.7094E5,1.23E2,1.7E2,7.74E2,1.065E3,1.47E2,3.13E2,1.19E2,1.06E2,3.21E2,7.86E2,1.0714E4,7.399E3,3.096E3,9.21E2,2.51961E5,1.8979E4,3.05E2,4.69E2,7.73E2,2.92E2,2.09E2,1.04E2],"tree_param":{"num_deleted":"0","num_feature":"40","num_nodes":"87","size_leaf_vector":"1"}},{"base_weights":[3.5485682E-6,1.0457848E-4,-2.1636192E-2,-1.3795076E-5,1.1712237E-2,-7.033561E-2,-7.488569E-3,-1.8066717E-2,1.3589545E-5,2.1134343E-2,-1.0045374E-2,-1.3792828E-3,-2.8931885E-3,-3.0178726E-2,1.7088235E-3,-2.3967663E-3,1.3771392E-2,5.4810103E-3,-6.803542E-5,4.6523385E-2,1.5049631E-2,1.06983935E-4,-1.252482E-2,-1.4133222E-3,-2.1542344E-2,8.6638415E-3,-7.755306E-4,9.01547E-4,-2.7668386E-4,7.435559E-3,-2.0248955E-2,-1.9020193E-3,1.7273486E-4,5.6686237E-2,5.394576E-4,2.1363389E-2,-3.939506E-3,-1.766719E-2,-1.3678672E-3,-4.13316E-4,-8.544985E-4,8.438825E-4,2.7207483E-4,3.1855765E-3,1.5798444E-2,-3.3557316E-4,-1.0723897E-3,-1.4329016E-3,-2.30613E-2,3.7391307E-3,2.9133236E-5,1.3294917E-3,1.98E-3,3.8208406E-2,1.9621903E-3,9.0032566E-4,-1.889951E-2,-8.857819E-4,-1.3744344E-2,2.955754E-4,-3.987361E-4,-3.8561292E-4,4.6347557E-3,-1.2536104E-3,5.9322184E-3,2.6370319E-2,7.810056E-3,-1.5418265E-2,-1.0868727E-3,-2.8057827E-3,-9.802321E-3,6.7020836E-3,-2.454782E-3,-1.551549E-5,9.446128E-3,5.6185532E-2,2.81518E-2,-1.7872924E-2,2.1345759E-2,-3.1915426E-4,-8.342389E-4,-1.3330887E-4,-1.744998E-2,2.4518414E-4,8.922049E-6,2.360661E-4,-8.122801E-4,1.020535E-3,5.0572114E-4,9.0084126E-5,8.437084E-4,-2.406211E-4,-1.2609774E-3,-3.9011382E-5,4.0458606E-4,3.9513025E-4,-9.040991E-4,-9.030994E-4,2.2708965E-4,-3.3290117E-4,3.7228026E-5,-1.1846262E-4,2.24526E-6,5.7512015E-4,-1.8741867E-4,2.2431246E-3,1.021115E-3,1.2018321E-3,5.151876E-4,-1.1189125E-3,2.4982236E-4,1.404407E-4,8.6831633E-4,-3.025453E-4,-6.806113E-4],"categories":[],"categories_nodes":[],"categories_segments":[],"categories_sizes":[],"default_left":[0,0,0,0,0,0,0,0,0,0,0,0,0,0,0,0,0,0,0,0,0,0,0,0,0,0,0,0,0,0,0,0,0,0,0,0,0,0,0,0,0,0,0,0,0,0,0,0,0,0,0,0,0,0,0,0,0,0,0,0,0,0,0,0,0,0,0,0,0,0,0,0,0,0,0,0,0,0,0,0,0,0,0,0,0,0,0,0,0,0,0,0,0,0,0,0,0,0,0,0,0,0,0,0,0,0,0,0,0,0,0,0,0,0,0],"id":10,"left_children":[1,3,5,7,9,11,13,15,17,19,21,-1,-1,23,25,-1,27,29,31,33,35,-1,37,-1,39,41,-1,-1,-1,43,45,47,49,51,-1,53,55,57,59,-1,-1,-1,61,63,65,-1,-1,67,69,71,73,-1,-1,75,77,-1,79,-1,81,-1,-1,-1,83,-1,85,87,89,91,93,-1,95,97,99,101,103,105,107,109,111,-1,-1,-1,113,-1,-1,-1,-1,-1,-1,-1,-1,-1,-1,-1,-1,-1,-1,-1,-1,-1,-1,-1,-1,-1,-1,-1,-1,-1,-1,-1,-1,-1,-1,-1,-1],"loss_changes":[6.535333E-1,4.1135252E-1,9.4922847E-1,1.4789294E-1,6.206683E-1,1.8313766E-1,2.2784115E-1,8.986072E-1,1.322148E-1,3.2006043E-1,3.1615287E-2,0E0,0E0,3.896445E-2,1.4476576E-1,0E0,1.13704145E-1,2.1790457E-1,1.2853265E-1,1.0993564E-1,2.0641977E-1,0E0,4.262139E-2,0E0,7.1663484E-3,9.730933E-2,0E0,0E0,0E0,1.4218785E-1,3.797932E-2,3.3287492E-1,1.3119613E-1,2.2789419E-2,0E0,4.159636E-1,2.1332914E-1,2.00603E-2,3.3950217E-2,0E0,0E0,0E0,2.3927765E-2,3.2947126E-1,1.1125597E-1,0E0,0E0,1.5830782E-1,6.6983306E-1,1.8242769E-1,1.04792185E-1,0E0,0E0,1.1526656E-1,2.3110905E-1,0E0,1.7843075E-2,0E0,1.1626817E-2,0E0,0E0,0E0,4.218377E-3,0E0,1.6066942E-1,3.698489E-2,7.295987E-2,1.5071353E-1,9.91682E-2,0E0,2.886112E-1,2.1231917E-1,1.0312818E-1,8.77495E-2,1.8079048E-1,8.852124E-2,5.2143306E-2,1.5260126E-1,3.5381734E-2,0E0,0E0,0E0,7.465288E-3,0E0,0E0,0E0,0E0,0E0,0E0,0E0,0E0,0E0,0E0,0E0,0E0,0E0,0E0,0E0,0E0,0E0,0E0,0E0,0E0,0E0,0E0,0E0,0E0,0E0,0E0,0E0,0E0,0E0,0E0,0E0,0E0],"parents":[2147483647,0,0,1,1,2,2,3,3,4,4,5,5,6,6,7,7,8,8,9,9,10,10,13,13,14,14,16,16,17,17,18,18,19,19,20,20,22,22,24,24,25,25,29,29,30,30,31,31,32,32,33,33,35,35,36,36,37,37,38,38,42,42,43,43,44,44,47,47,48,48,49,49,50,50,53,53,54,54,56,56,58,58,62,62,64,64,65,65,66,66,67,67,68,68,70,70,71,71,72,72,73,73,74,74,75,75,76,76,77,77,78,78,82,82],"right_children":[2,4,6,8,10,12,14,16,18,20,22,-1,-1,24,26,-1,28,30,32,34,36,-1,38,-1,40,42,-1,-1,-1,44,46,48,50,52,-1,54,56,58,60,-1,-1,-1,62,64,66,-1,-1,68,70,72,74,-1,-1,76,78,-1,80,-1,82,-1,-1,-1,84,-1,86,88,90,92,94,-1,96,98,100,102,104,106,108,110,112,-1,-1,-1,114,-1,-1,-1,-1,-1,-1,-1,-1,-1,-1,-1,-1,-1,-1,-1,-1,-1,-1,-1,-1,-1,-1,-1,-1,-1,-1,-1,-1,-1,-1,-1,-1],"split_conditions":[4.2395066E-2,3.5992775E-2,-8.1064306E-2,-1.18345544E-1,1.4937026E-2,-1.18345544E-1,-3.9611705E-2,6.2131345E-2,-5.5427708E-2,9.885721E0,6.814966E-1,-1.3792828E-3,-2.8931885E-3,8.95997E-1,6.903313E-2,-2.3967663E-3,-3.138965E-2,2.8300656E-3,-8.707067E-3,-1.3206227E-2,2.3865711E-2,1.06983935E-4,3.0005129E-2,-1.4133222E-3,1.3897365E-2,-3.410806E-1,-7.755306E-4,9.01547E-4,-2.7668386E-4,1.4612688E-2,2.4127489E-2,2.2477297E-2,-2.6912227E-2,-1.293278E-1,5.394576E-4,3.503801E-2,-6.0578655E-2,-3.1626174E-1,5.7610776E-2,-4.13316E-4,-8.544985E-4,8.438825E-4,4.8985045E-2,-8.1064306E-2,1.5904482E-2,-3.3557316E-4,-1.0723897E-3,-4.839964E-2,-5.0944425E-2,3.3229236E-3,2.2477297E-2,1.3294917E-3,1.98E-3,-2.074543E-2,5.958659E-2,9.0032566E-4,8.5153115E-1,-8.857819E-4,1.5979933E-2,2.955754E-4,-3.987361E-4,-3.8561292E-4,1.9567622E-2,-1.2536104E-3,1.4265019E-2,-2.9126084E-3,3.9720785E-2,1.4265019E-2,1.1281953E-1,-2.8057827E-3,-2.4765832E-2,5.513648E-3,7.905542E-3,-2.1647621E-2,1.4018766E-2,-2.95466E-1,1.9798553E-2,-7.472912E-1,-3.0036727E-1,-3.1915426E-4,-8.342389E-4,-1.3330887E-4,5.3606797E-2,2.4518414E-4,8.922049E-6,2.360661E-4,-8.122801E-4,1.020535E-3,5.0572114E-4,9.0084126E-5,8.437084E-4,-2.406211E-4,-1.2609774E-3,-3.9011382E-5,4.0458606E-4,3.9513025E-4,-9.040991E-4,-9.030994E-4,2.2708965E-4,-3.3290117E-4,3.7228026E-5,-1.1846262E-4,2.24526E-6,5.7512015E-4,-1.8741867E-4,2.2431246E-3,1.021115E-3,1.2018321E-3,5.151876E-4,-1.1189125E-3,2.4982236E-4,1.404407E-4,8.6831633E-4,-3.025453E-4,-6.806113E-4],"split_indices":[18,21,19,19,18,19,19,22,19,32,23,0,0,7,19,0,35,18,18,35,22,0,18,0,35,36,0,0,0,21,9,21,19,39,0,19,35,36,21,0,0,0,39,19,21,0,0,19,3,18,21,0,0,19,19,0,23,0,0,0,0,0,21,0,21,35,10,21,22,0,18,21,18,19,18,36,2,25,36,0,0,0,10,0,0,0,0,0,0,0,0,0,0,0,0,0,0,0,0,0,0,0,0,0,0,0,0,0,0,0,0,0,0,0,0],"split_type":[0,0,0,0,0,0,0,0,0,0,0,0,0,0,0,0,0,0,0,0,0,0,0,0,0,0,0,0,0,0,0,0,0,0,0,0,0,0,0,0,0,0,0,0,0,0,0,0,0,0,0,0,0,0,0,0,0,0,0,0,0,0,0,0,0,0,0,0,0,0,0,0,0,0,0,0,0,0,0,0,0,0,0,0,0,0,0,0,0,0,0,0,0,0,0,0,0,0,0,0,0,0,0,0,0,0,0,0,0,0,0,0,0,0,0],"sum_hessian":[2.99912E5,2.98523E5,1.389E3,2.95501E5,3.022E3,3.11E2,1.078E3,4.53E2,2.95048E5,2.112E3,9.1E2,1.63E2,1.48E2,3.14E2,7.64E2,1.55E2,2.98E2,4.358E3,2.9069E5,4.05E2,1.707E3,1.34E2,7.76E2,1.02E2,2.12E2,6.13E2,1.51E2,1.77E2,1.21E2,4.054E3,3.04E2,3.3782E4,2.56908E5,2.96E2,1.09E2,1.285E3,4.22E2,5.25E2,2.51E2,1.07E2,1.05E2,1.81E2,4.32E2,2.696E3,1.358E3,1.96E2,1.08E2,3.3054E4,7.28E2,9.917E3,2.46991E5,1.32E2,1.64E2,6.85E2,6E2,1.27E2,2.95E2,1.24E2,4.01E2,1.25E2,1.26E2,1.02E2,3.3E2,1.53E2,2.543E3,5.79E2,7.79E2,7.91E2,3.2263E4,1.14E2,6.14E2,6.719E3,3.198E3,2.45815E5,1.176E3,2.42E2,4.43E2,2.94E2,3.06E2,1.59E2,1.36E2,1.22E2,2.79E2,1.69E2,1.61E2,2.405E3,1.38E2,3.15E2,2.64E2,6.34E2,1.45E2,6.22E2,1.69E2,3.1804E4,4.59E2,2.86E2,3.28E2,1.52E2,6.567E3,9.66E2,2.232E3,5.545E3,2.4027E5,7.3E2,4.46E2,1.29E2,1.13E2,2.08E2,2.35E2,1.71E2,1.23E2,1E2,2.06E2,1.24E2,1.55E2],"tree_param":{"num_deleted":"0","num_feature":"40","num_nodes":"115","size_leaf_vector":"1"}},{"base_weights":[-2.8852228E-6,9.1440015E-5,-2.1333685E-2,2.3735065E-2,2.0598824E-5,-7.096634E-2,-7.311282E-3,2.2626934E-3,1.3574088E-2,-2.6101643E-5,1.0597801E-2,-3.277463E-3,-1.5073436E-3,-2.9479798E-2,1.5314908E-3,4.0111374E-2,-1.9157331E-2,-2.2509523E-2,-3.5672526E-6,2.413505E-2,-6.485437E-3,-5.3109846E-4,-1.2169755E-3,8.351208E-3,-7.4625557E-4,5.551106E-2,5.846348E-4,-1.3827778E-4,-2.510646E-2,-2.3393505E-3,9.915059E-4,4.9532466E-3,-8.09312E-5,3.3358634E-2,-3.5871367E-4,-1.1207657E-3,4.08261E-3,1.0473185E-3,2.4985797E-3,1.3447007E-3,2.0010218E-3,-9.467586E-4,-4.847417E-4,6.9225724E-3,-2.053313E-2,3.87784E-3,-1.7898198E-4,3.8209232E-4,4.053623E-2,-3.4762424E-4,1.2352168E-2,8.298833E-3,-1.6844139E-4,2.9547098E-3,1.3789359E-2,-1.1598138E-2,-1.1380105E-3,1.2575228E-2,7.7624735E-4,-1.2500885E-4,-8.520105E-3,5.11737E-2,6.7703234E-4,5.031055E-4,1.218021E-4,7.3300915E-5,5.429661E-4,-3.0582424E-4,3.3126283E-4,4.8730963E-5,6.4562686E-4,-1.9497154E-4,-4.6533954E-4,1.0456704E-3,2.9226966E-4,1.2274913E-4,-2.1252561E-4,-5.4430144E-5,2.9408834E-6,5.6133204E-4,-4.1604755E-4,1.9157481E-3,1.2643345E-3],"categories":[],"categories_nodes":[],"categories_segments":[],"categories_sizes":[],"default_left":[0,0,0,0,0,0,0,0,0,0,0,0,0,0,0,0,0,0,0,0,0,0,0,0,0,0,0,0,0,0,0,0,0,0,0,0,0,0,0,0,0,0,0,0,0,0,0,0,0,0,0,0,0,0,0,0,0,0,0,0,0,0,0,0,0,0,0,0,0,0,0,0,0,0,0,0,0,0,0,0,0,0,0],"id":11,"left_children":[1,3,5,7,9,11,13,-1,15,17,19,-1,-1,21,23,25,27,29,31,33,35,-1,-1,37,-1,39,-1,-1,41,-1,-1,43,45,47,-1,-1,49,-1,51,-1,-1,-1,-1,53,55,57,59,-1,61,-1,63,65,-1,67,69,71,-1,73,75,77,79,81,-1,-1,-1,-1,-1,-1,-1,-1,-1,-1,-1,-1,-1,-1,-1,-1,-1,-1,-1,-1,-1],"loss_changes":[6.051248E-1,4.9738216E-1,9.13653E-1,4.569037E-1,1.4800352E-1,2.1362972E-1,2.0551516E-1,0E0,6.4763117E-1,1.4780281E-1,3.0637324E-1,0E0,0E0,3.301975E-2,1.3092972E-1,1.2327331E-1,2.5673017E-2,9.049537E-1,1.1297537E-1,2.4789298E-1,1.9228683E-1,0E0,0E0,8.7666005E-2,0E0,1.642549E-2,0E0,0E0,8.462504E-3,0E0,0E0,2.2587271E-1,1.12720825E-1,8.196646E-2,0E0,0E0,5.569557E-2,0E0,2.3101468E-2,0E0,0E0,0E0,0E0,1.1292286E-1,4.4925466E-2,1.8795544E-1,1.2714113E-1,0E0,7.54838E-2,0E0,8.354694E-3,1.4588401E-2,0E0,2.8456572E-1,1.416882E-1,2.1008644E-3,0E0,1.1139789E-1,1.3472523E-1,1.0661989E-1,2.640318E-1,1.9951165E-2,0E0,0E0,0E0,0E0,0E0,0E0,0E0,0E0,0E0,0E0,0E0,0E0,0E0,0E0,0E0,0E0,0E0,0E0,0E0,0E0,0E0],"parents":[2147483647,0,0,1,1,2,2,3,3,4,4,5,5,6,6,8,8,9,9,10,10,13,13,14,14,15,15,16,16,17,17,18,18,19,19,20,20,23,23,25,25,28,28,31,31,32,32,33,33,36,36,38,38,43,43,44,44,45,45,46,46,48,48,50,50,51,51,53,53,54,54,55,55,57,57,58,58,59,59,60,60,61,61],"right_children":[2,4,6,8,10,12,14,-1,16,18,20,-1,-1,22,24,26,28,30,32,34,36,-1,-1,38,-1,40,-1,-1,42,-1,-1,44,46,48,-1,-1,50,-1,52,-1,-1,-1,-1,54,56,58,60,-1,62,-1,64,66,-1,68,70,72,-1,74,76,78,80,82,-1,-1,-1,-1,-1,-1,-1,-1,-1,-1,-1,-1,-1,-1,-1,-1,-1,-1,-1,-1,-1],"split_conditions":[4.2395066E-2,-2.339519E-1,-8.1064306E-2,2.3865711E-2,5.166403E-2,1.5076955E1,-3.9611705E-2,2.2626934E-3,-4.4077467E-2,-1.5032598E-1,3.503801E-2,-3.277463E-3,-1.5073436E-3,-4.068506E-2,6.903313E-2,9.444184E0,7.9398894E-1,6.2131345E-2,-5.5427708E-2,1.4937026E-2,5.958659E-2,-5.3109846E-4,-1.2169755E-3,-1.9807369E-1,-7.4625557E-4,4.9366232E-2,5.846348E-4,-1.3827778E-4,2.9785314E-3,-2.3393505E-3,9.915059E-4,2.8300656E-3,-8.135447E-2,-4.4456244E-2,-3.5871367E-4,-1.1207657E-3,-1.5032598E-1,1.0473185E-3,1.9567622E-2,1.3447007E-3,2.0010218E-3,-9.467586E-4,-4.847417E-4,1.4612688E-2,2.5510736E-2,-3.398336E-3,2.6048822E-2,3.8209232E-4,8.810467E-1,-3.4762424E-4,3.8424867E-1,2.6098581E-2,-1.6844139E-4,-6.7203075E-2,-3.2175586E-2,-4.3077648E-4,-1.1380105E-3,-7.1043834E-2,1.567787E-2,-8.707067E-3,-6.0760554E-2,-1.3124172E-2,6.7703234E-4,5.031055E-4,1.218021E-4,7.3300915E-5,5.429661E-4,-3.0582424E-4,3.3126283E-4,4.8730963E-5,6.4562686E-4,-1.9497154E-4,-4.6533954E-4,1.0456704E-3,2.9226966E-4,1.2274913E-4,-2.1252561E-4,-5.4430144E-5,2.9408834E-6,5.6133204E-4,-4.1604755E-4,1.9157481E-3,1.2643345E-3],"split_indices":[18,20,19,22,21,33,19,0,35,20,19,0,0,19,19,32,23,22,19,18,19,0,0,15,0,22,0,0,35,0,0,18,22,18,0,0,20,0,21,0,0,0,0,21,10,19,18,0,7,0,37,35,0,19,18,35,0,13,21,18,20,13,0,0,0,0,0,0,0,0,0,0,0,0,0,0,0,0,0,0,0,0,0],"split_type":[0,0,0,0,0,0,0,0,0,0,0,0,0,0,0,0,0,0,0,0,0,0,0,0,0,0,0,0,0,0,0,0,0,0,0,0,0,0,0,0,0,0,0,0,0,0,0,0,0,0,0,0,0,0,0,0,0,0,0,0,0,0,0,0,0,0,0,0,0,0,0,0,0,0,0,0,0,0,0,0,0,0,0],"sum_hessian":[2.99697E5,2.98373E5,1.324E3,8.87E2,2.97486E5,2.9E2,1.034E3,1.44E2,7.43E2,2.96169E5,1.317E3,1E2,1.9E2,2.98E2,7.36E2,4.12E2,3.31E2,2.92E2,2.95877E5,7.38E2,5.79E2,1.49E2,1.49E2,5.88E2,1.48E2,2.33E2,1.79E2,1.01E2,2.3E2,1.47E2,1.45E2,4.527E3,2.9135E5,5.9E2,1.48E2,1.5E2,4.29E2,1.03E2,4.85E2,1.24E2,1.09E2,1.27E2,1.03E2,4.206E3,3.21E2,7.017E3,2.84333E5,1.56E2,4.34E2,1.44E2,2.85E2,2.9E2,1.95E2,2.675E3,1.531E3,2.16E2,1.05E2,1.836E3,5.181E3,2.82517E5,1.816E3,2.69E2,1.65E2,1.78E2,1.07E2,1.88E2,1.02E2,1.014E3,1.661E3,6E2,9.31E2,1.05E2,1.11E2,2.03E2,1.633E3,3.653E3,1.528E3,3.3002E4,2.49515E5,2.95E2,1.521E3,1.07E2,1.62E2],"tree_param":{"num_deleted":"0","num_feature":"40","num_nodes":"83","size_leaf_vector":"1"}},{"base_weights":[2.3814688E-5,1.1537375E-4,-2.0241696E-2,2.3058917E-2,4.6026762E-5,-6.940565E-2,-6.208078E-3,2.0732845E-3,1.2904045E-2,-5.0851645E-6,1.15879625E-2,-1.3067297E-3,-2.8729083E-3,-2.762816E-2,2.4123592E-3,4.529962E-2,-1.4814053E-2,-2.114095E-2,1.5270523E-5,2.3938125E-2,-3.9926E-3,-4.569814E-4,-1.1664459E-3,9.049709E-3,-7.4313284E-4,3.5764776E-2,1.8796277E-3,1.8207959E-4,-2.291932E-2,-2.2353772E-3,9.4668206E-4,5.022017E-3,-6.208637E-5,3.3379253E-2,-3.4193642E-4,-1.003209E-3,5.1346337E-3,1.0231984E-3,2.4532725E-3,8.0598664E-4,1.3563687E-3,-1.0330962E-3,-3.1074113E-4,6.8904003E-3,-1.8670335E-2,2.4116423E-3,-2.3350725E-4,3.4049572E-4,4.04415E-2,-3.2310718E-4,1.3103348E-2,8.248861E-3,-1.8184863E-4,4.5610624E-3,1.8555176E-2,-1.0866722E-2,-1.0324788E-3,-1.1787976E-2,3.2826986E-3,-1.0599E-2,-1.0076802E-4,5.039811E-2,7.370607E-4,5.50436E-4,8.830114E-5,5.7753212E-5,5.761437E-4,2.1633442E-4,-1.9249985E-4,4.4375175E-4,1.0905747E-3,-1.9683482E-4,-4.1903497E-4,4.3720688E-4,-4.989263E-4,1.2657202E-4,-3.3974202E-4,-6.243959E-5,-4.99693E-4,-1.4201387E-6,-2.8065167E-4,1.80699E-3,1.0884302E-3],"categories":[],"categories_nodes":[],"categories_segments":[],"categories_sizes":[],"default_left":[0,0,0,0,0,0,0,0,0,0,0,0,0,0,0,0,0,0,0,0,0,0,0,0,0,0,0,0,0,0,0,0,0,0,0,0,0,0,0,0,0,0,0,0,0,0,0,0,0,0,0,0,0,0,0,0,0,0,0,0,0,0,0,0,0,0,0,0,0,0,0,0,0,0,0,0,0,0,0,0,0,0,0],"id":12,"left_children":[1,3,5,7,9,11,13,-1,15,17,19,-1,-1,21,23,25,27,29,31,33,35,-1,-1,37,-1,39,-1,-1,41,-1,-1,43,45,47,-1,-1,49,-1,51,-1,-1,-1,-1,53,55,57,59,-1,61,-1,63,65,-1,67,69,71,-1,73,75,77,79,81,-1,-1,-1,-1,-1,-1,-1,-1,-1,-1,-1,-1,-1,-1,-1,-1,-1,-1,-1,-1,-1],"loss_changes":[5.5493015E-1,4.7312227E-1,9.204449E-1,4.1075945E-1,1.769093E-1,1.8806505E-1,1.9606039E-1,0E0,6.64092E-1,1.2971865E-1,2.564059E-1,0E0,0E0,3.6948398E-2,1.3270535E-1,4.6377063E-2,6.857564E-2,8.204444E-1,1.15257256E-1,2.4947584E-1,1.590335E-1,0E0,0E0,9.568922E-2,0E0,1.151064E-2,0E0,0E0,3.71646E-2,0E0,0E0,1.9927758E-1,1.2351037E-1,8.611417E-2,0E0,0E0,5.6153044E-2,0E0,2.3866743E-2,0E0,0E0,0E0,0E0,1.1182886E-1,3.5626017E-2,2.325637E-1,3.7442487E-1,0E0,6.2090635E-2,0E0,1.3749484E-2,1.8120756E-2,0E0,1.0217046E-1,4.118818E-2,9.1677345E-4,0E0,1.3863306E-1,2.425851E-1,1.7566729E-1,1.3229917E-1,2.721423E-2,0E0,0E0,0E0,0E0,0E0,0E0,0E0,0E0,0E0,0E0,0E0,0E0,0E0,0E0,0E0,0E0,0E0,0E0,0E0,0E0,0E0],"parents":[2147483647,0,0,1,1,2,2,3,3,4,4,5,5,6,6,8,8,9,9,10,10,13,13,14,14,15,15,16,16,17,17,18,18,19,19,20,20,23,23,25,25,28,28,31,31,32,32,33,33,36,36,38,38,43,43,44,44,45,45,46,46,48,48,50,50,51,51,53,53,54,54,55,55,57,57,58,58,59,59,60,60,61,61],"right_children":[2,4,6,8,10,12,14,-1,16,18,20,-1,-1,22,24,26,28,30,32,34,36,-1,-1,38,-1,40,-1,-1,42,-1,-1,44,46,48,-1,-1,50,-1,52,-1,-1,-1,-1,54,56,58,60,-1,62,-1,64,66,-1,68,70,72,-1,74,76,78,80,82,-1,-1,-1,-1,-1,-1,-1,-1,-1,-1,-1,-1,-1,-1,-1,-1,-1,-1,-1,-1,-1],"split_conditions":[4.2395066E-2,-2.339519E-1,-8.1064306E-2,2.3865711E-2,5.166403E-2,-1.18345544E-1,-3.9611705E-2,2.0732845E-3,-6.0578655E-2,-1.5032598E-1,3.503801E-2,-1.3067297E-3,-2.8729083E-3,-4.068506E-2,6.903313E-2,4.9366232E-2,-1.9222308E-2,6.2131345E-2,-5.5427708E-2,1.4937026E-2,5.958659E-2,-4.569814E-4,-1.1664459E-3,7.977806E-1,-7.4313284E-4,-3.243202E0,1.8796277E-3,1.8207959E-4,2.9785314E-3,-2.2353772E-3,9.4668206E-4,2.8300656E-3,-5.0613202E-2,-4.4456244E-2,-3.4193642E-4,-1.003209E-3,-1.5032598E-1,1.0231984E-3,1.9567622E-2,8.0598664E-4,1.3563687E-3,-1.0330962E-3,-3.1074113E-4,2.3666556E-1,2.3771973E-2,1.1395493E-2,-4.3927934E-2,3.4049572E-4,8.66006E-1,-3.2310718E-4,3.875887E-1,3.0871304E-2,-1.8184863E-4,7.814038E-2,5.3606797E-2,-1.4937972E-3,-1.0324788E-3,-2.9707499E-2,4.69904E-2,-7.264647E-2,2.4561442E-2,3.135457E-2,7.370607E-4,5.50436E-4,8.830114E-5,5.7753212E-5,5.761437E-4,2.1633442E-4,-1.9249985E-4,4.4375175E-4,1.0905747E-3,-1.9683482E-4,-4.1903497E-4,4.3720688E-4,-4.989263E-4,1.2657202E-4,-3.3974202E-4,-6.243959E-5,-4.99693E-4,-1.4201387E-6,-2.8065167E-4,1.80699E-3,1.0884302E-3],"split_indices":[18,20,19,22,21,19,19,0,35,20,19,0,0,19,19,22,35,22,19,18,19,0,0,7,0,26,0,0,35,0,0,18,22,18,0,0,20,0,21,0,0,0,0,28,8,21,22,0,7,0,37,9,0,22,10,35,0,19,19,20,18,13,0,0,0,0,0,0,0,0,0,0,0,0,0,0,0,0,0,0,0,0,0],"split_type":[0,0,0,0,0,0,0,0,0,0,0,0,0,0,0,0,0,0,0,0,0,0,0,0,0,0,0,0,0,0,0,0,0,0,0,0,0,0,0,0,0,0,0,0,0,0,0,0,0,0,0,0,0,0,0,0,0,0,0,0,0,0,0,0,0,0,0,0,0,0,0,0,0,0,0,0,0,0,0,0,0,0,0],"sum_hessian":[3.00159E5,2.98814E5,1.345E3,8.96E2,2.97918E5,2.97E2,1.048E3,1.6E2,7.36E2,2.96596E5,1.322E3,1.52E2,1.45E2,3.04E2,7.44E2,3.41E2,3.95E2,2.9E2,2.96306E5,7.41E2,5.81E2,1.49E2,1.55E2,6.01E2,1.43E2,2.24E2,1.17E2,1.07E2,2.88E2,1.45E2,1.45E2,4.528E3,2.91778E5,5.87E2,1.54E2,1.4E2,4.41E2,1.22E2,4.79E2,1.21E2,1.03E2,1.46E2,1.42E2,4.201E3,3.27E2,1.8871E4,2.72907E5,1.46E2,4.41E2,1.43E2,2.98E2,2.92E2,1.87E2,3.509E3,6.92E2,2.23E2,1.04E2,1.084E3,1.7787E4,3.441E3,2.69466E5,2.67E2,1.74E2,1.9E2,1.08E2,1.91E2,1.01E2,2.834E3,6.75E2,5.76E2,1.16E2,1.07E2,1.16E2,1.65E2,9.19E2,1.6722E4,1.065E3,1.437E3,2.004E3,2.6793E5,1.536E3,1.53E2,1.14E2],"tree_param":{"num_deleted":"0","num_feature":"40","num_nodes":"83","size_leaf_vector":"1"}},{"base_weights":[-2.4429244E-5,6.8063404E-5,-2.056816E-2,2.230673E-2,1.931083E-6,1.8593547E-3,-4.8690084E-2,2.044471E-3,1.2817849E-2,-4.56973E-5,1.075434E-2,-6.70712E-3,1.6124345E-2,-7.576225E-2,-2.739318E-2,3.4081955E-2,-1.9543856E-2,-2.1515045E-2,-2.408979E-5,2.834564E-2,1.942856E-3,1.4323542E-3,-6.6877686E-4,1.0791087E-3,1.4021524E-4,-1.6869035E-3,-2.7760596E-3,-1.7327342E-2,-1.5092888E-3,4.6493918E-2,1.0249101E-4,-9.191282E-4,-1.8105815E-4,-2.1599492E-3,8.8012876E-4,3.3427885E-5,-6.723843E-3,1.7724246E-3,1.84316E-2,-1.0167782E-2,2.6833354E-2,-1.4712258E-4,1.6553585E-4,-7.264668E-4,-2.0423712E-4,1.0914125E-3,1.6446152E-3,2.5378882E-3,-1.2250654E-4,-1.075249E-3,-3.257236E-2,8.121338E-4,1.5028335E-4,3.875684E-4,-1.8020043E-2,3.9873848E-4,1.0006608E-3,-1.1503787E-2,3.5166373E-3,-6.3032866E-3,1.6608435E-6,-4.7672023E-3,2.1297699E-2,-1.90956E-3,-1.6263904E-2,-9.838784E-4,-1.0311818E-2,-2.4385132E-4,-9.5763744E-4,6.726744E-4,9.366689E-5,-4.175635E-4,-3.4951503E-5,1.8137408E-6,-4.435744E-4,3.8874615E-4,-2.5333313E-4,2.4397425E-4,1.2251091E-3,-8.7016926E-4,-2.2391649E-4,-7.9350655E-5,-4.750273E-4],"categories":[],"categories_nodes":[],"categories_segments":[],"categories_sizes":[],"default_left":[0,0,0,0,0,0,0,0,0,0,0,0,0,0,0,0,0,0,0,0,0,0,0,0,0,0,0,0,0,0,0,0,0,0,0,0,0,0,0,0,0,0,0,0,0,0,0,0,0,0,0,0,0,0,0,0,0,0,0,0,0,0,0,0,0,0,0,0,0,0,0,0,0,0,0,0,0,0,0,0,0,0,0],"id":13,"left_children":[1,3,5,7,9,11,13,-1,15,17,19,21,23,25,27,29,31,33,35,37,39,41,-1,-1,-1,-1,-1,43,-1,45,-1,-1,-1,-1,-1,47,49,-1,51,53,55,-1,-1,-1,-1,-1,-1,57,59,61,63,-1,-1,-1,65,-1,-1,67,69,71,73,75,77,-1,79,-1,81,-1,-1,-1,-1,-1,-1,-1,-1,-1,-1,-1,-1,-1,-1,-1,-1],"loss_changes":[5.7151586E-1,4.3654802E-1,8.549454E-1,3.7465253E-1,1.5341024E-1,9.237087E-2,3.354665E-1,0E0,5.0462157E-1,1.3522843E-1,2.0174338E-1,6.083682E-2,6.0706623E-2,7.047069E-2,7.113975E-2,1.6364586E-1,3.9489135E-2,7.569262E-1,1.1467768E-1,1.2532854E-1,2.681968E-1,7.832945E-3,0E0,0E0,0E0,0E0,0E0,1.413393E-2,0E0,1.7046988E-2,0E0,0E0,0E0,0E0,0E0,1.1479272E-1,3.6648405E-1,0E0,3.540501E-2,1.07871056E-1,2.1089703E-2,0E0,0E0,0E0,0E0,0E0,0E0,2.3600332E-1,2.1251662E-1,1.7033832E-1,2.2054979E-1,0E0,0E0,0E0,4.6350524E-2,0E0,0E0,7.288766E-2,1.1759506E-1,2.1187104E-1,2.3383705E-1,1.1630435E-1,6.9952086E-2,0E0,2.9756635E-2,0E0,1.0726888E-2,0E0,0E0,0E0,0E0,0E0,0E0,0E0,0E0,0E0,0E0,0E0,0E0,0E0,0E0,0E0,0E0],"parents":[2147483647,0,0,1,1,2,2,3,3,4,4,5,5,6,6,8,8,9,9,10,10,11,11,12,12,13,13,14,14,15,15,16,16,17,17,18,18,19,19,20,20,21,21,27,27,29,29,35,35,36,36,38,38,39,39,40,40,47,47,48,48,49,49,50,50,54,54,57,57,58,58,59,59,60,60,61,61,62,62,64,64,66,66],"right_children":[2,4,6,8,10,12,14,-1,16,18,20,22,24,26,28,30,32,34,36,38,40,42,-1,-1,-1,-1,-1,44,-1,46,-1,-1,-1,-1,-1,48,50,-1,52,54,56,-1,-1,-1,-1,-1,-1,58,60,62,64,-1,-1,-1,66,-1,-1,68,70,72,74,76,78,-1,80,-1,82,-1,-1,-1,-1,-1,-1,-1,-1,-1,-1,-1,-1,-1,-1,-1,-1],"split_conditions":[4.2395066E-2,-2.339519E-1,1.9736152E-2,2.3865711E-2,5.166403E-2,3.7395395E-2,-1.9031166E-1,2.044471E-3,-4.4456244E-2,-1.5032598E-1,-1.4741404E-2,1.0446538E0,-3.865521E-1,3.7395395E-2,3.2232117E-2,4.95465E-2,2.6504588E-3,6.2131345E-2,1.0685951E-1,5.3242964E-1,2.242423E-3,5.3637188E-2,-6.6877686E-4,1.0791087E-3,1.4021524E-4,-1.6869035E-3,-2.7760596E-3,-2.343495E-1,-1.5092888E-3,1.05176024E-1,1.0249101E-4,-9.191282E-4,-1.8105815E-4,-2.1599492E-3,8.8012876E-4,-5.304491E-2,-3.977374E-2,1.7724246E-3,-6.172696E-3,-4.4456244E-2,8.0190074E-1,-1.4712258E-4,1.6553585E-4,-7.264668E-4,-2.0423712E-4,1.0914125E-3,1.6446152E-3,1.1395493E-2,-4.3046914E-2,-4.3927934E-2,-5.528408E-3,8.121338E-4,1.5028335E-4,3.875684E-4,-1.4800336E-2,3.9873848E-4,1.0006608E-3,3.3229236E-3,1.1697099E-2,-7.6581924E-3,2.4561442E-2,-2.4765832E-2,3.0871304E-2,-1.90956E-3,9.3076557E-1,-9.838784E-4,8.246229E-1,-2.4385132E-4,-9.5763744E-4,6.726744E-4,9.366689E-5,-4.175635E-4,-3.4951503E-5,1.8137408E-6,-4.435744E-4,3.8874615E-4,-2.5333313E-4,2.4397425E-4,1.2251091E-3,-8.7016926E-4,-2.2391649E-4,-7.9350655E-5,-4.750273E-4],"split_indices":[18,20,22,22,21,35,3,0,18,20,22,5,36,35,35,29,35,22,20,29,22,39,0,0,0,0,0,26,0,38,0,0,0,0,0,22,22,0,3,18,23,0,0,0,0,0,0,21,22,22,18,0,0,0,18,0,0,18,21,18,18,18,9,0,7,0,23,0,0,0,0,0,0,0,0,0,0,0,0,0,0,0,0],"split_type":[0,0,0,0,0,0,0,0,0,0,0,0,0,0,0,0,0,0,0,0,0,0,0,0,0,0,0,0,0,0,0,0,0,0,0,0,0,0,0,0,0,0,0,0,0,0,0,0,0,0,0,0,0,0,0,0,0,0,0,0,0,0,0,0,0,0,0,0,0,0,0,0,0,0,0,0,0,0,0,0,0,0,0],"sum_hessian":[2.99696E5,2.98348E5,1.348E3,8.8E2,2.97468E5,7.48E2,6E2,1.49E2,7.31E2,2.96147E5,1.321E3,4.63E2,2.85E2,2.62E2,3.38E2,4.43E2,2.88E2,2.93E2,2.95854E5,4.37E2,8.84E2,3E2,1.63E2,1.01E2,1.84E2,1.24E2,1.38E2,2.38E2,1E2,3.13E2,1.3E2,1.54E2,1.34E2,1.48E2,1.45E2,2.93321E5,2.533E3,1.04E2,3.33E2,5.92E2,2.92E2,1.08E2,1.92E2,1.38E2,1E2,1.47E2,1.66E2,1.723E4,2.76091E5,2.082E3,4.51E2,1.98E2,1.35E2,1.47E2,4.45E2,1E2,1.92E2,1.116E3,1.6114E4,5.453E3,2.70638E5,1.791E3,2.91E2,1.53E2,2.98E2,1.48E2,2.97E2,9.62E2,1.54E2,3.24E2,1.579E4,2.189E3,3.264E3,2.69573E5,1.065E3,3.03E2,1.488E3,1.77E2,1.14E2,1.17E2,1.81E2,1.32E2,1.65E2],"tree_param":{"num_deleted":"0","num_feature":"40","num_nodes":"83","size_leaf_vector":"1"}},{"base_weights":[3.4279507E-5,1.2514573E-4,-2.000751E-2,2.237496E-2,5.682819E-5,-6.7431256E-2,-6.3704937E-3,1.9716534E-3,1.2929005E-2,7.881169E-6,1.0549415E-2,-2.93152E-3,-1.4949833E-3,-2.6283687E-2,1.4166001E-3,3.8774014E-2,-1.74493E-2,-1.8853586E-2,2.6161639E-5,2.2813914E-2,-4.5789867E-3,-4.8010563E-4,-1.0743488E-3,7.98783E-3,-7.15596E-4,4.9486075E-2,3.404761E-4,-9.767741E-7,-2.4302203E-2,-2.0504517E-3,9.1942394E-4,6.4233458E-3,-3.7823876E-5,3.0565273E-2,-2.3819423E-4,-9.5461786E-4,4.4466783E-3,7.9354714E-4,6.908334E-4,1.213946E-3,1.8024719E-3,-1.0552155E-3,-4.3863925E-4,1.0732412E-2,-2.3241218E-3,-3.3275285E-3,8.087003E-5,3.2724644E-4,3.7356883E-2,-2.909265E-4,1.1753925E-2,-2.9893577E-4,4.4851466E-3,1.958265E-3,1.9874666E-2,-6.77533E-3,5.4941103E-3,4.9176826E-3,-3.9178965E-5,4.3546066E-2,5.3813384E-4,4.652412E-5,1.6583227E-2,2.4395081E-4,2.8982186E-8,-1.6470521E-4,5.057924E-4,7.6438976E-4,1.7029962E-6,-1.1508145E-4,-7.975746E-4,-2.987992E-4,3.2503318E-4,8.185854E-5,4.0953732E-4,-1.1779323E-3,-5.20974E-7,1.696608E-3,1.0596203E-3,7.1167806E-4,2.5070886E-4],"categories":[],"categories_nodes":[],"categories_segments":[],"categories_sizes":[],"default_left":[0,0,0,0,0,0,0,0,0,0,0,0,0,0,0,0,0,0,0,0,0,0,0,0,0,0,0,0,0,0,0,0,0,0,0,0,0,0,0,0,0,0,0,0,0,0,0,0,0,0,0,0,0,0,0,0,0,0,0,0,0,0,0,0,0,0,0,0,0,0,0,0,0,0,0,0,0,0,0,0,0],"id":14,"left_children":[1,3,5,7,9,11,13,-1,15,17,19,-1,-1,21,23,25,27,29,31,33,35,-1,-1,37,-1,39,-1,-1,41,-1,-1,43,45,47,-1,-1,49,-1,51,-1,-1,-1,-1,53,-1,55,57,-1,59,-1,61,-1,63,65,67,69,71,73,75,77,-1,-1,79,-1,-1,-1,-1,-1,-1,-1,-1,-1,-1,-1,-1,-1,-1,-1,-1,-1,-1],"loss_changes":[5.451773E-1,4.524106E-1,8.663581E-1,3.6510172E-1,1.5209052E-1,1.4470816E-1,1.654802E-1,0E0,5.911243E-1,1.0045914E-1,2.5697315E-1,0E0,0E0,2.4057671E-2,1.23321496E-1,1.1345661E-1,3.8517214E-2,6.951372E-1,1.2201883E-1,1.8419695E-1,1.5325078E-1,0E0,0E0,7.813532E-2,0E0,1.7433226E-2,0E0,0E0,2.044943E-2,0E0,0E0,1.0606087E0,1.1495986E-1,7.684994E-2,0E0,0E0,4.7460772E-2,0E0,1.7007098E-2,0E0,0E0,0E0,0E0,2.2314617E-1,0E0,3.119825E-1,1.6500534E-1,0E0,4.79905E-2,0E0,1.32667795E-2,0E0,4.5353994E-3,1.6087593E-1,1.4963585E-1,4.2668054E-1,2.372149E-1,1.2993257E-1,2.3260893E-1,2.6786804E-2,0E0,0E0,8.5828975E-3,0E0,0E0,0E0,0E0,0E0,0E0,0E0,0E0,0E0,0E0,0E0,0E0,0E0,0E0,0E0,0E0,0E0,0E0],"parents":[2147483647,0,0,1,1,2,2,3,3,4,4,5,5,6,6,8,8,9,9,10,10,13,13,14,14,15,15,16,16,17,17,18,18,19,19,20,20,23,23,25,25,28,28,31,31,32,32,33,33,36,36,38,38,43,43,45,45,46,46,48,48,50,50,52,52,53,53,54,54,55,55,56,56,57,57,58,58,59,59,62,62],"right_children":[2,4,6,8,10,12,14,-1,16,18,20,-1,-1,22,24,26,28,30,32,34,36,-1,-1,38,-1,40,-1,-1,42,-1,-1,44,46,48,-1,-1,50,-1,52,-1,-1,-1,-1,54,-1,56,58,-1,60,-1,62,-1,64,66,68,70,72,74,76,78,-1,-1,80,-1,-1,-1,-1,-1,-1,-1,-1,-1,-1,-1,-1,-1,-1,-1,-1,-1,-1],"split_conditions":[4.2395066E-2,-2.339519E-1,-8.1064306E-2,2.3865711E-2,5.166403E-2,1.4698664E1,-3.9611705E-2,1.9716534E-3,-4.4077467E-2,-1.5032598E-1,3.503801E-2,-2.93152E-3,-1.4949833E-3,-4.068506E-2,6.903313E-2,9.3225753E-1,7.787016E-1,6.2131345E-2,-9.740602E-2,1.4937026E-2,5.958659E-2,-4.8010563E-4,-1.0743488E-3,-3.410806E-1,-7.15596E-4,4.9366232E-2,3.404761E-4,-9.767741E-7,1.5945342E8,-2.0504517E-3,9.1942394E-4,2.2477297E-2,-6.34759E-2,-4.4456244E-2,-2.3819423E-4,-9.5461786E-4,-1.5032598E-1,7.9354714E-4,5.11258E-2,1.213946E-3,1.8024719E-3,-1.0552155E-3,-4.3863925E-4,-2.9928423E-2,-2.3241218E-3,9.493696E-3,-5.271112E-2,3.2724644E-4,-2.1489201E-1,-2.909265E-4,8.0593103E-1,-2.9893577E-4,1.9567622E-2,-1.01857565E-1,1.9567622E-2,1.06094E-2,-8.950944E-2,1.6777705E-2,-8.1064306E-2,-1.1550984E-2,5.3813384E-4,4.652412E-5,7.363396E1,2.4395081E-4,2.8982186E-8,-1.6470521E-4,5.057924E-4,7.6438976E-4,1.7029962E-6,-1.1508145E-4,-7.975746E-4,-2.987992E-4,3.2503318E-4,8.185854E-5,4.0953732E-4,-1.1779323E-3,-5.20974E-7,1.696608E-3,1.0596203E-3,7.1167806E-4,2.5070886E-4],"split_indices":[18,20,19,22,21,33,19,0,35,20,19,0,0,19,19,5,23,22,20,18,19,0,0,36,0,22,0,0,34,0,0,21,20,18,0,0,20,0,39,0,0,0,0,22,0,22,20,0,36,0,23,0,21,20,21,18,20,21,19,13,0,0,33,0,0,0,0,0,0,0,0,0,0,0,0,0,0,0,0,0,0],"split_type":[0,0,0,0,0,0,0,0,0,0,0,0,0,0,0,0,0,0,0,0,0,0,0,0,0,0,0,0,0,0,0,0,0,0,0,0,0,0,0,0,0,0,0,0,0,0,0,0,0,0,0,0,0,0,0,0,0,0,0,0,0,0,0,0,0,0,0,0,0,0,0,0,0,0,0,0,0,0,0,0,0],"sum_hessian":[3.00455E5,2.99104E5,1.351E3,9.11E2,2.98193E5,3E2,1.051E3,1.61E2,7.5E2,2.96818E5,1.375E3,1.08E2,1.92E2,2.99E2,7.52E2,4.07E2,3.43E2,2.82E2,2.96536E5,7.63E2,6.12E2,1.49E2,1.5E2,6E2,1.52E2,2.9E2,1.17E2,1.01E2,2.42E2,1.42E2,1.4E2,2.952E3,2.93584E5,6.12E2,1.51E2,1.55E2,4.57E2,1.66E2,4.34E2,1.62E2,1.28E2,1.09E2,1.33E2,2.809E3,1.43E2,1.0253E4,2.83331E5,1.61E2,4.51E2,1.51E2,3.06E2,1.07E2,3.27E2,1.439E3,1.37E3,7.38E3,2.873E3,6.882E3,2.76449E5,3.38E2,1.13E2,1.05E2,2.01E2,1.68E2,1.59E2,9.55E2,4.84E2,1.064E3,3.06E2,6.431E3,9.49E2,7.33E2,2.14E3,5.512E3,1.37E3,1.51E2,2.76298E5,1.26E2,2.12E2,1.01E2,1E2],"tree_param":{"num_deleted":"0","num_feature":"40","num_nodes":"81","size_leaf_vector":"1"}},{"base_weights":[8.7531316E-7,5.334451E-5,-1.3510988E-2,1.6461717E-2,1.249596E-7,-6.7965336E-2,1.3066847E-3,3.6112655E-2,1.2468641E-3,1.4394914E-5,-8.1828766E-4,-1.1250649E-3,-2.843934E-3,1.0938562E-2,-6.939277E-3,4.5533095E-2,6.804055E-4,7.0607476E-4,-7.0665083E-3,1.01896985E-4,-4.2120083E-3,8.767238E-4,3.3595785E-3,-0E0,-7.4044475E-4,1.1007123E-3,1.6180801E-3,2.9106025E-4,-1.9898497E-2,4.5917583E-5,1.9342715E-2,-1.6612127E-2,-1.130165E-3,-6.863315E-6,3.0540317E-4,-4.266828E-3,2.8737748E-4,-3.4272802E-4,-8.708213E-4,-2.2953836E-2,7.183723E-5,2.807207E-2,-4.405918E-4,-2.1080717E-2,4.1881495E-4,2.6434762E-3,-8.365159E-3,2.3310658E-5,-3.5227137E-4,-1.9774507E-3,8.3438156E-4,2.813082E-3,-1.1622421E-4,3.576179E-2,2.0217497E-2,-3.2854293E-4,2.3016079E-4,-3.6801327E-2,-1.6723229E-2,2.6110795E-4,1.3074866E-2,-1.7171413E-2,-4.4262754E-3,-3.4038923E-4,1.1120881E-4,-2.828617E-4,-1.2061771E-7,8.090039E-4,1.3050329E-3,1.0646678E-3,3.5472013E-4,-1.3196329E-3,-8.453136E-4,-5.6680783E-5,-6.219545E-4,-7.848731E-5,3.0238632E-4,7.646804E-4,-6.751673E-5,-8.418516E-4,-3.7798015E-4,-3.9020967E-4,-7.918567E-6],"categories":[],"categories_nodes":[],"categories_segments":[],"categories_sizes":[],"default_left":[0,0,0,0,0,0,0,0,0,0,0,0,0,0,0,0,0,0,0,0,0,0,0,0,0,0,0,0,0,0,0,0,0,0,0,0,0,0,0,0,0,0,0,0,0,0,0,0,0,0,0,0,0,0,0,0,0,0,0,0,0,0,0,0,0,0,0,0,0,0,0,0,0,0,0,0,0,0,0,0,0,0,0],"id":15,"left_children":[1,3,5,7,9,11,13,15,17,19,-1,-1,-1,21,23,25,-1,-1,27,29,31,-1,33,35,-1,-1,-1,-1,37,39,41,43,45,-1,-1,47,-1,-1,-1,49,51,53,55,57,-1,59,61,-1,-1,-1,-1,63,65,67,69,-1,-1,71,73,75,77,79,81,-1,-1,-1,-1,-1,-1,-1,-1,-1,-1,-1,-1,-1,-1,-1,-1,-1,-1,-1,-1],"loss_changes":[2.1134491E-1,2.5932527E-1,9.370958E-1,2.8331614E-1,1.1322319E-1,1.8921196E-1,7.2294265E-2,4.5728564E-2,1.0248335E-1,1.0969899E-1,0E0,0E0,0E0,5.536755E-2,6.1521545E-2,8.579969E-3,0E0,0E0,8.562362E-2,3.1227407E-1,2.2813055E-1,0E0,8.41358E-3,1.4493889E-2,0E0,0E0,0E0,0E0,1.3412833E-2,1.7112064E-1,1.4801857E-1,1.6346541E-1,1.3231057E-1,0E0,0E0,9.811203E-3,0E0,0E0,0E0,7.0867187E-1,1.5005997E-1,2.9790252E-2,2.2003558E-2,6.59723E-2,0E0,7.7248715E-2,5.552025E-2,0E0,0E0,0E0,0E0,2.3577133E-1,2.8313485E-1,1.2582153E-2,3.3309236E-2,0E0,0E0,6.362766E-3,4.655893E-2,7.369613E-2,1.1269779E-1,2.1097898E-2,3.9999194E-2,0E0,0E0,0E0,0E0,0E0,0E0,0E0,0E0,0E0,0E0,0E0,0E0,0E0,0E0,0E0,0E0,0E0,0E0,0E0,0E0],"parents":[2147483647,0,0,1,1,2,2,3,3,4,4,5,5,6,6,7,7,8,8,9,9,13,13,14,14,15,15,18,18,19,19,20,20,22,22,23,23,28,28,29,29,30,30,31,31,32,32,35,35,39,39,40,40,41,41,42,42,43,43,45,45,46,46,51,51,52,52,53,53,54,54,57,57,58,58,59,59,60,60,61,61,62,62],"right_children":[2,4,6,8,10,12,14,16,18,20,-1,-1,-1,22,24,26,-1,-1,28,30,32,-1,34,36,-1,-1,-1,-1,38,40,42,44,46,-1,-1,48,-1,-1,-1,50,52,54,56,58,-1,60,62,-1,-1,-1,-1,64,66,68,70,-1,-1,72,74,76,78,80,82,-1,-1,-1,-1,-1,-1,-1,-1,-1,-1,-1,-1,-1,-1,-1,-1,-1,-1,-1,-1],"split_conditions":[1.3500671E-1,-2.339519E-1,-8.1064306E-2,1.1183012E1,2.076039E-1,4.9366232E-2,2.421211E-2,3.3284698E0,2.3865711E-2,4.69904E-2,-8.1828766E-4,-1.1250649E-3,-2.843934E-3,-1.5735437E-1,5.9444606E-1,1.05176024E-1,6.804055E-4,7.0607476E-4,-3.925256E-2,5.166403E-2,-2.754172E-2,8.767238E-4,1.3353652E-2,1.0045086E-2,-7.4044475E-4,1.1007123E-3,1.6180801E-3,2.9106025E-4,3.2950012E1,-1.5032598E-1,2.9121168E-2,5.916661E-2,2.9587265E-2,-6.863315E-6,3.0540317E-4,2.8215942E-1,2.8737748E-4,-3.4272802E-4,-8.708213E-4,6.2131345E-2,-5.0613202E-2,4.555127E-2,-3.5136268E-2,-3.6940137E-1,4.1881495E-4,6.903313E-2,-7.944027E-1,2.3310658E-5,-3.5227137E-4,-1.9774507E-3,8.3438156E-4,1.1395493E-2,-4.3927934E-2,6.65313E-2,-2.074543E-2,-3.2854293E-4,2.3016079E-4,6.7304306E1,5.203484E-1,8.299186E-2,-1.3252258E-1,-2.59617E-1,-6.7598045E-2,-3.4038923E-4,1.1120881E-4,-2.828617E-4,-1.2061771E-7,8.090039E-4,1.3050329E-3,1.0646678E-3,3.5472013E-4,-1.3196329E-3,-8.453136E-4,-5.6680783E-5,-6.219545E-4,-7.848731E-5,3.0238632E-4,7.646804E-4,-6.751673E-5,-8.418516E-4,-3.7798015E-4,-3.9020967E-4,-7.918567E-6],"split_indices":[39,20,19,32,20,22,22,24,22,19,0,0,0,2,23,38,0,0,0,21,20,0,19,21,0,0,0,0,17,20,39,21,20,0,0,28,0,0,0,22,22,2,19,36,0,19,26,0,0,0,0,21,22,38,19,0,0,24,23,22,36,4,22,0,0,0,0,0,0,0,0,0,0,0,0,0,0,0,0,0,0,0,0],"split_type":[0,0,0,0,0,0,0,0,0,0,0,0,0,0,0,0,0,0,0,0,0,0,0,0,0,0,0,0,0,0,0,0,0,0,0,0,0,0,0,0,0,0,0,0,0,0,0,0,0,0,0,0,0,0,0,0,0,0,0,0,0,0,0,0,0,0,0,0,0,0,0,0,0,0,0,0,0,0,0,0,0,0,0],"sum_hessian":[3.00005E5,2.98852E5,1.153E3,9.6E2,2.97892E5,2.48E2,9.05E2,4.16E2,5.44E2,2.9774E5,1.52E2,1.18E2,1.3E2,4.23E2,4.82E2,2.4E2,1.76E2,1.51E2,3.93E2,2.91724E5,6.016E3,1.2E2,3.03E2,3.43E2,1.39E2,1.23E2,1.17E2,1.67E2,2.26E2,2.90883E5,8.41E2,1.191E3,4.825E3,1.89E2,1.14E2,2.31E2,1.12E2,1.23E2,1.03E2,3.23E2,2.9056E5,5.87E2,2.54E2,1.042E3,1.49E2,3.162E3,1.663E3,1.3E2,1.01E2,1.76E2,1.47E2,1.8688E4,2.71872E5,2.9E2,2.97E2,1.16E2,1.38E2,2.21E2,8.21E2,2.582E3,5.8E2,5.06E2,1.157E3,1.103E3,1.7585E4,3.226E3,2.68646E5,1.42E2,1.48E2,1.01E2,1.96E2,1.14E2,1.07E2,1.8E2,6.41E2,1.989E3,5.93E2,3.24E2,2.56E2,1.43E2,3.63E2,3.7E2,7.87E2],"tree_param":{"num_deleted":"0","num_feature":"40","num_nodes":"83","size_leaf_vector":"1"}},{"base_weights":[-2.8023487E-6,8.1357844E-5,-1.8928716E-2,1.4360023E-2,2.3556177E-5,1.6228916E-3,-4.428316E-2,3.5304505E-2,-3.1080833E-4,3.5667126E-3,-6.2551895E-5,8.7102276E-4,-3.3724133E-3,-7.019364E-2,-2.4977533E-2,4.44738E-2,3.605945E-4,-3.0882745E-3,2.1295302E-4,2.087899E-2,2.3945696E-3,-1.3817762E-5,-6.661419E-3,3.7805927E-3,-1.855735E-2,-1.594589E-3,-2.7307759E-3,-1.1150577E-3,-3.2213598E-4,9.7336527E-4,5.13041E-2,9.311652E-4,-3.6938503E-4,1.177817E-3,1.514831E-2,-5.482262E-4,2.8724035E-3,2.8639592E-3,-1.16665295E-4,-4.3969436E-4,-1.7855035E-2,-0E0,3.9709677E-4,-2.4563182E-4,-8.375849E-4,1.801101E-3,1.2018969E-3,-1.6303439E-4,5.119614E-3,1.1539935E-4,2.1354385E-2,8.133506E-3,5.3438754E-4,-3.6636908E-3,5.8172145E-3,-5.6114313E-3,2.0888838E-5,4.6195774E-3,-9.250083E-3,-4.1794032E-5,-2.2413628E-2,1.3757031E-4,-1.2490031E-4,5.792525E-6,2.9097506E-4,8.012947E-4,4.326485E-4,1.5210432E-2,5.8790166E-3,-6.2750317E-3,2.9937832E-3,1.8701426E-3,-9.9470625E-3,4.861032E-2,4.5026825E-3,-3.193531E-3,-1.5867988E-2,-6.767127E-3,6.861878E-5,-8.385932E-3,1.2580119E-2,-2.079004E-2,-1.1959613E-3,-2.784721E-2,-3.2626907E-4,9.912178E-5,7.328203E-4,9.704928E-5,3.60115E-4,-2.7378445E-4,3.990943E-4,3.3621507E-4,2.4348083E-5,-6.7853034E-5,2.3589055E-4,-8.82455E-4,-7.23537E-5,6.157994E-4,2.2613702E-3,4.798438E-4,8.725955E-5,-2.8494184E-4,-3.230474E-5,-3.1158963E-4,-1.1544989E-3,-1.0403608E-3,-1.2588955E-4,6.6643755E-5,1.1066807E-7,-5.5160146E-4,-0E0,8.137711E-4,1.8072824E-4,-8.159555E-4,-4.0115634E-4,3.9972354E-5,-1.2931989E-4,-6.831583E-4,-1.24435E-3],"categories":[],"categories_nodes":[],"categories_segments":[],"categories_sizes":[],"default_left":[0,0,0,0,0,0,0,0,0,0,0,0,0,0,0,0,0,0,0,0,0,0,0,0,0,0,0,0,0,0,0,0,0,0,0,0,0,0,0,0,0,0,0,0,0,0,0,0,0,0,0,0,0,0,0,0,0,0,0,0,0,0,0,0,0,0,0,0,0,0,0,0,0,0,0,0,0,0,0,0,0,0,0,0,0,0,0,0,0,0,0,0,0,0,0,0,0,0,0,0,0,0,0,0,0,0,0,0,0,0,0,0,0,0,0,0,0,0,0],"id":16,"left_children":[1,3,5,7,9,11,13,15,17,19,21,-1,23,25,27,29,-1,31,-1,33,35,37,39,41,43,-1,-1,-1,-1,-1,45,47,-1,-1,49,-1,51,53,55,57,59,61,-1,-1,-1,-1,-1,-1,63,-1,65,67,69,71,73,75,77,79,81,-1,83,-1,-1,-1,-1,-1,-1,85,87,89,91,93,95,97,99,101,103,105,107,109,111,113,115,117,-1,-1,-1,-1,-1,-1,-1,-1,-1,-1,-1,-1,-1,-1,-1,-1,-1,-1,-1,-1,-1,-1,-1,-1,-1,-1,-1,-1,-1,-1,-1,-1,-1,-1,-1],"loss_changes":[4.7889936E-1,2.446332E-1,6.978756E-1,3.7072235E-1,9.094947E-2,1.0295737E-1,2.8948772E-1,1.0000312E-1,1.4008479E-2,1.4119828E-1,9.2555344E-2,0E0,6.851281E-2,7.4947715E-2,5.5077597E-2,2.038598E-2,0E0,2.0386277E-2,0E0,4.1175306E-2,6.394552E-2,8.489758E-2,1.451247E-1,1.44085E-2,1.5986681E-2,0E0,0E0,0E0,0E0,0E0,1.1256754E-2,9.4123725E-3,0E0,0E0,2.1466225E-2,0E0,7.890303E-2,1.9099268E-1,2.1058479E-1,6.1181776E-2,5.375594E-2,5.726003E-3,0E0,0E0,0E0,0E0,0E0,0E0,4.0440173E-3,0E0,3.8345829E-3,2.9506221E-2,7.508743E-2,1.0762993E-1,3.7854218E-1,1.6682595E-1,8.715496E-2,8.926985E-2,4.4652097E-2,0E0,3.2528102E-2,0E0,0E0,0E0,0E0,0E0,0E0,4.8588075E-2,2.2991978E-2,6.56905E-2,5.8285758E-2,4.0802676E-2,2.090961E-1,1.4143428E-1,1.1943214E-1,7.2526276E-2,1.5500626E-1,1.3086158E-1,3.7406255E-2,2.579701E-2,4.788574E-2,5.514249E-3,2.6774756E-3,2.0399064E-2,0E0,0E0,0E0,0E0,0E0,0E0,0E0,0E0,0E0,0E0,0E0,0E0,0E0,0E0,0E0,0E0,0E0,0E0,0E0,0E0,0E0,0E0,0E0,0E0,0E0,0E0,0E0,0E0,0E0,0E0,0E0,0E0,0E0,0E0,0E0],"parents":[2147483647,0,0,1,1,2,2,3,3,4,4,5,5,6,6,7,7,8,8,9,9,10,10,12,12,13,13,14,14,15,15,17,17,19,19,20,20,21,21,22,22,23,23,24,24,30,30,31,31,34,34,36,36,37,37,38,38,39,39,40,40,41,41,48,48,50,50,51,51,52,52,53,53,54,54,55,55,56,56,57,57,58,58,60,60,67,67,68,68,69,69,70,70,71,71,72,72,73,73,74,74,75,75,76,76,77,77,78,78,79,79,80,80,81,81,82,82,83,83],"right_children":[2,4,6,8,10,12,14,16,18,20,22,-1,24,26,28,30,-1,32,-1,34,36,38,40,42,44,-1,-1,-1,-1,-1,46,48,-1,-1,50,-1,52,54,56,58,60,62,-1,-1,-1,-1,-1,-1,64,-1,66,68,70,72,74,76,78,80,82,-1,84,-1,-1,-1,-1,-1,-1,86,88,90,92,94,96,98,100,102,104,106,108,110,112,114,116,118,-1,-1,-1,-1,-1,-1,-1,-1,-1,-1,-1,-1,-1,-1,-1,-1,-1,-1,-1,-1,-1,-1,-1,-1,-1,-1,-1,-1,-1,-1,-1,-1,-1,-1,-1],"split_conditions":[4.2395066E-2,-6.0578655E-2,1.9736152E-2,-4.4456244E-2,-8.135447E-2,-1.2940544E-1,-1.9031166E-1,4.95465E-2,9.394734E-2,-6.337339E-2,2.6048822E-2,8.7102276E-4,-1.8914387E-2,4.6009816E-2,-6.8308406E-2,8.645696E-2,3.605945E-4,9.724577E-2,2.1295302E-4,-5.4068696E-1,-1.9825894E-2,-2.079382E-2,-2.4906754E-2,4.6009816E-2,8.6924374E-2,-1.594589E-3,-2.7307759E-3,-1.1150577E-3,-3.2213598E-4,9.7336527E-4,5.9874206E0,3.7141266E-1,-3.6938503E-4,1.177817E-3,6.3430214E-1,-5.482262E-4,-2.4222068E-3,-3.2175586E-2,-1.6013606E-2,4.6427228E-2,2.5262853E-2,5.274755E1,3.9709677E-4,-2.4563182E-4,-8.375849E-4,1.801101E-3,1.2018969E-3,-1.6303439E-4,1.8058768E-1,1.1539935E-4,-8.780462E-3,-3.6153486E-1,1.8971422E-3,7.3765754E-3,8.294725E-1,2.898697E-2,-7.327959E-2,-4.3927934E-2,9.988373E-1,-4.1794032E-5,1.8844552E-2,1.3757031E-4,-1.2490031E-4,5.792525E-6,2.9097506E-4,8.012947E-4,4.326485E-4,-8.707067E-3,2.2729419E-3,-8.384751E-2,6.464466E-3,3.154957E-2,6.2131345E-2,6.480372E-2,-1.0675209E-1,-4.985283E-3,-1.6814886E-2,-5.5978894E-2,-5.304491E-2,3.0005129E-2,3.0005129E-2,9.719778E1,7.4658446E-2,4.8916053E-2,-3.2626907E-4,9.912178E-5,7.328203E-4,9.704928E-5,3.60115E-4,-2.7378445E-4,3.990943E-4,3.3621507E-4,2.4348083E-5,-6.7853034E-5,2.3589055E-4,-8.82455E-4,-7.23537E-5,6.157994E-4,2.2613702E-3,4.798438E-4,8.725955E-5,-2.8494184E-4,-3.230474E-5,-3.1158963E-4,-1.1544989E-3,-1.0403608E-3,-1.2588955E-4,6.6643755E-5,1.1066807E-7,-5.5160146E-4,-0E0,8.137711E-4,1.8072824E-4,-8.159555E-4,-4.0115634E-4,3.9972354E-5,-1.2931989E-4,-6.831583E-4,-1.24435E-3],"split_indices":[18,35,22,18,22,2,3,29,38,1,18,0,22,35,3,38,0,31,0,4,18,18,22,35,1,0,0,0,0,0,32,23,0,0,23,0,18,18,18,3,38,33,0,0,0,0,0,0,28,0,39,36,18,22,6,9,22,22,7,0,2,0,0,0,0,0,0,18,35,22,18,8,22,9,2,22,18,39,22,18,18,24,2,38,0,0,0,0,0,0,0,0,0,0,0,0,0,0,0,0,0,0,0,0,0,0,0,0,0,0,0,0,0,0,0,0,0,0,0],"split_type":[0,0,0,0,0,0,0,0,0,0,0,0,0,0,0,0,0,0,0,0,0,0,0,0,0,0,0,0,0,0,0,0,0,0,0,0,0,0,0,0,0,0,0,0,0,0,0,0,0,0,0,0,0,0,0,0,0,0,0,0,0,0,0,0,0,0,0,0,0,0,0,0,0,0,0,0,0,0,0,0,0,0,0,0,0,0,0,0,0,0,0,0,0,0,0,0,0,0,0,0,0,0,0,0,0,0,0,0,0,0,0,0,0,0,0,0,0,0,0],"sum_hessian":[2.9948E5,2.98149E5,1.331E3,1.195E3,2.96954E5,7.33E2,5.98E2,4.95E2,7E2,7.073E3,2.89881E5,1.16E2,6.17E2,2.53E2,3.45E2,3.52E2,1.43E2,5.19E2,1.81E2,4.43E2,6.63E3,2.87771E5,2.11E3,4.15E2,2.02E2,1.42E2,1.11E2,1.82E2,1.63E2,1.33E2,2.19E2,3.54E2,1.65E2,1.01E2,3.42E2,1.45E2,6.485E3,9.896E3,2.77875E5,1.362E3,7.48E2,2.99E2,1.16E2,1.01E2,1.01E2,1.18E2,1.01E2,1.31E2,2.23E2,1.27E2,2.15E2,1.982E3,4.503E3,3.072E3,6.824E3,6.804E3,2.71071E5,8.58E2,5.04E2,1.67E2,5.81E2,1.46E2,1.53E2,1.18E2,1.05E2,1.13E2,1.02E2,4.68E2,1.514E3,1.184E3,3.319E3,1.625E3,1.447E3,2.01E2,6.623E3,5.514E3,1.29E3,1.878E3,2.69193E5,3.21E2,5.37E2,2.02E2,3.02E2,3.89E2,1.92E2,2.09E2,2.59E2,1.069E3,4.45E2,1.038E3,1.46E2,6.87E2,2.632E3,9.52E2,6.73E2,4E2,1.047E3,1E2,1.01E2,7.99E2,5.824E3,1.374E3,4.14E3,1.042E3,2.48E2,1.55E2,1.723E3,7.836E3,2.61357E5,1.43E2,1.78E2,1.62E2,3.75E2,1.01E2,1.01E2,1.49E2,1.53E2,2.89E2,1E2],"tree_param":{"num_deleted":"0","num_feature":"40","num_nodes":"119","size_leaf_vector":"1"}},{"base_weights":[1.7298344E-5,9.312122E-5,-1.690299E-2,-4.6986784E-6,9.815781E-3,-5.9971884E-2,-5.224958E-3,8.870946E-5,-2.928673E-3,1.7243102E-2,-7.983689E-3,-1.037719E-3,-2.5818308E-3,-2.3235654E-2,1.790767E-3,2.8764224E-3,-9.215692E-5,-4.955741E-3,6.0704807E-3,1.3359754E-2,3.951682E-2,-1.0902309E-2,2.610015E-4,-9.3490904E-4,-3.136377E-4,7.5001563E-3,-6.235582E-4,-1.11715365E-2,3.693931E-3,-3.7624814E-5,-1.9972524E-2,-8.6711545E-4,-4.4362973E-3,1.3803278E-2,4.0527846E-4,2.1393152E-2,-9.806643E-3,8.745646E-4,1.4984687E-3,-1.5908271E-2,-2.5789495E-4,8.2753366E-4,7.428835E-4,4.5612943E-4,-1.6694082E-2,1.3962505E-2,3.184696E-3,-7.3036645E-3,4.3702785E-5,-2.1783847E-3,-6.8562217E-3,-1.4725126E-2,-3.4119491E-3,2.9672252E-2,4.964333E-3,6.590342E-3,-4.424126E-3,5.4653928E-2,1.201715E-2,6.4040907E-4,-1.8853286E-2,-8.130942E-4,-1.2288238E-2,1.9169427E-4,-3.1858162E-4,-3.6920322E-4,4.7028847E-3,-1.2100076E-3,-1.3049303E-2,2.4250159E-2,6.709808E-3,4.305473E-3,-1.6753379E-3,-5.439264E-3,-1.2682873E-3,-1.8049027E-4,3.203191E-3,-1.9645728E-2,9.091888E-4,-2.4947511E-2,-4.984447E-3,-8.460795E-5,-6.376273E-3,1.4794728E-3,3.9438685E-4,7.830702E-3,-1.02688886E-4,3.6457006E-4,6.200576E-4,1.3772373E-3,-1.1580019E-2,1.0913993E-3,2.5306796E-3,-0E0,2.6850991E-2,-3.112845E-4,-7.9614477E-4,-1.0512114E-4,-1.6289832E-2,2.8476748E-4,2.2596016E-3,-6.975103E-4,-1.7504771E-4,1.0469739E-3,3.987622E-4,8.20646E-5,5.3439493E-4,9.456673E-5,3.119667E-4,-8.583405E-4,-4.694668E-6,-1.5908347E-5,-3.8824946E-4,-1.148751E-3,-4.7270755E-6,4.921463E-4,6.285104E-5,-1.3237549E-3,8.292877E-4,-3.311885E-4,-9.6986676E-4,5.6072E-5,-2.855329E-4,-3.7938997E-5,7.246154E-4,-2.9868507E-4,3.807556E-5,2.8456234E-5,4.872674E-4,-1.8470208E-4,1.4139221E-4,-1.776816E-4,2.0238291E-4,-1.3772752E-4,-6.293937E-4,3.1974088E-4,-9.591061E-4,1.2372348E-3,6.7789806E-4,-2.5692926E-4,-6.456564E-4,2.067318E-4,-1.0307782E-4],"categories":[],"categories_nodes":[],"categories_segments":[],"categories_sizes":[],"default_left":[0,0,0,0,0,0,0,0,0,0,0,0,0,0,0,0,0,0,0,0,0,0,0,0,0,0,0,0,0,0,0,0,0,0,0,0,0,0,0,0,0,0,0,0,0,0,0,0,0,0,0,0,0,0,0,0,0,0,0,0,0,0,0,0,0,0,0,0,0,0,0,0,0,0,0,0,0,0,0,0,0,0,0,0,0,0,0,0,0,0,0,0,0,0,0,0,0,0,0,0,0,0,0,0,0,0,0,0,0,0,0,0,0,0,0,0,0,0,0,0,0,0,0,0,0,0,0,0,0,0,0,0,0,0,0,0,0,0,0,0,0,0,0],"id":17,"left_children":[1,3,5,7,9,11,13,15,17,19,21,-1,-1,23,25,27,29,31,33,35,37,39,-1,-1,-1,41,-1,43,45,47,49,-1,51,53,55,57,59,-1,-1,61,63,-1,65,-1,67,69,71,73,75,-1,77,79,81,83,85,87,89,91,93,-1,95,-1,97,-1,-1,-1,99,-1,101,103,105,107,109,111,-1,113,115,117,-1,119,121,123,125,-1,-1,127,-1,129,-1,131,133,-1,-1,135,137,-1,-1,-1,139,-1,141,-1,-1,-1,-1,-1,-1,-1,-1,-1,-1,-1,-1,-1,-1,-1,-1,-1,-1,-1,-1,-1,-1,-1,-1,-1,-1,-1,-1,-1,-1,-1,-1,-1,-1,-1,-1,-1,-1,-1,-1,-1,-1],"loss_changes":[3.8280767E-1,2.8474328E-1,6.6293895E-1,8.095885E-2,3.951804E-1,1.7443681E-1,1.3471094E-1,1.4458255E-1,1.6729924E-1,1.7700309E-1,4.279268E-2,0E0,0E0,2.6011467E-2,9.550042E-2,1.999002E-1,2.8933522E-1,8.993968E-2,7.209256E-2,3.3600095E-1,2.536589E-2,3.8299166E-2,0E0,0E0,0E0,7.901498E-2,0E0,1.3915032E-1,8.4650695E-2,1.5909581E-1,4.9609786E-1,0E0,7.558328E-2,9.500164E-2,2.9375814E-2,4.1086972E-1,1.2946345E-1,0E0,0E0,1.6416088E-2,1.7381143E-2,0E0,2.2763446E-2,0E0,6.285706E-2,5.4421976E-2,8.603296E-2,1.895166E-1,1.8802613E-1,0E0,2.775611E-1,6.2324196E-2,6.53207E-2,7.390481E-2,1.1384553E-2,3.620684E-2,2.3402033E-2,1.4616376E-1,1.8555401E-1,0E0,1.9674852E-2,0E0,1.1621777E-2,0E0,0E0,0E0,2.97797E-3,0E0,4.7865234E-2,3.167087E-2,1.815544E-2,8.867513E-2,1.17161885E-1,1.029558E-1,0E0,2.1229887E-1,2.5546694E-1,5.089146E-1,0E0,2.7975455E-2,1.1364332E-2,8.829949E-2,9.7242266E-2,0E0,0E0,1.843075E-2,0E0,8.595612E-3,0E0,1.1456063E-2,1.3798159E-2,0E0,0E0,1.9682188E-1,2.2119582E-2,0E0,0E0,0E0,7.40543E-3,0E0,6.918791E-3,0E0,0E0,0E0,0E0,0E0,0E0,0E0,0E0,0E0,0E0,0E0,0E0,0E0,0E0,0E0,0E0,0E0,0E0,0E0,0E0,0E0,0E0,0E0,0E0,0E0,0E0,0E0,0E0,0E0,0E0,0E0,0E0,0E0,0E0,0E0,0E0,0E0,0E0,0E0,0E0,0E0,0E0],"parents":[2147483647,0,0,1,1,2,2,3,3,4,4,5,5,6,6,7,7,8,8,9,9,10,10,13,13,14,14,15,15,16,16,17,17,18,18,19,19,20,20,21,21,25,25,27,27,28,28,29,29,30,30,32,32,33,33,34,34,35,35,36,36,39,39,40,40,42,42,44,44,45,45,46,46,47,47,48,48,50,50,51,51,52,52,53,53,54,54,55,55,56,56,57,57,58,58,60,60,62,62,66,66,68,68,69,69,70,70,71,71,72,72,73,73,75,75,76,76,77,77,79,79,80,80,81,81,82,82,85,85,87,87,89,89,90,90,93,93,94,94,98,98,100,100],"right_children":[2,4,6,8,10,12,14,16,18,20,22,-1,-1,24,26,28,30,32,34,36,38,40,-1,-1,-1,42,-1,44,46,48,50,-1,52,54,56,58,60,-1,-1,62,64,-1,66,-1,68,70,72,74,76,-1,78,80,82,84,86,88,90,92,94,-1,96,-1,98,-1,-1,-1,100,-1,102,104,106,108,110,112,-1,114,116,118,-1,120,122,124,126,-1,-1,128,-1,130,-1,132,134,-1,-1,136,138,-1,-1,-1,140,-1,142,-1,-1,-1,-1,-1,-1,-1,-1,-1,-1,-1,-1,-1,-1,-1,-1,-1,-1,-1,-1,-1,-1,-1,-1,-1,-1,-1,-1,-1,-1,-1,-1,-1,-1,-1,-1,-1,-1,-1,-1,-1,-1],"split_conditions":[4.2395066E-2,3.5992775E-2,-8.1064306E-2,3.9543364E-2,1.4937026E-2,-1.18345544E-1,-3.9611705E-2,-5.0613202E-2,8.299186E-2,4.0206887E-2,3.373736E-2,-1.037719E-3,-2.5818308E-3,-4.8509923E-1,6.903313E-2,1.1395493E-2,2.2477297E-2,-9.172143E-3,4.486158E-3,2.3865711E-2,4.9366232E-2,3.0005129E-2,2.610015E-4,-9.3490904E-4,-3.136377E-4,-3.6153486E-1,-6.235582E-4,-2.9707499E-2,-9.392598E-2,-4.3927934E-2,2.8110875E-2,-8.6711545E-4,-1.03190914E-1,3.1960695E-3,1.3693667E-2,-2.074543E-2,1.2084024E1,8.745646E-4,1.4984687E-3,-3.6868307E-1,1.5474753E-1,8.2753366E-4,4.7075476E-2,4.5612943E-4,-5.0803524E-1,-3.398336E-3,1.4018766E-2,1.8320775E-2,1.4910041E-2,-2.1783847E-3,-1.7516036E-2,-3.6940137E-1,7.8032715E-3,-1.6261682E-1,5.542096E-2,2.5711281E-2,1.2104188E1,4.4570032E-1,-1.4800336E-2,6.4040907E-4,-3.1626174E-1,-8.130942E-4,1.5979933E-2,1.9169427E-4,-3.1858162E-4,-3.6920322E-4,-2.73399E-1,-1.2100076E-3,-1.1642324E-2,-1.037184E-1,3.0891202E-2,4.0537793E-2,1.4250972E-2,-4.5813277E-2,-1.2682873E-3,-8.1064306E-2,-4.839964E-2,6.2131345E-2,9.091888E-4,2.8808583E-2,1.956684E-2,2.0262368E-2,1.7501839E-2,1.4794728E-3,3.9438685E-4,4.5428764E-2,-1.02688886E-4,-6.3785166E-3,6.200576E-4,1.6269473E-2,3.009318E-2,1.0913993E-3,2.5306796E-3,-2.079382E-2,3.2460396E1,-3.112845E-4,-7.9614477E-4,-1.0512114E-4,5.3606797E-2,2.8476748E-4,1.9567622E-2,-6.975103E-4,-1.7504771E-4,1.0469739E-3,3.987622E-4,8.20646E-5,5.3439493E-4,9.456673E-5,3.119667E-4,-8.583405E-4,-4.694668E-6,-1.5908347E-5,-3.8824946E-4,-1.148751E-3,-4.7270755E-6,4.921463E-4,6.285104E-5,-1.3237549E-3,8.292877E-4,-3.311885E-4,-9.6986676E-4,5.6072E-5,-2.855329E-4,-3.7938997E-5,7.246154E-4,-2.9868507E-4,3.807556E-5,2.8456234E-5,4.872674E-4,-1.8470208E-4,1.4139221E-4,-1.776816E-4,2.0238291E-4,-1.3772752E-4,-6.293937E-4,3.1974088E-4,-9.591061E-4,1.2372348E-3,6.7789806E-4,-2.5692926E-4,-6.456564E-4,2.067318E-4,-1.0307782E-4],"split_indices":[18,21,19,19,18,19,19,22,22,22,4,0,0,26,19,21,21,18,2,22,22,18,0,0,0,36,0,19,22,22,21,0,3,18,21,19,33,0,0,4,1,0,39,0,36,19,18,21,21,0,18,36,18,36,19,9,16,28,18,0,36,0,0,0,0,0,36,0,19,4,0,10,18,22,0,19,19,22,0,1,1,21,18,0,0,19,0,18,0,3,9,0,0,18,33,0,0,0,10,0,21,0,0,0,0,0,0,0,0,0,0,0,0,0,0,0,0,0,0,0,0,0,0,0,0,0,0,0,0,0,0,0,0,0,0,0,0,0,0,0,0,0,0],"split_type":[0,0,0,0,0,0,0,0,0,0,0,0,0,0,0,0,0,0,0,0,0,0,0,0,0,0,0,0,0,0,0,0,0,0,0,0,0,0,0,0,0,0,0,0,0,0,0,0,0,0,0,0,0,0,0,0,0,0,0,0,0,0,0,0,0,0,0,0,0,0,0,0,0,0,0,0,0,0,0,0,0,0,0,0,0,0,0,0,0,0,0,0,0,0,0,0,0,0,0,0,0,0,0,0,0,0,0,0,0,0,0,0,0,0,0,0,0,0,0,0,0,0,0,0,0,0,0,0,0,0,0,0,0,0,0,0,0,0,0,0,0,0,0],"sum_hessian":[2.99692E5,2.98361E5,1.331E3,2.95379E5,2.982E3,2.82E2,1.049E3,2.86202E5,9.177E3,2.108E3,8.74E2,1.45E2,1.37E2,2.98E2,7.51E2,1.7471E4,2.68731E5,7.499E3,1.678E3,1.799E3,3.09E2,7.49E2,1.25E2,1.79E2,1.19E2,6.03E2,1.48E2,9.54E2,1.6517E4,2.68001E5,7.3E2,1.55E2,7.344E3,7.02E2,9.76E2,1.339E3,4.6E2,1.6E2,1.49E2,5.03E2,2.46E2,1.48E2,4.55E2,1.62E2,7.92E2,7.71E2,1.5746E4,2.98E3,2.65021E5,1.44E2,5.86E2,6.56E2,6.688E3,2.47E2,4.55E2,4.37E2,5.39E2,2.92E2,1.047E3,1.01E2,3.59E2,1.16E2,3.87E2,1.44E2,1.02E2,1E2,3.55E2,1.02E2,6.9E2,3.13E2,4.58E2,1.2812E4,2.934E3,2.832E3,1.48E2,2.47432E5,1.7589E4,4.38E2,1.48E2,3.15E2,3.41E2,3.167E3,3.521E3,1.1E2,1.37E2,3.48E2,1.07E2,3.08E2,1.29E2,2.9E2,2.49E2,1.83E2,1.09E2,5.8E2,4.67E2,1.77E2,1.82E2,1.29E2,2.58E2,1.06E2,2.49E2,2.8E2,4.1E2,1.54E2,1.59E2,3.44E2,1.14E2,1.0787E4,2.025E3,1.53E2,2.781E3,1.72E3,1.112E3,1.46E2,2.47286E5,1.355E3,1.6234E4,2.9E2,1.48E2,1.14E2,2.01E2,1.27E2,2.14E2,3.024E3,1.43E2,2.407E3,1.114E3,1.98E2,1.5E2,1.14E2,1.94E2,1.15E2,1.75E2,1.49E2,1E2,4.36E2,1.44E2,1.01E2,3.66E2,1.12E2,1.46E2,1.47E2,1.02E2],"tree_param":{"num_deleted":"0","num_feature":"40","num_nodes":"143","size_leaf_vector":"1"}},{"base_weights":[-1.1025508E-5,6.48186E-5,-1.7102698E-2,1.800466E-2,1.1116032E-5,1.4032534E-3,-4.172169E-2,1.7674835E-3,9.377688E-3,-3.1742402E-5,9.587313E-3,-5.2468213E-3,1.766838E-2,-6.665866E-2,-2.3820091E-2,3.1932E-2,-1.6542668E-2,1.8127066E-5,-6.921093E-3,2.4698619E-2,1.9004093E-3,-6.8164745E-4,-5.66637E-4,9.2569116E-4,1.1441395E-4,-1.5542847E-3,-2.538595E-3,-1.4843113E-2,-1.3020058E-3,2.0995645E-2,1.5783109E-3,-2.2886006E-2,-4.9450708E-5,-1.8686311E-2,3.7002024E-5,1.7589392E-2,-1.1012412E-2,1.4956921E-3,1.5225181E-2,-8.358515E-3,2.3466043E-2,5.726913E-3,-3.387924E-4,-6.089127E-4,-1.9977141E-4,2.5381698E-4,1.0878387E-3,-4.3090447E-4,-8.656079E-4,-1.973277E-3,8.0327434E-4,6.461382E-3,-2.6463103E-5,