tree
version=v4
num_class=1
num_tree_per_iteration=1
label_index=0
max_feature_idx=46
objective=regression
feature_names=return_1d return_5d return_10d return_20d return_60d price_to_ma_5 price_to_ma_20 price_to_ma_60 price_to_ma_200 volatility_5d volatility_10d volatility_20d volatility_60d volume_ratio_5 volume_ratio_20 momentum_5 momentum_10 momentum_20 range_5d range_20d spy_return_1d spy_return_5d spy_return_20d spy_volatility spy_trend beta regime_bull regime_bear regime_sideways sector_return_1d sector_return_5d sector_return_20d vs_sector_1d vs_sector_5d vs_sector_20d sector_momentum sector_rank within_sector_rank dollar_volume_ma_20 spread_ma_20 volume_volatility zscore_20 zscore_60 momentum_streak returns_smoothness sentiment_score sentiment_magnitude
feature_infos=[-0.43257848949508731:0.40101764118714334] [-0.94380185706270303:0.64145302016696371] [-1.1103027020065228:0.74944205060110303] [-1.5792760629373961:0.93007014193133786] [-1.7564232032023743:1.5435651228239085] [0.62112565066133607:1.4016127221049421] [0.37269229271621246:1.7005334995125383] [0.21891181972281926:2.689890395418383] [0.20648370616720246:4.1324257957966344] [0.00029536186335791251:0.37285145536168424] [0.0014330417855425725:0.25645689144988704] [0.0020699230484708315:0.19068783415644647] [0.0031362561129968623:0.12430415393179581] [0:4.0880097161655575] [0:11.432926829268293] [-0.61085445631812074:0.89923850722407728] [-0.67054078198439093:1.1158191671679292] [-0.79387573479956863:1.5346869591954984] [0.12877048963621363:483.16015625] [0.3581073085452795:692.2900390625] [-0.11588671192475024:0.099862840933971991] [-0.19807646309376153:0.16006040724502127] [-0.37087144923930992:0.20760390795832609] [0.0020699230484708315:0.059166610108309571] [-0.096419247643743544:0.11711170439579588] [-0.68980996136432626:1.0000000000000511] [0:1] [0:1] [0:1] [-0.28290975475407043:0.16718974825123417] [-0.54343160442644856:0.25212843613821578] [-1.0013654683707347:0.43509751465103574] [-0.35541385822101423:0.36918261087742221] [-0.60796227019532212:0.52518299354394127] [-1.208045155170083:0.92080788619755505] [-0.96995897594303959:0.41824717363500274] [0.015306122448979591:0.98979591836734693] [0.011627906976744186:1] [10324930.223798752:67083519572.06459] [0.0033291294702280675:0.22121298041063317] [0.084434104133758139:2.476985283351965] [-4.0491767375916998:4.1337307625095656] [-5.883952208553624:7.0530102215373125] [1:18] [5.2441730428127382:483.1097235367198] none none
tree_sizes=3021 3088 3072 3096 3054 3054 3061 3093 3111 3101 3120 3091 3078 3044 3109 3060 3080 3145 3077 3100 3116 3098 3132 3136 3158 3109 3151 3048 3155 3126 3117 3116 3156 3123 3107 3109 3108 3087 3054 3086

Tree=0
num_leaves=31
num_cat=0
split_feature=23 22 5 20 24 24 22 20 23 24 2 30 5 7 3 22 34 8 24 24 23 22 2 20 7 24 30 23 23 24
split_gain=6.99007 12.5099 5.58879 5.31461 4.07115 2.40699 2.40345 1.63429 2.09048 8.84216 1.64922 1.59957 1.55946 1.51717 1.25715 1.19534 1.1532 1.11597 1.06919 3.7545 2.8711 1.79624 1.07917 1.05609 0.979921 0.948902 0.887485 0.847098 0.886123 1.06943
threshold=0.050062919972602912 -0.14954144213423223 0.99264233961012327 0.0329819374179516 0.064828421579629217 -0.085578349244189209 -0.23974747571015007 0.026557524869081518 0.018171795592213203 0.070244111462249306 -0.17575092252775784 0.066842923011274827 0.92017490388487422 0.85243179909424605 -0.2053163948146853 -0.019244143993424282 -0.14943433583112078 0.77581819235851779 -0.042201016315581923 -0.053207113989022219 0.011656450806729677 -0.093641974925768215 0.057338442793969109 -0.030125773819779694 0.85897372523718374 0.039614523683727428 0.0326957270646158 0.015484896536909333 0.016770813928214039 -0.042758584561418282
decision_type=2 2 2 2 2 2 2 2 2 2 2 2 2 2 2 2 2 2 2 2 2 2 2 2 2 2 2 2 2 2
left_child=1 6 12 5 -5 15 -1 8 18 -10 -11 25 -2 -6 -9 -3 -8 26 19 20 -7 -20 27 -12 -13 -4 -17 -21 -29 -30
right_child=2 3 11 4 13 7 16 14 9 10 23 24 -14 -15 -16 17 -18 -19 21 22 -22 -23 -24 -25 -26 -27 -28 28 29 -31
leaf_value=-0.00072955708476980016 0.011582230006211388 0.0013404207142733377 0.0051046004793239529 0.0016843589610868177 -0.011485587203680054 0.00012150183555458948 -0.014266825916582633 -0.0089443583067348523 0.003011860485293985 -0.010930640246717513 -0.0070247555682782384 -0.00050510549636095152 0.0067712447818426662 -0.0037274164596273023 0.00079029512270583756 0.0064854379494323957 -0.0057375644983902454 0.0033106724595217884 0.0041694059893974114 0.002043891189043706 0.0028542168555291481 0.002254895528802012 -0.00051580893594010014 -0.0010164006018265372 0.0030396737999441874 -0.0002363963110837918 0.0025455538210746799 -5.8008655536767682e-05 0.0020694207990208068 -0.001765066464926828
leaf_weight=290 216 627 786 452 77 1101 44 34 15921 77 105 356 765 347 1351 543 399 3558 1231 1916 7568 257854 1101 241 431 93 194 1736 1399 209
leaf_count=290 216 627 786 452 77 1101 44 34 15921 77 105 356 765 347 1351 543 399 3558 1231 1916 7568 257854 1101 241 431 93 194 1736 1399 209
internal_value=0.00227564 0.00225574 0.00483652 0.0022718 -0.00161698 0.00228328 -0.00426821 0.00226479 0.00227296 0.0028223 -0.00431256 0.00307354 0.00783054 -0.00513633 0.000551322 0.00337977 -0.00658471 0.00367749 0.00224021 0.00183022 0.00250715 0.00226399 0.000907673 -0.00283975 0.00143619 0.00453951 0.00544834 0.00120563 0.000725334 0.00157103
internal_weight=0 298375 2647 297642 876 296766 733 291844 290459 16344 423 1666 981 424 1385 4922 443 4295 274115 15030 8669 259085 6361 346 787 879 737 5260 3344 1608
internal_count=301022 298375 2647 297642 876 296766 733 291844 290459 16344 423 1666 981 424 1385 4922 443 4295 274115 15030 8669 259085 6361 346 787 879 737 5260 3344 1608
is_linear=0
shrinkage=1


Tree=1
num_leaves=31
num_cat=0
split_feature=23 22 21 20 31 3 24 22 21 24 23 20 21 24 20 22 4 10 21 8 4 2 24 23 24 24 23 23 22 23
split_gain=6.30854 11.2902 5.01394 4.81552 3.69316 2.32931 2.29279 2.16911 1.99019 1.98161 1.762 1.77668 4.32576 1.57952 1.35137 1.16858 1.30567 1.08469 0.981054 0.967501 0.963191 0.853806 0.829475 0.76283 0.700514 4.37254 2.38246 2.17867 1.90382 1.51243
threshold=0.050062919972602912 -0.14954144213423223 0.028228002286305513 0.026557524869081518 -0.082363356893558434 -0.32590629552262257 -0.085578349244189209 -0.23974747571015007 -0.055557688576694471 0.073500150358879482 0.025986079928212152 -0.033297324743313456 0.016464072997114654 0.039614523683727428 0.0329819374179516 -0.019244143993424282 -0.19887717493137277 0.093300694938257059 0.018326130603350709 0.79366543630787301 -0.083350391547384259 -0.22711241837813381 0.093601526248686243 0.01416361994617945 -0.042201016315581923 -0.050800390211871264 0.011656450806729677 0.022358956719250003 -0.093641974925768215 0.021232901404564415
decision_type=2 2 2 2 2 2 2 2 2 2 2 2 2 2 2 2 2 2 2 2 2 2 2 2 2 2 2 2 2 2
left_child=1 7 5 6 19 14 15 -1 23 -6 11 12 22 -7 -2 -3 -17 -4 20 -5 -12 -9 -10 -8 25 26 -13 28 -26 -30
right_child=2 3 17 4 9 13 8 21 10 -11 18 24 -14 -15 -16 16 -18 -19 -20 -21 -22 -23 -24 -25 27 -27 -28 -29 29 -31
leaf_value=-0.0028549354178389408 0.0083069126912938707 -0.00088845643105243076 0.00073678923000220962 -0.013281279118826329 -0.00098782676750309084 0.0037574166656297019 0.00037074482744973411 -0.012675674755131872 -0.0013028262176587322 -0.005757125578992466 0.002774929873747117 -0.0020464293981043093 -0.010384508155202778 -0.0018905343124753842 0.0022150113274431627 0.0032570382958420868 0.00098612854599768539 -0.003129919463643611 0.00032686931779775835 -0.0060708609376028608 0.00045879921155137713 -0.0072858334833623044 0.0026000510681873893 0.0016310527873861472 0.0016726747803601047 -0.001536758466583467 0.00038758190574254462 -0.0060488541764579283 -1.7888536487089513e-05 0.0024368722189517331
leaf_weight=290 423 627 953 59 2028 784 2379 93 1383 244 1118 1101 131 147 116 788 3217 224 2473 220 750 350 151 2424 1688 5277 11573 149 259233 629
leaf_count=290 423 627 953 59 2028 784 2379 93 1383 244 1118 1101 131 147 116 788 3217 224 2473 220 750 350 151 2424 1688 5277 11573 149 259233 629
internal_value=0 -1.89047e-05 0.00243284 -3.64154e-06 -0.00216669 0.00438005 1.50576e-05 -0.00621666 -2.54252e-06 -0.00150002 -1.95136e-05 -3.49394e-05 -0.00166341 0.00286563 0.00699585 0.00111871 0.00143294 8.99045e-07 0.000980147 -0.00759564 0.00184501 -0.00841734 -0.000918645 0.0010068 -2.52438e-05 -0.000327397 0.000176137 -4.51783e-06 -1.07448e-06 -1.19468e-05
internal_weight=0 298375 2647 297642 2551 1470 295091 733 290459 2272 285656 281315 1665 931 539 4632 4005 1177 4341 279 1868 443 1534 4803 279650 17951 12674 261699 261550 259862
internal_count=301022 298375 2647 297642 2551 1470 295091 733 290459 2272 285656 281315 1665 931 539 4632 4005 1177 4341 279 1868 443 1534 4803 279650 17951 12674 261699 261550 259862
is_linear=0
shrinkage=0.05


Tree=2
num_leaves=31
num_cat=0
split_feature=20 24 22 24 20 22 24 6 22 21 6 21 20 21 21 34 8 22 4 22 24 24 24 24 21 1 20 20 21 22
split_gain=3.99645 6.11152 2.43011 5.05871 2.57786 5.41549 2.03809 2.0128 1.95227 3.21598 1.68493 1.65308 1.66158 3.85938 1.26984 1.13951 1.08278 1.05465 1.17966 0.92957 1.24669 0.851451 1.27808 1.24181 0.786527 0.778566 0.77498 2.40047 1.25057 1.3774
threshold=0.026557524869081518 0.053421633460953417 -0.23974747571015007 0.048773018911743134 -0.048012915579333772 -0.14954144213423223 -0.085578349244189209 0.94319685945020482 -0.14954144213423223 0.033402597817409993 0.82947044541378834 -0.055557688576694471 -0.033297324743313456 0.016464072997114654 0.019227456282962938 -0.14943433583112078 0.80133281497124598 -0.019244143993424282 -0.19257231412146228 -0.040260669254920951 0.075661178153475186 -0.042201016315581923 -0.047746725598380273 -0.030348599775888382 0.029344355470476691 -0.10166958053802881 -0.01533376446078853 -0.020929797468865443 -0.034418981149773924 -0.05415461889281984
decision_type=2 2 2 2 2 2 2 2 2 2 2 2 2 2 2 2 2 2 2 2 2 2 2 2 2 2 2 2 2 2
left_child=2 14 3 10 5 15 17 -3 9 25 -1 -10 13 -13 -2 -4 24 -6 -19 20 21 22 -14 -23 -16 -8 27 -25 -29 -30
right_child=1 7 4 -5 6 -7 8 -9 11 -11 -12 12 19 -15 16 -17 -18 18 -20 -21 -22 23 -24 26 -26 -27 -28 28 29 -31
leaf_value=0.0077441992267890799 0.00077564047912882599 -0.0085932264217100929 -0.018235961036183513 -0.0027121886795191978 -0.00084403363474169595 0.00049435557220068194 0.010120253272886787 -0.0032951031206832995 0.00093448699984640261 -0.0014402056779661068 0.0022728455315630595 -0.00089092923348764702 0.00039576211629481755 -0.0098652825136277961 -0.0099632114212474115 -0.0072669763411263473 -0.00080712830038047283 0.0030524904240936427 0.00092588177112563105 -3.7445454275146252e-05 0.0011966205676348547 0.001721419182130804 -0.0012778674253750423 0.00060452477230260788 -0.0029696403392863377 0.0043711382622085007 0.00032938422375466074 0.00093952393076994056 -0.0049642912132622369 -0.001449761273337123
leaf_weight=327 1037 337 26 290 627 453 70 383 4648 298 247 1401 2201 131 46 265 1464 820 3185 255734 3180 1398 2368 2106 319 371 15794 289 437 770
leaf_count=327 1037 337 26 290 627 453 70 383 4648 298 247 1401 2201 131 46 265 1464 820 3185 255734 3180 1398 2368 2106 319 371 15794 289 437 770
internal_value=0 -0.00165668 2.25257e-05 0.00267038 1.48117e-05 -0.00292465 2.22044e-05 -0.00577492 5.65227e-06 0.0025723 0.0053898 -8.7796e-07 -1.60894e-05 -0.00165832 -0.000622093 -0.00824702 -0.00141458 0.00106277 0.00136129 -7.23928e-06 0.000263396 0.000146389 -0.000471639 0.000282186 -0.00385102 0.0052837 0.000178451 -0.000483359 -0.00201483 -0.00272221
internal_weight=0 3586 297436 864 296572 744 295828 720 291196 739 574 290457 285809 1532 2866 291 1829 4632 4005 284277 28543 25363 4569 20794 365 441 19396 3602 1496 1207
internal_count=301022 3586 297436 864 296572 744 295828 720 291196 739 574 290457 285809 1532 2866 291 1829 4632 4005 284277 28543 25363 4569 20794 365 441 19396 3602 1496 1207
is_linear=0
shrinkage=0.05


Tree=3
num_leaves=31
num_cat=0
split_feature=23 22 5 24 22 1 21 31 39 22 8 24 29 22 23 23 35 23 24 21 23 24 11 30 12 24 24 23 22 23
split_gain=5.25082 9.18824 4.32358 1.82063 1.76428 1.71227 1.68932 1.10166 0.904501 0.882193 0.896908 0.830345 0.774826 1.74564 1.23239 1.20845 4.28793 1.11453 1.33192 0.883651 0.882965 1.92702 0.810333 0.751518 0.740575 0.733183 3.63004 2.08442 1.51518 1.31626
threshold=0.050062919972602912 -0.14954144213423223 0.97518413227415601 -0.085578349244189209 -0.23974747571015007 0.11085400041154657 -0.055557688576694471 -0.27048192692651601 0.058442940691744126 -0.019244143993424282 0.77581819235851779 0.039614523683727428 0.034541811793564851 -0.099269676048690178 0.025986079928212152 0.022358956719250003 0.0041419353336447353 0.016770813928214039 0.073500150358879482 0.018326130603350709 0.021232901404564415 0.073500150358879482 0.034826746777108876 0.026985867113926757 0.043457189741211176 -0.042201016315581923 -0.050800390211871264 0.011656450806729677 -0.093641974925768215 0.015484896536909333
decision_type=2 2 2 2 2 2 2 2 2 2 2 2 2 2 2 2 2 2 2 2 2 2 2 2 2 2 2 2 2 2
left_child=1 4 8 9 -1 11 24 -8 -2 -3 23 -4 14 -14 15 20 -17 -15 -19 22 25 -22 -16 -11 -5 26 27 -9 -27 -28
right_child=2 3 5 6 -6 -7 7 12 -10 10 -12 -13 13 17 19 16 -18 18 -20 -21 21 -23 -24 -25 -26 28 29 -29 -30 -31
leaf_value=-0.0025765792310241901 0.0021351627182140862 -0.00080183195610498709 0.0023040220625848823 0.00075714661526809406 -0.0075931273205794448 -0.0013769176371909312 -0.010530619561672212 -0.0019422356986297639 0.0064988987235841929 0.0039827816066716403 0.00087706115474267456 -0.0020301782116938522 -0.0071850329404696822 0.0003947638815848828 0.0005548367199065613 -0.0071252336509453869 0.00028135254846378834 -0.001001922186047719 -0.0055952679095109615 0.00020688286810306299 0.001846875187074057 -0.01170010249371882 0.002639605851485764 0.00065000351073978176 0.0034249328332341556 0.0015597091088903449 -0.00029291163023565384 0.0003403914826624211 -2.6132734342263199e-05 -0.0019680510542900405
leaf_weight=290 151 627 1274 4527 443 545 25 1101 556 474 3558 121 104 1465 906 272 694 1392 178 2649 946 27 960 263 276 1515 1726 10916 259383 3658
leaf_count=290 151 627 1274 4527 443 545 25 1101 556 474 3558 121 104 1465 906 272 694 1392 178 2649 946 27 960 263 276 1515 1726 10916 259383 3658
internal_value=0 -1.72733e-05 0.00221951 -3.50402e-06 -0.00560841 0.000999615 -1.95394e-05 -3.50533e-05 0.0055669 0.000950147 0.00120591 0.00192808 -3.41419e-05 -0.000815402 -2.55296e-05 -3.87327e-05 -0.00180415 -0.000597135 -0.0015227 0.000793962 -3.26262e-05 0.00147096 0.00162739 0.00279347 0.000910449 -3.7883e-05 -0.000352128 0.000131257 -1.6924e-05 -0.00143104
internal_weight=0 298375 2647 297642 733 1940 292720 287917 707 4922 4295 1395 287892 3139 284753 280238 966 3035 1570 4515 279272 973 1866 737 4803 278299 17401 12017 260898 5384
internal_count=301022 298375 2647 297642 733 1940 292720 287917 707 4922 4295 1395 287892 3139 284753 280238 966 3035 1570 4515 279272 973 1866 737 4803 278299 17401 12017 260898 5384
is_linear=0
shrinkage=0.05


Tree=4
num_leaves=31
num_cat=0
split_feature=20 21 35 20 20 31 21 21 21 31 20 21 21 11 2 21 2 35 7 20 36 36 20 36 9 42 36 34 21 25
split_gain=3.41127 2.90562 2.29525 2.47393 1.88074 2.07281 1.55156 1.35573 1.33563 1.0057 1.22621 2.91565 1.10162 0.983788 0.845871 1.3872 0.990517 0.81135 0.776041 0.842754 0.76806 0.932306 0.925411 0.757276 0.73869 0.705252 0.689079 0.644934 0.603378 0.588655
threshold=0.026557524869081518 -0.033280832714891177 -0.26576932321658658 -0.048012915579333772 -0.048012915579333772 -0.16881954492221204 0.0039690414210774823 -0.055557688576694471 -0.12089462362059117 -0.20104914170232321 -0.033297324743313456 0.016464072997114654 -0.0022908152022412813 0.053712549175865341 -0.0061935226565807194 0.0043062919624590945 -0.08572301540339651 -0.064379674617189478 0.88313888655171902 -0.027349861135242074 0.27200854700854704 0.25777389903329756 0.0044621602708656049 0.29867603465967402 0.046240804539556278 -2.245198507635477 0.16624149659863949 -0.14943433583112078 0.033402597817409993 0.80585953926657417
decision_type=2 2 2 2 2 2 2 2 2 2 2 2 2 2 2 2 2 2 2 2 2 2 2 2 2 2 2 2 2 2
left_child=2 8 3 26 5 27 -5 24 -2 12 11 -11 13 -9 15 -3 28 18 19 -12 21 -21 -23 -22 -6 -10 -1 -4 -17 -19
right_child=1 14 4 6 7 -7 -8 9 25 10 17 -13 -14 -15 -16 16 -18 29 -20 20 23 22 -24 -25 -26 -27 -28 -29 -30 -31
leaf_value=-0.0042016259047019189 -0.00074363564182403346 -1.3327468678273841e-06 -0.011630483669530903 0.0059021785797868679 0.00067146928997617421 -0.00033845174815260359 -0.0010753424382125287 0.00071565823227297905 -0.0087373587527176041 -0.0007500268649625753 -0.0018279010823162895 -0.0086270344028889674 -0.0011663239460677436 0.005195745479774333 -0.0002232578638209738 -0.0086981060930347749 -0.0022665328236503193 -3.7255311137919182e-05 0.00013444911658455294 0.00054640390330932935 0.0041974683529292277 -0.00096062239135173547 -0.011630311482886395 0.0013066714362782558 0.0029107604080550586 -0.0045889670033227052 0.00071639678921587603 -0.0046301032887634637 -0.0026466934838228757 0.00023270987060499895
leaf_weight=104 155 515 37 446 4275 510 97 223 164 1429 283 128 207 272 1821 119 476 244378 17090 2435 252 59 31 2243 403 273 226 297 63 22011
leaf_count=104 155 515 37 446 4275 510 97 223 164 1429 283 128 207 272 1821 119 476 244378 17090 2435 252 59 31 2243 403 273 226 297 63 22011
internal_value=0 -0.00153065 2.07574e-05 0.00258076 1.32214e-05 -0.0023437 0.00465573 1.99482e-05 -0.00473138 6.37538e-06 1.8051e-06 -0.00139759 0.00189659 0.00317744 -0.00089777 -0.0019449 -0.00346609 9.3501e-06 0.000298412 0.000826816 0.000976475 0.000361694 -0.00463574 0.00159865 0.00086438 -0.0061458 -0.000833526 -0.00540559 -0.00660339 -1.49488e-05
internal_weight=0 3586 297436 873 296563 844 543 295719 592 291041 290339 1557 702 495 2994 1173 658 288782 22393 5303 5020 2525 90 2495 4678 437 330 334 182 266389
internal_count=301022 3586 297436 873 296563 844 543 295719 592 291041 290339 1557 702 495 2994 1173 658 288782 22393 5303 5020 2525 90 2495 4678 437 330 334 182 266389
is_linear=0
shrinkage=0.05


Tree=5
num_leaves=31
num_cat=0
split_feature=23 22 1 20 16 3 21 20 21 22 23 21 21 21 29 4 1 20 31 39 21 7 20 27 9 34 20 7 23 21
split_gain=4.51218 7.18826 3.9136 3.53868 2.16304 1.80191 1.54595 1.3585 3.73827 1.31479 1.26649 1.49997 1.82391 0.884851 0.868673 0.792717 0.774444 0.728838 0.770191 0.955453 0.720586 0.678797 0.657092 0.901619 0.64839 0.59881 0.543402 0.542239 0.522961 0.814571
threshold=0.050062919972602912 -0.14954144213423223 0.028288377572942492 0.0329819374179516 -0.14866784961772958 -0.40850184494859815 -0.055557688576694471 -0.033297324743313456 0.016464072997114654 -0.23974747571015007 0.021232901404564415 0.0039690414210774823 0.0048089623718561283 0.018326130603350709 0.055693698819767795 -0.083350391547384259 0.13361662789467432 0.026557524869081518 -0.082363356893558434 0.047943311788905547 -0.069965916716755908 0.84492983591968207 0.053041248422807337 1.0000000180025095e-35 0.040622079749196273 -0.17022281149672827 0.0329819374179516 0.90491066962760158 0.0062159740635873966 -0.0037873255640496644
decision_type=2 2 2 2 2 2 2 2 2 2 2 2 2 2 2 2 2 2 2 2 2 2 2 2 2 2 2 2 2 2
left_child=1 9 5 6 14 26 24 8 -8 -1 17 27 -13 15 -5 -14 -4 28 19 -19 -7 -10 23 -6 -3 -11 -2 -12 29 -9
right_child=2 3 16 4 22 20 7 10 21 25 11 12 13 -15 -16 -17 -18 18 -20 -21 -22 -23 -24 -25 -26 -27 -28 -29 -30 -31
leaf_value=-0.0023634980852044385 0.0078149659580685395 0.00066983663106682839 0.00086136631131510707 -0.013617512659766363 -0.0047518847917395451 0.00044852970412721338 -0.0007094362996434995 -0.00047997925772811154 -0.016416194347234871 -0.012528395115514285 0.0028124626396371852 -0.0053509406517786044 0.0038264745909571823 1.0884729839409649e-05 -0.0018980407266921942 0.00024708052559776588 -0.0018288952884671025 -0.002842987790470943 -0.00084055320586128946 -0.014909175960790545 0.0035136163899536959 -0.0074914931185480404 -0.0005085477825969956 -9.6750781890948248e-05 0.0024138396795310435 -0.0061121512046665889 0.0027930203373685032 0.0011654067288545567 2.8619679764472106e-05 -4.9854438004842642e-05
leaf_weight=291 293 4219 788 64 368 250 1684 13305 26 40 792 146 316 3233 21 303 405 75 1292 21 823 118 306 145 610 400 66 1354 205428 63738
leaf_count=291 293 4219 788 64 368 250 1684 13305 26 40 792 146 316 3233 21 303 405 75 1292 21 823 118 306 145 610 400 66 1354 205428 63738
internal_value=0 -1.88534e-05 0.00206324 -6.68798e-06 -0.00313022 0.00382539 2.83023e-06 -1.18523e-05 -0.00137063 -0.00497096 -3.28741e-06 0.000706936 0.000134563 0.000342477 -0.0107221 0.00207436 -5.19245e-05 -1.86599e-05 -0.00116161 -0.00548247 0.00279948 -0.0091029 -0.00234229 -0.00343611 0.000890139 -0.00669545 0.00689171 0.00177327 -1.30437e-05 -0.000124135
internal_weight=0 298295 2625 297564 904 1432 296660 291831 1828 731 290003 6144 3998 3852 85 619 1193 283859 1388 96 1073 144 819 513 4829 440 359 2146 282471 77043
internal_count=300920 298295 2625 297564 904 1432 296660 291831 1828 731 290003 6144 3998 3852 85 619 1193 283859 1388 96 1073 144 819 513 4829 440 359 2146 282471 77043
is_linear=0
shrinkage=0.05


Tree=6
num_leaves=31
num_cat=0
split_feature=23 22 5 20 24 1 7 24 21 20 21 23 24 21 22 39 20 24 22 8 39 20 39 36 28 7 38 12 30 8
split_gain=4.07224 6.4874 3.61757 3.19366 2.6679 1.69644 1.60014 1.58399 1.44563 1.19697 3.37379 1.19631 1.98128 1.80137 1.18659 0.878974 0.855265 0.840009 0.801648 0.919849 0.752031 0.734872 0.710267 0.907975 1.19557 0.776322 0.736913 0.664949 0.631151 0.624016
threshold=0.050062919972602912 -0.14954144213423223 0.95583141628630675 0.0329819374179516 0.064828421579629217 0.080538717847420296 0.84492983591968207 -0.085578349244189209 -0.055557688576694471 -0.033297324743313456 0.016464072997114654 0.021232901404564415 0.070244111462249306 0.018326130603350709 -0.23974747571015007 0.041368135490267501 0.026557524869081518 0.039614523683727428 -0.039511075946008604 0.81561008546092484 0.052270560336878165 0.030260647537435199 0.068289756153503897 0.29867603465967402 1.0000000180025095e-35 0.80085779995239836 250421298.77227786 0.045199960276389818 0.0326957270646158 0.86992997129285277
decision_type=2 2 2 2 2 2 2 2 2 2 2 2 2 2 2 2 2 2 2 2 2 2 2 2 2 2 2 2 2 2
left_child=1 14 -2 7 -5 17 -6 18 27 10 -10 16 13 15 -1 -13 22 -4 -3 28 -18 -22 -11 24 -24 -26 -25 -9 -20 -28
right_child=2 3 5 4 6 -7 -8 8 9 11 -12 12 -14 -15 -16 -17 20 -19 19 -21 21 -23 23 26 25 -27 29 -29 -30 -31
leaf_value=-0.0022453231734779837 0.0058939171118467413 -0.001109788227662142 0.0025217444051269002 -0.00035196269371102291 -0.012655752700504284 -0.00088000014165702284 -0.0044519312690811117 0.00071233893734936595 -0.00067396447925786472 -1.9970454663698638e-05 -0.0086477528262952959 0.00097259983150643531 -0.0050833936727927992 1.034049321506187e-05 -0.0063606737861515621 0.0027727264059713408 -0.0010485928041292414 -0.0013348155530131533 0.0031735965168051198 0.00070319686469313503 -0.014317518919706347 -0.0033769985618577764 -0.00074019883104842904 0.00094961008367706119 0.0061392467326410391 0.00012938887640220027 -0.0024323626103153503 0.0034282635288550773 0.00041044479575682739 -0.00066672286749493159
leaf_weight=291 478 453 1261 468 71 727 365 4592 1684 274903 144 1573 146 3233 440 1192 999 159 745 3418 20 66 405 327 138 88 1074 237 286 937
leaf_count=291 478 453 1261 468 71 727 365 4592 1684 274903 144 1573 146 3233 440 1192 999 159 745 3418 20 66 405 327 138 88 1074 237 286 937
internal_value=0 -1.79107e-05 0.00196008 -6.35359e-06 -0.00297371 0.00108427 -0.00578787 2.68871e-06 -1.22872e-05 -2.67259e-05 -0.0013021 -1.85485e-05 0.000671589 0.000811674 -0.00472242 0.00174864 -3.37487e-05 0.00208992 0.000894025 0.00109805 -0.00143482 -0.00592131 -2.8278e-05 -0.000797485 0.000885613 0.00379913 -0.00125173 0.000845632 0.0024071 -0.00160969
internal_weight=0 298295 2625 297564 904 2147 436 296660 291758 286929 1828 285101 6144 5998 731 2765 278957 1420 4902 4449 1085 86 277872 2969 631 226 2338 4829 1031 2011
internal_count=300920 298295 2625 297564 904 2147 436 296660 291758 286929 1828 285101 6144 5998 731 2765 278957 1420 4902 4449 1085 86 277872 2969 631 226 2338 4829 1031 2011
is_linear=0
shrinkage=0.05


Tree=7
num_leaves=31
num_cat=0
split_feature=20 24 35 24 24 6 20 24 21 6 22 24 20 21 21 24 33 35 39 22 4 21 24 39 29 2 24 24 22 22
split_gain=2.57172 3.88065 1.69645 3.63467 1.51785 1.50474 1.13409 2.67862 1.22258 1.12535 1.06544 1.83389 1.32824 2.87677 0.981857 0.804234 0.785977 0.774857 0.7875 0.731871 0.956233 0.692663 0.688109 0.628373 0.624277 0.621591 0.577691 2.45944 1.867 1.80592
threshold=0.026557524869081518 0.053421633460953417 -0.26576932321658658 0.048773018911743134 -0.085578349244189209 0.94319685945020482 -0.048012915579333772 0.061464153566851538 -0.055557688576694471 0.78630875024826141 -0.14954144213423223 0.005714139707460931 -0.033297324743313456 0.016464072997114654 0.019227456282962938 0.021229124017666304 -0.07577650087250333 -0.074534044272032196 0.040801026370452437 -0.019244143993424282 -0.14448702375705832 0.029344355470476691 0.093601526248686243 0.048873346072946099 0.020944930536754988 -0.17575092252775784 0.083742192990705414 0.075661178153475186 -0.02568567059763124 -0.0066346574119062309
decision_type=2 2 2 2 2 2 2 2 2 2 2 2 2 2 2 2 2 2 2 2 2 2 2 2 2 2 2 2 2 2
left_child=2 14 3 9 19 24 7 15 23 -1 11 -10 13 22 -2 -6 -9 18 -14 -4 -21 -16 -12 -8 -3 -15 27 -19 -29 -28
right_child=1 5 4 -5 6 -7 8 16 10 -11 12 -13 17 25 21 -17 -18 26 -20 20 -22 -23 -24 -25 -26 -27 29 28 -30 -31
leaf_value=0.0070260661043258475 0.00072225046084720178 -0.015162785272960637 -0.00073091708270710157 -0.0032942041929476676 0.0017905300171732607 -0.0024609335476083122 0.00061995287829394268 -0.014162783424749418 0.0041341169555306981 0.0026206360644556461 -0.0011654430960675569 -0.0013221571484748331 0.0001402482747908197 -0.01448726843922369 -0.0033124125976678447 -0.0018719068848590164 -0.0051450869445208184 -1.8358539219372772e-05 0.00098370856991901955 0.0024043090100968399 0.00067513862770894693 -0.00075283591976561196 0.0025213322239962628 0.0026574911820107555 -0.006453688501939764 -0.0064947544009861568 0.00090010563252243742 0.00057230050189287056 -0.00089619058773143421 9.9716051066449614e-06
leaf_weight=220 1043 22 589 222 308 388 4290 27 396 425 1236 252 12332 31 320 292 230 197709 3568 1109 2865 1519 141 415 318 113 6466 2577 13519 47978
leaf_count=220 1043 22 589 222 308 388 4290 27 396 425 1236 252 12332 31 320 292 230 197709 3568 1109 2865 1519 141 415 318 113 6466 2577 13519 47978
internal_value=0 -0.00132712 1.54833e-05 0.00222398 9.02412e-06 -0.00458887 -5.12198e-06 -0.00182133 2.26357e-07 0.00412326 -1.29108e-05 0.00201223 -1.75045e-05 -0.00149112 -0.0005032 8.14406e-06 -0.00609247 -9.61649e-06 0.000329523 0.000913903 0.00115769 -0.00119822 -0.00078793 0.000799672 -0.00701722 -0.00821537 -2.97184e-05 -6.67451e-05 -0.000661082 0.000115688
internal_weight=0 3610 297310 867 296443 728 291880 857 291023 645 286318 648 285670 1521 2882 600 257 284149 15900 4563 3974 1839 1377 4705 340 144 268249 213805 16096 54444
internal_count=300920 3610 297310 867 296443 728 291880 857 291023 645 286318 648 285670 1521 2882 600 257 284149 15900 4563 3974 1839 1377 4705 340 144 268249 213805 16096 54444
is_linear=0
shrinkage=0.05


Tree=8
num_leaves=31
num_cat=0
split_feature=23 22 1 20 24 7 17 24 21 23 20 21 22 24 21 4 24 24 23 23 22 23 21 27 22 23 23 20 20 23
split_gain=3.37249 5.27419 3.09476 2.66422 2.18289 1.36745 1.32219 1.28717 1.1752 1.00535 1.1361 2.63879 0.991136 0.850052 0.797755 0.839006 0.763603 3.42733 1.88876 1.36325 1.35203 1.10521 1.25241 1.13666 2.11841 1.09924 0.854247 0.777044 0.761037 1.01845
threshold=0.050062919972602912 -0.14954144213423223 0.009086648792488378 0.0329819374179516 0.064828421579629217 0.85243179909424605 -0.2781271730073453 -0.085578349244189209 -0.055557688576694471 0.025986079928212152 -0.033297324743313456 0.016464072997114654 -0.23974747571015007 0.005714139707460931 0.018326130603350709 -0.092747992030432699 -0.042201016315581923 -0.050800390211871264 0.011656450806729677 0.022358956719250003 -0.093641974925768215 0.015484896536909333 0.046551180739868837 1.0000000180025095e-35 -0.049773424893306197 0.016495173408210068 0.021232901404564415 0.015219566958872855 0.001896159565111953 0.016770813928214039
decision_type=2 2 2 2 2 2 2 2 2 2 2 2 2 2 2 2 2 2 2 2 2 2 2 2 2 2 2 2 2 2
left_child=1 12 6 7 -5 -6 -2 -3 -9 10 11 -10 -1 -4 15 -11 17 18 -12 20 -18 22 -19 -23 25 -25 -22 28 -20 -30
right_child=2 3 13 4 5 -7 -8 8 9 14 16 -13 -14 -15 -16 -17 19 21 27 -21 26 23 -24 24 -26 -27 -28 -29 29 -31
leaf_value=-0.0019942512003728106 0.0054999392569056414 0.00080588091901185547 0.0011308098510602262 -0.00034463154948348852 -0.011123785029602365 -0.0039241241830447037 0.0022053316308641223 0.00076240918927231529 -0.0007257589217030346 0.002443780887604306 -0.001880431707692961 -0.0078045967866071601 -0.0057554161868392864 -0.0014246918253939958 0.00017284934519927602 0.00029161415560956082 0.0014066925122434093 0.00037558621657053442 0.00014240299119818426 -0.0048366554548322227 -1.7350662867010994e-05 0.00039350266442794756 -0.0026976154740329127 -0.0023757711507310401 -0.0040062183333057144 -6.8197655941698064e-05 0.0018528884525342922 -0.00060065669156995297 0.0019577535107213923 0.00025135483715027344
leaf_weight=291 523 4902 843 468 81 355 729 4829 1535 1047 1100 144 440 530 2790 798 1688 1354 6333 146 259741 473 439 1099 1101 973 612 2049 1663 1844
leaf_count=291 523 4902 843 468 81 355 729 4829 1535 1047 1100 144 440 530 2790 798 1688 1354 6333 146 259741 473 439 1099 1101 973 612 2049 1663 1844
internal_value=0 -1.62945e-05 0.00178375 -5.87385e-06 -0.00271613 -0.00526168 0.00358159 2.385e-06 -1.1115e-05 -2.41334e-05 -3.6126e-05 -0.00133288 -0.00425815 0.000144345 0.000706278 0.00151293 -2.83672e-05 -0.000339478 0.000101768 -6.50057e-06 -3.80938e-06 -0.00139323 -0.00037686 -0.00189305 -0.0022339 -0.00129215 -1.29544e-05 0.000285166 0.000469622 0.00106052
internal_weight=0 298295 2625 297564 904 436 1252 296660 291758 286929 282294 1679 731 1373 4635 1845 280615 18428 12989 262187 262041 5439 1793 3646 3173 2072 260353 11889 9840 3507
internal_count=300920 298295 2625 297564 904 436 1252 296660 291758 286929 282294 1679 731 1373 4635 1845 280615 18428 12989 262187 262041 5439 1793 3646 3173 2072 260353 11889 9840 3507
is_linear=0
shrinkage=0.05


Tree=9
num_leaves=31
num_cat=0
split_feature=23 22 5 20 2 15 24 23 24 8 22 23 24 2 22 8 24 23 24 22 23 39 35 22 20 23 23 22 24 23
split_gain=3.04367 4.75995 2.84334 2.41065 2.31379 1.36198 1.22114 1.15415 5.01164 1.81097 0.8945 0.837955 0.779609 0.803811 0.715387 0.849572 0.699619 3.94555 2.1347 1.88738 1.13487 1.08793 1.15047 1.09868 1.46868 1.01983 0.81238 0.775734 1.39547 0.981184
threshold=0.050062919972602912 -0.14954144213423223 0.95583141628630675 0.026557524869081518 -0.098078842805970248 0.14295455877050786 -0.085578349244189209 0.018171795592213203 0.070244111462249306 0.76585941791962509 -0.23974747571015007 0.018041606241306667 0.064828421579629217 -0.22711241837813381 -0.019244143993424282 0.79366543630787301 0.083742192990705414 0.01260709313656393 0.075661178153475186 -0.01990348622185904 0.0091679520368239814 0.052270560336878165 -0.072530338201296771 -0.086673933851318982 0.0044621602708656049 0.0060333316809142541 0.015015688953955589 0.08325069303130013 -0.064560632273084936 0.014091741968462019
decision_type=2 2 2 2 2 2 2 2 2 2 2 2 2 2 2 2 2 2 2 2 2 2 2 2 2 2 2 2 2 2
left_child=1 10 -2 6 12 -4 14 11 -9 -10 -1 16 -5 -14 -3 -16 18 -18 20 -20 25 -22 23 24 -23 -8 -25 28 29 -24
right_child=2 3 5 4 -6 -7 7 8 9 -11 -12 -13 13 -15 15 -17 17 -19 19 -21 21 22 27 26 -26 -27 -28 -29 -30 -31
leaf_value=-0.0018945386191618814 0.0051821202597318802 -0.00077108934523804657 0.0015234723313446797 -0.0026560766992139787 -0.00094175781224483898 -0.0017016507993807854 -7.7166767894885522e-05 0.00054841865559781633 -0.018257565998161831 -0.0041246493325206987 -0.0054676453650939622 -0.0014324613627991741 -0.015641512016121014 -0.0061866133099671523 0.0025576614759451771 0.00070488812332050157 -5.9485345957343065e-06 0.0013973519545584304 0.00035330865068791738 -0.00087148099765143336 -0.0001119861595089402 -0.00060169299150880239 -0.0011507149410916243 0.0006092984672649627 -0.01121002403087914 0.00021961875729576124 0.0043595856785769516 -0.0038952805120430868 -0.0013427094142454017 0.0043243335531158852
leaf_weight=291 478 615 1744 150 2242 403 53658 15865 24 408 440 1060 26 166 766 3218 50211 5564 4085 13675 77734 177 141 658 40 62850 185 256 3595 195
leaf_count=291 478 615 1744 150 2242 403 53658 15865 24 408 440 1060 26 166 766 3218 50211 5564 4085 13675 77734 177 141 658 40 62850 185 256 3595 195
internal_value=0 -1.54797e-05 0.00169456 -5.58016e-06 -0.00152612 0.000918105 7.73963e-06 -5.06315e-06 0.000403732 -0.00490981 -0.00404525 -2.93701e-05 -0.00535693 -0.00746696 0.000816108 0.00106112 -2.39226e-05 0.000134042 -6.44774e-05 -0.000589766 -1.77123e-05 -0.000159022 -0.00085586 0.000615605 -0.00255715 8.29336e-05 0.00143232 -0.00122838 -0.00105471 0.00202677
internal_weight=0 298295 2625 297564 2584 2147 294980 290381 16297 432 731 274084 342 192 4599 3984 273024 55775 217249 17760 199489 82981 5247 1060 217 116508 843 4187 3931 336
internal_count=300920 298295 2625 297564 2584 2147 294980 290381 16297 432 731 274084 342 192 4599 3984 273024 55775 217249 17760 199489 82981 5247 1060 217 116508 843 4187 3931 336
is_linear=0
shrinkage=0.05


Tree=10
num_leaves=31
num_cat=0
split_feature=23 22 1 20 31 3 24 24 23 24 8 21 34 22 24 23 22 5 34 24 23 24 22 23 24 24 31 23 22 11
split_gain=2.78078 4.16567 2.89819 2.19881 2.21156 1.38372 1.08949 0.956982 0.930809 5.19122 2.20177 0.965998 0.912592 0.849403 0.785098 0.776614 0.786683 0.760451 0.668716 0.620294 3.58288 1.85062 1.6231 1.06158 2.16648 1.97789 1.55612 1.71031 1.40783 1.33111
threshold=0.050062919972602912 -0.14954144213423223 0.009086648792488378 0.026557524869081518 -0.082363356893558434 -0.40850184494859815 -0.085578349244189209 0.039614523683727428 0.018171795592213203 0.070244111462249306 0.76585941791962509 0.048194241697493777 -0.14943433583112078 -0.23974747571015007 0.073500150358879482 0.018041606241306667 0.02716708466300875 1.0983652425946286 -0.17022281149672827 0.083742192990705414 0.01260709313656393 0.074882053101420168 -0.01990348622185904 0.012557923200948767 -0.064560632273084936 0.043767335212522858 -0.096037186115373874 0.014637386990117209 0.032734015172671209 0.035392261579129468
decision_type=2 2 2 2 2 2 2 2 2 2 2 2 2 2 2 2 2 2 2 2 2 2 2 2 2 2 2 2 2 2
left_child=1 13 5 6 12 -2 -3 -7 15 11 -11 -10 -5 -1 -6 19 -17 -4 -15 21 -21 23 -23 -8 28 26 -26 29 -25 -28
right_child=2 3 17 4 14 7 8 -9 9 10 -12 -13 -14 18 -16 16 -18 -19 -20 20 -22 22 -24 24 25 -27 27 -29 -30 -31
leaf_value=-0.0016805532215274856 0.0059461587402443485 0.00077560137565629936 0.00050780801361038767 -0.015860180612653495 -0.00060868298215824084 0.0030638519316047476 4.625634079745067e-05 -0.0011031120692134543 0.00066939630765079432 -0.017798607724328196 -0.003986955433966162 -0.00047187224122430011 -0.0047953257632088742 -0.011467954241915754 -0.0036062270982609116 -0.0028972783792081029 -0.0001621383125106562 -0.0028428311451631633 -0.0045338377914696587 -2.7883390968228862e-06 0.0013361809231981555 0.00022174389246246864 -0.00076332104686965743 -0.001760723717899004 0.00042518349043312921 0.00052367146751121135 -0.00089538446557755583 -0.00025559412854198667 0.0019227762891436248 -0.0025046378490827946
leaf_weight=299 362 4577 1206 20 2015 746 160487 169 13714 31 417 2144 273 38 245 471 595 197 409 50306 5547 5714 15594 307 3781 5428 10459 12472 1673 1465
leaf_count=299 362 4577 1206 20 2015 746 160487 169 13714 31 417 2144 273 38 245 471 595 197 409 50306 5547 5714 15594 307 3781 5428 10459 12472 1673 1465
internal_value=0 -1.1802e-05 0.00160601 -2.45205e-06 -0.00146351 0.00332946 1.01845e-05 0.00229422 -1.87071e-06 0.000365147 -0.00494267 0.000515097 -0.00555061 -0.00374344 -0.000933638 -2.36885e-05 -0.00137063 3.73334e-05 -0.00512332 -1.84335e-05 0.00013019 -5.66205e-05 -0.000499164 -8.52737e-06 -0.0002556 -0.000350299 -0.00051866 -0.000664941 0.00135165 -0.0010931
internal_weight=0 298481 2680 297735 2553 1277 295182 915 290605 16306 448 15858 293 746 2260 274299 1066 1403 447 273233 55853 217380 21308 196072 35585 33605 28177 24396 1980 11924
internal_count=301161 298481 2680 297735 2553 1277 295182 915 290605 16306 448 15858 293 746 2260 274299 1066 1403 447 273233 55853 217380 21308 196072 35585 33605 28177 24396 1980 11924
is_linear=0
shrinkage=0.05


Tree=11
num_leaves=31
num_cat=0
split_feature=23 20 21 24 7 20 24 24 24 21 20 21 16 10 24 16 23 24 21 44 12 24 24 23 23 21 27 31 20 12
split_gain=2.50965 2.88828 2.64271 1.78413 1.56074 1.21402 1.8613 0.929534 0.905024 0.812075 1.0177 2.38058 0.821243 0.793428 0.774617 0.754292 0.731135 1.45907 1.39253 0.776046 0.681767 0.669721 3.08352 1.66558 1.00101 1.10174 1.08025 1.33242 0.667265 0.665924
threshold=0.050062919972602912 0.0329819374179516 0.028228002286305513 0.053421633460953417 0.75545288120306864 -0.048012915579333772 0.061464153566851538 -0.085578349244189209 0.039614523683727428 -0.055557688576694471 -0.033297324743313456 0.016464072997114654 -0.16117310946701713 0.093300694938257059 0.021229124017666304 -0.12419990330172014 0.021232901404564415 0.070244111462249306 0.018326130603350709 30.490482726106645 0.028486405717912208 -0.042201016315581923 -0.050800390211871264 0.011656450806729677 0.015484896536909333 0.046551180739868837 1.0000000180025095e-35 -0.0091980616439127812 0.0329819374179516 0.045199960276389818
decision_type=2 2 2 2 2 2 2 2 2 2 2 2 2 2 2 2 2 2 2 2 2 2 2 2 2 2 2 2 2 2
left_child=1 5 4 -3 28 6 14 -7 -6 29 11 -11 -13 -4 -1 -5 21 18 19 -18 -8 22 23 -12 25 -24 -26 -28 -2 -9
right_child=2 3 13 15 8 7 20 9 -10 10 16 12 -14 -15 -16 -17 17 -19 -20 -21 -22 -23 24 -25 26 -27 27 -29 -30 -31
leaf_value=0.0015975358389017252 0.0059088135437207383 -0.00031399326765218258 0.00040503038594946224 -0.0075497444965970401 0.0023736153676250826 0.00068900075680538306 -0.0037159839796393453 0.00050607310310927763 -0.0017955143155424732 -0.00066551823395494692 -0.0017435627849822942 -0.014204456538016745 -0.0053229021944676165 -0.0028817587052920087 -0.0016854174358424451 -0.0034240894756766027 0.0022683950297147817 -0.0042607201596688215 -5.892546392164258e-05 0.00059643721633441664 -0.0093543979452390749 -2.9633328218534641e-06 0.00036745918297644643 0.00029674927020137783 0.00041864412983628232 -0.0024708897901291496 -0.0014869653762515363 -0.0037784703786422364 0.0018935469419860359 0.0031789793004944351
leaf_weight=300 443 460 979 149 739 4871 229 4417 158 1358 1098 34 111 226 448 432 1455 155 3197 1327 70 261504 1340 11237 475 459 2221 888 135 246
leaf_count=300 443 460 979 149 739 4871 229 4417 158 1358 1098 34 111 226 448 432 1455 155 3197 1327 70 261504 1340 11237 475 459 2221 888 135 246
internal_value=0 -1.12119e-05 0.00152571 -0.0026403 0.00294484 -2.01041e-06 -0.0017016 3.99334e-06 0.00163925 -7.45236e-06 -1.80921e-05 -0.00131575 -0.00740547 -0.000211413 -0.000368725 -0.00448213 -1.12572e-05 0.000528724 0.000652885 0.00147088 -0.00503601 -2.31196e-05 -0.000320611 0.000115131 -0.0013191 -0.000356722 -0.00180217 -0.00214147 0.00497099 0.000647084
internal_weight=0 298481 2680 1041 1475 297440 1047 296393 897 291522 286859 1503 145 1205 748 581 285356 6134 5979 2782 299 279222 17718 12335 5383 1799 3584 3109 578 4663
internal_count=301161 298481 2680 1041 1475 297440 1047 296393 897 291522 286859 1503 145 1205 748 581 285356 6134 5979 2782 299 279222 17718 12335 5383 1799 3584 3109 578 4663
is_linear=0
shrinkage=0.05


Tree=12
num_leaves=31
num_cat=0
split_feature=23 22 1 20 31 7 39 24 23 21 20 21 24 2 22 2 24 24 24 22 4 8 11 34 37 21 4 24 24 23
split_gain=2.26496 3.38522 2.43016 1.86345 1.89077 1.35951 0.944222 0.892987 0.802654 0.814925 0.892658 2.17875 0.755556 0.741721 0.692288 0.686394 0.674656 0.632117 0.608607 0.601083 0.794793 0.598322 0.584617 0.567959 0.555686 0.530891 0.792675 0.520292 2.57013 1.48354
threshold=0.050062919972602912 -0.14954144213423223 0.0352683281933538 0.026557524869081518 -0.082363356893558434 0.75545288120306864 0.051076718190023455 -0.085578349244189209 0.028965854773242632 -0.055557688576694471 -0.033297324743313456 0.016464072997114654 0.073500150358879482 -0.1959008698627136 -0.23974747571015007 -0.068422934214927497 0.039614523683727428 0.093601526248686243 0.005714139707460931 -0.019244143993424282 -0.092747992030432699 0.5581054557840045 0.049895669993539817 -0.17022281149672827 0.063301282051282062 0.018326130603350709 -0.31240145795490887 -0.042201016315581923 -0.050800390211871264 0.011656450806729677
decision_type=2 2 2 2 2 2 2 2 2 2 2 2 2 2 2 2 2 2 2 2 2 2 2 2 2 2 2 2 2 2
left_child=1 14 5 7 6 24 12 19 9 22 11 17 -5 -13 -1 -6 -7 -11 -4 -3 21 -21 -9 -16 -2 26 -10 28 29 -12
right_child=2 3 18 4 15 16 -8 8 25 10 27 13 -14 -15 23 -17 -18 -19 -20 20 -22 -23 -24 -25 -26 -27 -28 -29 -30 -31
leaf_value=-0.0015122546779377177 0.010049762440295044 -0.00075060556550069683 0.00065766953233895736 -0.0027222212680499073 -0.0028016297276336308 0.0021605217760443433 -0.012163227369509094 0.00052161965644387286 0.004457737450673226 -0.00095369766402262192 -0.0016563846518558838 -0.014187344356343666 -0.0099340509602122706 -0.0052471637883392194 -0.010467499224040167 -0.00046680005808869934 -0.0015205506886264335 0.0025087394814101872 -0.0016818066815749147 0.00490396982734876 0.00034955158184739587 0.0014916828044056983 0.0033372546364868563 -0.0040770877299125567 0.0042083508370726139 0.00025811563627453724 0.0010248995002189692 3.0336727339776941e-06 -0.0012091305045321789 0.00026405439522381689
leaf_weight=299 44 616 698 208 378 783 41 4631 196 1357 1098 29 44 116 38 1882 148 146 462 141 2375 1445 192 409 545 2170 1184 262300 5232 11954
leaf_count=299 44 616 698 208 378 783 41 4631 196 1357 1098 29 44 116 38 1882 148 146 462 141 2375 1445 192 409 545 2170 1184 262300 5232 11954
internal_value=0 -1.06513e-05 0.00144942 -2.22261e-06 -0.00134726 0.00276473 -0.00512632 9.41046e-06 -1.50361e-06 -1.07445e-05 -2.17574e-05 -0.00118204 -0.00398143 -0.0070352 -0.00337461 -0.000857316 0.00157535 -0.00061736 -0.000274087 0.000702371 0.000928333 0.00179505 0.000633708 -0.00462034 0.00464472 0.000745721 0.00151246 -1.49426e-05 -0.000272827 0.000102497
internal_weight=0 298481 2680 297735 2553 1520 293 295182 290605 287055 282232 1648 252 145 746 2260 931 1503 1160 4577 3961 1586 4823 447 589 3550 1380 280584 18284 13052
internal_count=301161 298481 2680 297735 2553 1520 293 295182 290605 287055 282232 1648 252 145 746 2260 931 1503 1160 4577 3961 1586 4823 447 589 3550 1380 280584 18284 13052
is_linear=0
shrinkage=0.05


Tree=13
num_leaves=31
num_cat=0
split_feature=23 20 5 24 20 24 5 24 24 5 2 31 36 36 12 7 36 39 34 20 23 4 10 39 18 4 8 8 23 37
split_gain=2.04413 2.35028 2.18909 1.51811 0.970503 1.55764 0.882161 0.760563 0.65414 0.636367 0.631532 0.595779 0.68624 2.0042 2.30792 0.710998 0.686615 0.713852 0.59361 0.51068 0.503658 0.697914 0.564947 0.494962 0.703088 0.658078 0.555609 0.488571 0.737218 0.463528
threshold=0.050062919972602912 0.0329819374179516 0.99264233961012327 0.053421633460953417 -0.048012915579333772 0.021229124017666304 0.92017490388487422 -0.085578349244189209 0.061464153566851538 1.0983652425946286 -0.13261741420674222 -0.051009790128124656 0.26288796768707484 0.25777389903329756 0.036838608844616857 0.91424149512188868 0.29867603465967402 0.068289756153503897 -0.14943433583112078 0.0044621602708656049 0.018171795592213203 -0.092747992030432699 0.07865571269403053 0.068289756153503897 8.0911324865474317 -0.6637270191938679 1.1564922218200124 1.5433298670380966 0.017737343587536637 0.055175038051750384
decision_type=2 2 2 2 2 2 2 2 2 2 2 2 2 2 2 2 2 2 2 2 2 2 2 2 2 2 2 2 2 2
left_child=1 4 6 -3 5 -1 29 20 -7 -4 -5 12 13 -9 -15 16 17 -14 -10 -16 21 22 -6 -13 25 -25 -26 -27 -29 -2
right_child=2 3 9 10 7 8 -8 11 18 -11 -12 23 15 14 19 -17 -18 -19 -20 -21 -22 -23 -24 24 26 27 -28 28 -30 -31
leaf_value=0.0015217786844295917 0.012998076143081894 -0.00023585846271524373 0.00063989295880090334 -0.0068876275198921661 0.0014839101408163748 -0.0015348223268087428 0.0024710326255554913 5.4294061942234245e-05 -0.01122585636980754 -0.0023206670559489432 -0.0031125952834877863 -2.6324640834808027e-05 0.0015983152023341812 -0.0013802769527603411 -0.0057079212841927079 0.00017665180653400243 0.00068404579940850357 0.0061946998174905524 -0.0038107179742834238 -0.012601935619213543 -0.00071307529655367438 0.00028347710214519537 0.0095473853024569434 0.0027954484532193209 -0.0021766021266048253 -0.00070211550049244231 -4.5552975371615466e-05 0.00063613268836700129 0.0098907641273129881 0.0053209970783319556
leaf_weight=300 22 460 1474 149 1720 448 792 17165 30 207 432 252794 364 410 48 12126 5670 110 269 61 616 2513 22 195 946 1048 452 106 27 185
leaf_count=300 22 460 1474 149 1720 448 792 17165 30 207 432 252794 364 410 48 12126 5670 110 269 61 616 2513 22 195 946 1048 452 106 27 185
internal_value=0 -1.01187e-05 0.00137695 -0.00238174 -1.81837e-06 -0.00152142 0.00323063 3.54958e-06 -0.00274359 0.000275327 -0.00408072 -6.80368e-06 0.000183767 -3.82636e-05 -0.00309944 0.000398677 0.000836872 0.00266499 -0.00455471 -0.00956604 0.000623176 0.000816627 0.00158575 -3.36137e-05 -0.000697866 0.000104488 -0.00148759 -0.000339828 0.00251489 0.00613692
internal_weight=0 298481 2680 1041 297440 1047 999 296393 747 1681 581 291522 35954 17684 519 18270 6144 474 299 109 4871 4255 1742 255568 2774 1376 1398 1181 133 207
internal_count=301161 298481 2680 1041 297440 1047 999 296393 747 1681 581 291522 35954 17684 519 18270 6144 474 299 109 4871 4255 1742 255568 2774 1376 1398 1181 133 207
is_linear=0
shrinkage=0.05


Tree=14
num_leaves=31
num_cat=0
split_feature=23 22 21 20 2 39 5 23 22 21 22 2 24 24 23 23 22 22 12 20 23 8 10 3 22 24 23 23 24 24
split_gain=1.84483 2.7491 2.11146 1.57801 1.60503 1.24456 0.875144 0.771428 1.30259 1.18175 1.83363 2.04098 1.02538 1.89618 0.857172 0.907576 1.18603 1.50168 0.971981 0.846899 0.718904 0.684367 0.670536 0.588914 0.564141 0.553199 3.00198 2.5727 2.48257 2.08875
threshold=0.050062919972602912 -0.14954144213423223 0.028228002286305513 0.026557524869081518 -0.08572301540339651 0.062745912913607912 0.92017490388487422 0.014637386990117209 -0.0781361750649959 0.00066773255958813005 -0.093641974925768215 -0.1959008698627136 -0.019598611419212594 -0.050800390211871264 0.019092344077537935 0.015484896536909333 0.028740897869330918 -0.10617298834052936 0.036838608844616857 -0.027349861135242074 0.022358956719250003 0.75572285369258507 0.093300694938257059 -0.40850184494859815 -0.23974747571015007 0.083742192990705414 0.01260709313656393 0.012747374405512433 0.074882053101420168 0.040994962755449234
decision_type=2 2 2 2 2 2 2 2 2 2 2 2 2 2 2 2 2 2 2 2 2 2 2 2 2 2 2 2 2 2
left_child=1 24 5 7 -5 -2 -7 8 -3 12 11 -11 13 21 15 -15 17 -17 -19 -14 -13 -9 -4 -21 -1 27 -27 28 -10 -29
right_child=2 3 22 4 -6 6 -8 9 25 10 -12 20 19 14 -16 16 -18 18 -20 23 -22 -23 -24 -25 -26 26 -28 29 -30 -31
leaf_value=-0.0013599008091291871 0.00041917626710884454 0.0010586434946222136 0.00032206644146745756 -0.0040569862137456629 -0.00068186399999572707 0.0069609074700702827 0.0029215966942484836 0.0021724224336278062 4.2797839125928563e-05 -0.011277847110279023 4.7469546659875538e-05 -7.6859633649115712e-05 -0.00022094825906456892 0.00075610424879222777 0.00066514511088810535 0.0017287434182278482 0.0003398764207850036 -0.001537729828028884 -0.0043447825171618075 0.0088645864027337394 -0.0037750227436656619 0.00069572026736104556 -0.0026994791219399346 0.0013183915439535087 -0.0041656189590362552 -5.5632023776942028e-06 0.0013418647848769548 -0.0010305521919777953 -0.00061229271987050268 5.7224941972065426e-05
leaf_weight=299 460 2751 979 422 2131 159 856 960 162627 63 22170 289 1035 944 1693 313 1210 2116 361 26 241 4294 226 4620 447 50152 4505 11936 15874 7002
leaf_count=299 460 2751 979 422 2131 159 856 960 162627 63 22170 289 1035 944 1693 313 1210 2116 361 26 241 4294 226 4620 447 50152 4505 11936 15874 7002
internal_value=0 -9.61279e-06 0.0013081 -2.01721e-06 -0.00123976 0.0025766 0.00355436 8.68788e-06 -2.3469e-05 0.000211864 -2.59235e-05 -0.00276981 0.000519896 0.000255895 -0.000305877 -0.000638389 -0.000967489 -0.00153448 -0.00194683 0.00107248 -0.00175848 0.00096554 -0.00024463 0.00136062 -0.00304108 -3.52776e-05 0.000105496 -7.42479e-05 -1.5459e-05 -0.000628365
internal_weight=0 298481 2680 297735 2553 1475 1015 295182 254847 40335 22763 593 17572 11891 6637 4944 4000 2790 2477 5681 530 5254 1205 4646 746 252096 54657 197439 178501 18938
internal_count=301161 298481 2680 297735 2553 1475 1015 295182 254847 40335 22763 593 17572 11891 6637 4944 4000 2790 2477 5681 530 5254 1205 4646 746 252096 54657 197439 178501 18938
is_linear=0
shrinkage=0.05


Tree=15
num_leaves=31
num_cat=0
split_feature=20 35 39 2 35 20 21 20 2 31 39 39 22 31 25 1 39 1 18 21 21 22 21 34 22 37 21 19 39 20
split_gain=1.26342 1.11704 1.49889 1.0861 0.513701 1.14172 1.162 1.08311 0.938529 0.749611 0.722861 0.567574 0.509232 0.836051 0.489073 0.532669 0.491832 0.582473 0.515412 0.445879 0.435997 0.507517 0.5746 0.447508 0.436007 0.379212 0.378514 0.372989 0.746931 0.348689
threshold=0.026557524869081518 -0.26576932321658658 0.060467559010651976 -0.0061935226565807194 -0.061098869616147425 -0.027349861135242074 0.016464072997114654 -0.020929797468865443 -0.1959008698627136 -0.065801304861758517 0.047943311788905547 0.033012181631490577 -0.23974747571015007 -0.082363356893558434 0.30366529706689677 0.041418985591486657 0.076605861156145566 -0.16429314812925136 22.924620915210486 0.033402597817409993 -0.023023910899082439 -0.14954144213423223 -0.04130180690242298 -0.14943433583112078 -0.14954144213423223 0.18237250554323728 0.066663201229930955 38.627493952819528 0.065301115624968736 -0.015941056527429182
decision_type=2 2 2 2 2 2 2 2 2 2 2 2 2 2 2 2 2 2 2 2 2 2 2 2 2 2 2 2 2 2
left_child=1 2 -1 12 5 6 9 11 -8 20 29 -7 -2 -14 -12 16 -16 18 -18 25 21 23 -23 -3 -22 -4 27 -6 -29 -9
right_child=3 4 19 -5 26 7 8 10 -10 -11 14 -13 13 -15 15 -17 17 -19 -20 -21 24 22 -24 -25 -26 -27 -28 28 -30 -31
leaf_value=-0.00076575425531508862 7.0473112182073826e-05 -0.0080967173086745389 0.0066425459965382926 -0.00012357998187449105 1.45466466654951e-06 0.00080867055390612371 -0.012317147212583692 -0.00064701232398207053 -0.0029377956663780114 0.0027961091492992324 -0.0013342414307458215 0.0029061007593117732 -0.0041824648299432585 -0.0014766567410677825 0.0010394557284770392 -6.4195610952475356e-05 0.008611544957249492 0.0019337635102574221 0.0011624190846591124 -0.00035399503399008501 0.0030173760868805965 0.00034945539864725977 -0.0017844369536357655 -0.0021693071668549124 -0.0002604408695538139 0.0032232115101024925 0.00098118661627587841 -0.00013764815225737086 -0.0015289962168508393 0.00017396980668606896
leaf_weight=351 283 35 104 1933 235278 757 31 1384 191 164 232 562 401 991 2013 826 69 429 35 68 130 682 587 353 462 368 947 30601 996 19743
leaf_count=351 283 35 104 1933 235278 757 31 1384 191 164 232 562 401 991 2013 826 69 429 35 68 130 682 587 353 462 368 947 30601 996 19743
internal_value=0 1.0184e-05 0.00177791 -0.000931117 4.87198e-06 0.000205968 -0.00078586 0.000306293 -0.00424752 -0.000467381 0.000231836 0.00170234 -0.00186304 -0.00225613 0.000886326 0.00103911 0.00139705 0.00274759 0.00610463 0.00343129 -0.000705358 -0.00112148 -0.000637617 -0.002704 0.00045935 0.00397662 -1.66664e-05 -2.02072e-05 -0.000181506 0.000120188
internal_weight=0 297398 891 3608 296507 28685 2635 26050 222 2413 24731 1319 1675 1392 3604 3372 2546 533 104 540 2249 1657 1269 388 592 472 267822 266875 31597 21127
internal_count=301006 297398 891 3608 296507 28685 2635 26050 222 2413 24731 1319 1675 1392 3604 3372 2546 533 104 540 2249 1657 1269 388 592 472 267822 266875 31597 21127
is_linear=0
shrinkage=0.05


Tree=16
num_leaves=31
num_cat=0
split_feature=23 22 30 20 31 34 8 23 22 21 20 2 22 23 23 2 21 20 22 39 23 39 38 8 31 31 2 22 21 21
split_gain=1.74365 2.12958 1.69799 1.25837 1.47707 1.19975 0.786559 0.756504 1.15441 1.09121 1.4141 1.05243 0.82065 1.14701 1.03729 1.03169 0.939066 0.851692 0.690928 0.64848 0.584761 0.545427 0.591386 0.515073 0.690783 0.502302 0.497975 0.48716 0.477938 0.455625
threshold=0.050062919972602912 -0.14954144213423223 0.017419004989181214 0.026557524869081518 -0.082363356893558434 -0.14943433583112078 0.76585941791962509 0.014637386990117209 -0.072494806569149597 0.00066773255958813005 -0.030125773819779694 -0.1959008698627136 -0.067684898695093546 0.019830602783589463 0.015484896536909333 -0.22711241837813381 -0.01856035076902612 -0.0060477799150937704 -0.099269676048690178 0.062745912913607912 0.015955794383390298 0.068289756153503897 405725062.7557469 0.5581054557840045 0.022925621971948005 -0.13893076236731464 -0.068422934214927497 -0.23974747571015007 0.001242077602479987 -0.038746673014154374
decision_type=2 2 2 2 2 2 2 2 2 2 2 2 2 2 2 2 2 2 2 2 2 2 2 2 2 2 2 2 2 2
left_child=1 27 5 7 6 -2 -5 8 -3 12 11 -11 13 14 -9 -14 -16 -18 -12 -7 -17 -10 23 24 -23 28 -6 -1 -20 -22
right_child=2 3 -4 4 26 19 -8 9 21 10 18 -13 15 -15 16 20 17 -19 25 -21 29 22 -24 -25 -26 -27 -28 -29 -30 -31
leaf_value=-0.001152240363570132 0.0060893374830843488 0.00089714647747273662 9.1480393898795497e-06 -0.010625888985685178 -0.0023476121081438053 0.00028722741538626963 -0.0033924771310187667 0.00090997853641802792 -3.3746775886812025e-05 -0.012813316508092816 -0.0023485406575664549 -0.002480012347215497 0.0049196972581557934 0.0010884286778893267 -0.0011497783332733657 0.0013465406324300463 0.0018076703767521054 -0.00086566436698228715 -0.0049954078280325699 0.0027829324022055446 -0.00046379546420143237 7.3055727332229578e-06 -0.0013838991715453544 -0.000268503842788284 0.0078217085477752767 9.5367698312680044e-05 -0.00036604932165393137 -0.0037687181698923783 -0.00082192265341854615 0.00066550511228615297
leaf_weight=301 201 3328 1337 45 380 403 228 1395 249609 27 303 282 150 2171 2925 2823 616 577 79 735 1056 62 1447 373 52 21439 1914 435 521 5792
leaf_count=301 201 3328 1337 45 380 403 228 1395 249609 27 303 282 150 2171 2925 2823 616 577 79 735 1056 62 1447 373 52 21439 1914 435 521 5792
internal_value=0 -1.24414e-05 0.00126958 -5.7979e-06 -0.00110805 0.00252813 -0.0045848 3.79267e-06 -2.79878e-05 0.000205504 -2.36282e-05 -0.00338292 0.000501994 0.000114958 -0.000268392 0.000804814 -0.000667573 0.0005147 2.28324e-05 0.00189913 0.000740991 -4.02276e-05 -0.000876666 0.000630451 0.00357177 5.54349e-05 -0.000694294 -0.00269866 -0.00137143 0.000491361
internal_weight=0 298330 2676 297594 2567 1339 273 295027 254871 40156 22651 309 17505 7684 5513 9821 4118 1193 22342 1138 9671 251543 1934 487 114 22039 2294 736 600 6848
internal_count=301006 298330 2676 297594 2567 1339 273 295027 254871 40156 22651 309 17505 7684 5513 9821 4118 1193 22342 1138 9671 251543 1934 487 114 22039 2294 736 600 6848
is_linear=0
shrinkage=0.05


Tree=17
num_leaves=31
num_cat=0
split_feature=23 5 20 31 24 1 20 23 23 2 23 24 4 24 23 24 24 39 20 30 24 23 24 26 23 24 23 44 24 23
split_gain=1.57364 1.80624 1.44228 1.47585 0.794529 0.764071 0.62359 1.62074 1.43106 0.884659 0.860874 1.27065 0.685978 0.639552 0.609755 0.608473 0.587523 0.543539 0.561945 0.538642 0.521318 2.63296 1.78479 1.10861 0.875691 0.888503 0.87918 0.851103 1.00196 1.39179
threshold=0.050062919972602912 0.95345034492453562 0.026557524869081518 -0.082363356893558434 -0.085578349244189209 0.12056048816330392 -0.033297324743313456 0.022358956719250003 0.03234788956078475 -0.1959008698627136 0.018171795592213203 0.070244111462249306 -0.26101320433643999 -0.058685806198209393 0.018041606241306667 -0.036898769465594054 0.039614523683727428 0.033889206648185441 0.0091869818497059118 -0.063978733700395293 0.083742192990705414 0.01260709313656393 0.075661178153475186 1.0000000180025095e-35 0.0091679520368239814 0.066793749381755099 0.0060333316809142541 27.337938841143817 -0.053207113989022219 0.012095566392330948
decision_type=2 2 2 2 2 2 2 2 2 2 2 2 2 2 2 2 2 2 2 2 2 2 2 2 2 2 2 2 2 2
left_child=2 -2 4 -4 -1 16 7 19 9 -9 14 13 -13 -12 20 -16 -3 -15 -19 -6 22 -22 24 -24 26 27 -8 28 29 -26
right_child=1 5 3 -5 6 -7 10 8 -10 -11 11 12 -14 17 15 -17 -18 18 -20 -21 21 -23 23 -25 25 -27 -28 -29 -30 -31
leaf_value=0.00064355169610605639 0.0040647624142286683 0.0014106586464248541 -0.0038801887812385458 -0.00065957953149198419 0.00090708187075910654 -0.001115585723092234 -7.2881199074661753e-05 -0.0083332758776745505 -0.00056183728014855608 -0.0032161868528357918 -0.0001765937225250459 -0.01079307489655912 -0.0021397749236931993 0.00025039646577614704 -0.0019495003347786925 0.00074598385111539287 -0.0017528299960332212 0.001280525604306638 0.00023009286636750345 -0.00062248960197198609 4.2813039151387422e-06 0.0011658912320619732 3.3501548026458588e-05 -0.00082235367984643225 -0.0030254082854156406 0.00033677051567714158 0.00020244803390001868 -0.00013671280233162983 -0.00096936329675406446 0.0012371714700969286
leaf_weight=4701 458 1561 421 2294 954 495 53710 114 464 326 3328 25 273 5400 774 287 162 3994 1869 1451 50227 5403 5617 11593 230 8819 63008 65734 6170 1144
leaf_count=4701 458 1561 421 2294 954 495 53710 114 464 326 3328 25 273 5400 774 287 162 3994 1869 1451 50227 5403 5617 11593 230 8819 63008 65734 6170 1144
internal_value=0 0.0012061 -1.18193e-05 -0.00115898 -1.28349e-06 0.000615809 -1.17037e-05 -0.000694179 -0.00249907 -0.00454198 -3.85152e-06 0.000366372 -0.00286572 0.000432383 -2.4064e-05 -0.00122037 0.00111322 0.000612324 0.00094567 -1.5749e-05 -1.93916e-05 0.000117101 -5.45407e-05 -0.00054302 -1.22566e-05 -0.000137376 7.57501e-05 -0.00019444 -0.000697441 0.000523639
internal_weight=0 2676 298330 2715 295615 2218 290914 3309 904 440 287605 14889 298 14591 272716 1061 1723 11263 5863 2405 271655 55630 216025 17210 198815 82097 116718 73278 7544 1374
internal_count=301006 2676 298330 2715 295615 2218 290914 3309 904 440 287605 14889 298 14591 272716 1061 1723 11263 5863 2405 271655 55630 216025 17210 198815 82097 116718 73278 7544 1374
is_linear=0
shrinkage=0.05


Tree=18
num_leaves=31
num_cat=0
split_feature=23 22 5 20 2 1 21 23 23 22 7 23 25 5 23 33 12 7 29 12 20 27 22 22 20 2 19 39 12 23
split_gain=1.42021 1.71278 1.63941 1.03009 1.14505 0.675795 0.646377 0.572471 0.697926 1.74494 0.807798 0.588218 0.548791 0.502534 0.475368 0.404701 0.402088 0.398936 0.60006 0.392602 0.374257 0.400039 0.373325 0.372858 0.371776 0.368998 0.350545 0.506804 0.408344 0.399628
threshold=0.050062919972602912 -0.14954144213423223 0.96159295025883984 0.026557524869081518 -0.070206999727830274 0.12056048816330392 -0.055557688576694471 0.025986079928212152 0.022358956719250003 0.086430401429295159 0.83668452525702153 0.021232901404564415 0.55284191340763711 1.0275140980469859 0.0132141562480523 -0.10816949511315331 0.043457189741211176 0.85243179909424605 0.026250181851797217 0.022228809510033112 0.004769851948823893 1.0000000180025095e-35 -0.23974747571015007 -0.034932352369283673 -0.009946917693589425 -0.22711241837813381 38.627493952819528 0.051076718190023455 0.066354362111863255 0.0062159740635873966
decision_type=2 2 2 2 2 2 2 2 2 2 2 2 2 2 2 2 2 2 2 2 2 2 2 2 2 2 2 2 2 2
left_child=1 22 15 6 17 -4 14 8 11 10 19 26 -9 -11 23 -2 24 18 -5 -10 -14 -22 -1 -3 -16 -24 29 -28 -29 -8
right_child=2 3 5 4 -6 -7 7 12 9 13 -12 -13 20 -15 16 -17 -18 -19 -20 -21 21 -23 25 -25 -26 -27 27 28 -30 -31
leaf_value=-0.0010665364434600899 0.0058431665802640351 0.00011945236184056975 0.0010125563414326143 -0.011224968018800472 -0.00046580624997579221 -0.0010975977811588326 -9.4105191194661755e-05 -0.000471496774808009 -0.0057984570024052157 0.00069030358588561972 -0.0033084642237887103 0.0012373630635264029 0.0013887188898010756 -0.0025617430644003132 0.0012217455479636024 0.0027700938179083265 0.0030072092303713581 -0.0022205653400584262 -0.0035761864943450075 -0.014325122497285958 -0.0005531461695075327 0.001064074498644385 -0.0061496093102182542 -0.0025604961748836681 6.7605914803776107e-05 -0.0025976143665380276 -0.00010143275814294632 -0.00059653808921449232 -0.0027224345423985412 4.625589848769141e-05
leaf_weight=301 148 1509 1647 33 2040 493 70776 972 27 571 246 942 1721 150 1832 388 218 379 115 27 712 826 93 142 1127 342 31068 3042 244 178875
leaf_count=301 148 1509 1647 33 2040 493 70776 972 27 571 246 942 1721 150 1832 388 218 379 115 27 712 826 93 142 1127 342 31068 3042 244 178875
internal_value=0 -1.12283e-05 0.0011458 -5.27036e-06 -0.00100254 0.000526432 3.4068e-06 -6.13912e-06 -1.46812e-05 -0.00131961 -0.00452406 -1.00055e-05 0.000571207 1.37335e-05 0.000577188 0.00361863 0.000934845 -0.00308023 -0.00528166 -0.0100618 0.000882194 0.0003154 -0.00242028 -0.000111046 0.000782166 -0.00335701 -1.41428e-05 -0.000163889 -0.000754395 6.46356e-06
internal_weight=0 298330 2676 297594 2567 2140 295027 290199 285968 1021 300 284947 4231 721 4828 536 3177 527 148 54 3259 1538 736 1651 2959 435 284005 34354 3286 249651
internal_count=301006 298330 2676 297594 2567 2140 295027 290199 285968 1021 300 284947 4231 721 4828 536 3177 527 148 54 3259 1538 736 1651 2959 435 284005 34354 3286 249651
is_linear=0
shrinkage=0.05


Tree=19
num_leaves=31
num_cat=0
split_feature=23 22 30 39 20 2 34 24 21 8 24 23 20 21 8 24 25 22 11 24 22 2 22 25 22 24 41 23 23 25
split_gain=1.28174 1.54579 1.35949 1.01699 0.929656 1.03341 0.739695 0.705483 0.604767 0.586331 0.560335 0.536093 0.625345 1.28337 0.59132 0.539071 0.495298 0.461267 0.453243 0.449477 0.878107 0.511464 0.451624 0.43064 0.429583 0.429405 0.424301 0.486389 0.657378 0.475005
threshold=0.050062919972602912 -0.14954144213423223 0.017419004989181214 0.062745912913607912 0.026557524869081518 -0.070206999727830274 -0.20633999616822832 -0.085578349244189209 -0.055557688576694471 0.69236098085472964 0.005714139707460931 0.025986079928212152 -0.033297324743313456 0.016464072997114654 0.82843945832056598 0.093601526248686243 0.51917071829023387 -0.039511075946008604 0.067947452900220098 0.10155509398855202 0.0068321971811006578 -0.035639024229801426 0.038978752293453649 0.70765997918111057 0.065010342554020287 -0.061341379435872749 -0.75165542031932076 0.015015688953955589 0.016249459566469306 0.64854093715393779
decision_type=2 2 2 2 2 2 2 2 2 2 2 2 2 2 2 2 2 2 2 2 2 2 2 2 2 2 2 2 2 2
left_child=1 -1 3 -2 7 -6 -5 9 25 17 -4 12 13 15 -15 24 -13 -3 19 -14 21 -21 -22 -11 -10 -9 27 -20 -29 -28
right_child=2 4 10 6 5 -7 -8 8 11 23 -12 16 18 14 -16 -17 -18 -19 26 20 22 -23 -24 -25 -26 -27 29 28 -30 -31
leaf_value=-0.0022992649112038438 0.00018337218768693842 -0.001729799721579184 0.00077089295166703523 0.0068446753524644384 -0.00292621569277155 -0.00044251593737396668 0.0026036925222256181 0.0023241320946290902 -0.001164257947268136 -0.00017113777086908362 -0.0013324989044740153 -0.00051075604517267085 -2.9630277919840359e-05 -0.013371268743649127 -0.0041500947708649127 0.0023271548931885254 0.00082047031740144758 0.0027774227194640845 -0.00083816947489270084 0.0019305498697322428 0.00018959860663352967 0.00057743578641458206 -0.0005676057591973995 0.00085368496512787232 0.0017419889612733321 0.00042311690870156936 -0.00084387808881142441 0.0086603009008935517 0.0009648391672882683 -0.0033403604437259402
leaf_weight=736 422 65 822 118 527 2040 799 318 1216 1791 515 883 261866 20 133 147 3348 448 280 930 9968 2804 2454 2397 142 4510 896 35 134 242
leaf_count=736 422 65 822 118 527 2040 799 318 1216 1791 515 883 261866 20 133 147 3348 448 280 930 9968 2804 2454 2397 142 4510 896 35 134 242
internal_value=0 -1.06669e-05 0.00108851 0.00221464 -5.00684e-06 -0.000952415 0.00314942 3.23646e-06 -6.60217e-06 0.000610854 -3.93141e-05 -1.59865e-05 -2.43898e-05 -0.000992564 -0.00535548 -0.000549026 0.000542646 0.00220633 -1.86488e-05 -1.38392e-05 0.000242112 0.000914446 4.00108e-05 0.000415419 -0.000860365 0.000548329 -0.000861229 0.000440337 0.00255857 -0.00137476
internal_weight=0 298330 2676 1339 297594 2567 917 295027 290326 4701 1337 285498 281267 1658 153 1505 4231 513 279609 278022 16156 3734 12422 4188 1358 4828 1587 449 169 1138
internal_count=301006 298330 2676 1339 297594 2567 917 295027 290326 4701 1337 285498 281267 1658 153 1505 4231 513 279609 278022 16156 3734 12422 4188 1358 4828 1587 449 169 1138
is_linear=0
shrinkage=0.05


Tree=20
num_leaves=31
num_cat=0
split_feature=23 22 15 24 17 24 22 4 21 24 24 23 24 24 10 22 22 24 22 8 23 17 23 30 23 23 27 24 23 21
split_gain=0.994515 1.5755 1.23508 0.700643 0.721926 0.656195 0.522412 0.52241 0.474855 0.503664 2.34058 1.26695 0.67379 0.7906 1.23344 1.19418 0.815248 0.867341 1.33754 1.1674 0.660994 1.24321 0.783158 0.647583 0.687665 0.705135 0.62001 0.747168 0.903093 1.60776
threshold=0.050062919972602912 -0.14954144213423223 0.028692293438508879 0.04476724478862882 -0.2781271730073453 -0.085578349244189209 -0.23974747571015007 -0.19257231412146228 -0.055557688576694471 -0.042201016315581923 -0.050800390211871264 0.011656450806729677 -0.023965133465645935 -0.012110262158767869 0.033703859657819253 -0.10617298834052936 -0.067684898695093546 0.072112697190472433 -0.072494806569149597 0.80133281497124598 0.015015688953955589 -0.33535475365229572 0.021232901404564415 0.020257261702780981 0.019092344077537935 0.01019333566475472 1.0000000180025095e-35 -0.053207113989022219 0.015872379647223617 -0.016797487943498394
decision_type=2 2 2 2 2 2 2 2 2 2 2 2 2 2 2 2 2 2 2 2 2 2 2 2 2 2 2 2 2 2
left_child=1 6 3 4 -2 7 -1 -3 -7 10 11 -10 -11 14 -14 -15 17 -17 19 -19 -18 -22 -23 24 25 -16 27 28 29 -13
right_child=2 5 -4 -5 -6 8 -8 -9 9 12 -12 26 13 15 23 16 20 18 -20 -21 21 22 -24 -25 -26 -27 -28 -29 -30 -31
leaf_value=-0.00068541347240145666 0.0038947440388771501 0.0015249129312177262 -0.00020429148675886596 -0.0013980706832174836 0.0014296523822148498 0.00048172820828971583 -0.0034132251223786625 0.00029267963703124742 -0.0015522060274188879 0.00030899001200309549 -0.001102391792740352 -0.0014194044409799184 -0.00024741337086027466 -0.0032293449855086685 0.0018122445444504803 0.00088439851863414366 -3.1866531724350269e-05 -0.015060856690009436 0.001092953638123474 -0.0027869172211620026 0.012015000597128402 0.00053385069813219766 -0.0010039136277131663 -2.6867573049255751e-05 0.0007594627839127441 -0.0036233236893402684 0.00066787779613822131 -0.0016943056771283216 -0.000331114573245074 0.0014809346501884358
leaf_weight=292 471 1107 1208 139 804 4785 440 3857 1085 16305 5859 619 7338 287 65 4278 228277 21 304 250 23 8041 923 324 129 727 4922 633 4590 2095
leaf_count=292 471 1107 1208 139 804 4785 440 3857 1085 16305 5859 619 7338 287 65 4278 228277 21 304 250 23 8041 923 324 129 727 4922 633 4590 2095
internal_value=0 -8.28256e-06 0.000969775 0.0019728 0.00234029 -2.56947e-06 -0.00232508 0.000567475 -1.22642e-05 -2.04975e-05 -0.000263805 8.85532e-05 -2.47152e-06 -2.27052e-05 -0.000494304 -6.00685e-06 -2.18598e-06 0.000639338 -0.00118391 -0.00373803 -1.53077e-05 0.000405299 0.000375511 -0.00194947 -0.00262583 -0.00317722 0.000226995 -4.64111e-05 9.64035e-05 0.000819435
internal_weight=0 297576 2622 1414 1275 296844 732 4964 291880 287095 19803 13944 267292 250987 8583 242404 242117 4853 575 271 237264 8987 8964 1245 921 792 12859 7937 7304 2714
internal_count=300198 297576 2622 1414 1275 296844 732 4964 291880 287095 19803 13944 267292 250987 8583 242404 242117 4853 575 271 237264 8987 8964 1245 921 792 12859 7937 7304 2714
is_linear=0
shrinkage=0.05


Tree=21
num_leaves=31
num_cat=0
split_feature=23 22 5 20 24 24 1 22 8 30 8 23 24 8 29 23 39 39 30 24 23 24 12 23 19 24 23 22 22 29
split_gain=0.89755 1.42189 1.14985 0.770061 0.885042 0.582599 0.482224 0.471477 0.464986 0.710072 0.463033 0.459185 2.19124 1.38783 0.785379 0.654021 1.00455 0.471817 0.503517 0.459388 2.18125 2.013 1.31188 1.26221 0.645088 0.617281 0.567487 0.929573 0.822002 1.20337
threshold=0.050062919972602912 -0.14954144213423223 0.99264233961012327 0.0329819374179516 0.064828421579629217 -0.085578349244189209 0.15468054521581623 -0.23974747571015007 0.83421181339320316 0.0326957270646158 0.83421181339320316 0.018171795592213203 0.070244111462249306 0.76585941791962509 0.02306713875529422 0.017182862181640193 0.056577740702261368 0.04397978752097445 0.018886157662279811 -0.056170933803610483 0.012251981000562993 -0.042758584561418282 0.057698443202797857 0.017025871940898142 4.1912308042890425 -0.083583635860697211 0.014916133235345791 -0.0781361750649959 -0.084424999165488526 -0.0012951696868626756
decision_type=2 2 2 2 2 2 2 2 2 2 2 2 2 2 2 2 2 2 2 2 2 2 2 2 2 2 2 2 2 2
left_child=1 7 -2 5 -5 8 -4 -1 9 -3 -6 15 14 -14 17 19 -17 -13 -19 20 25 23 -22 -21 -24 -7 27 -23 29 -28
right_child=2 3 6 4 10 11 -8 -9 -10 -11 -12 12 13 -15 -16 16 -18 18 -20 21 22 26 24 -25 -26 -27 28 -29 -30 -31
leaf_value=-0.00065114279045888439 0.0022810529898394083 0.0020484770200527962 0.00052151063218457768 4.5127394473491873e-05 -0.0074314264538568545 0.00063976684103031858 -0.0016867489423616757 -0.0032425638696506874 0.00023655741351210724 -0.00041739338482784662 -0.002480124970095355 0.00029564823485872635 -0.015025211001435916 -0.0026353803595602302 -0.00053831571464616965 -0.00040092361296626474 -0.003216113249391795 0.0014502345388594162 0.00030337518244820052 -0.0012708944488869348 0.00079214283329572953 0.00090055408329785312 0.010147976371137284 0.0014974363840638558 0.0032841941621544329 -0.0014457915679329737 0.00012767027417122322 -2.786214224471678e-05 0.00055372188769781485 -0.0035936912614114957
leaf_weight=292 976 979 1343 465 54 462 303 440 3569 416 376 10492 24 388 2232 4480 341 2156 1721 4522 4021 2726 39 453 280 1529 774 245907 8136 302
leaf_count=292 976 979 1343 465 54 462 303 440 3569 416 376 10492 24 388 2232 4480 341 2156 1721 4522 4021 2726 39 453 280 1529 774 245907 8136 302
internal_value=0 -7.86842e-06 0.000921286 -2.44099e-06 -0.00146686 1.98766e-06 0.000115008 -0.00220883 0.000539101 0.00131314 -0.00310192 -7.17511e-06 0.000244878 -0.00335712 0.000334271 -2.2827e-05 -0.000600048 0.000469814 0.000941144 -1.24879e-05 0.000408389 -2.26262e-05 0.00103699 -0.00101882 0.00412334 -0.00096185 -3.40508e-06 -1.7683e-05 0.000381959 -0.000916801
internal_weight=0 297576 2622 296844 895 295949 1646 732 4964 1395 430 290985 17013 412 16601 273972 4821 14369 3877 269151 6331 262820 4340 4975 319 1991 257845 248633 9212 1076
internal_count=300198 297576 2622 296844 895 295949 1646 732 4964 1395 430 290985 17013 412 16601 273972 4821 14369 3877 269151 6331 262820 4340 4975 319 1991 257845 248633 9212 1076
is_linear=0
shrinkage=0.05


Tree=22
num_leaves=31
num_cat=0
split_feature=23 1 20 24 3 24 24 23 8 30 24 23 24 23 26 23 23 25 23 24 20 24 8 23 24 24 24 23 20 30
split_gain=0.810039 1.05765 1.01586 0.873845 0.75449 0.533835 0.523054 0.437669 0.538619 0.533083 0.399821 2.39491 1.49374 0.849992 0.765353 0.759751 0.759951 0.735123 0.630037 1.214 2.07436 1.17609 1.03346 0.99907 1.76132 1.16605 1.48939 1.52853 1.07664 0.916738
threshold=0.050062919972602912 0.097005367801481571 0.0329819374179516 0.053421633460953417 -0.32590629552262257 -0.085578349244189209 0.039614523683727428 0.018615515645751667 0.83421181339320316 0.0326957270646158 0.083742192990705414 0.012815935141205837 0.074513272662525734 0.013607378283937476 1.0000000180025095e-35 0.0091679520368239814 0.0060333316809142541 0.53842734040304685 0.014916133235345791 0.061464153566851538 -0.01533376446078853 -0.011496988335555512 0.75572285369258507 0.012747374405512433 0.042064609390410797 -0.013246690701601614 0.028904935593706996 0.013085373868212841 0.0027511003337863777 -0.035542211687774786
decision_type=2 2 2 2 2 2 2 2 2 2 2 2 2 2 2 2 2 2 2 2 2 2 2 2 2 2 2 2 2 2
left_child=2 4 5 -4 -2 7 -6 8 9 -1 12 -12 15 -13 -14 16 -7 -18 23 21 22 -20 -21 -17 25 -25 27 28 -27 -28
right_child=1 -3 3 -5 6 10 -8 -9 -10 -11 11 13 14 -15 -16 18 17 -19 19 20 -22 -23 -24 24 -26 26 29 -29 -30 -31
leaf_value=0.0022031421421940625 0.0029728791777688143 -0.00089563895488135252 4.2871024950101701e-05 -0.0028732975427751294 0.0011346409241356173 -5.0001899751180968e-05 -0.002149147935513122 -0.00092613239333191085 0.00032828503614524765 -0.00011525143387085908 2.3365100655728755e-06 0.0020472493246772817 -1.4425011936769771e-05 0.00069027271563663211 -0.00063306116847773358 -6.9448789333835371e-05 5.5438875241361348e-05 0.00040370729262771465 -3.9932009238261553e-05 -0.0092064963483911317 0.0010302211383951029 0.00065802121801816727 -0.002800164130766899 -0.00011901534296907646 0.00041791114351224503 -0.0011475249796625933 0.0010587434020922775 -0.0014196474765719692 -0.0061626184300834002 -0.00078212830074761224
leaf_weight=888 574 638 465 574 1276 52439 134 478 3254 344 50303 1672 7501 3725 14992 46847 34337 27119 25724 72 417 7886 501 4605 4002 164 817 4215 308 3927
leaf_count=888 574 638 465 574 1276 52439 134 478 3254 344 50303 1672 7501 3725 14992 46847 34337 27119 25724 72 417 7886 501 4605 4002 164 817 4215 308 3927
internal_value=0 0.000875222 -7.47501e-06 -0.00156818 0.00144468 -2.00665e-06 0.000822565 0.000512146 0.0006654 0.0015558 -1.076e-05 0.000109727 -3.92124e-05 0.00111067 -0.000426757 1.63988e-06 8.98169e-05 0.000209121 -9.93092e-05 7.29999e-05 -0.00165267 0.000123831 -0.00360515 -0.000191193 -0.000507379 -0.000771202 -0.00108965 -0.0017218 -0.00442009 -0.000465098
internal_weight=0 2622 297576 1039 1984 296537 1410 4964 4486 1232 291573 55700 235873 5397 22493 213380 113895 61456 99485 34600 990 33610 573 64885 18038 14036 9431 4687 472 4744
internal_count=300198 2622 297576 1039 1984 296537 1410 4964 4486 1232 291573 55700 235873 5397 22493 213380 113895 61456 99485 34600 990 33610 573 64885 18038 14036 9431 4687 472 4744
is_linear=0
shrinkage=0.05


Tree=23
num_leaves=31
num_cat=0
split_feature=23 22 21 20 16 3 24 8 21 24 23 21 20 23 22 23 21 24 24 24 24 23 24 23 21 12 23 22 24 8
split_gain=0.73106 1.16979 0.998086 0.64937 0.838518 0.617901 0.601071 0.514293 0.499118 0.948617 0.784384 0.583637 0.723055 0.748998 0.467669 0.824978 0.449901 2.02895 2.26018 0.418799 1.27245 1.00779 1.62103 1.0527 1.00677 0.993112 0.570477 0.683546 1.3144 0.859057
threshold=0.050062919972602912 -0.14954144213423223 0.033402597817409993 0.026557524869081518 -0.093422576171575025 -0.24318097816494438 0.039614523683727428 0.81561008546092484 -0.028097648693806234 0.083280323105697565 0.019830602783589463 -0.033280832714891177 -0.02536580867665018 0.01260709313656393 -0.086673933851318982 0.015655728535385858 -0.025300886043280638 0.034722811124530469 0.025184953205609987 -0.053207113989022219 -0.042201016315581923 0.016770813928214039 -0.043925263469571811 0.012251981000562993 0.035205204046617637 0.061188187059096184 0.014916133235345791 -0.0781361750649959 0.070244111462249306 0.76585941791962509
decision_type=2 2 2 2 2 2 2 2 2 2 2 2 2 2 2 2 2 2 2 2 2 2 2 2 2 2 2 2 2 2
left_child=1 -1 5 8 -5 -2 -7 -4 9 10 11 14 -13 -14 15 -3 17 18 -10 24 21 23 -23 -21 25 -18 -22 28 -28 -30
right_child=2 3 7 4 -6 6 -8 -9 16 -11 -12 12 13 -15 -16 -17 19 -19 -20 20 26 22 -24 -25 -26 -27 27 -29 29 -31
leaf_value=-0.0020034410880005135 0.0026032543387735458 0.0009043208803391538 -0.0020249289724970729 -0.0031086781456350072 -0.00044104290742915075 0.0011267855527479205 -0.0031661441460449206 0.0003801783901435582 -0.00099327556501735436 0.0011919814107030184 0.0011975939339029294 -0.002958182780479547 0.00013198129958642347 0.0013371781312254236 -0.00027753560344925539 -0.00068973272267287334 0.00033670441622638241 0.00035313441683137683 -0.0058544874901115262 0.00035906033300953907 -2.8663206599298128e-05 0.00093193697352607981 -0.0021197677176012734 -0.0021083451139070532 -0.00050694420894327149 0.0020677005426887165 -8.9852632457967271e-05 0.00038651326862523035 -0.013763485252857208 -0.00300529284261399
leaf_weight=732 792 2429 327 340 2205 717 92 694 1069 2276 1574 150 3637 1997 11581 1219 10722 2265 308 561 228976 1378 636 1884 3407 898 1857 15198 20 257
leaf_count=732 792 2429 327 340 2205 717 92 694 1069 2276 1574 150 3637 1997 11581 1219 10722 2265 308 561 228976 1378 636 1884 3407 898 1857 15198 20 257
internal_value=0 -7.10125e-06 0.000831461 -2.17839e-06 -0.000797426 0.00161049 0.000638591 -0.000390116 4.69865e-06 0.000219051 0.000121013 4.03705e-05 0.000467952 0.000559169 -0.000122026 0.000371659 -1.50814e-05 -0.000567036 -0.00208061 -7.51829e-06 -2.28822e-05 -0.00085998 -3.17592e-05 -0.0015422 0.000248871 0.000470477 -7.7279e-06 0.000268852 -0.000569113 -0.00378206
internal_weight=0 297576 2622 296844 2545 1601 809 1021 294299 24863 22587 21013 5784 5634 15229 3648 269436 3642 1377 265794 250767 4459 2014 2445 15027 11620 246308 17332 2134 277
internal_count=300198 297576 2622 296844 2545 1601 809 1021 294299 24863 22587 21013 5784 5634 15229 3648 269436 3642 1377 265794 250767 4459 2014 2445 15027 11620 246308 17332 2134 277
is_linear=0
shrinkage=0.05


Tree=24
num_leaves=31
num_cat=0
split_feature=23 22 5 20 16 24 23 24 8 21 23 24 20 22 8 15 25 15 24 23 24 22 23 24 24 23 22 11 24 39
split_gain=0.659781 1.05574 0.905499 0.586057 0.763773 0.464942 0.455199 1.73359 1.12398 0.603935 0.50347 0.524472 0.46165 0.431086 0.58394 0.466845 0.417161 0.386773 0.385024 2.11957 1.27456 1.31925 0.813726 1.63919 1.31898 1.06625 1.77741 1.07715 1.02325 1.1504
threshold=0.050062919972602912 -0.14954144213423223 0.99368168325792483 0.026557524869081518 -0.067799165382732271 -0.085578349244189209 0.018171795592213203 0.070244111462249306 0.79366543630787301 0.048194241697493777 0.018041606241306667 -0.036898769465594054 0.0095334224990976744 -0.019244143993424282 0.5581054557840045 0.054172150578837099 0.70765997918111057 0.16728500695581658 0.083742192990705414 0.012815935141205837 0.075661178153475186 -0.01990348622185904 0.012557923200948767 -0.064560632273084936 0.042064609390410797 0.014753243116404559 -0.072494806569149597 0.035982166418604696 -0.011496988335555512 0.048873346072946099
decision_type=2 2 2 2 2 2 2 2 2 2 2 2 2 2 2 2 2 2 2 2 2 2 2 2 2 2 2 2 2 2
left_child=1 -1 -2 5 -5 13 10 9 -9 -8 18 -12 -11 -3 15 -15 -16 -4 20 -20 22 -22 -7 -24 25 26 -25 -28 29 -27
right_child=2 3 17 4 -6 6 7 8 -10 12 11 -13 -14 14 16 -17 -18 -19 19 -21 21 -23 23 24 -26 28 27 -29 -30 -31
leaf_value=-0.0019032690117893139 0.0019896917165806278 -0.000721243462776547 0.00043534265385660451 -0.0024505056637756507 -0.00031438308376807787 3.9767264825680591e-05 0.00045807803623125297 -0.011947923977459141 -0.0021905840011899463 0.00030535424301972552 -0.0017979932964654463 0.00067463533781627477 -0.0011713575170270933 0.0054645725711288604 -4.7537000529394917e-05 -0.00010231107130254571 0.0010062854951357687 -0.0015458116199727177 1.6729443992546619e-06 0.0010443455698506555 0.00033748468207020038 -0.00068714036069095598 0.0011798530242437203 0.00069455045309445166 0.00030904635182391255 -0.00024595980992217725 -0.00081930544337647398 -0.0022906820735282235 0.0004690022922149367 -0.0019489681434798252
leaf_weight=732 983 625 1337 528 2017 162014 13726 32 380 1036 765 298 1082 111 1617 57 2240 302 50303 5397 4082 13635 1978 1791 7091 8653 10337 1414 4515 1120
leaf_count=732 983 625 1337 528 2017 162014 13726 32 380 1036 765 298 1082 111 1617 57 2240 302 50303 5397 4082 13635 1978 1791 7091 8653 10337 1414 4515 1120
internal_value=0 -6.74619e-06 0.000789887 -2.06948e-06 -0.000757555 4.46371e-06 -3.49908e-06 0.000253553 -0.00294844 0.000336816 -1.87835e-05 -0.00110482 -0.000449038 0.000500467 0.000690173 0.00357581 0.000564483 7.02978e-05 -1.45443e-05 0.000102702 -4.46906e-05 -0.000451067 -8.49509e-06 -0.000220403 -0.000299716 -0.000454827 -0.000772725 -0.000996356 -0.000153527 -0.000441127
internal_weight=0 297576 2622 296844 2545 294299 289649 16256 412 15844 273393 1063 2118 4650 4025 168 3857 1639 272330 55700 216630 17717 198913 36899 34921 27830 13542 11751 14288 9773
internal_count=300198 297576 2622 296844 2545 294299 289649 16256 412 15844 273393 1063 2118 4650 4025 168 3857 1639 272330 55700 216630 17717 198913 36899 34921 27830 13542 11751 14288 9773
is_linear=0
shrinkage=0.05


Tree=25
num_leaves=31
num_cat=0
split_feature=20 23 1 22 21 12 21 21 23 23 20 23 23 22 23 20 23 23 22 22 22 22 20 39 23 22 21 22 20 21
split_gain=0.72579 1.00968 0.883548 0.834599 0.66559 0.454926 0.405537 0.686215 2.05589 0.788688 0.552055 0.537515 0.600038 0.843059 0.676024 0.504014 0.710932 0.587308 0.567966 0.476663 0.475019 0.471727 0.427835 0.394385 0.350078 0.525203 0.460423 0.603988 0.453163 0.421862
threshold=0.026557524869081518 0.050062919972602912 -0.031370772202190228 -0.14954144213423223 -0.033280832714891177 0.04725584354994853 -0.026970313582000301 -0.025300886043280638 0.012747374405512433 0.01416361994617945 0.0027511003337863777 0.019830602783589463 0.015655728535385858 -0.067684898695093546 0.01519259908963746 0.014104381053690693 0.018171795592213203 0.017182862181640193 -0.0066346574119062309 0.065010342554020287 -0.12321956859694271 -0.067684898695093546 0.0059736644918001389 0.062745912913607912 0.012388000668724459 -0.065916236521728511 -0.038746673014154374 -0.01990348622185904 -0.0050810340034318875 -0.069965916716755908
decision_type=2 2 2 2 2 2 2 2 2 2 2 2 2 2 2 2 2 2 2 2 2 2 2 2 2 2 2 2 2 2
left_child=1 3 5 -1 -2 -3 11 8 -8 10 -10 12 14 22 21 16 17 -15 23 -20 -16 -5 -14 -18 26 -26 27 -23 -28 -27
right_child=4 2 -4 6 -6 -7 7 -9 9 -11 -12 -13 13 15 20 -17 18 -19 19 -21 -22 24 -24 -25 25 29 28 -29 -30 -31
leaf_value=-0.0019163097699830432 -0.0022419663543324221 0.0016699853543100749 0.00031258971395257967 0.00070628536873143858 -0.00040575607671809196 0.0043856624503813826 0.00013850003962184273 -6.8219275764148724e-06 -0.0018058967732431021 -0.00097229496246240661 -0.0054257892808709587 0.0010941389231881175 -0.00069678408970723674 -0.00044383404112800849 -0.0010845038209170584 0.0022770546764554131 0.0016412377622329454 -0.0039454473434670945 -0.0025531973108633148 0.00054105105068049861 0.0019092077814329589 -0.00028208063479822504 -0.002360958532377104 0.0067169541631647879 -0.0013023199935651691 -0.0013787903820960143 0.00045676479374165131 -0.0020508925194565623 -0.00038710064758607925 0.0005996986207948145
leaf_weight=567 591 445 1083 3510 2992 236 1682 266292 157 303 320 1551 1866 476 155 288 431 160 159 573 913 2519 487 42 437 284 3943 597 2667 5251
leaf_count=567 591 445 1083 3510 2992 236 1682 266292 157 303 320 1551 1866 476 155 288 431 160 159 573 913 2519 487 42 437 284 3943 597 2667 5251
internal_value=0 7.26983e-06 0.00119994 1.53262e-07 -0.000708631 0.0026111 3.83598e-06 -1.45042e-05 -0.000845421 -0.00296716 -0.00423434 0.000191186 0.000134619 -0.000388929 0.000250349 0.000331989 2.77093e-05 -0.00132474 0.000741535 -0.00013106 0.00147473 0.000182272 -0.00104122 0.00209194 6.51044e-05 0.000366431 -0.000119918 -0.00062097 0.000116282 0.000498183
internal_weight=0 297394 1764 295630 3583 681 295063 268754 2462 780 477 26309 24758 4482 20276 2129 1841 636 1205 732 1068 19208 2353 473 15698 5972 9726 3116 6610 5535
internal_count=300977 297394 1764 295630 3583 681 295063 268754 2462 780 477 26309 24758 4482 20276 2129 1841 636 1205 732 1068 19208 2353 473 15698 5972 9726 3116 6610 5535
is_linear=0
shrinkage=0.05


Tree=26
num_leaves=31
num_cat=0
split_feature=23 5 5 24 35 21 24 24 23 24 23 26 21 23 23 5 35 21 24 26 24 23 23 24 21 21 35 39 39 23
split_gain=0.51381 0.866816 0.596947 0.497064 0.487179 0.389069 0.353786 0.394005 1.97873 1.49452 0.778959 0.705073 0.679673 0.641296 0.64252 0.57621 0.529675 0.527273 0.506203 1.16982 0.50582 0.661869 1.22811 1.0573 0.517722 0.505148 0.495515 0.506432 0.477899 0.467405
threshold=0.050062919972602912 0.92017490388487422 1.0777887344956589 0.039614523683727428 -0.26576932321658658 0.028228002286305513 -0.085578349244189209 0.08257309806552128 0.01260709313656393 0.075661178153475186 0.013607378283937476 1.0000000180025095e-35 0.01282910849221249 0.0091679520368239814 0.0060333316809142541 1.0472117940541261 -0.14948519033300642 -0.022143889764230106 0.037791746669222921 1.0000000180025095e-35 0.079430761691850052 0.0084478631098898818 0.0087253204671624233 0.081616803815351205 -0.0029729537321871078 -0.008058459208912001 -0.076514051776344003 0.040801026370452437 0.04397978752097445 0.0076444788994725283
decision_type=2 2 2 2 2 2 2 2 2 2 2 2 2 2 2 2 2 2 2 2 2 2 2 2 2 2 2 2 2 2
left_child=4 -2 3 5 -1 -3 -6 9 17 13 -10 16 20 14 -8 -15 -11 -9 25 26 29 -22 -23 -24 -25 -16 -20 -28 -12 -13
right_child=1 2 -4 -5 6 -7 7 8 10 11 28 12 -14 15 18 -17 -18 -19 19 -21 21 22 23 24 -26 -27 27 -29 -30 -31
leaf_value=-0.0019451288794148298 0.0037432054285074 0.0017266132807153259 -0.0014372010257775302 -0.0014987689972050878 0.00041933905706111876 0.00027509926548250979 -5.3877551491531939e-05 0.0006743958552502061 0.0018157237781211387 -0.0081389877444598829 0.00038978394259350004 -0.0010893693353103073 -4.7718187210106039e-05 -7.5975697064894918e-05 0.00093459304371840211 -0.00072103823479058912 1.4544861229420131e-05 -3.388571428874388e-05 0.00078292834354010154 0.00019872852468240105 -0.00072256118870309464 -0.0045300876252744393 3.9044350523027507e-06 -0.0056795624624216331 -0.0020284259922958682 0.00026983400741843321 -0.00053652834679667578 -0.0023853841181063463 0.0019994252187801368 -0.00012508738568470855
leaf_weight=324 214 949 366 219 4827 899 53877 2776 1834 20 3790 2915 2645 99280 3311 3587 4891 49162 665 31583 1405 419 619 142 307 20878 5944 395 525 2209
leaf_count=324 214 949 366 219 4827 899 53877 2776 1834 20 3790 2915 2645 99280 3311 3587 4891 49162 665 31583 1405 419 619 142 307 20878 5944 395 525 2209
internal_value=0 0.000692357 0.000424013 0.000753575 -7.34368e-06 0.00102049 -5.23687e-06 -1.22272e-05 0.000104382 -4.10393e-05 0.000952515 -0.000514372 -0.000742722 -7.46274e-06 7.27886e-05 -9.84692e-05 -1.86603e-05 3.97076e-06 0.000181499 6.90839e-05 -0.000972049 -0.00150073 -0.00223599 -0.00133596 -0.00318313 0.000360826 -0.00051552 -0.000651735 0.000585627 -0.000673659
internal_weight=0 2647 2433 2067 298330 1848 298006 293179 58087 235092 6149 15572 10661 219520 116653 102867 4911 51938 62776 38587 8016 2892 1487 1068 449 24189 7004 6339 4315 5124
internal_count=300977 2647 2433 2067 298330 1848 298006 293179 58087 235092 6149 15572 10661 219520 116653 102867 4911 51938 62776 38587 8016 2892 1487 1068 449 24189 7004 6339 4315 5124
is_linear=0
shrinkage=0.05


Tree=27
num_leaves=31
num_cat=0
split_feature=23 5 5 31 21 27 6 36 29 21 31 30 10 27 23 39 42 25 4 4 30 36 23 0 39 21 31 37 5 37
split_gain=0.463714 0.782301 0.539751 0.506936 0.339621 0.327359 0.361716 0.318966 0.303854 0.530835 0.44365 0.7351 0.600878 0.341766 0.821181 0.47434 0.405191 0.326518 0.377574 0.322041 0.384015 0.31894 0.327547 0.313102 0.309952 0.305349 0.330427 0.303064 0.29205 0.291428
threshold=0.050062919972602912 0.92017490388487422 1.0983652425946286 -0.27048192692651601 0.033402597817409993 1.0000000180025095e-35 0.85237756044091728 0.092072213500784941 0.015776841394709477 0.019030715656686199 -0.046772656473949584 -0.0070251142031675816 0.041021186246502896 1.0000000180025095e-35 0.018615515645751667 0.076605861156145566 -2.245198507635477 0.78001968705192926 -0.15621587041771215 -0.6637270191938679 0.012449232827197789 0.36997722817940742 0.018041606241306667 0.017536826272735798 0.068289756153503897 0.038714436290159367 -0.20104914170232321 0.091507177033492829 1.0389105579380282 0.063301282051282062
decision_type=2 2 2 2 2 2 2 2 2 2 2 2 2 2 2 2 2 2 2 2 2 2 2 2 2 2 2 2 2 2
left_child=3 29 5 7 -4 6 -3 -1 17 13 11 12 -11 14 24 -15 23 19 25 20 -5 22 -22 -16 -10 26 -19 -23 -12 -2
right_child=1 2 4 8 -6 -7 -8 -9 9 10 28 -13 -14 15 16 -17 -18 18 -20 -21 21 27 -24 -25 -26 -27 -28 -29 -30 -31
leaf_value=-0.0044706956648726927 0.0084119181493642163 0.0013876788733873352 0.0010449055686194697 0.0018194747165846759 -0.0033099547529166517 0.0012703725995641079 -0.00052864007496015845 -0.0010299858411678218 1.1627070791097358e-05 0.000744598085890548 -0.00013585760052965158 -0.0015152569437389435 0.0097917172669743507 0.00034667724150472777 -0.0094910523102788094 0.0036727918451393013 -0.001113790874153954 -0.0024722436870358989 0.0001030552037342277 -1.0804986058031295e-05 0.0054700669922333744 -0.0044249825118801225 -0.0021138461539521813 -0.0030375499172720973 -0.0019957373961089898 -0.00047243887307210061 0.00093358353175455704 7.7294031963178736e-05 -0.00084054975536913151 0.0028549297677258399
leaf_weight=89 27 354 64 495 149 1057 809 277 13893 78 5831 1479 24 3123 22 111 678 73 25652 240582 35 68 24 129 195 511 2912 83 1966 187
leaf_count=89 27 354 64 495 149 1057 809 277 13893 78 5831 1479 24 3123 22 111 678 73 25652 240582 35 68 24 129 195 511 2912 83 1966 187
internal_value=0 0.00065774 0.000402813 -6.9765e-06 -0.00200145 0.000633492 5.46591e-05 -0.00186666 -4.69218e-06 -0.000162947 -0.000468404 -0.00123212 0.00287333 -5.128e-06 -0.000106149 0.000460839 -0.00163546 1.14174e-05 0.000169489 -7.67803e-06 0.0010594 -0.000732207 0.00238509 -0.0039778 -1.6158e-05 0.000656952 0.000850292 -0.00195022 -0.000313545 0.00355605
internal_weight=0 2647 2433 298330 213 2220 1163 366 297964 27529 9378 1581 102 18151 14917 3234 829 270435 29148 241287 705 210 59 151 14088 3496 2985 151 7797 214
internal_count=300977 2647 2433 298330 213 2220 1163 366 297964 27529 9378 1581 102 18151 14917 3234 829 270435 29148 241287 705 210 59 151 14088 3496 2985 151 7797 214
is_linear=0
shrinkage=0.05


Tree=28
num_leaves=31
num_cat=0
split_feature=23 22 5 24 41 24 22 2 22 24 23 11 24 24 23 23 8 37 24 35 22 39 5 24 24 10 24 23 22 39
split_gain=0.418502 0.856202 0.706063 0.492294 0.451508 0.333621 0.768288 0.485181 0.355586 0.409457 0.460641 0.442196 0.335423 1.51436 0.950088 0.792833 1.11672 0.551392 0.539614 0.533384 0.632548 0.776207 0.530952 0.52076 0.519473 1.05166 0.722477 1.40564 1.3368 1.31605
threshold=0.050062919972602912 -0.14954144213423223 0.95049270005630382 0.005714139707460931 -0.92947344907022122 0.10155509398855202 0.0068321971811006578 -0.041994114303540664 0.038720701538707068 0.11280989480507576 0.0097479325929846049 0.024894929324938076 -0.053207113989022219 -0.042201016315581923 0.011656450806729677 0.017436389175464286 0.5581054557840045 0.035088919288645694 -0.056170933803610483 -0.067291062457147291 0.16119398951469613 0.027986239963018172 1.0666946876546406 -0.023965133465645935 -0.010013902122721794 0.033703859657819253 0.0033657132669617788 0.021232901404564415 -0.065916236521728511 0.060467559010651976
decision_type=2 2 2 2 2 2 2 2 2 2 2 2 2 2 2 2 2 2 2 2 2 2 2 2 2 2 2 2 2 2
left_child=1 -1 -2 -4 -5 12 7 -7 9 10 -8 -12 14 17 -3 16 -16 -14 22 -19 21 -21 -17 -15 25 -25 29 28 -28 -26
right_child=2 5 3 4 -6 6 8 -9 -10 -11 11 -13 13 23 15 18 -18 19 -20 20 -22 -23 -24 24 26 -27 27 -29 -30 -31
leaf_value=-0.0017433303199038169 0.0024463085287559881 -0.001148002537161156 0.00095106524108323699 0.00074499803629860569 -0.0014054941396822269 0.0019220547166531436 0.00029791161861459308 0.00054496006822761555 -0.00047827140264214326 0.0005444152833811454 -0.00021270861986534794 -0.0017127126054487661 -0.0042788725300245698 0.00026213506413007737 0.003491557326768935 -0.00014777075759375951 0.00048018393489111246 -0.00010921334234802918 0.001301064904038569 -0.00064576536593440557 0.00081857928295725837 -0.0020265971743263513 -0.0024189306101514161 -0.000156543888572347 0.00031031261995213881 -0.0014990925098399529 0.00077214931382500089 -0.0018448636207529249 -3.9039809320323557e-05 0.0033201997660224514
leaf_weight=708 443 1238 1186 406 612 821 3120 2895 2695 4190 1850 669 108 16536 318 6467 9656 2628 622 2618 435 1665 268 9924 7761 1710 5203 1060 212784 381
leaf_count=708 443 1238 1186 406 612 821 3120 2895 2695 4190 1850 669 108 16536 318 6467 9656 2628 622 2618 435 1665 268 9924 7761 1710 5203 1060 212784 381
internal_value=0 -6.62767e-06 0.000624853 0.000258743 -0.000547832 -2.4963e-06 0.000217857 0.000849211 3.05276e-05 0.000170034 -0.000108145 -0.000611082 -1.5214e-05 -2.97247e-05 0.000190161 0.00028575 0.000576195 -0.000732217 -0.000108012 -0.000680075 -0.000998053 -0.00118256 -0.000238145 -9.21879e-06 -2.80072e-05 -0.000353876 -1.132e-05 -2.85104e-05 -1.9678e-05 0.000451158
internal_weight=0 298330 2647 2204 1018 297622 16240 3716 12524 9829 5639 2519 281382 262813 18569 17331 9974 7454 7357 7346 4718 4283 6735 255359 238823 11634 227189 219047 217987 8142
internal_count=300977 298330 2647 2204 1018 297622 16240 3716 12524 9829 5639 2519 281382 262813 18569 17331 9974 7454 7357 7346 4718 4283 6735 255359 238823 11634 227189 219047 217987 8142
is_linear=0
shrinkage=0.05


Tree=29
num_leaves=31
num_cat=0
split_feature=20 23 24 15 22 21 8 27 12 23 21 24 24 31 22 23 23 23 39 8 23 24 22 20 23 39 24 23 24 24
split_gain=0.576231 0.706979 0.686588 0.667264 0.621492 0.603127 0.602849 0.526207 0.379036 0.345386 0.73124 0.746298 1.15569 0.683073 0.671175 0.564852 0.591718 0.747556 0.653669 0.548004 0.526841 0.896704 0.712512 0.523767 0.495785 0.449012 0.506599 0.429522 4.17182 1.52499
threshold=0.026557524869081518 0.050062919972602912 0.04476724478862882 -0.030883814885171449 -0.14954144213423223 0.019227456282962938 0.80133281497124598 1.0000000180025095e-35 0.04725584354994853 0.014637386990117209 0.00066773255958813005 -0.019598611419212594 -0.050800390211871264 -0.13893076236731464 -0.072494806569149597 0.021232901404564415 0.015484896536909333 0.016249459566469306 0.047083239700507866 0.77581819235851779 0.017182862181640193 -0.03563750753252936 -0.0066346574119062309 -0.027349861135242074 0.016770813928214039 0.07199510869759683 0.0081110176303270682 0.012557923200948767 0.043767335212522858 -0.019598611419212594
decision_type=2 2 2 2 2 2 2 2 2 2 2 2 2 2 2 2 2 2 2 2 2 2 2 2 2 2 2 2 2 2
left_child=1 4 5 8 -1 -2 7 -7 -3 14 11 12 19 -12 -6 16 -14 18 -18 24 -19 22 -22 -13 -11 -25 -27 -16 29 -29
right_child=2 3 -4 -5 9 6 -8 -9 -10 10 13 23 15 -15 27 -17 17 20 -20 -21 21 -23 -24 25 -26 26 -28 28 -30 -31
leaf_value=-0.0016531676289320979 0.00084182433668955918 0.0013718768988055059 -0.001846189496352959 0.00023344449277860467 0.00068396910180433404 -0.00087837734671945269 -0.00030198028832924024 -0.0047102679328932225 0.0038507123289815296 0.0034469109093451023 -0.0016158399961870914 -0.0001433016255296667 0.00069499791174680462 1.1540324472285703e-07 -5.3430658514734029e-06 0.00099271386620502318 -0.0012716380318636836 0.00086256249546056178 -0.0048444960432776421 0.00044881132642389906 0.00066790537434943155 -0.00010562544496482473 -0.0032308606957723121 0.00099787350370910354 0.001058452822753882 0.0064418016077252109 -1.4054059758972454e-05 -0.00010444615209612375 0.00044132449079906642 -0.0012453336605006335
leaf_weight=567 876 445 878 1083 3363 202 1466 161 236 298 674 1076 954 21990 226347 772 1300 793 142 4104 156 2096 471 4517 802 80 49 4488 12159 8432
leaf_count=567 876 445 878 1083 3363 202 1466 161 236 298 674 1076 954 21990 226347 772 1300 793 142 4104 156 2096 471 4517 802 80 49 4488 12159 8432
internal_value=0 6.5735e-06 -0.000631316 0.00100458 6.18494e-07 -0.000236987 -0.000753684 -0.00257792 0.00223092 3.79645e-06 0.00013986 0.00038156 0.000155738 -4.79412e-05 -1.77109e-05 -0.000279259 -0.000445355 -0.000664778 -0.00162347 0.000714447 -0.000271593 -0.000601885 -0.00226083 0.000850727 0.00170551 0.00108094 0.00398958 -2.70964e-05 -0.000223428 -0.000849025
internal_weight=0 297394 3583 1764 295630 2705 1829 363 681 295063 40274 17610 11888 22664 254789 6684 5912 4958 1442 5204 3516 2723 627 5722 1100 4646 129 251426 25079 12920
internal_count=300977 297394 3583 1764 295630 2705 1829 363 681 295063 40274 17610 11888 22664 254789 6684 5912 4958 1442 5204 3516 2723 627 5722 1100 4646 129 251426 25079 12920
is_linear=0
shrinkage=0.05


Tree=30
num_leaves=31
num_cat=0
split_feature=20 23 15 24 22 8 11 22 22 11 21 24 20 22 27 24 24 23 20 24 7 21 21 24 24 24 20 24 22 8
split_gain=0.486214 0.663603 0.677102 0.587287 0.56526 0.524675 0.355168 0.348825 0.855692 0.346821 0.332058 0.72709 0.430141 0.615877 0.62255 1.17873 0.585831 0.395488 0.479014 0.45342 0.465557 0.352784 0.343961 1.67369 1.61177 0.313742 0.312402 0.307007 1.053 0.718546
threshold=0.026557524869081518 0.03234788956078475 -0.012686228453159693 0.0097929583288393091 -0.14954144213423223 0.71110510486800105 0.067947452900220098 -0.051538138943649815 -0.028985836182514175 0.037247753331626728 -0.028097648693806234 0.083742192990705414 -0.019125420975858856 -0.0781361750649959 1.0000000180025095e-35 -0.056170933803610483 0.077703145127311482 0.0080699571402756288 -0.012028484524535072 -0.011496988335555512 0.86500051925416799 -0.03629665723887731 -0.025300886043280638 0.034722811124530469 0.025184953205609987 0.0019085614035270206 0.01102560740142805 0.034722811124530469 -0.086673933851318982 0.79366543630787301
decision_type=2 2 2 2 2 2 2 2 2 2 2 2 2 2 2 2 2 2 2 2 2 2 2 2 2 2 2 2 2 2
left_child=1 4 6 7 5 -1 -3 -2 9 -9 11 12 13 -6 16 -16 21 -14 19 -19 -21 -15 23 24 -12 -4 -25 -24 29 -29
right_child=3 2 25 -5 10 -7 -8 8 -10 -11 22 -13 17 14 15 -17 -18 18 -20 20 -22 -23 27 26 -26 -27 -28 28 -30 -31
leaf_value=-0.0075877361835386785 0.0011638856845863355 0.00089788607893829045 0.00040062466076995468 -0.0015045358033608099 0.00065532151532100413 -0.0013670092169352733 0.0024326030932054028 -0.0021011758668036612 4.1416614028876747e-05 -0.0067525872678317611 -0.0009662110444193583 0.0010500032942916168 -0.0005452638037816062 -0.00028709933743471729 0.0022756604799417201 -0.0025146759325985796 -0.0019955913215989459 -0.0001301436332070833 0.00014456194605448876 0.0028528293194931935 0.00089160326713500979 0.0010554089237216357 6.0663984484102582e-05 0.00010670527982286384 -0.0050903767118731479 -0.00079149016963799782 0.0018187032721023655 -0.011773197503167798 -4.692762449586048e-05 -0.0023652568262983579
leaf_weight=39 425 1318 2443 1163 1344 259 528 272 1657 47 1086 2158 1540 2474 154 773 428 917 11732 353 2119 610 93858 1936 303 713 309 22 169463 262
leaf_count=39 425 1318 2443 1163 1344 259 528 272 1657 47 1086 2158 1540 2474 154 773 428 917 11732 353 2119 610 93858 1936 303 713 309 22 169463 262
internal_value=0 5.17495e-06 0.000576214 -0.00058232 -4.60237e-06 -0.00218113 0.00133685 -0.000135615 -0.000415113 -0.00278649 -2.37991e-06 0.0001734 8.91138e-05 -0.000282421 -0.000566342 -0.00171887 -0.000262129 0.000218073 0.000295815 0.00081942 0.00117167 -2.15578e-05 -1.85622e-05 -0.000501686 -0.00186587 0.000131303 0.000342343 -1.19019e-05 -5.20257e-05 -0.00309404
internal_weight=0 297141 5002 3564 292139 298 1846 2401 1976 319 291841 24602 22444 5783 4439 927 3512 16661 15121 3389 2472 3084 267239 3634 1389 3156 2245 263605 169747 284
internal_count=300705 297141 5002 3564 292139 298 1846 2401 1976 319 291841 24602 22444 5783 4439 927 3512 16661 15121 3389 2472 3084 267239 3634 1389 3156 2245 263605 169747 284
is_linear=0
shrinkage=0.05


Tree=31
num_leaves=31
num_cat=0
split_feature=20 24 21 11 24 24 39 21 29 24 24 21 24 21 24 39 22 31 12 31 12 20 3 39 20 22 21 24 24 24
split_gain=0.438808 0.530027 0.393622 0.67215 0.671389 0.460126 0.380268 0.347138 0.564207 0.419696 0.450941 0.391679 0.42975 0.376235 0.359047 0.750612 0.392229 0.354842 0.349312 0.331352 0.327045 0.322887 0.922735 0.343285 0.321192 0.473714 0.316598 1.5105 1.45462 0.339304
threshold=0.026557524869081518 0.0097929583288393091 -0.028097648693806234 0.053712549175865341 0.083280323105697565 0.080839620990318731 0.07199510869759683 -0.033280832714891177 -0.038846157021469284 0.046804791158021282 0.057988920562853992 -0.034418981149773924 -0.042201016315581923 -0.055557688576694471 0.057240389723129288 0.058442940691744126 -0.07563746988463356 -0.11369497328127239 0.054887700693408446 -0.037707696609478043 0.032201345280730244 0.030260647537435199 -0.087268385192546927 0.055019293991833987 0.0021215045184239749 0.036678358627950235 -0.025300886043280638 0.034722811124530469 0.025184953205609987 0.034722811124530469
decision_type=2 2 2 2 2 2 2 2 2 2 2 2 2 2 2 2 2 2 2 2 2 2 2 2 2 2 2 2 2 2
left_child=2 21 3 4 5 7 -5 11 -9 24 -11 12 13 -1 16 17 20 -16 -13 -8 -14 22 23 -2 -10 -26 27 28 -4 -28
