tree
version=v4
num_class=1
num_tree_per_iteration=1
label_index=0
max_feature_idx=46
objective=regression
feature_names=return_1d return_5d return_10d return_20d return_60d price_to_ma_5 price_to_ma_20 price_to_ma_60 price_to_ma_200 volatility_5d volatility_10d volatility_20d volatility_60d volume_ratio_5 volume_ratio_20 momentum_5 momentum_10 momentum_20 range_5d range_20d spy_return_1d spy_return_5d spy_return_20d spy_volatility spy_trend beta regime_bull regime_bear regime_sideways sector_return_1d sector_return_5d sector_return_20d vs_sector_1d vs_sector_5d vs_sector_20d sector_momentum sector_rank within_sector_rank dollar_volume_ma_20 spread_ma_20 volume_volatility zscore_20 zscore_60 momentum_streak returns_smoothness sentiment_score sentiment_magnitude
feature_infos=[-0.43257848949508731:0.40101764118714334] [-0.94380185706270303:0.64145302016696371] [-1.1103027020065228:0.74944205060110303] [-1.5792760629373961:0.93007014193133786] [-1.7564232032023743:1.5435651228239085] [0.62112565066133607:1.4016127221049421] [0.37269229271621246:1.7005334995125383] [0.21891181972281926:2.689890395418383] [0.20648370616720246:4.1324257957966344] [0.00029536186335791251:0.37285145536168424] [0.0014330417855425725:0.25645689144988704] [0.0020699230484708315:0.19068783415644647] [0.0031362561129968623:0.12430415393179581] [0:4.0880097161655575] [0:11.432926829268293] [-0.61085445631812074:0.89923850722407728] [-0.67054078198439093:1.1158191671679292] [-0.79387573479956863:1.5346869591954984] [0.12877048963621363:483.16015625] [0.3581073085452795:692.2900390625] [-0.11588671192475024:0.099862840933971991] [-0.19807646309376153:0.16006040724502127] [-0.37087144923930992:0.20760390795832609] [0.0020699230484708315:0.059166610108309571] [-0.096419247643743544:0.11711170439579588] [-0.68980996136432626:1.0000000000000511] [0:1] [0:1] [0:1] [-0.28290975475407043:0.16718974825123417] [-0.54343160442644856:0.25212843613821578] [-1.0013654683707347:0.43509751465103574] [-0.35541385822101423:0.36918261087742221] [-0.60796227019532212:0.52518299354394127] [-1.208045155170083:0.92080788619755505] [-0.96995897594303959:0.41824717363500274] [0.015306122448979591:0.98979591836734693] [0.011627906976744186:1] [10324930.223798752:67083519572.06459] [0.0033291294702280675:0.22121298041063317] [0.084434104133758139:2.476985283351965] [-4.0491767375916998:4.1337307625095656] [-5.883952208553624:7.0530102215373125] [1:18] [5.2441730428127382:483.1097235367198] none none
tree_sizes=3057 3110 3078 3048 3033 3039 3054 3073 3037 3046 3044 3015 3048 3072 3106 3116 3103 3096 3119 3123 3076 3113 3089 3105 3099 3131 3131 3101 3116 3079 3095 3103 3113 3046 3125 3130 3143 3062 3141 3140 3141 3129 3134 3143 3135 3149 3161 3154 3119 3134 3123 3160 3118 3184 3065 3108 3161 3160 2970 3083 3115 3158 3209 3023 3096 3142 3083 3098 3086 3185 2970 3161 3042 3077 3119 3218 3202 3184 3129 3148 3115 3148 3135 3192 3123 3190 3125 3120 3171

Tree=0
num_leaves=31
num_cat=0
split_feature=20 30 22 24 29 24 20 23 23 22 20 30 23 23 22 22 20 34 20 20 23 22 20 3 41 23 22 7 24 23
split_gain=1.38366 1.81633 0.865464 0.825386 1.13162 0.468087 0.454529 1.33327 0.741096 0.545548 0.670742 0.496673 0.362611 0.330026 0.290656 0.270068 0.333867 0.268481 0.270717 0.253809 0.243679 0.221059 0.303173 0.184223 0.176172 0.175854 0.144473 0.140673 0.124892 0.323479
threshold=0.0329819374179516 -0.060720497988115775 -0.23974747571015007 0.028904935593706996 -0.057338740454146969 0.0081110176303270682 -0.048012915579333772 0.028965854773242632 0.018171795592213203 -0.14954144213423223 0.022718607268630148 -0.1344803780401769 0.058125799222638018 0.054283673880172183 -0.14954144213423223 -0.10617298834052936 -0.015850361298925805 -0.23905674115643433 0.053041248422807337 -0.015204709325669755 0.054283673880172183 0.16119398951469613 -0.018141101992971375 -0.072038280292424053 -1.9621843819052125 0.03234788956078475 -0.14954144213423223 0.72000798948690869 -0.053207113989022219 0.022358956719250003
decision_type=2 2 2 2 2 2 2 2 2 2 2 2 2 2 2 2 2 2 2 2 2 2 2 2 2 2 2 2 2 2
left_child=2 13 3 27 24 -3 7 8 -4 10 19 15 20 17 -7 16 -11 -2 -19 -8 21 25 -23 -20 -5 28 -10 -1 -13 -30
right_child=1 5 6 4 -6 14 9 -9 26 11 -12 12 -14 -15 -16 -17 -18 18 23 -21 -22 22 -24 -25 -26 -27 -28 -29 29 -31
leaf_value=0.006935176803681076 -0.0090018881816151652 0.0010192179877618714 -0.0027500184989872603 0.0038127709703181037 -0.0010554580006737761 0.001337065669211419 0.0016141744223678752 -0.0049995313545378285 0.0026298684243831528 0.00094930262898637705 -0.00030354837776448083 0.00058662201702657304 -0.0019960896124159842 0.0013370033683826926 -0.0012908439747428789 0.00084143825596557091 0.0052767199603824793 -0.0025381173321838528 -0.0060400275948112089 0.0036745287268148017 0.0024259523920696449 0.0015710423017572166 -0.00092284574207679936 -0.0017829067312694548 0.0017114018080303911 0.00085716250357930875 0.00069710942910744176 0.0038927373785185241 0.0004551456441655145 -0.00042665129554731227
leaf_weight=75 27 588 150 257 292 126 295 149 142 72 281 18321 150 29 638 161 117 191 141 303 158 154 584 31 163 2817 303 77 273961 1044
leaf_count=75 27 588 150 257 292 126 295 149 142 72 281 18321 150 29 638 161 117 191 141 303 158 154 584 31 163 2817 303 77 273961 1044
internal_value=0.000460419 -0.000932671 0.000469023 0.00204922 0.00133518 -4.12633e-05 0.000464459 -0.000769849 0.000289349 0.000467536 0.00171134 0.000463862 0.000461645 -0.003809 -0.000857445 0.00234628 0.00362818 -0.00419165 -0.00383387 0.00265813 0.000462886 0.000461841 -0.000402441 -0.00527276 0.00299724 0.000463995 0.00131385 0.00539394 0.000460219 0.000451798
internal_weight=0 1771 300026 864 712 1352 299162 744 595 298418 879 297539 297189 419 764 350 189 390 363 598 297039 296881 738 172 420 296143 445 152 293326 275005
internal_count=301797 1771 300026 864 712 1352 299162 744 595 298418 879 297539 297189 419 764 350 189 390 363 598 297039 296881 738 172 420 296143 445 152 293326 275005
is_linear=0
shrinkage=1


Tree=1
num_leaves=31
num_cat=0
split_feature=20 21 22 24 20 24 20 21 23 22 20 21 20 22 23 41 20 20 23 22 20 23 21 24 24 23 23 21 22 24
split_gain=1.24875 1.93411 0.781081 0.744911 1.00745 0.473577 0.410212 1.20328 0.668839 0.492357 0.605344 0.437874 0.612631 0.353217 0.327303 0.243879 0.232873 0.229063 0.219881 0.199587 0.273614 0.174557 0.166832 0.202948 0.188543 0.290795 0.260172 0.887914 0.303292 0.276272
threshold=0.0329819374179516 -0.04239791174543639 -0.23974747571015007 0.028904935593706996 -0.048012915579333772 0.0081110176303270682 -0.048012915579333772 -0.12089462362059117 0.018171795592213203 -0.14954144213423223 0.022718607268630148 -0.12089462362059117 -0.015850361298925805 -0.14954144213423223 0.058125799222638018 -1.826434898107997 0.053041248422807337 -0.015204709325669755 0.054283673880172183 0.16119398951469613 -0.018141101992971375 0.03234788956078475 0.048194241697493777 0.090548091066658412 -0.053207113989022219 0.011382643792916567 0.022358956719250003 0.0079647481192174352 -0.099269676048690178 -0.029250270232794303
decision_type=2 2 2 2 2 2 2 2 2 2 2 2 2 2 2 2 2 2 2 2 2 2 2 2 2 2 2 2 2 2
left_child=2 16 3 -1 15 -3 7 -4 -9 10 17 12 -11 -7 18 -5 -2 -8 19 21 -21 22 24 -24 25 -13 28 -28 29 -26
right_child=1 5 6 4 -6 13 9 8 -10 11 -12 14 -14 -15 -16 -17 -18 -19 -20 20 -22 -23 23 -25 26 -27 27 -29 -30 -31
leaf_value=0.0046868453730559458 -0.0035680462600336592 0.00053085863642044699 -0.0051869533446636182 0.0031164394094719415 -0.0014914586238225789 0.00087899360707310468 0.0010960672065759695 -0.0030499161905609062 0.00081076375842539154 -0.00040451876371613209 -0.0007257694333415352 -0.00061575184459071409 0.0040861701469671425 -0.0017654106176188114 -0.0023336836382028803 0.00049411300914362067 -0.0063223480939325928 0.0030534037185038308 0.0018672562397344487 0.0010550917233015386 -0.0013141019114113553 0.0003946479568585526 -0.00044455467729251808 0.00045165037875744473 -2.9439497795443718e-05 0.00021879103672161845 -0.0043812420814834862 -0.00014972595508778465 -8.2144161960754498e-06 0.00097090307710864798
leaf_weight=152 155 588 149 305 282 153 295 150 445 148 281 1116 156 723 150 125 152 303 158 154 584 2826 3868 755 1265 16141 149 738 267812 1519
leaf_count=152 155 588 149 305 282 153 295 150 445 148 281 1116 156 723 150 125 152 303 158 154 584 2826 3868 755 1265 16141 149 738 267812 1519
internal_value=0 -0.00132344 8.17299e-06 0.00150936 0.000831021 -0.000566777 3.83746e-06 -0.00116875 -0.000162517 6.7609e-06 0.00118837 3.27015e-06 0.00189991 -0.00130355 1.33033e-06 0.00235414 -0.00493174 0.00208783 2.5093e-06 1.51703e-06 -0.000819717 3.56326e-06 -2.04101e-07 -0.000298192 4.56697e-06 0.000164822 -5.61973e-06 -0.000860544 -2.81733e-06 0.000516365
internal_weight=0 1771 300026 864 712 1464 299162 744 595 298418 879 297539 304 876 297235 430 307 598 297085 296927 738 296189 293363 4623 288740 17257 271483 887 270596 2784
internal_count=301797 1771 300026 864 712 1464 299162 744 595 298418 879 297539 304 876 297235 430 307 598 297085 296927 738 296189 293363 4623 288740 17257 271483 887 270596 2784
is_linear=0
shrinkage=0.05


Tree=2
num_leaves=31
num_cat=0
split_feature=20 21 22 24 29 24 20 21 22 20 30 22 24 22 21 20 5 9 20 21 22 24 24 21 20 22 21 24 24 22
split_gain=1.127 1.74554 0.704925 0.672282 0.930064 0.427403 0.370216 1.08596 0.444352 0.546323 0.407002 0.352872 0.381142 0.318778 0.302926 0.210168 0.221225 0.207136 0.206729 0.184043 0.250157 0.20193 0.161063 0.139699 0.289875 0.204453 0.183568 0.156853 0.404511 0.144804
threshold=0.0329819374179516 -0.04239791174543639 -0.23974747571015007 0.028904935593706996 -0.057338740454146969 0.0081110176303270682 -0.048012915579333772 -0.12089462362059117 -0.14954144213423223 0.022718607268630148 -0.1344803780401769 -0.14954144213423223 0.021229124017666304 -0.14954144213423223 -0.12089462362059117 0.053041248422807337 0.92021079371543313 0.036591759288187135 -0.015204709325669755 0.048194241697493777 -0.049773424893306197 -0.033943457251898727 0.056962556474271293 -0.055557688576694471 0.014104381053690693 -0.10617298834052936 -0.069965916716755908 -0.050800390211871264 -0.043925263469571811 -0.072494806569149597
decision_type=2 2 2 2 2 2 2 2 2 2 2 2 2 2 2 2 2 2 2 2 2 2 2 2 2 2 2 2 2 2
left_child=2 15 3 -1 22 -3 7 -4 9 18 14 -9 -13 -7 17 16 -2 -10 -8 23 -21 -22 -5 24 25 -12 -27 -25 29 -29
right_child=1 5 6 4 -6 13 8 11 10 -11 19 12 -14 -15 -16 -17 -18 -19 -20 20 21 -23 -24 27 -26 26 -28 28 -30 -31
leaf_value=0.0044525031343973275 -0.0075025074390901465 0.00050431566480911984 -0.0049276057402634589 0.0015964754849892742 -0.0013778337770355854 0.00083504395932536963 0.001041263873028861 0.0020204382774364335 0.001636985122082152 -0.00068948096158240844 0.0017038955644293242 0.00018431729724710055 -0.0028974203296626613 -0.001677140066624251 0.00044065953450590496 -0.0060062306056926518 -0.0025220867345581155 0.005369615464300757 0.0029007334916824751 -0.0016904671577680293 -0.00065560826504638676 -8.2216020851180178e-07 0.0036662656849932294 0.00014657251456708488 -0.0018719244622043335 -0.00012274051072812939 0.00056806144608401198 -0.00014112732562704885 5.1877324685559727e-08 -0.00079105422693450582
leaf_weight=152 27 588 149 278 292 153 295 142 78 281 267 303 150 723 201 152 128 71 303 297 1696 3851 142 17704 150 1674 2260 1416 265703 2171
leaf_count=152 27 588 149 278 292 153 295 142 78 281 267 303 150 723 201 152 128 71 303 297 1696 3851 142 17704 150 1674 2260 1416 265703 2171
internal_value=0 -0.00125726 7.76434e-06 0.00143389 0.00078947 -0.000538438 3.64558e-06 -0.00111032 6.42286e-06 0.00112895 3.10663e-06 -0.000154391 -0.000836126 -0.00123837 0.00170714 -0.00468515 -0.00338964 0.00341562 0.00198344 1.09979e-06 -0.000276719 -0.000201024 0.00229626 6.67247e-06 0.000287865 0.000364982 0.000274111 2.40942e-06 -7.06833e-06 -0.00053449
internal_weight=0 1771 300026 864 712 1464 299162 744 298418 879 297539 595 453 876 350 307 155 149 598 297189 5844 5547 420 291345 4351 4201 3934 286994 269290 3587
internal_count=301797 1771 300026 864 712 1464 299162 744 298418 879 297539 595 453 876 350 307 155 149 598 297189 5844 5547 420 291345 4351 4201 3934 286994 269290 3587
is_linear=0
shrinkage=0.05


Tree=3
num_leaves=31
num_cat=0
split_feature=29 21 23 29 24 24 21 22 21 21 22 22 24 31 5 21 1 6 22 7 30 23 31 36 5 21 24 29 24 23
split_gain=0.43587 1.77584 0.551928 0.626642 0.580525 0.704069 0.361987 0.247469 1.26711 0.357651 0.513517 0.233112 0.227358 0.201907 0.192872 0.18907 0.157575 0.152441 0.143897 0.140101 0.136913 0.140584 0.141149 0.13051 0.11945 0.112014 0.16565 0.178057 0.163196 0.264475
threshold=0.042895833601622378 -0.051985433600577412 0.032991613286325466 -0.057338740454146969 0.028904935593706996 0.013035000513289876 0.021221229778959971 -0.14954144213423223 -0.12089462362059117 -0.12089462362059117 -0.093641974925768215 0.16119398951469613 -0.012110262158767869 -0.16881954492221204 0.94712489971793212 -0.12089462362059117 -0.045747091793564447 0.85253067569696328 0.16119398951469613 0.865147880660316 -0.045175208205514177 0.058125799222638018 -0.27048192692651601 0.21296763345943676 0.94322760697314367 0.048194241697493777 0.090943310783755407 -0.012859195442577931 -0.053207113989022219 0.011382643792916567
decision_type=2 2 2 2 2 2 2 2 2 2 2 2 2 2 2 2 2 2 2 2 2 2 2 2 2 2 2 2 2 2
left_child=2 15 7 16 5 6 12 8 -1 10 19 13 14 -8 -5 24 -4 -7 25 -9 -3 22 -22 -6 -2 28 -27 -28 29 -11
right_child=1 20 3 4 23 17 11 9 -10 18 -12 -13 -14 -15 -16 -17 -18 -19 -20 -21 21 -23 -24 -25 -26 26 27 -29 -30 -31
leaf_value=-0.0046812254613602926 -0.0061512055769562726 -0.0012929700190879351 0.0025705497623776967 0.0044034907443668038 -0.0036099854188366195 0.0046812489537684165 -0.0011212354709254485 0.0050660813952861138 0.0019194164171546018 -0.00059229290247611479 -0.00039717986874657565 -0.001130743333993099 0.00045438054881726756 0.00039789630811270328 0.0015194280006942851 -0.0057181096221128967 -0.00020503912453242611 0.0021383767140100754 -0.0015412760411556137 0.0020533945828875794 0.0024895741690864376 -0.0014426397300923829 3.531729421530914e-05 -0.0011697180539522378 -0.0022832015944371999 -0.00033195480009562319 0.0041515198063707967 0.00038922985055936968 -7.8304431380243793e-06 0.00020397039643405956
leaf_weight=149 25 238 432 68 71 92 249 86 142 1116 148 383 575 1799 393 146 58 164 152 70 61 156 1479 240 99 4455 34 419 272394 15904
leaf_count=149 25 238 432 68 71 92 249 86 142 1116 148 383 575 1799 393 146 58 164 152 70 61 156 1479 240 99 4455 34 419 272394 15904
internal_value=0 -0.000700246 5.47772e-06 0.00055356 0.000348468 0.000521827 0.000334985 -2.92549e-06 -0.00146029 -1.4868e-06 0.00171263 1.46159e-06 0.00111761 0.000213197 0.00194484 -0.00449874 0.00224201 0.00305222 -3.25636e-06 0.00371423 -0.000169948 -1.23547e-05 0.000132531 -0.00172682 -0.00306304 -2.46206e-06 -0.000239328 0.000671609 1.5548e-06 0.000151759
internal_weight=0 2204 299593 4524 4034 3723 3467 295069 291 294778 304 2431 1036 2048 461 270 490 256 294474 156 1934 1696 1540 311 124 294322 4908 453 289414 17020
internal_count=301797 2204 299593 4524 4034 3723 3467 295069 291 294778 304 2431 1036 2048 461 270 490 256 294474 156 1934 1696 1540 311 124 294322 4908 453 289414 17020
is_linear=0
shrinkage=0.05


Tree=4
num_leaves=31
num_cat=0
split_feature=20 21 35 20 20 5 21 34 20 21 20 2 21 13 20 20 21 2 28 35 21 20 28 7 20 21 31 35 43 20
split_gain=0.94083 1.41667 0.448195 0.2455 0.466152 0.229557 0.205678 0.18717 0.192354 0.175421 0.267129 0.14344 0.140859 0.200371 0.137473 0.124835 0.361858 0.113995 0.119141 0.192897 0.112823 0.10768 0.125508 0.105112 0.103184 0.513534 0.115805 0.232981 0.102812 0.102903
threshold=0.0329819374179516 -0.04239791174543639 -0.26514104043164122 -0.016934977462350956 -0.027349861135242074 0.93065851842460201 -0.033280832714891177 -0.23905674115643433 0.053041248422807337 -0.055557688576694471 0.014104381053690693 -0.14065637516941634 -0.069965916716755908 0.64583767181977525 0.026557524869081518 -0.048012915579333772 -0.03629665723887731 -0.22711241837813381 1.0000000180025095e-35 -0.0038408700124005642 -0.02119943537000718 0.030260647537435199 1.0000000180025095e-35 0.72000798948690869 -0.027349861135242074 -0.12089462362059117 -0.27048192692651601 -0.20012556233254883 1.5000000000000002 -0.048012915579333772
decision_type=2 2 2 2 2 2 2 2 2 2 2 2 2 2 2 2 2 2 2 2 2 2 2 2 2 2 2 2 2 2
left_child=2 7 3 4 5 28 -3 -2 -9 10 11 24 13 -13 15 16 -11 -8 -19 -20 -5 22 -16 -6 26 -26 -4 -28 -1 -30
right_child=1 6 9 20 23 -7 17 8 -10 14 -12 12 -14 -15 21 -17 -18 18 19 -21 -22 -23 -24 -25 25 -27 27 -29 29 -31
leaf_value=0.00095857343887546939 -0.008476304053328932 -0.0017065489706968901 0.002442649728195234 -0.0011095624834634298 0.0055024214901267616 -0.00037096408979050006 0.002056360981077887 -0.0025691863161685933 -0.0051763018581714535 -0.0027521578349793954 -0.0017885267595993367 0.0020461498683009547 0.0005070134902548936 -0.00020911458699099654 -0.0016466758201352481 2.4040734467347638e-06 0.00073258393478338034 0.00033056715951006654 -0.0011658965244229573 0.00086092316055146512 0.00096706197239610425 -5.7301890454444642e-05 -0.00039646309539013351 0.0027687135491339461 0.0046787849825588946 0.0006818843817403725 -0.0035767847808395948 0.00039460178608918481 0.0035520467514563179 -7.3696025841248541e-05
leaf_weight=149 24 285 55 141 74 198 53 141 142 150 150 104 1996 1858 307 291815 148 436 540 150 122 921 580 67 94 554 41 372 106 24
leaf_count=149 24 285 55 141 74 198 53 141 142 150 150 104 1996 1858 307 291815 148 436 540 150 122 921 580 67 94 554 41 372 106 24
internal_value=0 -0.00114874 7.0903e-06 0.00113319 0.00167768 0.000931079 -0.00050116 -0.00423688 -0.00387735 3.77387e-06 0.000290973 0.000352448 0.000211284 -8.95695e-05 -1.33066e-06 1.35955e-06 -0.00102148 -0.000209781 -0.000316446 -0.000725284 -0.000146261 -0.000435981 -0.000829175 0.00420343 0.0008531 0.00126168 0.000287371 3.47914e-07 0.00185511 0.00288268
internal_weight=0 1771 300026 881 618 477 1464 307 283 299145 5224 5074 3958 1962 293921 292113 298 1179 1126 690 263 1808 887 141 1116 648 468 413 279 130
internal_count=301797 1771 300026 881 618 477 1464 307 283 299145 5224 5074 3958 1962 293921 292113 298 1179 1126 690 263 1808 887 141 1116 648 468 413 279 130
is_linear=0
shrinkage=0.05


Tree=5
num_leaves=31
num_cat=0
split_feature=20 21 22 20 20 23 20 21 23 30 22 20 23 21 21 9 20 31 7 23 39 22 20 22 16 22 21 23 5 7
split_gain=0.80924 1.20815 0.494587 0.480281 0.319434 0.45337 0.278764 0.854583 0.498216 0.34628 0.294614 0.480576 0.254624 0.248369 0.202625 0.190421 0.180461 0.179534 0.160788 0.158105 0.141517 0.140803 0.206725 0.134808 0.134524 0.129074 0.140431 0.128402 0.118267 0.114475
threshold=0.0329819374179516 -0.04239791174543639 -0.23974747571015007 0.002117524214528876 -0.027349861135242074 0.050062919972602912 -0.048012915579333772 -0.12089462362059117 0.018171795592213203 -0.1344803780401769 -0.14954144213423223 0.022718607268630148 0.058125799222638018 -0.12089462362059117 -0.033280832714891177 0.032592644082335108 -0.015204709325669755 -0.27048192692651601 0.90989329019091869 0.054283673880172183 0.071965603402134107 0.16119398951469613 -0.018141101992971375 -0.14954144213423223 -0.24831269056407754 0.0045382326096907056 -0.028862664523726437 0.03234788956078475 0.90098403677869487 0.72000798948690869
decision_type=2 2 2 2 2 2 2 2 2 2 2 2 2 2 2 2 2 2 2 2 2 2 2 2 2 2 2 2 2 2
left_child=2 18 3 4 5 -1 7 -4 -9 13 11 16 17 15 -3 -8 -11 -12 -2 21 -15 27 -23 -10 -16 26 -26 -19 -7 -6
right_child=1 14 6 -5 29 28 9 8 23 10 12 -13 -14 20 24 -17 -18 19 -20 -21 -22 22 -24 -25 25 -27 -28 -29 -30 -31
leaf_value=0.0026099553605968846 -0.0046123183729797077 -0.0016647362448042856 -0.0043217965625480916 -0.0013759911041621915 0.005311826886609197 0.0021356516942867766 0.0010287930216786188 -0.0025318115871529323 0.0020201469162878182 0.00086790212591394175 -0.0033913736524155895 -0.00071175623140081747 -0.0020877391053732461 -5.637639357131435e-05 0.0032933678581482835 0.0045494127397735914 0.0026318585792903661 -1.0100697463322449e-06 -0.0018112887269208758 0.0016751855229116741 0.0041892575533975934 0.00099126976335218672 -0.0011115259689195663 0.00014891351406613588 0.00032177828485720585 0.00060832616954910204 -0.001032869523454561 0.000340040522762346 -0.00063008546437742536 0.0024419798654085703
leaf_weight=291 229 292 151 150 70 46 67 158 140 288 39 299 146 182 27 90 292 293208 66 141 22 146 586 308 285 305 582 2786 242 69
leaf_count=291 229 292 151 150 70 46 67 158 140 288 39 299 146 182 27 90 292 293208 66 141 22 146 586 308 285 305 582 2786 242 69
internal_value=0 -0.00106206 5.41771e-06 0.00119721 0.00173479 0.00121806 1.95848e-06 -0.000956316 -0.000117723 4.39038e-06 2.51513e-06 0.000916545 -1.89559e-07 0.00155202 -0.000483612 0.00304698 0.00175596 8.36969e-07 -0.00398565 1.28261e-06 0.000401486 4.87195e-07 -0.000692116 0.000733674 -0.000195966 -0.000276351 -0.00058757 2.20002e-06 -0.000188336 0.00388723
internal_weight=0 1786 299917 868 718 579 299049 757 606 298292 297931 879 297052 361 1491 157 580 296906 295 296867 204 296726 732 448 1199 1172 867 295994 288 139
internal_count=301703 1786 299917 868 718 579 299049 757 606 298292 297931 879 297052 361 1491 157 580 296906 295 296867 204 296726 732 448 1199 1172 867 295994 288 139
is_linear=0
shrinkage=0.05


Tree=6
num_leaves=31
num_cat=0
split_feature=20 21 22 20 24 20 23 22 20 21 23 21 20 22 20 23 20 41 23 39 7 22 20 23 33 20 22 22 21 24
split_gain=0.730339 1.09035 0.446365 0.433454 0.295587 0.288289 0.409166 0.266133 0.251585 0.771261 0.44964 0.313464 0.417822 0.265815 0.43372 0.229827 0.162866 0.14932 0.142744 0.131804 0.127752 0.126958 0.18657 0.128687 0.122482 0.140114 0.121664 0.112114 0.11197 0.170087
threshold=0.0329819374179516 -0.04239791174543639 -0.23974747571015007 0.002117524214528876 0.0081110176303270682 -0.027349861135242074 0.050062919972602912 -0.14954144213423223 -0.048012915579333772 -0.12089462362059117 0.018171795592213203 -0.12089462362059117 -0.015850361298925805 -0.14954144213423223 0.022718607268630148 0.058125799222638018 -0.015204709325669755 -0.59032660657532277 0.054283673880172183 0.034799912789607174 0.78212795573741534 0.16119398951469613 -0.018141101992971375 0.03234788956078475 -0.12464396193837797 0.053041248422807337 -0.14954144213423223 0.12378447514617341 0.048194241697493777 0.090548091066658412
decision_type=2 2 2 2 2 2 2 2 2 2 2 2 2 2 2 2 2 2 2 2 2 2 2 2 2 2 2 2 2 2
left_child=2 17 3 5 -3 6 -1 20 9 -4 -11 12 -10 14 16 18 -13 24 21 -14 -6 23 -23 28 -2 -26 -12 -25 -15 -30
right_child=1 4 8 -5 7 -7 -8 -9 11 10 26 13 19 15 -16 -17 -18 -19 -20 -21 -22 22 -24 27 25 -27 -28 -29 29 -31
leaf_value=0.0024794576038740285 -0.0074364808531334776 0.00040327330317823669 -0.0041057067129156551 -0.0013071915547673901 0.0025001369773235641 0.0036928652526715291 -0.00017891898677741363 -0.0014362013399935752 -0.00034322610230741999 -0.0024052210121203355 0.0019191395462673556 0.00082450701425997865 0.0021177285878366094 2.4588346596188826e-06 -0.00067616842151921243 -0.0019833521568116716 0.0025002656732309109 -0.00056143564897865878 0.0015914262259568515 0.0049826676930314392 -0.0003698349314366537 0.00094170626786127618 -0.0010559496649736747 0.00026219831201502048 -0.0025260959153309013 -0.0049624331800880595 0.00014146782483152634 0.0016375194220643514 -0.00038177843663472348 0.00044121154768219566
leaf_weight=291 26 596 151 150 66 139 288 735 148 158 140 288 96 288708 299 146 292 32 141 69 94 146 586 2638 111 126 308 157 3827 751
leaf_count=291 26 596 151 150 66 139 288 735 148 158 140 288 96 288708 299 146 292 32 141 69 94 146 586 2638 111 126 308 157 3827 751
internal_value=0 -0.00100895 5.14683e-06 0.00113735 -0.000459432 0.00164805 0.00115716 -0.00103393 1.86056e-06 -0.000908501 -0.000111837 4.17086e-06 0.00158565 2.50965e-06 0.000870718 -5.90272e-08 0.00166816 -0.00378636 9.16076e-07 0.00331579 0.000814028 1.6051e-07 -0.00065751 1.78647e-06 -0.00417875 -0.00382136 0.00069699 0.000339452 -1.43147e-06 -0.000246771
internal_weight=0 1786 299917 868 1491 718 579 895 299049 757 606 298292 313 297979 879 297100 580 295 296954 165 160 296813 732 296081 263 237 448 2795 293286 4578
internal_count=301703 1786 299917 868 1491 718 579 895 299049 757 606 298292 313 297979 879 297100 580 295 296954 165 160 296813 732 296081 263 237 448 2795 293286 4578
is_linear=0
shrinkage=0.05


Tree=7
num_leaves=31
num_cat=0
split_feature=20 21 22 20 24 20 24 22 20 21 30 22 24 22 20 21 31 8 9 20 42 39 21 31 24 24 24 22 21 22
split_gain=0.659131 0.984042 0.402844 0.391192 0.266767 0.260181 0.369273 0.240185 0.227055 0.696063 0.287278 0.271101 0.244501 0.239974 0.391432 0.201344 0.184989 0.292162 0.158424 0.146987 0.136382 0.12561 0.119603 0.179486 0.18264 0.11334 0.298998 0.416611 0.150214 0.151918
threshold=0.0329819374179516 -0.04239791174543639 -0.23974747571015007 0.002117524214528876 0.0081110176303270682 -0.027349861135242074 0.048909484004503352 -0.14954144213423223 -0.048012915579333772 -0.12089462362059117 -0.1344803780401769 -0.14954144213423223 0.021229124017666304 -0.14954144213423223 0.022718607268630148 -0.12089462362059117 -0.27048192692651601 0.93429314956217124 0.038019172388831908 -0.015204709325669755 -1.9822454987557203 0.071965603402134107 0.048194241697493777 -0.075647327728178976 -0.033943457251898727 -0.050800390211871264 -0.047746725598380273 -0.061989006052152192 -0.055557688576694471 -0.10617298834052936
decision_type=2 2 2 2 2 2 2 2 2 2 2 2 2 2 2 2 2 2 2 2 2 2 2 2 2 2 2 2 2 2
left_child=2 20 3 5 -3 6 -1 -6 9 -4 15 -11 -13 14 19 18 17 -15 -10 -12 -2 -17 25 -24 -25 -18 27 -27 29 -28
right_child=1 4 8 -5 7 -7 -8 -9 10 11 13 12 -14 16 -16 21 22 -19 -20 -21 -22 -23 23 24 -26 26 28 -29 -30 -31
leaf_value=-0.00016997303704455489 -0.0043553057565031165 0.00038310963779054728 -0.0039004212967736884 -0.0012418319615147388 0.00077332705623121009 0.0035082219868710789 0.0023554846997648044 -0.0013643912743720316 0.0012598987144182426 0.0018231825726771995 0.00078328166133840378 0.00013439444098851226 -0.0022849599461804682 -0.0077171538431139199 -0.00064235999259190961 -5.3680512032619999e-05 0.00012426829653443183 0.00025606373038263648 0.0044417170703889347 0.0023752523850679897 -0.0020727913307586727 0.0039462273077912292 -0.0011037499469425298 -0.00058052916160989017 5.9502421922370374e-05 0.00040003756805632047 0.0014832689495061829 -0.0014690790484020236 -3.9976013920398406e-06 0.00023286301966813969
leaf_weight=288 197 596 151 150 160 139 291 735 83 140 288 308 158 20 299 182 18579 27 74 292 98 22 528 1607 3638 477 263 795 267938 3180
leaf_count=288 197 596 151 150 160 139 291 735 83 140 288 308 158 20 299 182 18579 27 74 292 98 22 528 1607 3638 477 263 795 267938 3180
internal_value=0 -0.000958505 4.88948e-06 0.00108049 -0.00043646 0.00156565 0.0010993 -0.000982229 1.76752e-06 -0.000863076 3.96231e-06 -0.000106245 -0.000685902 2.25428e-06 0.000827182 0.00141359 -1.86749e-07 -0.00313679 0.00275961 0.00158476 -0.00359705 0.000377682 3.09608e-07 -0.000225051 -0.000136595 4.77686e-06 -3.36547e-06 -0.00076816 2.1923e-07 0.000328378
internal_weight=0 1786 299917 868 1491 718 579 895 299049 757 298292 606 466 297931 879 361 297052 47 157 580 295 204 297005 5773 5245 291232 272653 1272 271381 3443
internal_count=301703 1786 299917 868 1491 718 579 895 299049 757 298292 606 466 297931 879 361 297052 47 157 580 295 204 297005 5773 5245 291232 272653 1272 271381 3443
is_linear=0
shrinkage=0.05


Tree=8
num_leaves=31
num_cat=0
split_feature=20 21 22 20 24 20 23 22 20 21 23 30 22 20 23 21 31 12 20 23 5 20 7 22 20 39 33 23 7 10
split_gain=0.594866 0.888098 0.363567 0.353051 0.240757 0.234813 0.333269 0.216767 0.204917 0.628197 0.366235 0.259268 0.216577 0.353267 0.192579 0.181713 0.151175 0.148205 0.132655 0.128817 0.127957 0.188962 0.115461 0.11352 0.16631 0.113363 0.109606 0.104515 0.103313 0.102097
threshold=0.0329819374179516 -0.04239791174543639 -0.23974747571015007 0.002117524214528876 0.0081110176303270682 -0.027349861135242074 0.050062919972602912 -0.14954144213423223 -0.048012915579333772 -0.12089462362059117 0.018171795592213203 -0.1344803780401769 -0.14954144213423223 0.022718607268630148 0.058125799222638018 -0.12089462362059117 -0.27048192692651601 0.025164384984753152 -0.015204709325669755 0.054283673880172183 0.93065851842460201 0.053041248422807337 0.80099545514659265 0.16119398951469613 -0.018141101992971375 0.071965603402134107 -0.1571036079256701 0.03234788956078475 0.72000798948690869 0.035878365087425278
decision_type=2 2 2 2 2 2 2 2 2 2 2 2 2 2 2 2 2 2 2 2 2 2 2 2 2 2 2 2 2 2
left_child=2 20 3 5 -3 6 -1 22 9 -4 -11 15 13 18 16 17 -14 -10 -13 23 -2 -22 -6 27 -25 -17 -8 -18 -7 -12
right_child=1 4 8 -5 7 28 26 -9 11 10 29 12 14 -15 -16 25 19 -19 -20 -21 21 -23 -24 24 -26 -27 -28 -29 -30 -31
leaf_value=0.002237710487189514 -0.0059043371568391614 0.00036395415533246363 -0.0037054003450698808 -0.0011797403911768924 0.0020283627622208213 0.0046861811978409868 0.0030022562770172954 -0.0012961716999614226 0.0013133405690506142 -0.0021707119928198407 -5.4951243873802015e-05 0.00074411759212833007 -0.0031120661849539689 -0.00061024200313782593 -0.0018156586398094675 -5.0996472738596239e-05 -9.5190880883637338e-07 0.0044254807367299998 0.0022564897495114616 0.0015120548106219533 -0.0014772697895655018 -0.0042326479512912627 -0.00065984927361138019 0.00088840750785967025 -0.00099766866807635547 0.0037489159093555911 -0.00046220925461772891 0.00030674447285177907 0.0019598264817867186 0.0014620054756069114
leaf_weight=291 44 596 151 150 83 70 25 735 91 158 246 288 39 299 146 182 293208 66 292 141 114 137 77 146 586 22 263 2786 69 202
leaf_count=291 44 596 151 150 83 70 25 735 91 158 246 288 39 299 146 182 293208 66 292 141 114 137 77 146 586 22 263 2786 69 202
internal_value=0 -0.00091058 4.64501e-06 0.00102646 -0.000414637 0.00148737 0.00104433 -0.000933118 1.67915e-06 -0.000819922 -0.000100933 3.76419e-06 2.14156e-06 0.000785823 -1.77412e-07 0.00134291 7.1533e-07 0.00262163 0.00150552 1.12426e-06 -0.00341719 -0.0029812 0.000734661 4.06289e-07 -0.000621484 0.000358798 -0.000161474 1.94424e-06 0.00333281 0.000629034
internal_weight=0 1786 299917 868 1491 718 579 895 299049 757 606 298292 297931 879 297052 361 296906 157 580 296867 295 251 160 296726 732 204 288 295994 139 448
internal_count=301703 1786 299917 868 1491 718 579 895 299049 757 606 298292 297931 879 297052 361 296906 157 580 296867 295 251 160 296726 732 204 288 295994 139 448
is_linear=0
shrinkage=0.05


Tree=9
num_leaves=31
num_cat=0
split_feature=20 24 17 23 24 24 41 20 20 23 23 30 22 22 22 2 8 20 31 5 24 20 20 20 20 5 22 22 23 24
split_gain=0.537956 0.772812 0.479187 0.443297 0.272612 0.211971 0.375474 0.198594 0.18476 0.566948 0.330527 0.234127 0.16567 0.300571 0.151083 0.150946 0.146369 0.142857 0.136525 0.122222 0.115401 0.1219 0.113997 0.106854 0.10005 0.0983823 0.0947761 0.0921828 0.918349 0.255264
threshold=0.026557524869081518 0.044295445516830741 -0.17434857699547854 0.036908920050193132 0.048909484004503352 0.028904935593706996 -1.1700415038756009 0.014887971583406611 -0.048012915579333772 0.028965854773242632 0.018171795592213203 -0.1344803780401769 -0.14954144213423223 -0.084424999165488526 -0.10617298834052936 -0.22711241837813381 0.47782793858381528 -0.015850361298925805 -0.27048192692651601 0.95586006453641748 -0.022130556228290462 0.030260647537435199 -0.027349861135242074 -0.0014529133335865402 0.053041248422807337 0.93065851842460201 -0.14954144213423223 -0.099269676048690178 0.022358956719250003 -0.029250270232794303
decision_type=2 2 2 2 2 2 2 2 2 2 2 2 2 2 2 2 2 2 2 2 2 2 2 2 2 2 2 2 2 2
left_child=3 15 24 8 5 6 -5 12 9 10 -1 14 22 -14 17 -2 -7 -10 -13 -15 -17 -22 -8 -16 25 -3 -12 28 29 -20
right_child=1 2 -4 4 -6 16 7 -9 11 -11 26 18 13 19 23 20 -18 -19 27 -21 21 -23 -24 -25 -26 -27 -28 -29 -30 -31
leaf_value=-0.0020621764036691218 0.0024484204010167439 -0.0048325116871274082 -0.0011232278692845849 0.003300609568849948 0.0021258249304707795 0.0029478911312441503 0.00069545230815403652 -0.0006163503788548945 0.00048104388599214771 -0.0035201302526783915 0.0016762598237047704 -0.0029564628406380787 -0.0017500705629334271 -0.0023702065361215288 -0.00059447266241596623 8.8311534705479653e-06 -0.00072807148526786165 0.0032655765321325195 -2.9814950871310939e-05 0.0011057978638794005 -0.0019293795927443618 -0.00042891498455821211 0.0020872312018639337 0.0023041642734613053 -0.0049875199779747959 -0.0022082474749535322 0.00010727392358390929 -7.1971217865961207e-07 -0.003708704416368184 0.00094283635950773723
leaf_weight=158 53 50 606 133 291 29 286 302 74 151 140 39 145 27 122 1672 409 122 1269 399 161 850 303 43 93 125 308 291766 137 1440
leaf_count=158 53 50 606 133 291 29 286 302 74 151 140 39 145 27 122 1672 409 122 1269 399 161 850 303 43 93 125 308 291766 137 1440
internal_value=0 -0.000607437 -0.0019018 6.61312e-06 0.000694472 0.000489591 0.000757136 0.000525752 1.20828e-06 -0.000778926 -9.58863e-05 3.2101e-06 0.000823093 0.000216213 0.00127576 -0.00019396 -0.000484686 0.00221427 1.65099e-06 0.000885488 -0.000246158 -0.000667861 0.00141143 0.00016093 -0.0036623 -0.00295804 0.000597582 2.04258e-06 0.000285227 0.000487209
internal_weight=0 3610 874 298093 2324 2033 1595 1462 295769 757 606 295012 1160 571 361 2736 438 196 294651 426 2683 1011 589 165 268 175 448 294612 2846 2709
internal_count=301703 3610 874 298093 2324 2033 1595 1462 295769 757 606 295012 1160 571 361 2736 438 196 294651 426 2683 1011 589 165 268 175 448 294612 2846 2709
is_linear=0
shrinkage=0.05


Tree=10
num_leaves=31
num_cat=0
split_feature=20 21 23 5 24 20 21 23 21 20 20 24 21 23 21 34 20 22 31 19 41 21 20 2 2 4 24 11 24 21
split_gain=0.500381 0.722468 0.465473 0.263487 0.203219 0.163589 0.51026 0.264592 0.211313 0.301129 0.149018 0.203799 0.344442 0.181962 0.173139 0.138877 0.151631 0.13216 0.129467 0.186272 0.123648 0.105416 0.102665 0.0976665 0.0957649 0.0904902 0.0900886 0.109426 0.105 0.0884405
threshold=0.026557524869081518 -0.04239791174543639 0.036908920050193132 0.92021079371543313 -0.022130556228290462 -0.048012915579333772 -0.12089462362059117 0.018171795592213203 -0.12089462362059117 -0.015850361298925805 0.014887971583406611 0.028904935593706996 0.045362882256165533 0.050062919972602912 0.083989039182441855 -0.23905674115643433 0.053041248422807337 -0.23974747571015007 -0.27048192692651601 26.785618128428371 0.82311460485389987 -0.0026629957257697499 0.002117524214528876 -0.17568020187892472 -0.14979797506380554 -0.048075357844121286 -0.020984746363772729 0.03595524935216949 1.0000000180025095e-35 -0.026970313582000301
decision_type=2 2 2 2 2 2 2 2 2 2 2 2 2 2 2 2 2 2 2 2 2 2 2 2 2 2 2 2 2 2
left_child=2 15 5 21 -3 6 -1 -8 9 -7 11 12 23 -13 20 -2 -17 -6 19 -10 -14 22 -4 -5 -19 -11 27 -26 -28 -20
right_child=1 4 3 10 17 8 7 -9 18 25 -12 13 14 -15 -16 16 -18 24 29 -21 -22 -23 -24 -25 26 -27 28 -29 -30 -31
leaf_value=-0.0033334886508728599 -0.0067626808304339647 1.432067424795958e-05 0.0023118295211045606 0.003470923919922899 0.00067107249565165621 -0.00033388429083244179 -0.0019052897864560465 0.00052698800488367879 -0.0062607485812623057 0.0035730941262694877 -0.00058391629369099164 0.0018687080605916352 -0.0015323200907392249 -0.00079009894353169173 0.00095403265730891612 -0.0014612853266927246 -0.0038009644050080761 -0.0023441297079207966 9.1653704696995972e-05 0.00048160330680686804 0.0005782330133528872 -0.0012090343055136217 -0.00088806967811521005 0.0015422465539647926 -0.0013649696416225116 0.0010812613259043214 0.0001864115546752082 -0.0050374120008200409 -0.00090944782057777974 -5.8781970042463363e-06
leaf_weight=151 22 1675 350 74 145 149 149 448 20 112 288 79 188 347 296 138 139 108 25438 21 110 26 27 581 131 54 285 24 938 269404
leaf_count=151 22 1675 350 74 145 149 149 448 20 112 288 79 188 347 296 138 139 108 25438 21 110 26 27 581 131 54 285 24 938 269404
internal_value=0 -0.000585378 7.2417e-06 0.000705765 -0.00037251 1.65722e-06 -0.000736837 -8.00629e-05 3.52849e-06 0.00129786 0.00046669 0.000647332 0.000969429 -0.000297034 9.75137e-05 -0.00293903 -0.00263535 -0.000769776 2.14585e-06 -0.00280735 -0.000753257 0.00187029 0.00208266 0.00176014 -0.00091037 0.0027625 -0.000798 -0.00193361 -0.000654076 2.53654e-06
internal_weight=0 3605 298312 2366 3306 295946 748 597 295198 315 1963 1675 1249 426 594 299 277 1631 294883 41 298 403 377 655 1486 166 1378 155 1223 294842
internal_count=301917 3605 298312 2366 3306 295946 748 597 295198 315 1963 1675 1249 426 594 299 277 1631 294883 41 298 403 377 655 1486 166 1378 155 1223 294842
is_linear=0
shrinkage=0.05


Tree=11
num_leaves=31
num_cat=0
split_feature=20 21 23 5 24 20 21 23 30 20 24 21 30 23 34 6 21 31 19 12 8 21 20 25 20 23 11 16 20 20
split_gain=0.451594 0.652027 0.42009 0.237797 0.183405 0.147639 0.46051 0.238794 0.19507 0.134489 0.183929 0.310859 0.179858 0.164221 0.127595 0.125303 0.123951 0.116833 0.168111 0.103164 0.0980733 0.0951383 0.0926553 0.0904158 0.0900483 0.0878808 0.146601 0.113351 0.0863495 0.16651
threshold=0.026557524869081518 -0.04239791174543639 0.036908920050193132 0.92021079371543313 -0.022130556228290462 -0.048012915579333772 -0.12089462362059117 0.018171795592213203 -0.1344803780401769 0.014887971583406611 0.028904935593706996 0.045362882256165533 0.040969911404760494 0.050062919972602912 -0.041929242472200486 0.85253067569696328 -0.12089462362059117 -0.27048192692651601 26.785618128428371 0.025164384984753152 0.71136088200541736 -0.0026629957257697499 0.002117524214528876 0.65658789139734741 0.053041248422807337 0.054283673880172183 0.03536736569169905 -0.14863186181530344 -0.027349861135242074 -0.048012915579333772
decision_type=2 2 2 2 2 2 2 2 2 2 2 2 2 2 2 2 2 2 2 2 2 2 2 2 2 2 2 2 2 2
left_child=2 14 5 21 -3 6 -1 -8 16 10 11 15 -13 -12 -2 -5 19 18 -10 -7 -14 22 28 -9 -16 26 -6 -27 29 -4
right_child=1 4 3 9 25 8 7 23 17 -11 13 12 20 -15 24 -17 -18 -19 -20 -21 -22 -23 -24 -25 -26 27 -28 -29 -30 -31
leaf_value=-0.0031668142508194993 -0.0043293229797454454 1.3604639919905633e-05 0.0021988912923082086 0.0035530587619480992 -0.00071600797436678707 0.0011731837399490057 -0.0018100252789785094 -0.000394925062275139 -0.0059477111077649173 -0.0005547204735700164 0.0017752726553479517 -0.0014453974646484213 -0.0013154002956656831 -0.00075059399956806105 -0.0010425028919880275 0.0014178689090919448 0.00035626885954598774 2.2833853961838426e-06 0.00045752312163087827 0.0037770971699270408 0.00087154173362225147 -0.001148582572372666 -0.0008436662027465733 0.001064029556459652 -0.0031333609748029493 0.0015151023811696075 -0.0022151837910005362 -0.00051763294210384347 0.003922828711608115 -0.0021496455611971516
leaf_weight=151 93 1675 266 78 829 96 149 173 20 288 79 144 59 347 102 577 211 294787 21 63 391 26 27 275 104 79 203 520 60 24
leaf_count=151 93 1675 266 78 829 96 149 173 20 288 79 144 59 347 102 577 211 294787 21 63 391 26 27 275 104 79 203 520 60 24
internal_value=0 -0.000556109 6.87962e-06 0.000670477 -0.000353884 1.57436e-06 -0.000699995 -7.60598e-05 3.35206e-06 0.000443355 0.000614965 0.000920957 9.2638e-05 -0.000282182 -0.00279208 0.00167214 0.00115069 1.91219e-06 -0.00266698 0.00220492 0.000584809 0.00177678 0.00197853 0.000500639 -0.00209808 -0.000731287 -0.0010109 -0.000249543 0.00219624 0.00183901
internal_weight=0 3605 298312 2366 3306 295946 748 597 295198 1963 1675 1249 594 426 299 655 370 294828 41 159 450 403 377 448 206 1631 1032 599 350 290
internal_count=301917 3605 298312 2366 3306 295946 748 597 295198 1963 1675 1249 594 426 299 655 370 294828 41 159 450 403 377 448 206 1631 1032 599 350 290
is_linear=0
shrinkage=0.05


Tree=12
num_leaves=31
num_cat=0
split_feature=20 21 23 5 24 20 21 23 30 20 24 21 30 23 34 20 6 21 22 31 25 39 8 31 21 21 20 22 21 23
split_gain=0.407563 0.588455 0.379131 0.214611 0.165523 0.133245 0.41561 0.215512 0.17605 0.121376 0.165996 0.28055 0.162322 0.148209 0.120088 0.127562 0.113086 0.111866 0.108389 0.105442 0.158324 0.0946734 0.0885112 0.0866082 0.0858624 0.0847144 0.269351 0.115169 0.179769 0.191607
threshold=0.026557524869081518 -0.04239791174543639 0.036908920050193132 0.92021079371543313 -0.022130556228290462 -0.048012915579333772 -0.12089462362059117 0.018171795592213203 -0.1344803780401769 0.014887971583406611 0.028904935593706996 0.045362882256165533 0.040969911404760494 0.050062919972602912 -0.23905674115643433 0.053041248422807337 0.85253067569696328 -0.12089462362059117 -0.23974747571015007 -0.27048192692651601 0.52852013978813395 0.034799912789607174 0.71136088200541736 -0.082363356893558434 -0.0026629957257697499 -0.055557688576694471 0.0030858829439608191 -0.10617298834052936 -0.069965916716755908 0.015484896536909333
decision_type=2 2 2 2 2 2 2 2 2 2 2 2 2 2 2 2 2 2 2 2 2 2 2 2 2 2 2 2 2 2
left_child=2 14 5 24 -3 6 -1 -8 17 10 11 16 -13 -12 -2 -16 -5 21 -6 20 -10 -7 -14 -20 -4 26 27 -21 29 -29
right_child=1 4 3 9 18 8 7 -9 19 -11 13 12 22 -15 15 -17 -18 -19 23 25 -22 -23 -24 -25 -26 -27 -28 28 -30 -31
leaf_value=-0.0030084736049267782 -0.0062080806131813333 1.292440785563309e-05 0.0018795997651384353 0.0033754058462830308 0.000610128825654352 0.0011320959302663271 -0.0017195239868999504 0.00047560666539741962 0.00065017437838832848 -0.00052698446595855276 0.0016865090059950548 -0.001373127583252022 -0.0012496302852045026 -0.00071306430529897817 -0.0012932243564400649 -0.0034391909613267339 0.0013469754512133976 0.00033845539576229445 -0.0013272760783827296 0.0013573391850229656 -0.0055658291450873506 0.0036411182987351035 0.00082796464211546707 -0.00053364916702728033 -0.0010911534516848266 -1.1087809826090784e-06 -0.0011915839185502892 -0.00075091515971678537 0.00056894456060556191 0.00033280043763187379
leaf_weight=151 22 1675 377 78 145 98 149 448 20 288 79 144 59 347 138 139 577 211 540 256 21 61 391 946 26 290443 313 707 2104 964
leaf_count=151 22 1675 377 78 145 98 149 448 20 288 79 144 59 347 138 139 577 211 540 256 21 61 391 946 26 290443 313 707 2104 964
internal_value=0 -0.000528304 6.53564e-06 0.000636953 -0.00033619 1.49564e-06 -0.000664996 -7.22568e-05 3.18446e-06 0.000421188 0.000584217 0.00087491 8.80061e-05 -0.000268073 -0.00265248 -0.00237008 0.00158853 0.00109316 -0.000694723 1.81658e-06 -0.00253363 0.00209468 0.000555569 -0.000822047 0.00168794 2.16922e-06 0.000221339 0.00033105 0.000261452 -0.00012572
internal_weight=0 3605 298312 2366 3306 295946 748 597 295198 1963 1675 1249 594 426 299 277 655 370 1631 294828 41 159 450 1486 403 294787 4344 4031 3775 1671
internal_count=301917 3605 298312 2366 3306 295946 748 597 295198 1963 1675 1249 594 426 299 277 655 370 1631 294828 41 159 450 1486 403 294787 4344 4031 3775 1671
is_linear=0
shrinkage=0.05


Tree=13
num_leaves=31
num_cat=0
split_feature=20 24 23 3 5 20 23 23 29 2 34 31 8 20 24 24 23 24 20 12 24 23 20 12 10 20 20 20 4 24
split_gain=0.367826 0.470888 0.348043 0.30781 0.25683 0.119661 0.375088 0.194499 0.108185 0.0968562 0.095896 0.0951409 0.149053 0.0888254 0.0862288 0.199217 0.0873265 0.0841886 0.104198 0.0967526 0.078034 0.107856 0.0914766 0.0790146 0.0773605 0.0755312 0.10045 0.0999103 0.138163 0.101881
threshold=0.026557524869081518 0.044295445516830741 0.032991613286325466 -0.19158260057882168 0.93065851842460201 -0.048012915579333772 0.028965854773242632 0.018171795592213203 -0.0069502354456715985 -0.22711241837813381 -0.23905674115643433 -0.27048192692651601 0.99711454777234165 0.053041248422807337 0.028904935593706996 0.013035000513289876 0.050062919972602912 -0.022130556228290462 0.030260647537435199 0.042519944727858736 -0.079554228152767012 0.011382643792916567 -0.018141101992971375 0.049734357364782815 0.035878365087425278 -0.0017324374289605217 0.0018947743378985443 0.0063134634290281854 -0.18002758138915209 -0.083583635860697211
decision_type=2 2 2 2 2 2 2 2 2 2 2 2 2 2 2 2 2 2 2 2 2 2 2 2 2 2 2 2 2 2
left_child=2 9 5 10 8 6 7 -1 -4 -2 -3 12 -7 -12 15 -6 -16 -11 19 -19 21 23 -23 -13 -9 -24 -27 28 29 -28
right_child=1 3 4 -5 14 11 -8 24 -10 17 13 20 -14 -15 16 -17 -18 18 -20 -21 -22 22 25 -25 -26 26 27 -29 -30 -31
leaf_value=-0.0016335478220259006 0.0018974310859233481 -0.0055754018451778164 0.0017331101309845491 -0.00090612889233545799 0.00028521571673769454 -0.0053490309344072437 -0.0028580498874699392 -0.00016812516391127622 -0.00075840488946899614 -2.8916725230929032e-06 -0.0019112797007612295 -0.00049208916821484193 0.00068223365407902746 -0.0040163848713661238 0.0014874464854633866 0.0017949468841098387 -0.00072372200013461811 -0.001257659418201298 -0.00035941840000682722 -0.0048227805136279627 -2.2720422732199918e-06 -0.0010275965911341392 0.00046737588868611733 -0.0032342819617418896 0.0011481699695004043 -0.00030688284829764108 0.0025050703429893005 0.00010052947647455561 0.00032302056596382781 0.00012050860176613141
leaf_weight=149 55 31 472 613 2948 21 151 237 48 1662 151 279 20 75 52 236 316 141 855 22 286304 147 2275 29 211 1078 155 2585 536 63
leaf_count=149 55 31 472 613 2948 21 151 237 48 1662 151 279 20 75 52 236 316 141 855 22 286304 147 2275 29 211 1078 155 2585 536 63
internal_value=0 -0.000501888 6.20885e-06 -0.00151509 0.000465299 -1.44519e-07 -0.000631746 -6.86439e-05 0.00150312 -0.000179591 -0.00296759 1.46519e-06 -0.00240695 -0.00260988 0.000313366 0.000397118 -0.000411274 -0.000222216 -0.000580289 -0.00173884 1.80169e-06 0.000164993 0.000206213 -0.000750283 0.000451826 0.000233315 0.000112761 0.000248244 0.000754664 0.00181595
internal_weight=0 3605 298312 870 4072 294240 748 597 520 2735 257 293492 41 226 3552 3184 368 2680 1018 163 293451 7147 6839 308 448 6692 4417 3339 754 218
internal_count=301917 3605 298312 870 4072 294240 748 597 520 2735 257 293492 41 226 3552 3184 368 2680 1018 163 293451 7147 6839 308 448 6692 4417 3339 754 218
is_linear=0
shrinkage=0.05


Tree=14
num_leaves=31
num_cat=0
split_feature=20 21 23 21 5 24 3 24 7 20 20 21 23 21 20 34 22 21 21 24 5 24 23 24 21 21 21 21 23 22
split_gain=0.331963 0.483407 0.314109 0.236912 0.14859 0.140049 0.142441 0.134204 0.114048 0.108464 0.107994 0.338517 0.175536 0.154865 0.244337 0.102749 0.091157 0.0864525 0.0858551 0.152597 0.159188 0.120725 0.224748 0.164412 0.351854 0.234541 0.150226 0.122031 0.124253 0.110781
threshold=0.026557524869081518 -0.04239791174543639 0.032991613286325466 0.034075737278507726 0.93769530799656831 0.028904935593706996 -0.035118725251166584 -0.022130556228290462 0.75590113287439975 0.022718607268630148 -0.048012915579333772 -0.12089462362059117 0.018171795592213203 -0.12089462362059117 -0.015850361298925805 -0.057895873220209657 -0.23974747571015007 -0.0042942547279739554 0.048194241697493777 0.090943310783755407 0.98889409374187054 -0.053207113989022219 0.011382643792916567 -0.047746725598380273 -0.014336243036719485 0.046551180739868837 -0.019846895454816594 -0.0083641204960777701 0.015809484002957442 0.16119398951469613
decision_type=2 2 2 2 2 2 2 2 2 2 2 2 2 2 2 2 2 2 2 2 2 2 2 2 2 2 2 2 2 2
left_child=2 15 10 4 -4 6 9 -3 -5 17 11 -1 -13 14 -12 -2 -9 -6 21 -20 -21 22 26 24 -23 27 -15 -26 -29 -24
right_child=1 7 3 8 5 -7 -8 16 -10 -11 13 12 -14 18 -16 -17 -18 -19 19 20 -22 23 29 -25 25 -27 -28 28 -30 -31
leaf_value=-0.0027151473856450903 -0.003922632891745134 1.168533073518011e-05 0.0014463282206827147 -0.0016706968262321363 0.0023646525302523204 -0.00039365409712343149 0.00018151441755422191 0.00057113369245128309 6.7360989279342139e-05 0.0001915259522174735 -0.00036040204420885783 -0.0015518704116549156 0.00042923501551318365 0.00081920453397718172 0.002428754763775898 -0.0018370698842005335 -0.00074227128474291444 0.0011053740742236009 -0.00030306853637248222 0.0049049109797037783 0.00044965078176251703 -0.0016581894930598761 0.00019350177819939685 -7.9858891595712255e-07 0.0013798206777476474 -0.0019858625836144264 -0.00081018350218633919 0.0008485565661871565 -0.00029748623101819184 -0.0011584259011441069
leaf_weight=151 81 1675 575 101 186 338 690 145 1441 231 149 149 448 167 166 218 1486 510 4305 21 443 462 15764 269072 157 154 925 291 1263 153
leaf_count=151 81 1675 575 101 186 338 690 145 1441 231 149 149 448 167 166 218 1486 510 4305 21 443 462 15764 269072 157 154 925 291 1263 153
internal_value=0 -0.000476794 5.89842e-06 0.000442034 0.000739778 0.000531969 0.000725451 -0.00030267 -4.64807e-05 0.00113032 -1.37283e-07 -0.000600159 -6.52117e-05 1.39194e-06 0.00110944 -0.00240206 -0.000625506 0.00144191 2.01418e-07 -0.000210214 0.00065129 3.68077e-06 0.000132901 -4.41766e-06 -0.000422892 -0.000116883 -0.000561001 5.13365e-05 -8.28798e-05 0.000180507
internal_weight=0 3605 298312 4072 2530 1955 1617 3306 1542 927 294240 748 597 293492 315 299 1631 696 293177 4769 464 288408 17009 271399 2327 1865 1092 1711 1554 15917
internal_count=301917 3605 298312 4072 2530 1955 1617 3306 1542 927 294240 748 597 293492 315 299 1631 696 293177 4769 464 288408 17009 271399 2327 1865 1092 1711 1554 15917
is_linear=0
shrinkage=0.05


Tree=15
num_leaves=31
num_cat=0
split_feature=20 21 22 5 21 21 20 20 5 22 21 21 31 34 5 20 21 22 2 21 27 20 20 20 22 20 20 22 21 21
split_gain=0.245746 0.440376 0.240482 0.131664 0.239062 0.119539 0.200885 0.10143 0.124937 0.0939131 0.309224 0.0873422 0.148874 0.0859898 0.084324 0.0788329 0.201845 0.507059 0.367439 0.18715 0.205545 0.242076 0.162104 0.146574 0.231654 0.242201 0.141515 0.244369 0.202884 0.321018
threshold=0.026557524869081518 -0.04239791174543639 -0.14954144213423223 0.92021079371543313 -0.02119943537000718 -0.12089462362059117 -0.015850361298925805 0.053041248422807337 0.98286911595114368 -0.23974747571015007 -0.12089462362059117 0.048194241697493777 -0.075647327728178976 -0.3043508766574477 1.0778784144024931 -0.0087960054223150692 0.0016299801709751933 -0.099269676048690178 -0.19581446714299208 -0.0022908152022412813 1.0000000180025095e-35 -0.020929797468865443 -0.016934977462350956 -0.022141338565622438 -0.072494806569149597 -0.030125773819779694 -0.0066057008035700976 -0.090294853252867846 -0.060219231976799605 -0.089771063698216233
decision_type=2 2 2 2 2 2 2 2 2 2 2 2 2 2 2 2 2 2 2 2 2 2 2 2 2 2 2 2 2 2
left_child=2 7 3 9 13 6 -4 8 -2 -1 -11 15 -13 -5 -14 16 19 18 -18 23 -21 -22 -20 24 25 -7 -17 -28 29 -29
right_child=1 -3 5 4 -6 11 -8 -9 -10 10 -12 12 14 -15 -16 26 17 -19 22 20 21 -23 -24 -25 -26 -27 27 28 -30 -31
leaf_value=0.0016862727618927667 -0.0026579199400839572 -0.00024531674208049268 -0.00034807925798279577 0.0029520519166475255 0.0011193054889305641 -4.969162376948105e-05 0.0022206505086288879 -0.0031868627731848789 0.00028091650235706548 -0.0046467620058036922 0.0013041312031737905 -0.0010026938827138456 -6.2978953632951434e-05 -0.00028734908671206429 -0.00096378115916211928 0.00015987103199586525 -0.0076539422954424634 -0.00021243050133674252 -0.00064591077386861988 0.00021753883316959243 0.00018879124615750698 0.0029567987853414916 -0.0030929472366134168 -0.00011925681933886048 -1.6842202928645922e-05 0.0011190222574247301 0.0005399894724532349 0.00080690341336419442 2.2137173287265601e-06 -0.0019533666199981494
leaf_weight=361 80 3314 146 21 561 763 159 148 66 27 114 519 4699 837 275 15725 29 6953 152 3145 160 156 122 20598 5820 1058 2115 158 233218 316
leaf_count=361 80 3314 146 21 561 763 159 148 66 27 114 519 4699 837 275 15725 29 6953 152 3145 160 156 122 20598 5820 1058 2115 158 233218 316
internal_value=0 -0.000409847 5.28982e-06 0.000562918 0.000316711 1.67438e-06 0.000991029 -0.00226445 -0.0013294 0.00125887 0.000164598 6.54879e-07 -0.000196864 -0.000208063 -0.000112782 4.38988e-06 -6.17966e-05 -0.000299685 -0.00230192 -7.34498e-06 0.000339678 0.00155528 -0.00173547 -4.98765e-05 0.000137153 0.00062933 1.46405e-05 4.95568e-06 1.13421e-07 -0.00103328
internal_weight=0 3608 298207 1921 1419 296286 305 294 146 502 141 295981 5493 858 4974 290488 38956 7256 303 31700 3461 316 274 28239 7641 1821 251532 235807 233692 474
internal_count=301815 3608 298207 1921 1419 296286 305 294 146 502 141 295981 5493 858 4974 290488 38956 7256 303 31700 3461 316 274 28239 7641 1821 251532 235807 233692 474
is_linear=0
shrinkage=0.05


Tree=16
num_leaves=31
num_cat=0
split_feature=20 21 23 20 22 21 21 23 7 22 29 21 23 30 21 20 22 21 23 20 20 2 20 23 22 2 21 23 23 20
split_gain=0.221786 0.39744 0.262803 0.225718 0.115817 0.107288 0.213881 0.24257 0.157904 0.135194 0.0972099 0.162797 0.0932919 0.272118 0.113555 0.254987 0.133645 0.204428 0.167512 0.220746 0.151254 0.136038 0.117784 0.418305 0.465166 0.237769 0.176661 0.253092 0.170454 0.156176
threshold=0.026557524869081518 -0.04239791174543639 0.03234788956078475 -0.023647940270682111 0.16119398951469613 0.034075737278507726 -0.023023910899082439 0.032991613286325466 0.84516958979283852 -0.049773424893306197 -0.057338740454146969 -0.069965916716755908 0.028965854773242632 -0.088921099617571539 -0.055557688576694471 0.0030858829439608191 -0.10617298834052936 -0.069965916716755908 0.015484896536909333 -0.020929797468865443 -0.0017963209651225564 -0.17568020187892472 -0.0087960054223150692 0.022358956719250003 -0.099269676048690178 -0.19581446714299208 -0.045933764477718186 0.016249459566469306 0.012138614230182415 -0.016934977462350956
decision_type=2 2 2 2 2 2 2 2 2 2 2 2 2 2 2 2 2 2 2 2 2 2 2 2 2 2 2 2 2 2
left_child=2 -2 12 10 5 6 -5 -8 -9 -7 -4 -12 14 -14 15 16 21 18 19 -18 -20 -1 23 26 25 -25 27 28 -16 -30
right_child=1 -3 3 4 -6 9 7 8 -10 -11 11 -13 13 -15 22 -17 17 -19 20 -21 -22 -23 -24 24 -26 -27 -28 -29 29 -31
leaf_value=0.0020341477305778118 -0.0021512291188665422 -0.0002330509072546267 0.001447137543859454 -0.0004351255320184244 -0.0012798606524503974 -0.0015192272312265847 -0.0010428681192667379 0.0020971027645162433 0.00072818441649849183 6.2062496948377485e-05 -0.00085713680082335488 0.00087567991008101291 -0.0027101502468907922 -0.00013107778843236424 -0.00083601913951519141 -0.0011080131652303827 0.00030690348150081966 0.00054450392085435262 0.00047163288160525482 -0.0014858118341774371 -0.0012117698936015783 0.00053211385811381315 8.1698029888267452e-06 -0.008290792542509735 -0.00059897172690075108 -0.0029382999079897391 -3.9364980949194891e-05 -0.0018363389047873402 0.00064610799322584221 -0.0007582065960975913
leaf_weight=206 294 3314 501 454 137 148 150 291 763 1559 162 830 123 607 753 329 285 2115 889 432 157 562 252273 25 439 122 32687 311 602 295
leaf_count=206 294 3314 501 454 137 148 150 291 763 1559 162 830 123 607 753 329 285 2115 889 432 157 562 252273 25 439 122 32687 311 602 295
internal_value=0 -0.000389355 5.02532e-06 0.00036465 0.000145189 0.000203208 0.000489677 0.000838398 0.00110613 -7.50382e-05 0.00087942 0.0005927 -1.10105e-06 -0.000565634 3.07955e-07 0.000237146 0.000332402 0.000213062 -0.000184554 -0.000773226 0.000218962 0.000935003 -3.79028e-06 -8.94236e-05 -0.00141415 -0.00384859 -6.70186e-05 -0.000527964 -0.000281355 0.000184265
internal_weight=0 3608 298207 4995 3502 3365 1658 1204 1054 1707 1493 992 293212 730 292482 4975 4646 3878 1763 717 1046 768 287507 35234 586 147 34648 1961 1650 897
internal_count=301815 3608 298207 4995 3502 3365 1658 1204 1054 1707 1493 992 293212 730 292482 4975 4646 3878 1763 717 1046 768 287507 35234 586 147 34648 1961 1650 897
is_linear=0
shrinkage=0.05


Tree=17
num_leaves=31
num_cat=0
split_feature=20 30 23 5 9 24 20 3 24 23 20 20 24 24 20 30 24 2 24 24 1 20 23 20 30 23 23 39 1 39
split_gain=0.200162 0.35346 0.23718 0.210257 0.130788 0.145362 0.0892816 0.105248 0.0854314 0.0841959 0.247222 0.0827298 0.0871086 0.101501 0.189266 0.0815379 0.0808784 0.0805156 0.0784724 0.0760431 0.153128 0.0755189 0.0802322 0.0702973 0.0823094 0.0743161 0.0777553 0.0798826 0.0701559 0.0686906
threshold=0.026557524869081518 -0.04840993874317031 0.03234788956078475 0.93065851842460201 0.055770909154034785 0.053857891715869972 0.030260647537435199 -0.17056584474661723 1.0000000180025095e-35 0.028965854773242632 -0.0028605016379458282 -0.023647940270682111 -0.042201016315581923 -0.0049944123708982038 0.014678806872400214 -0.1344803780401769 -0.090425614052603562 -0.19581446714299208 0.028904935593706996 -0.079554228152767012 -0.064979914848880119 0.006270145211724404 0.033674812978244997 -0.018141101992971375 0.026985867113926757 0.017737343587536637 0.011891313914411793 0.047926620807039064 -0.010353781364547086 0.047061692106608134
decision_type=2 2 2 2 2 2 2 2 2 2 2 2 2 2 2 2 2 2 2 2 2 2 2 2 2 2 2 2 2 2
left_child=2 4 9 -4 -2 -6 7 -3 -8 15 -11 18 -13 21 -15 29 -9 -10 -5 20 -17 22 -14 -22 -25 26 27 -26 -24 -1
right_child=1 6 3 11 5 -7 8 16 17 10 -12 12 13 14 -16 19 -18 -19 -20 -21 23 -23 28 24 25 -27 -28 -29 -30 -31
leaf_value=0.00043200819763708915 -0.0002756243855873873 -0.0035900544416758101 0.0012850140615707647 0.00085974714940297578 -0.0011374700292475658 -0.0030284804544150933 0.00025532591395332051 0.00054447708119500615 0.0014201349478103762 -0.0024262763120818168 -8.913284361878434e-05 -0.0011302431655510897 2.0355173229385495e-05 -0.0006835154808881032 0.00079004694284586549 0.0010502118006130367 -0.00070151662340120111 -0.00054952398900633863 -0.00015703734073711881 -4.7705477730860406e-06 -0.00094585639423718372 9.33185835110524e-05 0.0020379690885420133 0.00025557291102425958 -0.00031454133521031073 -0.00071563189479902783 0.00019076859541149527 -0.0023799876711015008 0.0007398493753753494 0.0022392445988389815
leaf_weight=346 154 28 533 808 227 184 1374 159 56 140 590 135 317 728 311 452 720 706 248 284803 157 1230 128 4282 401 419 1507 53 557 62
leaf_count=346 154 28 533 808 227 184 1374 159 56 140 590 135 317 728 311 452 720 706 248 284803 157 1230 128 4282 401 419 1507 53 557 62
internal_value=0 -0.000369887 4.77406e-06 0.000346418 -0.00151839 -0.00198405 -0.000156642 -0.000572262 1.98415e-05 -1.04599e-06 -0.000537352 0.000234299 0.00011442 0.000165789 -0.00024244 2.92562e-07 -0.000476132 -0.000404772 0.000620957 -6.94135e-07 0.000158978 0.00035582 0.000678053 9.9902e-05 0.000124547 -0.00011119 1.79591e-05 -0.000555662 0.000982418 0.000706637
internal_weight=0 3608 298207 4995 565 411 3043 907 2136 293212 730 4462 3406 3271 1039 292482 879 762 1056 292074 7271 2232 1002 6819 6662 2380 1961 454 685 408
internal_count=301815 3608 298207 4995 565 411 3043 907 2136 293212 730 4462 3406 3271 1039 292482 879 762 1056 292074 7271 2232 1002 6819 6662 2380 1961 454 685 408
is_linear=0
shrinkage=0.05


Tree=18
num_leaves=31
num_cat=0
split_feature=20 21 23 5 6 2 20 22 20 21 23 21 39 21 22 20 3 23 22 23 20 23 5 39 22 20 21 20 22 23
split_gain=0.180646 0.333992 0.214055 0.19027 0.149864 0.0966917 0.0856377 0.0783855 0.077004 0.222504 0.156178 0.0948563 0.182437 0.0771488 0.124807 0.0948095 0.105391 0.0829282 0.194196 0.569231 0.51851 0.241173 0.23906 0.220594 0.152232 0.395376 0.15303 0.199341 0.140916 0.216105
threshold=0.026557524869081518 -0.033280832714891177 0.03234788956078475 0.92021079371543313 0.89456661277637106 -0.28543485348123271 -0.023647940270682111 0.16119398951469613 -0.048012915579333772 -0.12089462362059117 0.018171795592213203 -0.12089462362059117 0.026583277134636891 0.048194241697493777 -0.022838625327218157 0.00090310353040556099 -0.02302993294492215 0.014609209435959164 -0.065916236521728511 0.022358956719250003 0.014104381053690693 0.015300132332185181 0.95055590991325378 0.049936871568200994 0.10621715840229105 -0.0034386406335576848 -0.069965916716755908 -0.020929797468865443 0.054143131038559722 0.018041606241306667
decision_type=2 2 2 2 2 2 2 2 2 2 2 2 2 2 2 2 2 2 2 2 2 2 2 2 2 2 2 2 2 2
left_child=2 4 8 -4 -2 -3 -5 -8 9 -1 -11 12 -10 17 -15 16 -16 24 19 20 21 -19 -21 -22 26 -26 27 -13 -20 -30
right_child=1 5 3 6 -6 -7 7 -9 11 10 -12 13 -14 14 15 -17 -18 18 28 22 23 -23 -24 -25 25 -27 -28 -29 29 -31
leaf_value=-0.0023049624882904548 -0.0024129929195623847 0.002360559502879991 0.0013333006272820361 0.00061271940848181376 -0.0007584312203846547 -0.00017745635020683756 0.00015876764336511705 -0.0010660821209873628 -0.00043722599543959687 -0.0014859814067688826 0.00037028789870278901 0.00029179685266475037 0.002015478164933639 -0.00078927948679978716 0.001607661852819635 -0.00020114250696182378 9.9308657873674216e-05 0.00083691123095437506 0.00021258579774610111 -0.0064207240180563065 -0.00088852612059853306 -2.7508597090935917e-05 -0.0017838285030770291 -0.0030811629796205255 -0.0031142862586420964 -0.00017066604300910738 -3.1290985283100687e-06 -0.0014117882634865156 -0.00034564062220711654 0.00026563712427680287
leaf_weight=140 242 38 431 1126 315 3013 3302 136 141 151 454 285 164 764 155 3029 458 908 19297 31 635 7247 269 140 140 616 251924 432 3182 2650
leaf_count=140 242 38 431 1126 315 3013 3302 136 141 151 454 285 164 764 155 3029 458 908 19297 31 635 7247 269 140 140 616 251924 432 3182 2650
internal_value=0 -0.000351393 4.53536e-06 0.000329097 -0.00147729 -0.000145846 0.000234265 0.000110315 -9.93695e-07 -0.000508681 -9.30124e-05 2.99535e-07 0.000881605 -6.20497e-07 -0.000208261 -8.63783e-05 0.000480703 2.55881e-06 7.54524e-05 -0.000120683 -4.8714e-05 6.87383e-05 -0.00226297 -0.00128462 -7.32509e-06 -0.000715781 -5.20511e-06 -0.000734631 0.000147494 -6.78824e-05
internal_weight=0 3608 298207 4995 557 3051 4564 3438 293212 745 605 292467 305 292162 4406 3642 613 287756 34359 9230 8930 8155 300 775 253397 756 252641 717 25129 5832
internal_count=301815 3608 298207 4995 557 3051 4564 3438 293212 745 605 292467 305 292162 4406 3642 613 287756 34359 9230 8930 8155 300 775 253397 756 252641 717 25129 5832
is_linear=0
shrinkage=0.05


Tree=19
num_leaves=31
num_cat=0
split_feature=20 21 23 29 24 21 20 3 30 1 2 24 24 22 24 24 11 22 24 23 23 21 30 22 23 24 23 21 24 29
split_gain=0.163033 0.301428 0.193185 0.171444 0.146507 0.151389 0.135385 0.107343 0.0977291 0.0901678 0.0872643 0.0806076 0.136835 0.0897928 0.0790419 0.0941354 0.0803638 0.0697971 0.0734054 0.220153 0.349399 0.25342 0.232912 0.203646 0.181618 0.17482 0.290201 0.303714 0.172404 0.259724
threshold=0.026557524869081518 -0.033280832714891177 0.03234788956078475 -0.057338740454146969 0.028904935593706996 -0.0026629957257697499 0.053041248422807337 -0.40807736819597329 -0.063978733700395293 -0.14243933484631069 -0.28543485348123271 0.0033657132669617788 -0.0049944123708982038 0.16119398951469613 -0.022130556228290462 -0.020984746363772729 0.03595524935216949 0.16119398951469613 -0.053207113989022219 0.022358956719250003 0.025986079928212152 -0.12089462362059117 -0.04665880916570584 -0.099269676048690178 0.011382643792916567 -0.029250270232794303 0.019830602783589463 -0.12089462362059117 -0.042758584561418282 0.017988756671124938
decision_type=2 2 2 2 2 2 2 2 2 2 2 2 2 2 2 2 2 2 2 2 2 2 2 2 2 2 2 2 2 2
left_child=2 6 17 -4 5 7 9 -5 -7 -2 -3 12 13 -10 -12 16 -16 18 24 23 22 -22 -21 25 -1 -20 -27 -28 29 -25
right_child=1 10 3 4 -6 8 -8 -9 11 -11 14 -13 -14 -15 15 -17 -18 -19 19 20 21 -23 -24 28 -26 26 27 -29 -30 -31
leaf_value=-0.00052709080919207741 -0.0022842062206166846 0.0022425315044146328 0.0011794288947925226 0.002548588580314324 -0.00082431839788759016 0.0029270500720789037 -0.0026992860411868408 0.00062431990620561936 0.00021924299411556032 -0.00052615824000443526 5.9688005928038241e-05 0.00067669887081498381 -0.00084450587935244986 -0.0011086899946860325 -0.0010553236109374735 -0.0003008327068695495 -0.0039262892212718727 -0.0011091983200560824 -5.2265643282373524e-05 -0.0072278836542474375 -0.0021897143618428215 9.8087034050814195e-05 -0.0017676062572183752 -0.00044032755846364253 0.00013873469446343847 0.0012751081163746378 0.0019507285683833535 -0.00049440745944072026 -2.7816947989283625e-06 0.0006324664889877788
leaf_weight=1091 95 38 512 77 316 30 148 1233 1798 314 1679 444 448 137 130 1174 30 142 1251 21 140 894 279 4317 16723 1017 159 631 265898 649
leaf_count=1091 95 38 512 77 316 30 148 1233 1798 314 1679 444 448 137 130 1174 30 142 1251 21 140 894 279 4317 16723 1017 159 631 265898 649
internal_value=0 -0.000333823 4.30859e-06 0.000312642 0.000213647 0.00029236 -0.00140342 0.000737426 8.82869e-05 -0.000934507 -0.000138553 5.8162e-05 -5.70836e-05 0.000125224 -0.000168584 -0.000455891 -0.00159363 -9.44009e-07 -4.07031e-07 -6.77294e-06 -0.00064754 -0.000211673 -0.00214983 -3.65241e-06 9.79569e-05 0.000402091 0.000716646 -2.28514e-06 -8.23317e-06 -0.000300126
internal_weight=0 3608 298207 4995 4483 4167 557 1310 2857 409 3051 2827 2383 1935 3013 1334 160 293212 293070 275256 1334 1034 300 273922 17814 3058 1807 790 270864 4966
internal_count=301815 3608 298207 4995 4483 4167 557 1310 2857 409 3051 2827 2383 1935 3013 1334 160 293212 293070 275256 1334 1034 300 273922 17814 3058 1807 790 270864 4966
is_linear=0
shrinkage=0.05


Tree=20
num_leaves=31
num_cat=0
split_feature=22 21 4 21 24 35 21 43 22 29 30 23 24 23 21 22 21 29 22 23 23 22 21 23 22 21 24 24 29 39
split_gain=0.0832168 0.0896623 0.0867059 0.0997217 0.0853785 0.135666 0.094167 0.0840597 0.117206 0.0671349 0.241472 0.125525 0.156535 0.116902 0.201681 0.103893 0.0951703 0.118824 0.0956332 0.157345 0.147285 0.12719 0.118131 0.163178 0.141077 0.101168 0.0852193 0.136768 0.127868 0.0807111
threshold=0.16119398951469613 0.021221229778959971 -0.66367546669855493 0.036483603589215041 0.028904935593706996 -0.20012556233254883 -0.04130180690242298 2.5000000000000004 -0.026519490590915195 0.055693698819767795 -0.057994832802311096 0.03234788956078475 0.056962556474271293 0.028965854773242632 -0.028862664523726437 -0.23974747571015007 -0.055557688576694471 0.020973028345103565 -0.093641974925768215 0.012456672603067868 0.012796990132209371 -0.069034779630043258 -0.12089462362059117 0.019830602783589463 -0.14954144213423223 -0.069965916716755908 0.028904935593706996 0.013035000513289876 -0.057338740454146969 0.060436332457176757
decision_type=2 2 2 2 2 2 2 2 2 2 2 2 2 2 2 2 2 2 2 2 2 2 2 2 2 2 2 2 2 2
left_child=2 -2 3 4 5 6 -1 -6 -9 11 15 13 26 16 -15 -11 17 18 22 -20 -21 -22 -4 25 -25 -24 27 -13 -28 -23
right_child=1 -3 9 -5 7 -7 -8 8 -10 10 -12 12 -14 14 -16 -17 -18 -19 19 20 21 29 23 24 -26 -27 28 -29 -30 -31
leaf_value=0.0042919556884347312 0.00054384043972117687 -0.00081215681817878088 0.0018460880799422029 -0.00081291332835140007 -0.00057282547668444496 0.00056963810607423601 0.0014442161336309584 0.0034610565402545036 -0.00057517882386172144 -6.7270712136886405e-05 1.4149192044373986e-05 0.00021165888002009346 0.0019312139839382358 -0.001810361031411131 -9.5008165923235691e-05 -0.002476401136785474 -4.873734218416303e-06 -0.0016692724912079539 0.00068058026387227718 -0.0011408149564079016 -0.00063366415572722423 0.00018908974206010125 0.001684734385545281 0.0011523647430585697 -0.00061295312998619787 0.00047444914386201637 0.00054052027655160969 0.0014132820651289041 -0.00096094763765345562 0.0019881407231486475
leaf_weight=42 154 585 164 141 228 582 94 35 37 61 772 3927 135 242 587 168 287495 82 857 302 527 1525 275 150 461 464 237 252 353 65
leaf_count=42 154 585 164 141 228 582 94 35 37 61 772 3927 135 242 587 168 287495 82 857 302 527 1525 275 150 461 464 237 252 353 65
internal_value=0 -0.000529581 1.65468e-06 0.000433286 0.000605893 0.000901877 0.00232367 -0.000102496 0.00138688 -1.78668e-08 -0.000408807 1.35482e-06 0.00025223 -2.84132e-06 -0.00059575 -0.00183467 -1.16014e-06 0.000217978 0.000250286 9.84069e-05 -0.000107845 3.95135e-05 0.000578922 0.000424985 -0.000179569 0.000924826 0.000204701 0.000284119 -0.000357816 0.000262636
internal_weight=0 739 300260 1159 1018 718 136 300 72 299101 1001 298100 4904 293196 829 229 292367 4872 4790 3276 2419 2117 1514 1350 611 739 4769 4179 590 1590
internal_count=300999 739 300260 1159 1018 718 136 300 72 299101 1001 298100 4904 293196 829 229 292367 4872 4790 3276 2419 2117 1514 1350 611 739 4769 4179 590 1590
is_linear=0
shrinkage=0.05


Tree=21
num_leaves=31
num_cat=0
split_feature=20 30 23 24 3 20 24 24 30 20 12 24 22 23 24 22 24 12 43 22 23 23 20 20 20 20 3 30 2 23
split_gain=0.145484 0.28764 0.161953 0.16374 0.0866953 0.0706321 0.20122 0.177389 0.0950453 0.156332 0.151432 0.0898014 0.0793114 0.38915 0.237979 0.395168 0.316561 0.327482 0.172792 0.138846 0.161495 0.138261 0.108907 0.0947916 0.113442 0.0892762 0.0826917 0.0792998 0.0745321 0.0743744
threshold=0.026557524869081518 -0.04840993874317031 0.03234788956078475 0.056962556474271293 0.01441860815886651 -0.048012915579333772 0.067009686670081461 0.021229124017666304 -0.069203705765957843 0.014104381053690693 0.043442318820365013 -0.0069421907897471704 -0.065916236521728511 0.022358956719250003 0.01144879885575978 -0.090294853252867846 -0.047746725598380273 0.036309105198147666 1.5000000000000002 -0.053191961258004773 0.016770813928214039 0.019227995825012657 0.02550368832335952 0.019457858187893192 0.00043019875981421411 0.004548007262326478 -0.20508786191639561 -0.063978733700395293 -0.16091064923965037 0.012599720852108672
decision_type=2 2 2 2 2 2 2 2 2 2 2 2 2 2 2 2 2 2 2 2 2 2 2 2 2 2 2 2 2 2
left_child=2 4 5 -4 -2 6 7 -1 9 10 -7 -11 13 14 15 25 -17 23 -15 20 22 27 29 24 -18 -10 -19 -16 -20 -14
right_child=1 -3 3 -5 -6 8 -8 -9 12 11 -12 -13 19 18 21 16 17 26 28 -21 -22 -23 -24 -25 -26 -27 -28 -29 -30 -31
leaf_value=-2.870453405719739e-05 -0.0015088993120643624 -0.00012145800793226429 0.00023682599287145774 0.0019307367257312275 0.00099398477411611849 0.00018033880711222283 0.0011384328070847666 -0.0017382606999769624 0.00018263149660832287 -0.0016251963856692979 0.0011146957387249362 0.00029873490237387955 8.8865756203814205e-06 -0.00087191772538305196 -0.00080363123871441192 9.8564244260569968e-05 -0.00067886446553092593 -0.0028489001875671559 -0.0053567933530679771 -3.7323587417299287e-06 0.00079791262044702103 0.001862832631411493 -0.00080254076814923869 -0.0011876481321899891 7.284801752912395e-05 0.0013966320850922337 -0.0014813949791722492 0.00024764361330920667 -0.0026199426276942305 0.00038523166296985998
leaf_weight=301 533 3009 4836 147 37 4873 153 306 2323 178 476 92 3002 150 190 1466 1636 181 35 268270 1045 128 302 531 724 162 284 3210 86 2333
leaf_count=301 533 3009 4836 147 37 4873 153 306 2323 178 476 92 3002 150 190 1466 1636 181 35 268270 1045 128 302 531 724 162 284 3210 86 2333
internal_value=0 -0.00031655 4.1461e-06 0.000286797 -0.00134643 -6.70148e-07 -0.000482063 -0.000890524 5.84178e-07 0.000204233 0.000263486 -0.000969635 -3.41607e-06 -0.000134413 -8.76047e-05 -0.000250429 -0.000514391 -0.000782148 -0.00200587 1.87522e-06 0.000227009 0.000249628 0.000121174 -0.000584061 -0.000448254 0.000261774 -0.00201369 0.000188896 -0.00341159 0.000173463
internal_weight=0 3579 297420 4983 570 292437 760 607 291677 5619 5349 270 286058 11106 10835 7307 4822 3356 271 274952 6682 3528 5637 2891 2360 2485 465 3400 121 5335
internal_count=300999 3579 297420 4983 570 292437 760 607 291677 5619 5349 270 286058 11106 10835 7307 4822 3356 271 274952 6682 3528 5637 2891 2360 2485 465 3400 121 5335
is_linear=0
shrinkage=0.05


Tree=22
num_leaves=31
num_cat=0
split_feature=20 30 23 24 3 20 20 11 24 24 1 20 23 24 39 20 24 24 30 20 39 29 29 3 24 6 20 23 35 20
split_gain=0.131299 0.259595 0.146163 0.147775 0.0782425 0.0675972 0.115074 0.097017 0.0845532 0.0909411 0.161039 0.140414 0.0869816 0.0645103 0.0936036 0.0637455 0.181601 0.160093 0.0857784 0.14109 0.136341 0.0914048 0.0819884 0.0842974 0.0810458 0.0741569 0.0718817 0.24613 0.218923 0.0998066
threshold=0.026557524869081518 -0.04840993874317031 0.03234788956078475 0.056962556474271293 0.01441860815886651 -0.023647940270682111 -0.027349861135242074 0.058595573718749322 -0.042201016315581923 -0.015900621768408615 -0.078862309577175133 0.0070738619511393737 0.054283673880172183 0.053857891715869972 0.039253660761426674 -0.048012915579333772 0.067009686670081461 0.021229124017666304 -0.069203705765957843 0.014104381053690693 0.038321542942069339 -0.057338740454146969 0.017668629904580842 -0.27570942215379923 -0.0069421907897471704 0.78638392854088401 -0.0087960054223150692 0.022358956719250003 -0.081447431368116427 -0.0090042123928937619
decision_type=2 2 2 2 2 2 2 2 2 2 2 2 2 2 2 2 2 2 2 2 2 2 2 2 2 2 2 2 2 2
left_child=2 4 15 5 13 6 -4 -8 -7 10 -10 -11 -12 -2 -15 16 17 -1 19 20 -17 -22 -23 -24 -21 -19 27 29 -29 -20
right_child=1 -3 3 -5 -6 8 7 -9 9 11 12 -13 -14 14 -16 18 -18 25 26 24 21 22 23 -25 -26 -27 -28 28 -30 -31
leaf_value=-2.7269307847564659e-05 -0.00087610827752268626 -0.000115385104930166 0.00027456233786592258 0.0018341998781536296 0.00094428556417492596 -0.0010518463617093707 0.00077702604574456232 0.0026957359500632567 0.0028284496712331023 -0.00069631264055772235 0.00015483594807185944 0.00023119251281669389 0.0011673240825191362 -0.0010658465643549183 -0.0029282414255827794 0.00011273142004647676 0.0010815111789270304 -0.0042056804093030782 -3.720200547047676e-05 -0.0015439365617178769 -0.001668272228786149 0.0007027778853420214 0.0052796237729489806 0.0011416400971938857 0.00028379816576489246 -0.0014141596062316759 6.1112571621131599e-06 -0.0029240691458404912 -0.00057284591753149067 -0.0005009855246687464
leaf_weight=301 263 3009 1029 147 37 150 210 96 68 607 1172 1245 259 138 132 4124 153 26 33221 178 39 1134 20 32 92 280 251070 128 437 1202
leaf_count=301 263 3009 1029 147 37 150 210 96 68 607 1172 1245 259 138 132 4124 153 26 33221 178 39 1134 20 32 92 280 251070 128 437 1202
internal_value=0 -0.000300723 3.93879e-06 0.000272457 -0.00127911 0.000224985 0.000527708 0.00137897 0.00010955 0.000161537 0.00045106 -7.28008e-05 0.000338089 -0.00143345 -0.00197635 -6.36641e-07 -0.00045796 -0.000845997 5.5497e-07 0.000194021 0.000250312 0.00071348 0.0007918 0.00273317 -0.000921153 -0.00165135 -3.24526e-06 -7.03866e-05 -0.00110551 -5.33966e-05
internal_weight=0 3579 297420 4983 570 4836 1335 306 3501 3351 1499 1852 1431 533 270 292437 760 607 291677 5619 5349 1225 1186 52 270 306 286058 34988 565 34423
internal_count=300999 3579 297420 4983 570 4836 1335 306 3501 3351 1499 1852 1431 533 270 292437 760 607 291677 5619 5349 1225 1186 52 270 306 286058 34988 565 34423
is_linear=0
shrinkage=0.05


Tree=23
num_leaves=31
num_cat=0
split_feature=20 24 6 23 24 16 21 39 20 20 22 7 21 24 11 24 23 24 21 21 23 23 21 43 8 22 24 23 21 21
split_gain=0.118497 0.241287 0.15214 0.131912 0.133367 0.0926802 0.091723 0.102264 0.0951706 0.128645 0.0977669 0.0845871 0.0778465 0.116126 0.0905124 0.0861472 0.167913 0.158005 0.313937 0.223018 0.150968 0.311958 0.215265 0.213868 0.175586 0.165483 0.153691 0.243719 0.245731 0.139308
threshold=0.026557524869081518 0.044295445516830741 0.89456661277637106 0.03234788956078475 0.056962556474271293 -0.24831269056407754 0.034075737278507726 0.071965603402134107 0.022718607268630148 -0.027349861135242074 0.16119398951469613 0.75590113287439975 0.048194241697493777 0.090548091066658412 0.034803549465782471 -0.053207113989022219 0.011382643792916567 -0.047746725598380273 -0.014336243036719485 0.046551180739868837 0.022358956719250003 0.025986079928212152 -0.12089462362059117 1.5000000000000002 0.82234161928327631 -0.099269676048690178 -0.029250270232794303 0.019830602783589463 -0.12089462362059117 -0.019846895454816594
decision_type=2 2 2 2 2 2 2 2 2 2 2 2 2 2 2 2 2 2 2 2 2 2 2 2 2 2 2 2 2 2
left_child=3 5 -3 12 6 -2 7 -5 9 -9 -11 -8 15 14 -14 16 29 18 -17 -20 25 23 -23 -22 -25 26 -19 -28 -29 -1
right_child=1 2 -4 4 -6 -7 11 8 -10 10 -12 -13 13 -15 -16 17 -18 20 19 -21 21 22 -24 24 -26 -27 27 28 -30 -31
leaf_value=0.00086428387640864919 0.0027066950997686949 -0.0020674306103770092 -0.00059304887656223099 0.00020278494525498679 0.001742489904244066 -8.7782465666058618e-05 -0.001435870643176456 4.3483532753179215e-05 -0.00053088774616804181 0.0016525723654103035 -0.0015539341345429422 1.9242931247738157e-05 -0.00019980904327874957 0.0003648419635193848 -0.00082028378355142599 -0.0015652806437806172 0.00015281148351834939 -6.0061291821912168e-05 4.1690924931015366e-05 -0.001932733158658569 -0.00076232772338433836 -0.0019048503300474657 0.00020377794162921762 -0.0077259910780759083 -0.0027176300857016554 -2.3998253856238118e-06 0.0011684354554979163 0.0017186709840704376 -0.00044960560348809636 -0.00073619013151169364
leaf_weight=160 30 247 600 2167 147 2702 106 218 108 484 25 1728 2934 734 735 472 15864 1250 1719 156 151 143 788 21 105 264480 1027 165 628 905
leaf_count=160 30 247 600 2167 147 2702 106 218 108 484 25 1728 2934 734 735 472 15864 1250 1719 156 151 143 788 21 105 264480 1027 165 628 905
internal_value=0 -0.000285687 -0.001023 3.74186e-06 0.000258834 -5.70964e-05 0.000213735 0.000383936 0.00085406 0.0010598 0.00149508 -6.48585e-05 -6.04806e-07 -0.000209256 -0.000324107 2.58472e-06 0.000112011 -4.24835e-06 -0.000412719 -0.000122581 -6.81267e-07 -0.000558382 -0.000120104 -0.00203144 -0.00355236 1.83678e-06 0.000366819 0.000660006 1.54905e-06 -0.000495743
internal_weight=0 3579 847 297420 4983 2732 4836 3002 835 727 509 1834 292437 4403 3669 288034 16929 271105 2347 1875 268758 1208 931 277 126 267550 3070 1820 793 1065
internal_count=300999 3579 847 297420 4983 2732 4836 3002 835 727 509 1834 292437 4403 3669 288034 16929 271105 2347 1875 268758 1208 931 277 126 267550 3070 1820 793 1065
is_linear=0
shrinkage=0.05


Tree=24
num_leaves=31
num_cat=0
split_feature=20 24 6 23 29 24 24 16 21 25 21 24 29 39 24 23 21 21 21 23 21 21 12 11 39 24 22 21 39 21
split_gain=0.106944 0.217762 0.137307 0.11905 0.122552 0.121058 0.127129 0.0836439 0.0780385 0.0709946 0.0702565 0.106183 0.134069 0.0881993 0.0796856 0.17952 0.205275 0.230446 0.188026 0.133471 0.139814 0.114149 0.107771 0.104395 0.0967633 0.0936649 0.0831763 0.090057 0.0899987 0.0713427
threshold=0.026557524869081518 0.044295445516830741 0.89456661277637106 0.03234788956078475 -0.057338740454146969 0.028904935593706996 0.013035000513289876 -0.24831269056407754 -0.0026629957257697499 0.66218310109659873 0.048194241697493777 0.090943310783755407 -0.012859195442577931 0.051039901907612692 -0.066614595901754212 0.011649344261092206 0.0014262584964350891 -0.0021350535811685586 -0.00070684122837526492 0.017436389175464286 0.045362882256165533 -0.019846895454816594 0.038580060431874459 0.028785336765460422 0.051039901907612692 -0.094155541504505322 -0.053191961258004773 0.014666657072704146 0.062716257398163985 0.015647358885340152
decision_type=2 2 2 2 2 2 2 2 2 2 2 2 2 2 2 2 2 2 2 2 2 2 2 2 2 2 2 2 2 2
left_child=3 7 -3 10 -5 6 8 -2 -6 -7 14 13 -13 -12 15 21 17 22 23 -18 26 -1 25 -19 29 -17 27 28 -21 -23
right_child=1 2 -4 4 5 9 -8 -9 -10 -11 11 12 -14 -15 -16 16 19 18 -20 20 -22 24 -24 -25 -26 -27 -28 -29 -30 -31
leaf_value=0.00082106967844879368 0.0025713603609862426 -0.0019640590923998328 -0.00056339643700084715 0.00098754740094097624 0.00049176598117444781 0.0014520104213583945 0.0013118209989208653 -8.3393345587257141e-05 1.1352069158345074e-05 -0.0010763511444039117 -0.00019982914747136723 0.0039489205782754456 0.00031332525700726886 -0.00096699020899718331 -2.5163136393999579e-06 0.00099426525274323003 0.00023001387007991236 0.0020840332692078282 0.00084514966994649391 0.00041507573387534395 0.0012152789553809969 -0.0011511386276867631 0.00075307861276963475 0.0048371277676493513 -0.0021167714816905593 -4.2391848627441418e-05 -0.00065292154888261795 -0.00041868920419310522 0.0034387410980545813 -0.00019457566082531149
leaf_weight=160 30 247 600 501 1231 31 256 2702 2698 266 3540 27 417 419 278095 257 3366 106 302 278 146 270 1090 51 97 1432 1182 474 27 701
leaf_count=160 30 247 600 501 1231 31 256 2702 2698 266 3540 27 417 419 278095 257 3366 106 302 278 146 270 1090 51 97 1432 1182 474 27 701
internal_value=0 -0.000271402 -0.000971854 3.55476e-06 0.000245892 0.00016299 0.000232215 -5.42416e-05 0.000161871 -0.000812448 -5.74572e-07 -0.000198793 0.000534409 -0.000281021 2.45548e-06 0.000141567 0.000221352 0.00053691 0.00157481 3.46579e-05 -0.00027743 -0.000424398 0.000365483 0.00297835 -0.000610985 0.000115347 -0.000388564 1.25525e-05 0.000682744 -0.000460561
internal_weight=0 3579 847 297420 4983 4482 4185 2732 3929 297 292437 4403 444 3959 288034 9939 8711 3238 459 5473 2107 1228 2779 157 1068 1689 1961 779 305 971
internal_count=300999 3579 847 297420 4983 4482 4185 2732 3929 297 292437 4403 444 3959 288034 9939 8711 3238 459 5473 2107 1228 2779 157 1068 1689 1961 779 305 971
is_linear=0
shrinkage=0.05


Tree=25
num_leaves=31
num_cat=0
split_feature=20 42 21 20 21 23 23 11 20 4 7 20 20 20 21 23 23 20 21 23 23 23 30 21 21 21 22 26 20 21
split_gain=0.120583 0.201742 0.109339 0.155459 0.133305 0.206091 0.192474 0.177573 0.162281 0.0875536 0.0800268 0.074055 0.183817 0.0662316 0.147057 0.168485 0.144759 0.123761 0.121836 0.373199 0.331511 0.253036 0.310555 0.195508 0.144556 0.117508 0.124456 0.113503 0.109163 0.107891
threshold=0.026557524869081518 -2.4853455068445354 -0.055557688576694471 0.0030858829439608191 -0.069965916716755908 0.01519259908963746 0.015872379647223617 0.058595573718749322 -0.020929797468865443 -0.45387255357736428 0.8368904523796642 -0.0017963209651225564 -0.015850361298925805 -0.0087960054223150692 -0.045933764477718186 0.016249459566469306 0.012138614230182415 -0.016934977462350956 0.0016299801709751933 0.016495173408210068 0.016599107293571867 0.016599107293571867 -0.04665880916570584 0.0058061851530856806 0.083989039182441855 -0.0054444195589113311 -0.093641974925768215 1.0000000180025095e-35 -0.01157350898355065 -0.0065925754400078642
decision_type=2 2 2 2 2 2 2 2 2 2 2 2 2 2 2 2 2 2 2 2 2 2 2 2 2 2 2 2 2 2
left_child=2 9 3 4 5 8 -7 -6 -1 -2 11 12 -8 14 15 16 -4 -18 19 25 -21 27 -23 -24 -25 26 -16 -20 -27 -28
right_child=1 -3 13 -5 7 6 10 -9 -10 -11 -12 -13 -14 -15 18 -17 17 -19 21 20 -22 22 23 24 -26 28 29 -29 -30 -31
leaf_value=0.00025160608742002649 -0.0035235561667482569 -0.00018984012054473217 -0.00078730496424211536 -0.00086058756887147944 0.00047228073945036433 0.0012689888334910812 0.00026436483585091616 0.002513982854101674 -0.0012854810665464391 -0.0011928647066193846 -0.00018284303418481492 -0.0014327689168130747 0.0024089152534978223 8.2422168786517157e-06 0.0012714954463081086 -0.0015362757414082711 0.00057607132196207868 -0.00067682741840799777 0.00018965678022655902 0.0027115494330027558 0.00037218772320701267 -0.0067865471448749302 -0.0015538840213867383 -0.00051299461750698339 0.00063756870048684358 0.00042785821317512093 -0.00011039117321948098 -0.00031842417914650545 -8.0811217925103469e-05 -0.00089734733661283944
leaf_weight=285 52 3352 758 316 2167 416 762 112 432 179 1172 50 115 255421 160 319 586 297 3107 158 3648 20 406 2234 311 2116 18561 1701 2103 446
leaf_count=285 52 3352 758 316 2167 416 762 112 432 179 1172 50 115 255421 160 319 586 297 3107 158 3648 20 406 2234 311 2116 18561 1701 2103 446
internal_value=0 -0.000288332 3.46741e-06 0.000217929 0.000279771 7.32735e-05 0.000286457 0.000572619 -0.000674505 -0.00171752 9.17298e-05 0.00043887 0.000545577 -8.07124e-07 -6.33939e-05 -0.000484841 -0.000280449 0.000154655 -3.97733e-05 1.01434e-05 0.000469303 -0.00021426 -0.000577029 -0.000534945 -0.000372395 -6.45833e-05 -0.000117167 9.90518e-06 0.000174307 -0.000128857
internal_weight=0 3583 298179 5827 5511 3232 2515 2279 717 231 2099 927 877 292352 36931 1960 1641 883 34971 27192 3806 7779 2971 2951 2545 23386 19167 4808 4219 19007
internal_count=301762 3583 298179 5827 5511 3232 2515 2279 717 231 2099 927 877 292352 36931 1960 1641 883 34971 27192 3806 7779 2971 2951 2545 23386 19167 4808 4219 19007
is_linear=0
shrinkage=0.05


Tree=26
num_leaves=31
num_cat=0
split_feature=21 12 23 24 23 24 23 23 23 21 23 23 26 35 0 24 24 24 21 21 23 23 0 12 7 41 23 23 21 24
split_gain=0.0631485 0.126531 0.103756 0.0795088 0.157548 0.141384 0.219079 0.145474 0.188807 0.107534 0.101313 0.149427 0.146653 0.120197 0.139795 0.128982 0.109582 0.140333 0.105601 0.155534 0.104241 0.143261 0.0984402 0.0964894 0.0960643 0.165415 0.0931598 0.181619 0.139189 0.174651
threshold=0.048194241697493777 0.051287996829042275 0.054283673880172183 -0.053207113989022219 0.011382643792916567 -0.043925263469571811 0.012697445622091302 0.013074914176664214 0.015300132332185181 -0.019846895454816594 0.014609209435959164 0.013467596694112845 1.0000000180025095e-35 -0.13783924016683743 0.050742360447819303 0.061675693344929956 -0.019598611419212594 -0.015900621768408615 -0.048785834889759482 -0.069965916716755908 0.050062919972602912 0.01953178618588015 -0.093381352305143731 0.048543172222595139 0.72000798948690869 -2.1259547228076321 0.016770813928214039 0.016249459566469306 0.0014262584964350891 -0.070388053009349291
decision_type=2 2 2 2 2 2 2 2 2 2 2 2 2 2 2 2 2 2 2 2 2 2 2 2 2 2 2 2 2 2
left_child=2 -2 3 4 9 6 -5 -8 -9 -1 11 -7 16 14 15 18 -13 -18 19 22 21 -16 -12 -6 25 -17 27 -25 -28 -30
right_child=1 -3 -4 5 23 10 7 8 -10 -11 13 12 -14 -15 20 24 17 -19 -20 -21 -22 -23 -24 26 -26 -27 28 -29 29 -31
leaf_value=0.00075531005861409397 -7.2073903074150141e-05 -0.00074667379608140934 0.00050805836836113536 0.00099957926951251713 8.5765196644112455e-05 -9.8229184834853497e-07 -0.0018174745415397012 0.00065273613091087243 -0.00041099379406280044 -0.00067883951775764371 0.00094310434479146367 0.00035276323494700214 0.00012367670100799151 0.0001367636036427955 0.0016980545730413206 0.00078877243435099016 -0.0013931891160877344 -0.00029021584017664627 -0.00021197518202641007 0.0016378258769391071 3.1637866578566374e-05 -0.0020934982827915585 -0.00024020326667426116 0.00053212603462440703 -0.00058156555078146658 -0.0047406781846228499 0.00062721850213863777 0.002618274181466468 -0.00083249091183689751 0.00059306946198971124
leaf_weight=152 5733 791 1015 319 13218 234467 164 465 4054 933 257 633 2961 22136 28 21 299 8121 1430 218 138 226 556 1230 329 38 814 114 549 353
leaf_count=152 5733 791 1015 319 13218 234467 164 465 4054 933 257 633 2961 22136 28 21 299 8121 1430 218 138 226 556 1230 329 38 814 114 549 353
internal_value=0 -0.000153866 3.40265e-06 1.66171e-06 0.000105452 -4.8474e-06 -0.000268262 -0.000354626 -0.000301537 -0.000477926 -7.5694e-10 -9.79473e-06 -0.00018178 9.51259e-05 -0.000189259 -6.74518e-05 -0.000281686 -0.000329383 6.61302e-05 0.000451863 -0.00107454 -0.00167553 0.000133856 0.000144337 -0.000914734 -0.00277257 0.000397343 0.000709076 0.000153189 -0.000274594
internal_weight=0 6524 295238 294223 17363 276860 5002 4683 4519 1085 271858 246481 12014 25377 3241 2849 9053 8420 2461 1031 392 254 813 16278 388 59 3060 1344 1716 902
internal_count=301762 6524 295238 294223 17363 276860 5002 4683 4519 1085 271858 246481 12014 25377 3241 2849 9053 8420 2461 1031 392 254 813 16278 388 59 3060 1344 1716 902
is_linear=0
shrinkage=0.05


Tree=27
num_leaves=31
num_cat=0
split_feature=21 23 29 25 31 21 7 21 21 11 29 21 31 13 31 0 25 5 2 29 23 31 21 9 21 21 21 23 23 21
split_gain=0.0569916 0.0936395 0.0891462 0.106482 0.0861483 0.0783661 0.0889462 0.0780341 0.141533 0.15373 0.152884 0.145842 0.150151 0.0939497 0.0795421 0.170322 0.0830104 0.0768423 0.0734382 0.0715088 0.0589471 0.173175 0.170985 0.122885 0.105185 0.260213 0.1012 0.10009 0.0995471 0.122761
threshold=0.048194241697493777 0.054283673880172183 0.055693698819767795 0.72443856715818533 -0.075647327728178976 -0.033280832714891177 0.865147880660316 -0.055557688576694471 -0.069965916716755908 0.058595573718749322 -0.018668227729186238 -0.089771063698216233 -0.10717292685867542 0.7524945216979827 -0.27048192692651601 -0.039809340738170072 0.66218310109659873 0.92021079371543313 -0.11995977003224036 -0.024367803541253261 0.018041606241306667 -0.13893076236731464 -0.045933764477718186 0.049356813946788446 0.0014262584964350891 0.0043370075021621586 0.0039840778522140909 0.019830602783589463 0.017182862181640193 0.0016299801709751933
decision_type=2 2 2 2 2 2 2 2 2 2 2 2 2 2 2 2 2 2 2 2 2 2 2 2 2 2 2 2 2 2
left_child=1 2 7 -4 -2 -3 -7 8 10 -10 13 12 17 -1 15 -9 -17 -12 19 -15 28 22 -22 -24 -23 26 -26 -25 -16 -30
right_child=4 5 3 -5 -6 6 -8 14 9 -11 11 -13 -14 18 20 16 -18 -19 -20 -21 21 24 23 27 25 -27 -28 -29 29 -31
leaf_value=0.0013006059674231546 -0.00059659592213700716 -0.00060224865251416152 0.00026235235676144372 -0.0011459835248378012 -7.2881063771469668e-05 0.0010730825437727501 4.2391589307338823e-05 -0.0053035700804598277 0.00038650933769898005 0.0022670283924845422 -0.0024188530698666002 -0.0011116466432220197 0.00071897553504007849 0.00028549317899157151 -1.907865660114152e-06 0.001269468718474736 -0.0013010681816729519 -0.00041120553069489579 -0.00017511914049580865 0.0017355532002677862 0.0016732630142000287 0.00032901052200814067 -0.00030810182906977379 -0.0033225193220303103 -0.0006991713866986082 0.00010331563375039256 -0.0024532883757880583 -0.0010254328307760612 1.4448142066677517e-05 -0.00053392044122268351
leaf_weight=183 913 143 214 360 5611 523 349 21 2328 114 59 520 349 991 268178 46 99 248 1062 93 89 5083 945 58 295 8427 114 260 2112 1975
leaf_count=183 913 143 214 360 5611 523 349 21 2328 114 59 520 349 991 268178 46 99 248 1062 93 89 5083 945 58 295 8427 114 260 2112 1975
internal_value=0 3.23253e-06 1.57863e-06 -0.000620925 -0.000146172 0.000482655 0.00066057 2.79545e-06 0.000182071 0.000474298 -2.15294e-05 -0.000486246 9.49872e-06 0.000213123 -9.10299e-07 -0.00109509 -0.000485588 -0.00079704 0.000120388 0.000409899 -2.78607e-07 9.53124e-05 -0.000444937 -0.0005942 0.000147789 4.3539e-05 -0.00118809 -0.0014444 -5.64019e-06 -0.000250545
internal_weight=0 295238 294223 574 6524 1015 872 293649 5947 2442 3505 1176 656 2329 287702 166 145 307 2146 1084 287536 15271 1352 1263 13919 8836 409 318 272265 4087
internal_count=301762 295238 294223 574 6524 1015 872 293649 5947 2442 3505 1176 656 2329 287702 166 145 307 2146 1084 287536 15271 1352 1263 13919 8836 409 318 272265 4087
is_linear=0
shrinkage=0.05


Tree=28
num_leaves=31
num_cat=0
split_feature=22 23 23 30 22 8 5 24 23 24 23 23 23 23 23 23 24 24 1 22 29 11 24 23 23 39 24 31 30 23
split_gain=0.0777802 0.188947 0.329256 0.10264 0.0852455 0.0712443 0.0623073 0.0592204 0.138434 0.118374 0.199236 0.139725 0.141155 0.149964 0.108854 0.0927016 0.101978 0.10445 0.104272 0.0782024 0.0924344 0.0908289 0.0769759 0.0756595 0.226727 0.0723413 0.0721579 0.0698248 0.069367 0.0681302
threshold=0.10621715840229105 0.01224076349639411 0.012073295793612193 -0.052890774410850126 0.16119398951469613 0.80154306039892276 1.0667243150960326 -0.053207113989022219 0.011649344261092206 -0.043925263469571811 0.012697445622091302 0.018452771456116953 0.013074914176664214 0.015300132332185181 0.011688130800046621 0.022358956719250003 -0.058685806198209393 -0.064560632273084936 -0.060748355823026415 0.057367544898919626 -0.010137463610461691 0.053691785478417867 -0.070388053009349291 0.016249459566469306 0.017025871940898142 0.041982333111573601 -0.075716114760284933 -0.0044360428027741408 0.047281698222414147 0.014609209435959164
decision_type=2 2 2 2 2 2 2 2 2 2 2 2 2 2 2 2 2 2 2 2 2 2 2 2 2 2 2 2 2 2
left_child=7 2 -2 -3 6 -6 -5 8 22 10 -9 12 -12 -14 25 16 17 18 23 20 -18 -22 26 -16 -25 -10 -1 28 -20 -11
right_child=1 3 -4 4 5 -7 -8 9 14 29 11 -13 13 -15 15 -17 19 -19 27 -21 21 -23 -24 24 -26 -27 -28 -29 -30 -31
leaf_value=-0.00047419852690162834 -0.00036105441796192487 0.0019323305249960708 -0.003022025170465631 0.00012253427237886072 -0.0016184376416236369 -0.00033971236284451929 -0.00098413048489258957 0.00094969570064252292 0.00070716681146967765 -7.0657589762705894e-06 -0.0017265053994090455 -0.0018001617444605923 0.00061373024493600154 -0.00034270612493252897 0.00016025542640227399 0.0010002560854811945 -0.00011862594847971351 -0.00019543094075964934 -5.6306754744553584e-05 -6.6788681590110712e-05 0.00071660939682572635 0.0029811840911861511 -0.0014628517552624568 0.0040812274308076931 0.00067679455709734751 0.0027223973692377546 0.00071763995429615821 0.00016450762513467248 -0.00091787985411745019 7.4176386698823342e-05
leaf_weight=772 465 63 155 1963 135 564 136 319 254 247694 164 159 465 3455 402 288 351 3418 2384 617 1183 46 161 56 386 54 152 6435 259 28807
leaf_count=772 465 63 155 1963 135 564 136 319 254 247694 164 159 465 3455 402 288 351 3418 2384 617 1183 46 161 56 386 54 152 6435 259 28807
internal_value=0 -0.000234979 -0.0010263 -6.34942e-05 -0.000108432 -0.000586676 5.08304e-05 2.7446e-06 9.27572e-05 -2.7696e-06 -0.000255389 -0.000345991 -0.000289376 -0.000229251 0.000129524 0.000111405 9.49288e-05 4.29439e-05 0.000125061 0.000410577 0.000596991 0.00080137 -0.000453935 0.000656652 0.00110813 0.00106049 -0.000278139 7.56378e-05 -0.000140736 1.39838e-06
internal_weight=0 3481 620 2861 2798 699 2099 298281 17218 281063 4562 4243 4084 3920 16133 15825 15537 13340 9922 2197 1580 1229 1085 844 442 308 924 9078 2643 276501
internal_count=301762 3481 620 2861 2798 699 2099 298281 17218 281063 4562 4243 4084 3920 16133 15825 15537 13340 9922 2197 1580 1229 1085 844 442 308 924 9078 2643 276501
is_linear=0
shrinkage=0.05


Tree=29
num_leaves=31
num_cat=0
split_feature=20 24 25 5 20 22 9 21 20 21 23 23 44 20 24 9 0 24 43 22 31 29 21 6 21 39 21 21 23 23
split_gain=0.0991998 0.147807 0.103992 0.116784 0.0983828 0.0977116 0.0958967 0.0847275 0.13121 0.105915 0.161603 0.165503 0.135669 0.135132 0.0747967 0.150897 0.135321 0.114634 0.0928003 0.107282 0.0691281 0.0605878 0.0804581 0.244432 0.206278 0.126556 0.111061 0.085703 0.128357 0.136007
threshold=0.026557524869081518 0.0081110176303270682 0.31792472497149432 0.92021079371543313 0.030260647537435199 -0.23974747571015007 0.083687664926305458 -0.055557688576694471 0.0030858829439608191 -0.069965916716755908 0.01519259908963746 0.015872379647223617 17.069359975550061 -0.020929797468865443 0.014601943115991502 0.044901434909346859 -0.063815975176090722 0.039653922801476622 1.5000000000000002 -0.23974747571015007 -0.024221487568836193 -0.026259453568112039 -0.0016186290811871496 0.78638392854088401 -0.0021350535811685586 0.043282527320222114 -0.0015420073411027083 -0.045933764477718186 0.015300132332185181 0.012138614230182415
decision_type=2 2 2 2 2 2 2 2 2 2 2 2 2 2 2 2 2 2 2 2 2 2 2 2 2 2 2 2 2 2
left_child=7 4 -3 -4 20 -5 -7 8 9 10 13 -12 -11 -1 15 -13 17 -16 19 -19 -2 22 24 -24 27 -26 -25 28 29 -9
right_child=1 2 3 5 -6 6 -8 21 -10 12 11 14 -14 -15 16 -17 -18 18 -20 -21 -22 -23 23 26 25 -27 -28 -29 -30 -31
leaf_value=0.00024761506430526458 -0.0015489202159750719 0.0012122981165083584 -0.0033117516791786659 0.00015781415446955845 0.00022075391790450373 -0.00070887381918090307 -0.0020818780033328012 -0.00098554138107710861 -0.000798905916272942 0.0022066876156324206 0.0011645544142206395 0.00011614913727882483 0.00042207808595466704 -0.0011550192086773408 -0.00097661407824128498 0.0018549029738736157 -0.00062604340523994583 0.00061211628129563501 0.0014351647613614535 -0.0019662140277712475 -0.00026530774483473967 3.3157735694995731e-06 -0.0050284605833699715 -0.0024325175440801524 0.0010407220878312169 0.0046245915495092054 -0.00026970598469781962 -5.0217680660212333e-06 -0.0014664060660751054 0.00051622738356873392
leaf_weight=285 126 69 44 266 1495 806 151 269 316 112 416 640 2167 432 121 155 710 180 241 52 626 283873 28 61 107 32 2202 5175 262 343
leaf_count=285 126 69 44 266 1495 806 151 269 316 112 416 640 2167 432 121 155 710 180 241 52 626 283873 28 61 107 32 2202 5175 262 343
internal_value=0 -0.00026152 -0.000677998 -0.000780943 -1.38939e-05 -0.000689892 -0.000925513 3.14472e-06 0.000191933 0.000248747 6.46824e-05 0.00025346 0.000509782 -0.000597487 7.28903e-05 0.000455151 -0.00016016 0.000396704 0.000748018 3.42147e-05 -0.000480381 -6.18094e-07 -0.000132322 -0.000385453 -3.86048e-05 0.00186579 -0.000328005 -8.23658e-05 -0.000540324 -0.000143864
internal_weight=0 3583 1336 1267 2247 1223 957 298179 5827 5511 3232 2515 2279 717 2099 795 1304 594 473 232 752 292352 8479 2291 6188 139 2263 6049 874 612
internal_count=301762 3583 1336 1267 2247 1223 957 298179 5827 5511 3232 2515 2279 717 2099 795 1304 594 473 232 752 292352 8479 2291 6188 139 2263 6049 874 612
is_linear=0
shrinkage=0.05


Tree=30
num_leaves=31
num_cat=0
split_feature=20 24 23 24 25 5 22 9 20 3 21 24 7 20 4 20 20 36 23 8 24 41 21 24 29 8 24 23 24 23
split_gain=0.0772784 0.141217 0.098699 0.101697 0.085215 0.0960454 0.115818 0.0813648 0.0805544 0.0952139 0.0723696 0.0830405 0.102281 0.0916386 0.0679421 0.0658321 0.0967427 0.0656206 0.0585372 0.0604485 0.0579928 0.0530562 0.0491591 0.101106 0.0900676 0.0644603 0.0624712 0.124414 0.115959 0.193573
threshold=0.026557524869081518 0.0081110176303270682 0.032991613286325466 0.056962556474271293 0.35554806823026835 0.92021079371543313 -0.23974747571015007 0.067222821098486873 0.030260647537435199 -0.087182422550589389 0.034075737278507726 0.028904935593706996 0.81503088295805382 -0.048012915579333772 -0.36559998738569593 -0.027349861135242074 0.0069154136767653465 0.51794918998527262 0.017025871940898142 0.71136088200541736 -0.030348599775888382 -1.1129977811849325 0.048194241697493777 0.090548091066658412 -0.015468192103293915 1.0254762219216891 -0.053207113989022219 0.011382643792916567 -0.043925263469571811 0.012697445622091302
decision_type=2 2 2 2 2 2 2 2 2 2 2 2 2 2 2 2 2 2 2 2 2 2 2 2 2 2 2 2 2 2
left_child=2 8 22 10 -3 -6 -7 -8 9 -2 11 12 15 21 -12 -4 -17 -5 19 -11 -16 -13 26 25 -25 -24 27 -1 29 -28
right_child=1 4 3 17 5 6 7 -9 -10 18 14 13 -14 -15 20 16 -18 -19 -20 -21 -22 -23 23 24 -26 -27 28 -29 -30 -31
leaf_value=-0.00042272616321380126 -0.0023919420894734297 0.00086975614264294321 -6.07833010720212e-05 0.0030583956776051007 -0.0031288040517942935 0.00027936688273787403 -0.00061811860979811561 -0.0016343974422968731 0.00022464019498004179 0.0030937754371691321 -0.0010240609893215546 0.00070401420988224113 0.00030790461950102097 -0.00078057014569973653 0.00073708951668634997 0.0019831237264364412 0.00034373565903586176 0.00080190805379154017 -0.0004946399073657052 0.00021430727608764055 -0.00010729728924028198 -0.0015503169153816998 -0.00043236972560914411 0.0033911100006662311 0.00027675928523374012 -2.5329035106691772e-05 0.00096549252154272543 0.00013071791370225158 4.8777044466298862e-07 -0.00034298532510332726
leaf_weight=1085 56 87 91 48 41 254 653 282 1482 21 166 261 1301 288 249 266 136 98 550 138 1109 29 2297 24 710 1687 303 15843 267726 4209
leaf_count=1085 56 87 91 48 41 254 653 282 1482 21 166 261 1301 288 249 266 136 98 550 138 1109 29 2297 24 710 1687 303 15843 267726 4209
internal_value=0 -0.000231404 2.80959e-06 0.000248202 -0.000642509 -0.000749474 -0.000667428 -0.000924633 9.5504e-06 -0.000407133 0.000199652 0.000372384 0.000540307 -0.000148816 -6.91939e-05 0.00115361 0.0014285 0.00154377 -0.000250364 0.000594614 4.75277e-05 0.000478581 -5.65474e-07 -0.000160661 0.000378591 -0.000260011 2.04662e-06 9.52449e-05 -3.74853e-06 -0.000255115
internal_weight=0 3564 297926 4042 1317 1230 1189 935 2247 765 3896 2372 1794 578 1524 493 402 146 709 159 1358 290 293884 4718 734 3984 289166 16928 272238 4512
internal_count=301490 3564 297926 4042 1317 1230 1189 935 2247 765 3896 2372 1794 578 1524 493 402 146 709 159 1358 290 293884 4718 734 3984 289166 16928 272238 4512
is_linear=0
shrinkage=0.05


Tree=31
num_leaves=31
num_cat=0
split_feature=20 42 22 21 21 22 4 4 24 24 21 29 29 24 22 21 24 21 20 21 21 21 24 24 24 20 22 22 20 39
split_gain=0.0697438 0.130803 0.0855397 0.238069 0.349444 0.114389 0.112701 0.10542 0.093008 0.0839499 0.150056 0.0799104 0.0931231 0.074157 0.0729188 0.0699335 0.085591 0.0652989 0.122917 0.129454 0.117093 0.0610946 0.140116 0.274033 0.204388 0.166782 0.177925 0.174187 0.129929 0.147613
threshold=0.026557524869081518 -2.393444111017057 -0.099269676048690178 0.0039840778522140909 0.015578588584127114 -0.14954144213423223 -0.15181348868530473 -0.27531327625141006 0.067009686670081461 0.061675693344929956 -0.12089462362059117 0.020318200443049949 0.017668629904580842 -0.022130556228290462 -0.12321956859694271 -0.02119943537000718 -0.029250270232794303 -0.069965916716755908 -0.020929797468865443 -0.089771063698216233 -0.055557688576694471 -0.038746673014154374 0.077128972652798736 0.083742192990705414 0.074422505686130194 -0.0085624648825309065 -0.0066346574119062309 -0.059305428911512303 -0.0025471241434123627 0.056528127648059888
decision_type=2 2 2 2 2 2 2 2 2 2 2 2 2 2 2 2 2 2 2 2 2 2 2 2 2 2 2 2 2 2
left_child=2 -2 3 7 6 -6 -5 9 14 11 -11 12 -1 -3 15 -9 -17 18 -4 -20 -19 22 24 -24 25 26 -22 28 -27 -30
right_child=1 13 17 4 5 -7 -8 8 -10 10 -12 -13 -14 -15 -16 16 -18 20 19 -21 21 -23 23 -25 -26 27 -28 -29 29 -31
